<?xml version="1.0"?>
<opencv_storage>
<svm type_id="opencv-ml-svm">
  <svm_type>C_SVC</svm_type>
  <kernel><type>LINEAR</type></kernel>
  <C>1.</C>
  <term_criteria><epsilon>2.2204460492503131e-016</epsilon>
    <iterations>100</iterations></term_criteria>
  <var_all>100</var_all>
  <var_count>100</var_count>
  <class_count>7</class_count>
  <class_labels type_id="opencv-matrix">
    <rows>1</rows>
    <cols>7</cols>
    <dt>i</dt>
    <data>
      1 2 3 4 5 6 7</data></class_labels>
  <sv_total>21</sv_total>
  <support_vectors>
    <_>
      3.46944695e-018 3.46944695e-018 3.46944695e-018 2.15052012e-002
      1.48432657e-001 -5.30617535e-002 3.46944695e-018 3.46944695e-018
      3.46944695e-018 3.46944695e-018 3.46944695e-018 3.46944695e-018
      5.30617535e-002 1.48432657e-001 6.65387735e-002 0. 0.
      2.72603463e-002 3.46944695e-018 3.46944695e-018 3.46944695e-018
      3.46944695e-018 5.30617535e-002 1.48432657e-001 1.48432657e-001 0.
      0. 2.72603463e-002 3.46944695e-018 3.46944695e-018 3.46944695e-018
      1.48432657e-001 1.48432657e-001 1.03229813e-001 0. 0. 0.
      2.72603463e-002 3.46944695e-018 3.46944695e-018 3.46944695e-018
      2.15052012e-002 1.03229813e-001 0. 0. 0. 0. 2.15052012e-002
      5.30617535e-002 3.46944695e-018 3.46944695e-018 3.46944695e-018
      1.03229813e-001 0. 0. 0. 0. 6.65387735e-002 1.48432657e-001
      3.46944695e-018 3.46944695e-018 3.46944695e-018 1.16876103e-001 0.
      0. 0. 0. 2.13359296e-002 1.26927450e-001 3.46944695e-018
      3.46944695e-018 3.46944695e-018 2.73167714e-002 4.52028401e-002 0.
      0. 0. 1.03229813e-001 -4.52028401e-002 3.46944695e-018
      3.46944695e-018 3.46944695e-018 3.46944695e-018 1.27096727e-001
      4.52028401e-002 0. 0. 5.44642620e-002 -4.52028401e-002
      3.46944695e-018 3.46944695e-018 3.46944695e-018 3.46944695e-018
      9.53708962e-002 4.52028401e-002 4.52028401e-002 2.73167640e-002
      -4.52028401e-002 -4.52028401e-002 3.46944695e-018</_>
    <_>
      -4.16333634e-017 -4.16333634e-017 -4.16333634e-017
      -4.16333634e-017 1.91479791e-002 -1.84411749e-001 -4.16333634e-017
      -4.16333634e-017 -4.16333634e-017 -4.16333634e-017
      -4.16333634e-017 -4.16333634e-017 9.53543633e-002 9.53543633e-002
      5.11469506e-002 -1.08205356e-001 -7.01664239e-002 -4.16333634e-017
      -4.16333634e-017 -4.16333634e-017 -4.16333634e-017
      -4.16333634e-017 9.53543633e-002 9.53543633e-002 9.53543633e-002
      -1.08205356e-001 -1.08205356e-001 1.91479791e-002 -4.16333634e-017
      -4.16333634e-017 -4.16333634e-017 -4.16333634e-017 1.08205356e-001
      -1.31080123e-002 -1.91479791e-002 0. -1.08205356e-001
      9.53543633e-002 -4.16333634e-017 -4.16333634e-017 -4.16333634e-017
      1.08205356e-001 -1.31080123e-002 -9.53543633e-002 -9.53543633e-002
      0. -1.08205356e-001 9.53543633e-002 1.91479791e-002
      -4.16333634e-017 -4.16333634e-017 1.08205356e-001 8.22463557e-002
      0. -1.91479791e-002 0. 0. 5.11469506e-002 9.53543633e-002
      1.91479791e-002 -4.16333634e-017 -4.16333634e-017 9.53543633e-002
      -1.08205356e-001 0. 0. 0. 3.80389392e-002 9.53543633e-002
      9.53543633e-002 -4.16333634e-017 1.08205356e-001 1.08205356e-001
      1.21313371e-001 0. 0. 0. 8.22463557e-002 8.22463557e-002
      1.91479791e-002 -4.16333634e-017 1.08205356e-001 1.08205356e-001
      7.01664239e-002 2.59590056e-002 -9.53543633e-002 -9.53543633e-002
      -1.31080123e-002 6.03996636e-003 1.91479791e-002 -4.16333634e-017
      -4.16333634e-017 -4.16333634e-017 -4.16333634e-017
      -8.22463557e-002 -8.22463557e-002 -1.21313371e-001
      -1.31080123e-002 6.03996636e-003 1.91479791e-002</_>
    <_>
      2.77555756e-017 2.77555756e-017 2.77555756e-017 1.98104680e-002
      7.84098208e-002 -1.98104680e-002 4.09824811e-002 2.77555756e-017
      2.77555756e-017 2.77555756e-017 2.77555756e-017 2.77555756e-017
      2.77555756e-017 1.98104680e-002 3.34334746e-002 -1.98104680e-002
      -7.84098208e-002 2.77555756e-017 2.77555756e-017 2.77555756e-017
      2.77555756e-017 2.77555756e-017 2.77555756e-017 7.22853914e-002
      1.70039222e-001 0. 0. 9.16294008e-002 2.77555756e-017
      2.77555756e-017 2.77555756e-017 2.77555756e-017 5.24749234e-002
      8.41308236e-002 0. 0. 0. 1.70039222e-001 2.77555756e-017
      2.77555756e-017 2.77555756e-017 2.77555756e-017 9.56232622e-002 0.
      0. 0. 0. 1.70039222e-001 1.98104680e-002 2.77555756e-017
      5.24749234e-002 9.16294008e-002 9.56232622e-002 0. 0. 0. 0.
      8.59083980e-002 5.24749234e-002 2.77555756e-017 9.16294008e-002
      1.50228754e-001 1.70039222e-001 0. 0. 0. 0. 1.14924414e-002
      9.16294008e-002 2.77555756e-017 2.77555756e-017 7.84098208e-002
      7.84098208e-002 -5.72100701e-003 -5.85993491e-002 0. 0.
      -2.13056454e-003 -7.44159520e-002 2.77555756e-017 2.77555756e-017
      1.98104680e-002 1.98104680e-002 2.77555756e-017 -9.56232622e-002
      -1.17564298e-001 -1.17564298e-001 -7.44159520e-002
      -7.44159520e-002 2.77555756e-017 2.77555756e-017 2.77555756e-017
      2.77555756e-017 2.77555756e-017 -9.56232622e-002 -9.56232622e-002
      -7.44159520e-002 -7.44159520e-002 -7.44159520e-002 2.77555756e-017</_>
    <_>
      -6.93889390e-018 -6.93889390e-018 -6.93889390e-018
      -6.93889390e-018 -6.93889390e-018 -1.05020888e-001
      -6.93889390e-018 -6.93889390e-018 -6.93889390e-018
      -6.93889390e-018 -6.93889390e-018 -6.93889390e-018
      -6.93889390e-018 -6.93889390e-018 -3.45162451e-002
      -1.05020888e-001 -8.20100680e-002 -6.93889390e-018
      -6.93889390e-018 -6.93889390e-018 -6.93889390e-018
      -6.93889390e-018 -6.93889390e-018 -6.93889390e-018
      -6.93889390e-018 -1.05020888e-001 -1.05020888e-001
      -6.93889390e-018 -6.93889390e-018 -6.93889390e-018
      -6.93889390e-018 2.13754196e-002 3.50070298e-002 -1.24867903e-002
      -1.81819648e-002 0. 0. 7.14486241e-002 -6.93889390e-018
      -6.93889390e-018 5.99169843e-002 8.12924057e-002 3.37985829e-002
      0. 0. 0. 0. 1.05020888e-001 1.05020888e-001 6.31104410e-002
      5.73007502e-002 5.73007502e-002 2.25200355e-002 0. 0. 0. 0.
      7.05046430e-002 1.05020888e-001 1.05020888e-001 2.37284843e-002
      2.37284843e-002 2.37284843e-002 -3.67657207e-002 0. 0. 0.
      2.30108202e-002 1.05020888e-001 7.86761716e-002 -6.93889390e-018
      -6.93889390e-018 -6.93889390e-018 -5.75270653e-002
      -8.96305889e-002 -2.63447184e-002 -5.00732027e-002 7.45386304e-003
      -7.93643761e-003 -6.93889390e-018 -6.93889390e-018
      -6.93889390e-018 -6.93889390e-018 -2.30108202e-002
      -5.75270653e-002 -1.05020888e-001 -1.05020888e-001
      -4.74938191e-002 -4.74938191e-002 -6.93889390e-018
      -6.93889390e-018 -6.93889390e-018 -6.93889390e-018
      -6.93889390e-018 -5.75270653e-002 -5.75270653e-002
      -4.74938191e-002 -4.74938191e-002 -4.74938191e-002
      -6.93889390e-018</_>
    <_>
      -2.77555756e-017 -2.77555756e-017 -2.77555756e-017
      -2.77555756e-017 -2.77555756e-017 -9.33530703e-002
      -1.29146194e-002 -2.77555756e-017 -2.77555756e-017
      -2.77555756e-017 -2.77555756e-017 -2.77555756e-017
      -2.77555756e-017 -2.77555756e-017 -2.77555756e-017
      -9.33530703e-002 -4.98130769e-002 -2.77555756e-017
      -2.77555756e-017 -2.77555756e-017 -2.77555756e-017
      -2.77555756e-017 -2.77555756e-017 -2.77555756e-017 5.43551110e-002
      -3.89979593e-002 -9.33530703e-002 -2.77555756e-017
      -2.77555756e-017 -2.77555756e-017 -2.77555756e-017 6.49637729e-002
      9.33530703e-002 4.35399897e-002 0. 0. 0. 5.38500883e-002
      4.48581316e-002 4.48581316e-002 2.54607927e-002 9.33530703e-002
      5.64546101e-002 0. 0. 0. 0. 9.33530703e-002 9.33530703e-002
      9.33530703e-002 2.54607927e-002 9.33530703e-002 5.64546101e-002 0.
      0. 0. 0. 3.95029821e-002 4.84949350e-002 4.84949350e-002
      1.96006186e-002 7.85009414e-002 9.33530703e-002 0. 0. 0.
      -8.99195392e-003 -3.68984602e-002 -2.77555756e-017
      -2.77555756e-017 -2.77555756e-017 8.99195392e-003 2.83892937e-002
      2.43522841e-002 -4.48581316e-002 -8.27444047e-002 -9.33530703e-002
      -3.68984602e-002 -3.68984602e-002 -2.77555756e-017
      -2.77555756e-017 -2.77555756e-017 -2.77555756e-017
      -4.35399897e-002 -5.64546101e-002 -9.33530703e-002
      -9.33530703e-002 -3.68984602e-002 -3.68984602e-002
      -2.77555756e-017 -2.77555756e-017 -2.77555756e-017
      -2.77555756e-017 -2.77555756e-017 -5.64546101e-002
      -5.64546101e-002 -3.68984602e-002 -3.68984602e-002
      -3.68984602e-002 -2.77555756e-017</_>
    <_>
      3.29597460e-017 3.29597460e-017 3.29597460e-017 3.29597460e-017
      3.29597460e-017 -1.22795492e-001 3.29597460e-017 3.29597460e-017
      3.29597460e-017 3.29597460e-017 3.29597460e-017 3.29597460e-017
      3.29597460e-017 5.18330485e-002 3.80049273e-002 0. 1.33203911e-002
      1.22795492e-001 3.29597460e-017 3.29597460e-017 3.29597460e-017
      3.29597460e-017 1.22795492e-001 1.22795492e-001 1.22795492e-001 0.
      0. 1.22795492e-001 6.82446035e-003 3.29597460e-017 3.29597460e-017
      6.82446035e-003 1.22795492e-001 9.12864953e-002 0. 0. 0.
      1.22795492e-001 7.09624439e-002 3.29597460e-017 3.29597460e-017
      6.82446035e-003 9.12864953e-002 0. 0. 0. 0. 1.22795492e-001
      7.09624439e-002 6.82446035e-003 3.29597460e-017 6.82446035e-003
      9.12864953e-002 0. 0. 0. 0. 4.48293872e-002 6.82446035e-003
      6.82446035e-003 3.29597460e-017 6.82446035e-003 1.22795492e-001 0.
      0. 0. 0. 1.33203911e-002 6.82446035e-003 3.29597460e-017
      3.29597460e-017 3.29597460e-017 1.22795492e-001 3.15089971e-002 0.
      0. 0. 2.03240495e-002 -2.46845372e-002 3.29597460e-017
      3.29597460e-017 3.29597460e-017 2.59538572e-002 1.09475099e-001
      3.15089971e-002 0. -7.09624439e-002 -2.46845372e-002
      -3.15089971e-002 3.29597460e-017 3.29597460e-017 3.29597460e-017
      3.29597460e-017 1.03666097e-001 1.23796016e-002 -3.94534469e-002
      -3.15089971e-002 -3.15089971e-002 -3.15089971e-002 3.29597460e-017</_>
    <_>
      -7.63278329e-017 -7.63278329e-017 -7.63278329e-017
      -1.65460333e-002 -1.80346683e-001 -4.89455462e-002
      -7.63278329e-017 -7.63278329e-017 -7.63278329e-017
      -7.63278329e-017 -7.63278329e-017 2.14657895e-002 -1.25003625e-002
      -6.37218878e-002 -6.37218878e-002 -6.37218878e-002
      -8.51876736e-002 -4.28769104e-002 -7.63278329e-017
      -7.63278329e-017 2.14657895e-002 2.14657895e-002 5.12215234e-002
      0. -2.20555160e-002 -6.37218878e-002 -8.51876736e-002
      -4.06009331e-002 -7.63278329e-017 -7.63278329e-017
      -7.63278329e-017 -9.74349827e-002 -9.74349827e-002
      -8.36700723e-002 -2.27597868e-003 -2.20555160e-002
      -6.37218878e-002 5.45580722e-002 -7.63278329e-017 -7.63278329e-017
      -7.63278329e-017 -4.90288027e-002 -1.18900776e-001
      -1.18900776e-001 -9.74349827e-002 0. -2.20555160e-002
      4.90269922e-002 -7.24833310e-002 -7.63278329e-017 -7.63278329e-017
      6.37218878e-002 -2.14657895e-002 -6.31321594e-002 -2.27597868e-003
      0. 0. -2.20555160e-002 -6.37218878e-002 2.27597868e-003
      -7.63278329e-017 -7.63278329e-017 -1.32094845e-002
      -6.31321594e-002 -2.14657895e-002 0. 0. 0. -5.50948223e-003
      1.18900776e-001 -7.63278329e-017 8.51876736e-002 3.39661539e-002
      0. 0. 0. 0. 0. 1.82622656e-001 7.91730508e-002 -7.63278329e-017
      8.51876736e-002 8.51876736e-002 -9.74349827e-002 -9.74349827e-002
      -9.74349827e-002 -9.74349827e-002 -2.42471248e-002 1.01228572e-001
      6.54081404e-002 -7.63278329e-017 -7.63278329e-017 4.16663699e-002
      -5.24320640e-002 -1.61156863e-001 -1.19490497e-001
      -4.68578525e-002 8.51876736e-002 8.74636546e-002 2.27597868e-003</_>
    <_>
      -5.98479599e-017 -5.98479599e-017 -5.98479599e-017 2.17502583e-002
      -7.29573146e-002 -2.17502583e-002 7.29573146e-002 -5.98479599e-017
      -5.98479599e-017 -5.98479599e-017 -5.98479599e-017
      -5.98479599e-017 -6.58667609e-002 -9.10160542e-002
      -7.29573146e-002 -5.36222719e-002 -9.46543887e-002
      -7.64937252e-002 -5.98479599e-017 -5.98479599e-017
      -5.98479599e-017 -5.98479599e-017 -6.58667609e-002
      -7.03736953e-003 0. 0. 0. 7.48496037e-003 -5.98479599e-017
      -5.98479599e-017 -5.98479599e-017 -1.78633079e-001
      -6.06596433e-002 0. 0. 0. 0. 1.02139354e-001 -5.98479599e-017
      -5.98479599e-017 -5.98479599e-017 -6.58667609e-002 0. 0. 0. 0. 0.
      1.12766311e-001 3.27716284e-002 -5.98479599e-017 8.39786828e-002
      8.39786828e-002 0. 0. 0. 0. 0. 0. -6.06596433e-002
      -5.98479599e-017 1.17973432e-001 1.25010803e-001 0. 0. 0. 0. 0. 0.
      5.20712137e-003 -5.98479599e-017 3.39947492e-002 9.46543887e-002
      5.83818033e-002 -8.39786828e-002 -7.03736953e-003 0. 0.
      -7.03736953e-003 -5.98479599e-017 -5.98479599e-017
      -5.98479599e-017 5.36222719e-002 5.36222719e-002 -1.78633079e-001
      -1.78633079e-001 -1.05675764e-001 -1.05675764e-001
      -2.52512153e-002 -5.98479599e-017 -5.98479599e-017
      -5.98479599e-017 -5.98479599e-017 -5.98479599e-017
      -1.12766311e-001 -1.78633079e-001 -1.78633079e-001
      -6.58667609e-002 -5.98479599e-017 -5.98479599e-017
      -5.98479599e-017</_>
    <_>
      3.81639165e-017 3.81639165e-017 3.81639165e-017 -7.95400795e-003
      -8.33947957e-002 -2.99512111e-002 3.81639165e-017 3.81639165e-017
      3.81639165e-017 3.81639165e-017 3.81639165e-017 3.81639165e-017
      -4.99629416e-002 -8.33947957e-002 -8.33947957e-002
      -8.33947957e-002 -8.33947957e-002 -2.99512111e-002 3.81639165e-017
      3.81639165e-017 3.81639165e-017 3.81639165e-017 -5.34435883e-002
      -8.33947957e-002 -8.33947957e-002 -8.33947957e-002
      -8.33947957e-002 -2.99512111e-002 3.81639165e-017 3.81639165e-017
      3.81639165e-017 -4.68908362e-002 -2.97102425e-002 -2.97102425e-002
      -4.80141118e-003 0. 0. 3.55378129e-002 3.81639165e-017
      3.81639165e-017 3.50863673e-002 1.81467440e-002 -1.18044671e-002
      0. 0. 0. 0. 3.34318578e-002 3.34318578e-002 6.67889193e-002
      2.97102425e-002 2.97102425e-002 -5.36845587e-002 0. 0. 0. 0. 0. 0.
      7.99141526e-002 1.18044671e-002 1.18044671e-002 -2.95813978e-002
      -4.96083274e-002 0. 0. 0. 0. 7.95400795e-003 6.62142038e-002
      3.81639165e-017 3.81639165e-017 3.81639165e-017 -8.33947957e-002
      -7.02904388e-002 -1.71805937e-002 -2.89850608e-002
      -2.89850608e-002 4.13053744e-002 3.81639165e-017 3.81639165e-017
      3.81639165e-017 3.81639165e-017 -8.33947957e-002 -8.33947957e-002
      -8.33947957e-002 -8.33947957e-002 -4.54895794e-002 3.81639165e-017
      3.81639165e-017 3.81639165e-017 3.81639165e-017 3.81639165e-017
      -3.34318578e-002 -8.33947957e-002 -8.33947957e-002
      -5.34435883e-002 3.81639165e-017 3.81639165e-017 3.81639165e-017</_>
    <_>
      -5.11743425e-017 -5.11743425e-017 -5.11743425e-017
      -5.09733222e-002 -8.66991132e-002 -2.54310835e-002
      -5.11743425e-017 -5.11743425e-017 -5.11743425e-017
      -5.11743425e-017 -5.11743425e-017 -5.11743425e-017
      -5.09733222e-002 -8.66991132e-002 -8.66991132e-002
      -8.66991132e-002 -8.66991132e-002 -1.52197443e-002
      -5.11743425e-017 -5.11743425e-017 -5.11743425e-017
      -5.11743425e-017 -6.12680316e-002 -8.17134455e-002
      -9.94102214e-004 -5.97977173e-003 -8.66991132e-002
      -1.52197443e-002 -5.11743425e-017 -5.11743425e-017
      -5.11743425e-017 0. 0. 0. 0. 0. -4.98566963e-003 -2.77893909e-004
      1.49418507e-002 1.49418507e-002 1.49418507e-002 2.54310835e-002 0.
      0. 0. 0. 0. 3.57257910e-002 3.57257910e-002 8.66991132e-002
      1.99275203e-002 8.66991132e-002 0. 0. 0. 0. 0. -1.49418507e-002
      -1.49418507e-002 6.14625551e-002 5.97977173e-003 7.27513656e-002
      0. 0. 0. 0. -4.98566963e-003 -8.66991132e-002 -3.57257910e-002
      -5.11743425e-017 -5.11743425e-017 -5.11743425e-017
      -1.02113383e-002 -1.99275203e-002 -1.99275203e-002
      -8.57050121e-002 -8.66991132e-002 -8.66991132e-002
      -5.11743425e-017 -5.11743425e-017 -5.11743425e-017
      -5.11743425e-017 -5.11743425e-017 -8.66991132e-002
      -8.66991132e-002 -8.66991132e-002 -8.66991132e-002
      -2.05060448e-002 -5.11743425e-017 -5.11743425e-017
      -5.11743425e-017 -5.11743425e-017 -5.11743425e-017
      -3.57257910e-002 -8.66991132e-002 -8.66991132e-002
      -6.12680316e-002 -5.11743425e-017 -5.11743425e-017
      -5.11743425e-017</_>
    <_>
      2.08166817e-017 2.08166817e-017 2.08166817e-017 -6.51461706e-002
      -3.11234087e-001 -1.42789558e-001 2.08166817e-017 2.08166817e-017
      2.08166817e-017 2.08166817e-017 2.08166817e-017 2.08166817e-017
      -1.68444544e-001 -1.87154651e-001 -5.13099767e-002 0. 0.
      9.85672846e-002 2.08166817e-017 2.08166817e-017 2.08166817e-017
      2.08166817e-017 1.42789558e-001 0. 0. 0. 0. 9.85672846e-002
      5.13099767e-002 2.08166817e-017 2.08166817e-017 -2.59924114e-001
      0. 0. 0. 0. 0. 9.85672846e-002 1.87154651e-001 2.08166817e-017
      2.08166817e-017 -1.17134571e-001 0. 0. 0. 0. 0. 2.46087924e-001
      1.22008480e-001 5.13099767e-002 2.08166817e-017 5.13099767e-002 0.
      0. 0. 0. 0. 0. -1.24079444e-001 5.13099767e-002 2.08166817e-017
      5.13099767e-002 0. 0. 0. 0. 0. 0. -1.23043969e-001 2.08166817e-017
      2.08166817e-017 2.08166817e-017 2.77812988e-001 0. 0. 0. 0.
      -1.24079444e-001 5.13099767e-002 2.08166817e-017 2.08166817e-017
      2.08166817e-017 1.23043962e-001 0. 0. 0. -1.24079444e-001
      1.78888626e-002 2.08166817e-017 2.08166817e-017 2.08166817e-017
      2.08166817e-017 2.08166817e-017 6.51461706e-002 0.
      -1.24079444e-001 -6.51461706e-002 2.08166817e-017 2.08166817e-017
      2.08166817e-017</_>
    <_>
      -2.77555756e-017 -2.77555756e-017 -2.77555756e-017 1.15787581e-001
      1.11175135e-001 9.94574353e-002 7.19550550e-002 -2.77555756e-017
      -2.77555756e-017 -2.77555756e-017 -2.77555756e-017
      -7.95126706e-003 -1.58393621e-001 -4.26060446e-002 7.09932437e-003
      -3.31408754e-002 -4.63724770e-002 -2.77555756e-017
      -2.77555756e-017 -2.77555756e-017 -2.77555756e-017
      -7.95126706e-003 -1.58393621e-001 2.93490123e-002 7.90543780e-002
      7.90543780e-002 7.90543780e-002 8.18668976e-002 -2.77555756e-017
      -2.77555756e-017 -2.77555756e-017 -2.77555756e-017
      -3.50699690e-003 1.46910682e-001 2.22029909e-002 0.
      7.90543780e-002 7.90543780e-002 -2.77555756e-017 -2.77555756e-017
      -2.77555756e-017 -7.90543780e-002 1.58393621e-001 1.58393621e-001
      1.50442362e-001 0. 7.90543780e-002 7.90543780e-002 9.00529101e-002
      -2.77555756e-017 7.19550550e-002 2.50155050e-002 7.95126706e-003
      7.95126706e-003 3.01542580e-002 0. 0. 7.90543780e-002
      -8.28462467e-002 -2.22029909e-002 1.07662208e-001 1.17301486e-001
      7.90543780e-002 7.90543780e-002 0. 0. 0. 0. -5.07314168e-002
      -1.50442362e-001 3.59232747e-003 4.63724770e-002 4.63724770e-002
      -1.04069881e-001 -1.75905395e-002 0. 0. -4.97053675e-002
      -2.37448007e-001 -3.36859412e-002 -2.77555756e-017 3.31408754e-002
      2.51896102e-002 -8.70056450e-002 -8.70056450e-002 -1.50505910e-002
      -1.50505910e-002 -9.05373320e-002 -1.12740323e-001
      -3.01542580e-002 -2.77555756e-017 -2.77555756e-017
      -2.77555756e-017 -2.77555756e-017 -2.77555756e-017
      -2.77555756e-017 -2.77555756e-017 -8.70056450e-002
      -1.09208636e-001 -2.22029909e-002</_>
    <_>
      4.85722573e-017 4.85722573e-017 4.85722573e-017 4.85722573e-017
      -1.81422979e-002 -1.81422979e-002 4.85722573e-017 4.85722573e-017
      4.85722573e-017 4.85722573e-017 4.85722573e-017 4.85722573e-017
      -9.05681849e-002 -9.05681849e-002 -9.05681849e-002
      -9.05681849e-002 -9.05681849e-002 4.85722573e-017 4.85722573e-017
      4.85722573e-017 4.85722573e-017 4.85722573e-017 -9.05681849e-002
      -9.05681849e-002 -9.05681849e-002 -9.05681849e-002
      -9.05681849e-002 -1.81422979e-002 4.85722573e-017 4.85722573e-017
      4.85722573e-017 5.83378039e-002 -6.32710755e-003 -6.32710755e-003
      -1.84289105e-002 0. 6.46649078e-002 7.65129272e-003
      4.85722573e-017 4.85722573e-017 5.70136197e-002 5.06865121e-002
      5.06865121e-002 9.05681849e-002 9.05681849e-002 0. 6.46649078e-002
      6.46649078e-002 1.37090802e-001 7.87802115e-002 9.68952924e-002
      3.22303809e-002 -5.83378039e-002 0. 1.81422979e-002 0. 0.
      6.46649078e-002 6.46649078e-002 1.37090802e-001 3.98816727e-002
      3.98816727e-002 -5.06865121e-002 -1.41153019e-002 0. 0. 0. 0.
      6.46649078e-002 6.46649078e-002 4.85722573e-017 -6.46649078e-002
      -6.46649078e-002 -1.55233100e-001 -1.34790689e-001 0.
      -3.98816727e-002 -3.98816727e-002 -6.03240803e-002
      -1.81422979e-002 4.85722573e-017 -6.46649078e-002 -6.46649078e-002
      -6.46649078e-002 -6.46649078e-002 -6.46649078e-002
      -6.46649078e-002 -6.46649078e-002 -8.28072056e-002
      -1.81422979e-002 4.85722573e-017 4.85722573e-017 4.85722573e-017
      4.85722573e-017 4.85722573e-017 4.85722573e-017 4.85722573e-017
      -6.46649078e-002 -8.28072056e-002 -1.81422979e-002</_>
    <_>
      0. 0. 0. 0. -3.97726195e-003 -3.97726195e-003 0. 0. 0. 0. 0. 0.
      -5.76506965e-002 -5.76506965e-002 -5.76506965e-002
      -5.76506965e-002 -5.76506965e-002 0. 0. 0. 0. 0. -5.82856238e-002
      -5.82856238e-002 1.12416630e-003 1.12416630e-003 -5.76506965e-002
      -3.97726195e-003 0. 0. 0. 5.81399314e-002 5.76506965e-002
      4.89171147e-002 3.97726195e-003 6.34930097e-004 5.97014986e-002
      1.48864891e-002 4.13733423e-002 4.13733423e-002 1.39598520e-002
      5.76506965e-002 5.76506965e-002 5.76506965e-002 5.76506965e-002 0.
      5.97014986e-002 5.97014986e-002 1.04641348e-001 1.17352195e-001
      1.39598520e-002 5.76506965e-002 0. 0. 3.97726195e-003 0. 0.
      -1.28356861e-002 1.83281563e-002 7.20015913e-002 3.11638433e-002
      1.03392340e-001 5.97014986e-002 5.90665676e-002 0. 0.
      -3.11638433e-002 -1.17352195e-001 -5.76506965e-002
      -5.76506965e-002 0. -2.85376552e-002 -1.12416630e-003
      -1.39598520e-002 -4.13733423e-002 -1.17352195e-001
      -1.17352195e-001 -1.17352195e-001 -1.17352195e-001
      -1.27108442e-002 0. -5.97014986e-002 -5.97014986e-002
      -5.97014986e-002 -5.97014986e-002 -5.97014986e-002
      -5.97014986e-002 -6.84350803e-002 -7.24123418e-002
      -3.97726195e-003 0. 0. 0. 0. 0. 0. 0. -5.97014986e-002
      -6.36787638e-002 -3.97726195e-003</_>
    <_>
      -4.16333634e-017 -4.16333634e-017 -4.16333634e-017
      -4.16333634e-017 -4.27874411e-003 -4.27874411e-003
      -4.16333634e-017 -4.16333634e-017 -4.16333634e-017
      -4.16333634e-017 -4.16333634e-017 -1.52671030e-002
      -1.06735282e-001 -3.66038680e-002 1.39605515e-002 6.72339052e-002
      8.25010017e-002 1.73969179e-001 -4.16333634e-017 -4.16333634e-017
      -4.16333634e-017 -1.52671030e-002 6.05386868e-003 6.05386868e-003
      4.17714044e-002 6.72339052e-002 6.72339052e-002 1.69690445e-001
      5.32733500e-002 -4.16333634e-017 -4.16333634e-017 -7.90668279e-003
      1.06735282e-001 8.54659155e-002 4.27874411e-003 3.57175358e-002
      6.72339052e-002 6.72339052e-002 9.25080478e-002 -4.16333634e-017
      -4.16333634e-017 -1.39605515e-002 1.06735282e-001 1.06735282e-001
      9.14681777e-002 0. 4.17714044e-002 6.72339052e-002 9.35567692e-002
      5.32733500e-002 -4.16333634e-017 -1.39605515e-002 1.52671030e-002
      4.07296009e-002 1.95458476e-002 0. 0. 4.17714044e-002
      -4.21322100e-002 4.89946045e-002 -4.16333634e-017 3.80062461e-002
      6.72339052e-002 3.15163657e-002 0. 0. 0. 0. -7.89244324e-002
      -9.14681777e-002 -4.16333634e-017 -8.25010017e-002 9.14681777e-002
      0. 0. 0. 0. -1.09366111e-001 -1.20695829e-001 -5.10106049e-002
      -4.16333634e-017 -6.72339052e-002 2.13367660e-002 9.14681777e-002
      9.14681777e-002 9.14681777e-002 -2.92276535e-002 -3.52299139e-002
      -9.27820057e-002 -4.50083464e-002 -4.16333634e-017
      -4.16333634e-017 -2.54624989e-002 1.09271988e-001 1.34734482e-001
      2.78108511e-002 -2.54624989e-002 -8.25010017e-002 -8.67797509e-002
      -4.27874411e-003</_>
    <_>
      -2.77555756e-017 -2.77555756e-017 -2.77555756e-017
      -3.62755060e-002 -8.36595446e-002 -1.22249693e-001
      -3.56003419e-002 -2.77555756e-017 -2.77555756e-017
      -2.77555756e-017 -2.77555756e-017 -2.77555756e-017
      -2.77555756e-017 -3.62755060e-002 -1.22924857e-001
      -1.29475892e-001 -9.73319784e-002 -2.77555756e-017
      -2.77555756e-017 -2.77555756e-017 -2.77555756e-017
      -2.77555756e-017 -2.77555756e-017 -9.43421721e-002
      -1.58525199e-001 -1.58525199e-001 -1.58525199e-001
      -9.73319784e-002 -2.77555756e-017 -2.77555756e-017
      -2.77555756e-017 2.80266237e-002 -1.12453466e-002 -1.04477674e-001
      0. 0. 0. -1.61358733e-002 -2.77555756e-017 -2.77555756e-017
      4.21567708e-002 7.01833963e-002 -8.83418024e-002 0. 0. 0. 0. 0.
      9.97833684e-002 7.01833963e-002 4.64110151e-002 7.14570144e-003
      -5.40475212e-002 0. 0. 0. 0. 0. 9.32323262e-002 1.58525199e-001
      -1.62163768e-002 -4.11340930e-002 -7.01833963e-002
      -4.41624969e-002 0. 0. 0. 0. 5.39670177e-002 1.32504299e-001
      -7.22620636e-003 -6.11932240e-002 -6.11932240e-002
      -6.11932240e-002 -1.17471613e-001 -2.60208976e-002
      -1.14362702e-001 -5.01796715e-002 2.80266237e-002 -2.77555756e-017
      -2.77555756e-017 -2.90493015e-002 -2.90493015e-002
      -2.77555756e-017 -2.77555756e-017 -3.56003419e-002
      -3.56003419e-002 -2.77555756e-017 -2.77555756e-017
      -2.77555756e-017 -2.77555756e-017 -2.77555756e-017
      -2.77555756e-017 -2.77555756e-017 -2.77555756e-017
      -2.77555756e-017 -2.77555756e-017 -2.77555756e-017
      -2.77555756e-017 -2.77555756e-017</_>
    <_>
      8.67361738e-019 8.67361738e-019 8.67361738e-019 -3.67376581e-002
      -1.03948951e-001 -1.15650333e-001 -2.74297465e-002 8.67361738e-019
      8.67361738e-019 8.67361738e-019 8.67361738e-019 8.67361738e-019
      8.67361738e-019 -3.67376581e-002 -1.24958247e-001 -1.22688778e-001
      -7.29698539e-002 8.67361738e-019 8.67361738e-019 8.67361738e-019
      8.67361738e-019 8.67361738e-019 8.67361738e-019 -8.33069384e-002
      -6.71996027e-002 -7.25908801e-002 -1.52387992e-001
      -7.29698539e-002 8.67361738e-019 8.67361738e-019 8.67361738e-019
      1.06368586e-001 9.33889896e-002 0. 0. 0. -5.39128203e-003
      -6.51041120e-002 5.21810539e-002 5.21810539e-002 4.12644744e-002
      1.52387992e-001 0. 0. 0. 0. 0. 0. 9.11195204e-002 1.52387992e-001
      -5.30480361e-003 7.94181377e-002 0. 0. 0. 0. 0. -8.72838795e-002
      4.12079357e-002 1.00206941e-001 -1.83339920e-002 9.61493980e-003
      0. 0. 0. 0. -4.04941067e-002 -1.52387992e-001 -5.54774813e-002
      8.67361738e-019 -7.03844056e-003 -4.43153158e-002 -3.33987363e-002
      2.63140965e-002 -1.48918554e-002 -1.31207794e-001 -1.52387992e-001
      -8.86982158e-002 8.67361738e-019 8.67361738e-019 8.67361738e-019
      -2.96992194e-002 -2.96992194e-002 8.67361738e-019 8.67361738e-019
      -2.74297465e-002 -2.74297465e-002 8.67361738e-019 8.67361738e-019
      8.67361738e-019 8.67361738e-019 8.67361738e-019 8.67361738e-019
      8.67361738e-019 8.67361738e-019 8.67361738e-019 8.67361738e-019
      8.67361738e-019 8.67361738e-019 8.67361738e-019</_>
    <_>
      1.04083409e-017 1.04083409e-017 1.04083409e-017 -8.76289085e-002
      -1.30656093e-001 -1.20179906e-001 -6.32624254e-002 1.04083409e-017
      1.04083409e-017 1.04083409e-017 1.04083409e-017 1.04083409e-017
      1.04083409e-017 -2.43353005e-002 4.06887457e-002 8.76289085e-002
      8.76289085e-002 1.64781630e-001 1.04083409e-017 1.04083409e-017
      1.04083409e-017 1.04083409e-017 2.07808807e-001 5.69174774e-002 0.
      0. 0. 8.76289085e-002 2.25736797e-002 1.04083409e-017
      1.04083409e-017 2.25736797e-002 1.44546390e-001 0. 0. 0. 0. 0.
      1.07552364e-001 1.04083409e-017 1.04083409e-017 2.25736797e-002 0.
      0. 0. 0. 0. 0. 5.68862967e-002 2.25736797e-002 -6.32624254e-002
      -5.45790419e-002 0. 0. 0. 0. 0. 0. -4.67530861e-002
      2.25736797e-002 -1.20179906e-001 -9.76062268e-002 0. 0. 0. 0. 0.
      0. -5.45790419e-002 1.04083409e-017 -4.30271812e-002
      -1.30656093e-001 7.71527216e-002 1.20179906e-001 0. 0. 0.
      -9.13548097e-002 2.25736797e-002 1.04083409e-017 1.04083409e-017
      -8.76289085e-002 5.68862967e-002 2.07808807e-001 2.07808807e-001
      1.44546390e-001 -4.06887457e-002 2.25736797e-002 1.04083409e-017
      1.04083409e-017 1.04083409e-017 1.04083409e-017 1.04083409e-017
      1.22830130e-001 1.22830130e-001 2.25736797e-002 1.04083409e-017
      1.04083409e-017 1.04083409e-017 1.04083409e-017</_>
    <_>
      -4.85722573e-017 -4.85722573e-017 -4.85722573e-017
      -4.85722573e-017 -4.85722573e-017 -4.85722573e-017
      -4.85722573e-017 -4.85722573e-017 -4.85722573e-017
      -4.85722573e-017 -4.85722573e-017 -4.85722573e-017
      -4.85722573e-017 -4.85722573e-017 -4.85722573e-017
      -4.85722573e-017 -4.85722573e-017 -4.85722573e-017
      -4.85722573e-017 -4.85722573e-017 -4.85722573e-017
      -4.85722573e-017 -4.85722573e-017 5.15488870e-002 1.31874666e-001
      8.03257823e-002 -4.85722573e-017 -4.85722573e-017 -4.85722573e-017
      -4.85722573e-017 -3.16227116e-002 1.65244207e-001 1.26636297e-001
      1.26636297e-001 0. 0. -5.15488870e-002 -1.06814809e-001
      4.97910231e-002 1.06548816e-001 -4.61620875e-002 1.12868190e-001
      1.12868190e-001 0. 0. 0. 0. 0. 0. 1.12868190e-001 2.63316855e-002
      1.58948153e-001 1.58948153e-001 0. 0. 0. 0. -1.65001526e-001
      -1.06548816e-001 -1.06548816e-001 8.72607529e-002 1.61424503e-001
      1.72716260e-001 3.89031917e-002 0. 0. -1.10001601e-001
      -2.85584450e-001 -2.85584450e-001 -1.83394089e-001
      -4.85722573e-017 5.84527142e-002 6.35824427e-002 1.32616475e-001
      1.13718636e-001 -3.65089588e-002 -1.37681058e-002 -3.89031917e-002
      -4.85722573e-017 -4.85722573e-017 -4.85722573e-017
      -4.85722573e-017 -4.85722573e-017 -4.85722573e-017
      -4.85722573e-017 -4.85722573e-017 -4.85722573e-017
      -4.85722573e-017 -4.85722573e-017 -4.85722573e-017
      -4.85722573e-017 -4.85722573e-017 -4.85722573e-017
      -4.85722573e-017 -4.85722573e-017 -4.85722573e-017
      -4.85722573e-017 -4.85722573e-017 -4.85722573e-017
      -4.85722573e-017</_>
    <_>
      6.93889390e-018 6.93889390e-018 6.93889390e-018 6.93889390e-018
      6.93889390e-018 6.93889390e-018 6.93889390e-018 6.93889390e-018
      6.93889390e-018 6.93889390e-018 6.93889390e-018 6.93889390e-018
      6.93889390e-018 6.93889390e-018 5.61302342e-002 9.17135850e-002
      9.17135850e-002 9.17135850e-002 6.93889390e-018 6.93889390e-018
      6.93889390e-018 6.93889390e-018 9.17135850e-002 9.17135850e-002
      9.17135850e-002 9.17135850e-002 9.17135850e-002 9.17135850e-002
      3.55833471e-002 6.93889390e-018 6.93889390e-018 2.29969434e-003
      3.49022858e-002 3.49022858e-002 0. 0. 0. 5.45735145e-003
      6.36484623e-002 6.93889390e-018 -2.89849937e-002 -2.66852994e-002
      2.94449329e-002 0. 0. 0. 0. 0. 0. -2.66852994e-002
      -3.49022858e-002 6.81063393e-004 5.68112954e-002 0. 0. 0. 0. 0.
      -5.61302342e-002 -5.61302342e-002 -2.94449329e-002 6.13841508e-003
      6.22686483e-002 3.87410074e-002 0. 0. 0. 0. -5.61302342e-002
      -6.81859404e-002 6.93889390e-018 6.93889390e-018 9.17135850e-002
      9.17135850e-002 8.62562284e-002 2.35276427e-002 5.29725775e-002
      -3.15765734e-003 2.29969434e-003 6.93889390e-018 6.93889390e-018
      6.93889390e-018 6.36484623e-002 9.17135850e-002 9.17135850e-002
      9.17135850e-002 3.55833471e-002 3.55833471e-002 6.93889390e-018
      6.93889390e-018 6.93889390e-018 6.93889390e-018 6.93889390e-018
      6.36484623e-002 6.36484623e-002 3.55833471e-002 6.93889390e-018
      6.93889390e-018 6.93889390e-018 6.93889390e-018</_>
    <_>
      6.93889390e-018 6.93889390e-018 6.93889390e-018 6.93889390e-018
      6.93889390e-018 6.93889390e-018 6.93889390e-018 6.93889390e-018
      6.93889390e-018 6.93889390e-018 6.93889390e-018 6.93889390e-018
      6.93889390e-018 6.93889390e-018 6.98909909e-002 1.05599135e-001
      1.05599135e-001 1.05599135e-001 6.93889390e-018 6.93889390e-018
      6.93889390e-018 6.93889390e-018 1.05599135e-001 1.05599135e-001
      3.95390466e-002 3.95390466e-002 1.05599135e-001 1.05599135e-001
      3.57081443e-002 6.93889390e-018 6.93889390e-018 -3.03519480e-002
      0. 0. 0. 0. 0. 5.29208332e-002 4.11584675e-002 -4.68194894e-002
      -1.31392572e-002 -5.86519651e-002 0. 0. 0. 0. 0. 0. 0.
      -6.98909909e-002 -1.31392572e-002 -5.86519651e-002 0. 0. 0. 0. 0.
      5.26783019e-002 -1.18324747e-002 -2.30715033e-002 -5.85881341e-003
      -5.67517355e-002 0. 0. 0. 0. 5.85881341e-003 1.05599135e-001
      3.57081443e-002 6.93889390e-018 6.93889390e-018 -5.85881341e-003
      6.60600886e-002 1.31392572e-002 4.68194894e-002 1.05599135e-001
      1.05599135e-001 3.57081443e-002 3.57081443e-002 6.93889390e-018
      6.93889390e-018 6.93889390e-018 8.79779607e-002 1.05599135e-001
      1.05599135e-001 1.05599135e-001 3.57081443e-002 3.57081443e-002
      6.93889390e-018 6.93889390e-018 6.93889390e-018 6.93889390e-018
      6.93889390e-018 6.45683557e-002 6.45683557e-002 3.57081443e-002
      6.93889390e-018 6.93889390e-018 6.93889390e-018 6.93889390e-018</_></support_vectors>
  <decision_functions>
    <_>
      <sv_count>1</sv_count>
      <rho>1.1519873099988853e+000</rho>
      <alpha>
        1.</alpha>
      <index>
        0</index></_>
    <_>
      <sv_count>1</sv_count>
      <rho>1.0956113859795649e+000</rho>
      <alpha>
        1.</alpha>
      <index>
        1</index></_>
    <_>
      <sv_count>1</sv_count>
      <rho>6.2862873589651946e-001</rho>
      <alpha>
        1.</alpha>
      <index>
        2</index></_>
    <_>
      <sv_count>1</sv_count>
      <rho>-9.5412210776881112e-002</rho>
      <alpha>
        1.</alpha>
      <index>
        3</index></_>
    <_>
      <sv_count>1</sv_count>
      <rho>3.7787807509380489e-002</rho>
      <alpha>
        1.</alpha>
      <index>
        4</index></_>
    <_>
      <sv_count>1</sv_count>
      <rho>8.4100649593240717e-001</rho>
      <alpha>
        1.</alpha>
      <index>
        5</index></_>
    <_>
      <sv_count>1</sv_count>
      <rho>2.3797833723579079e-002</rho>
      <alpha>
        1.</alpha>
      <index>
        6</index></_>
    <_>
      <sv_count>1</sv_count>
      <rho>-3.4325566966960869e-001</rho>
      <alpha>
        1.</alpha>
      <index>
        7</index></_>
    <_>
      <sv_count>1</sv_count>
      <rho>-7.5294484246023496e-001</rho>
      <alpha>
        1.</alpha>
      <index>
        8</index></_>
    <_>
      <sv_count>1</sv_count>
      <rho>-7.7997243794871962e-001</rho>
      <alpha>
        1.</alpha>
      <index>
        9</index></_>
    <_>
      <sv_count>1</sv_count>
      <rho>8.7748277427773507e-003</rho>
      <alpha>
        1.</alpha>
      <index>
        10</index></_>
    <_>
      <sv_count>1</sv_count>
      <rho>-1.4927716202155331e-001</rho>
      <alpha>
        1.</alpha>
      <index>
        11</index></_>
    <_>
      <sv_count>1</sv_count>
      <rho>-9.7405990056602409e-001</rho>
      <alpha>
        1.</alpha>
      <index>
        12</index></_>
    <_>
      <sv_count>1</sv_count>
      <rho>-6.9251667659103755e-001</rho>
      <alpha>
        1.</alpha>
      <index>
        13</index></_>
    <_>
      <sv_count>1</sv_count>
      <rho>1.7704127079182036e-001</rho>
      <alpha>
        1.</alpha>
      <index>
        14</index></_>
    <_>
      <sv_count>1</sv_count>
      <rho>-8.9865022861099619e-001</rho>
      <alpha>
        1.</alpha>
      <index>
        15</index></_>
    <_>
      <sv_count>1</sv_count>
      <rho>-6.7211042038873925e-001</rho>
      <alpha>
        1.</alpha>
      <index>
        16</index></_>
    <_>
      <sv_count>1</sv_count>
      <rho>1.6987162066538664e-001</rho>
      <alpha>
        1.</alpha>
      <index>
        17</index></_>
    <_>
      <sv_count>1</sv_count>
      <rho>4.1513867272348648e-001</rho>
      <alpha>
        1.</alpha>
      <index>
        18</index></_>
    <_>
      <sv_count>1</sv_count>
      <rho>8.9461208135916104e-001</rho>
      <alpha>
        1.</alpha>
      <index>
        19</index></_>
    <_>
      <sv_count>1</sv_count>
      <rho>9.8507527501762648e-001</rho>
      <alpha>
        1.</alpha>
      <index>
        20</index></_></decision_functions></svm>
</opencv_storage>
