<?xml version="1.0"?>
<opencv_storage>
<svm type_id="opencv-ml-svm">
  <svm_type>C_SVC</svm_type>
  <kernel><type>LINEAR</type></kernel>
  <C>1.</C>
  <term_criteria><epsilon>2.2204460492503131e-016</epsilon>
    <iterations>100</iterations></term_criteria>
  <var_all>100</var_all>
  <var_count>100</var_count>
  <class_count>7</class_count>
  <class_labels type_id="opencv-matrix">
    <rows>1</rows>
    <cols>7</cols>
    <dt>i</dt>
    <data>
      1 2 3 4 5 6 7</data></class_labels>
  <sv_total>21</sv_total>
  <support_vectors>
    <_>
      0. 0. 0. 2.49586515e-002 1.35675326e-001 -4.93850112e-002
      -2.94246664e-003 0. 0. 0. 0. 0. 4.93850112e-002 1.35675326e-001
      4.22825627e-002 0. 0. 3.53076681e-002 0. 0. 0. 0. 4.93850112e-002
      1.35675326e-001 1.35675326e-001 0. 0. 3.53076681e-002 0. 0. 0.
      1.35675326e-001 1.35675326e-001 1.32732853e-001 0. 0. 0.
      3.53076681e-002 0. 0. 0. 2.49586515e-002 1.35675326e-001 0. 0. 0.
      0. 2.49586515e-002 4.93850112e-002 0. 0. 0. 1.35675326e-001 0. 0.
      0. 0. 4.22825627e-002 1.35675326e-001 0. 0. 0. 1.11248963e-001 0.
      0. 0. 0. 4.22825627e-002 1.10716678e-001 0. 0. 0. 3.05137821e-002
      2.94246664e-003 0. 0. 0. 1.35675326e-001 0. 0. 0. 0. 0.
      9.63352323e-002 0. 0. 0. 7.54090101e-002 0. 0. 0. 0. 0.
      8.62903148e-002 0. 0. 3.05137821e-002 0. 0. 0.</_>
    <_>
      6.59194921e-017 6.59194921e-017 6.59194921e-017 6.59194921e-017
      6.59194921e-017 -1.04707338e-001 6.59194921e-017 6.59194921e-017
      6.59194921e-017 6.59194921e-017 6.59194921e-017 3.21312211e-002
      1.04707338e-001 1.04707338e-001 2.28064265e-002 0.
      -3.21312211e-002 6.59194921e-017 6.59194921e-017 6.59194921e-017
      2.93225478e-002 3.21312211e-002 1.04707338e-001 1.04707338e-001
      1.04707338e-001 0. -2.93225478e-002 6.59194921e-017
      6.59194921e-017 6.59194921e-017 6.59194921e-017 2.93225478e-002
      2.93225478e-002 3.21312211e-002 0. 0. 0. 7.53847882e-002
      6.59194921e-017 6.59194921e-017 6.59194921e-017 6.59194921e-017
      6.59194921e-017 -8.19009095e-002 -7.25761130e-002 0. 0.
      1.04707338e-001 6.59194921e-017 6.59194921e-017 6.59194921e-017
      6.59194921e-017 7.25761130e-002 -3.21312211e-002 -2.80867307e-003
      0. 0. 2.28064265e-002 1.04707338e-001 6.59194921e-017
      6.59194921e-017 2.80867307e-003 7.53847882e-002 -2.93225478e-002
      -2.93225478e-002 0. 0. 2.28064265e-002 1.04707338e-001
      1.01898663e-001 6.59194921e-017 3.21312211e-002 3.21312211e-002 0.
      0. 0. 0. 1.04707338e-001 1.04707338e-001 3.21312211e-002
      6.59194921e-017 2.93225478e-002 3.21312211e-002 9.32479464e-003
      -7.25761130e-002 -7.25761130e-002 -7.25761130e-002 3.21312211e-002
      3.21312211e-002 3.21312211e-002 6.59194921e-017 6.59194921e-017
      6.59194921e-017 6.59194921e-017 -7.53847882e-002 -7.53847882e-002
      -2.28064265e-002 3.21312211e-002 3.21312211e-002 6.59194921e-017</_>
    <_>
      -2.08166817e-017 -2.08166817e-017 -2.08166817e-017 1.15914233e-002
      6.62601888e-002 -1.15914233e-002 -9.37178917e-003 -2.08166817e-017
      -2.08166817e-017 -2.08166817e-017 -2.08166817e-017
      -2.08166817e-017 -2.08166817e-017 1.15914233e-002 9.37178917e-003
      -1.15914233e-002 -6.62601888e-002 -2.08166817e-017
      -2.08166817e-017 -2.08166817e-017 -2.08166817e-017
      -2.08166817e-017 -2.08166817e-017 5.09419739e-002 1.39946565e-001
      0. 0. 7.36863762e-002 -2.08166817e-017 -2.08166817e-017
      -2.08166817e-017 -2.08166817e-017 3.93505506e-002 9.12242234e-002
      0. 0. 0. 1.39946565e-001 -2.08166817e-017 -2.08166817e-017
      -2.08166817e-017 -2.08166817e-017 1.39946565e-001 0. 0. 0. 0.
      1.39946565e-001 1.15914233e-002 -2.08166817e-017 3.93505506e-002
      7.36863762e-002 1.39946565e-001 0. 0. 0. 0. 4.87223417e-002
      3.93505506e-002 -2.08166817e-017 7.36863762e-002 1.28355145e-001
      1.39946565e-001 0. 0. 0. 0. 4.87223417e-002 7.36863762e-002
      -2.08166817e-017 -2.08166817e-017 6.62601888e-002 6.62601888e-002
      -2.49640346e-002 -5.46687692e-002 0. 0. 5.09419739e-002
      -2.08166817e-017 -2.08166817e-017 -2.08166817e-017 1.15914233e-002
      1.15914233e-002 -2.08166817e-017 -1.39946565e-001 -1.00596011e-001
      -1.00596011e-001 -2.08166817e-017 -2.08166817e-017
      -2.08166817e-017 -2.08166817e-017 -2.08166817e-017
      -2.08166817e-017 -2.08166817e-017 -1.39946565e-001
      -1.39946565e-001 -2.08166817e-017 -2.08166817e-017
      -2.08166817e-017 -2.08166817e-017</_>
    <_>
      0. 0. 0. 0. 0. -9.26906094e-002 -2.69247703e-002 0. 0. 0. 0. 0. 0.
      0. -4.48444597e-002 -9.26906094e-002 -7.17692301e-002 0. 0. 0. 0.
      0. 0. 0. 0. -9.26906094e-002 -9.26906094e-002 0. 0. 0. 0.
      8.87333322e-003 3.89315486e-002 1.20067783e-002 -2.99058296e-003
      0. 0. 6.97866157e-002 0. 0. 5.29622100e-002 6.18355423e-002
      6.18355423e-002 0. 0. 0. 0. 9.26906094e-002 9.26906094e-002
      5.88449575e-002 5.37590645e-002 5.37590645e-002 5.37590645e-002 0.
      0. 0. 0. 4.78461534e-002 9.26906094e-002 9.26906094e-002
      3.08550708e-002 3.08550708e-002 3.08550708e-002 -2.87867431e-002
      0. 0. 0. 4.78461534e-002 9.26906094e-002 6.26323968e-002 0. 0. 0.
      -6.57658428e-002 -7.27772042e-002 -3.00582163e-002
      -6.09132871e-002 3.17773260e-002 1.18639162e-002 0. 0. 0. 0.
      -2.09213831e-002 -9.26906094e-002 -9.26906094e-002
      -9.26906094e-002 0. 0. 0. 0. 0. 0. 0. -9.26906094e-002
      -9.26906094e-002 0. 0. 0. 0.</_>
    <_>
      0. 0. 0. 0. 0. -8.50762650e-002 -3.35040838e-002 0. 0. 0. 0. 0. 0.
      0. -1.13916770e-002 -8.50762650e-002 -4.48957607e-002 0. 0. 0. 0.
      0. 0. 0. 4.96955253e-002 -3.53807434e-002 -8.50762650e-002 0. 0.
      0. 0. 5.90412617e-002 8.50762650e-002 5.15721850e-002 0. 0. 0.
      4.61862199e-002 3.97571363e-002 3.97571363e-002 2.01512147e-002
      8.50762650e-002 8.50762650e-002 0. 0. 0. 0. 8.50762650e-002
      8.50762650e-002 8.50762650e-002 2.01512147e-002 8.50762650e-002
      8.50762650e-002 0. 0. 0. 0. 2.74983682e-002 4.53191288e-002
      4.53191288e-002 1.57748200e-002 7.42707849e-002 8.50762650e-002 0.
      0. 0. -6.42908318e-003 -1.13916770e-002 0. 0. 0. 6.42908318e-003
      2.60350052e-002 1.33528672e-002 -3.97571363e-002 -7.57305250e-002
      -8.50762650e-002 0. 0. 0. 0. 0. 0. -4.01805043e-002
      -8.50762650e-002 -8.50762650e-002 -8.50762650e-002 0. 0. 0. 0. 0.
      0. 0. -8.50762650e-002 -8.50762650e-002 0. 0. 0. 0.</_>
    <_>
      8.67361738e-019 8.67361738e-019 8.67361738e-019 8.67361738e-019
      8.67361738e-019 -1.16327055e-001 -9.80139244e-003 8.67361738e-019
      8.67361738e-019 8.67361738e-019 8.67361738e-019 8.67361738e-019
      8.67361738e-019 5.18442094e-002 2.81145219e-002 0. 9.80139244e-003
      1.16327055e-001 8.67361738e-019 8.67361738e-019 8.67361738e-019
      8.67361738e-019 1.16327055e-001 1.16327055e-001 1.16327055e-001 0.
      0. 1.16327055e-001 1.28965697e-003 8.67361738e-019 8.67361738e-019
      1.28965697e-003 1.16327055e-001 1.06525667e-001 0. 0. 0.
      1.16327055e-001 6.44828454e-002 8.67361738e-019 8.67361738e-019
      1.28965697e-003 1.16327055e-001 0. 0. 0. 0. 1.16327055e-001
      6.44828454e-002 1.28965697e-003 8.67361738e-019 1.28965697e-003
      1.16327055e-001 0. 0. 0. 0. 2.94041783e-002 1.28965697e-003
      1.28965697e-003 8.67361738e-019 1.28965697e-003 1.16327055e-001 0.
      0. 0. 0. 2.94041783e-002 1.28965697e-003 8.67361738e-019
      8.67361738e-019 8.67361738e-019 1.16327055e-001 9.80139244e-003 0.
      0. 0. 5.18442094e-002 1.28965697e-003 8.67361738e-019
      8.67361738e-019 8.67361738e-019 1.39282951e-002 9.67242718e-002 0.
      0. -6.44828454e-002 1.28965697e-003 8.67361738e-019
      8.67361738e-019 8.67361738e-019 8.67361738e-019 8.67361738e-019
      1.03688419e-001 -1.26386378e-002 -6.44828454e-002 -9.80139244e-003
      8.67361738e-019 8.67361738e-019 8.67361738e-019</_>
    <_>
      -1.38777878e-017 -1.38777878e-017 -1.38777878e-017
      -1.59698818e-002 -1.49097919e-001 -3.29227559e-002
      -1.38777878e-017 -1.38777878e-017 -1.38777878e-017
      -1.38777878e-017 -1.38777878e-017 5.57906218e-002 3.42125930e-002
      0. 0. 0. -5.57906218e-002 -3.51952426e-002 -1.38777878e-017
      -1.38777878e-017 5.57906218e-002 5.57906218e-002 3.42125930e-002
      0. 0. 0. -5.57906218e-002 -3.39054056e-002 -1.38777878e-017
      -1.38777878e-017 -1.38777878e-017 -9.45971310e-002
      -9.45971310e-002 -7.38854706e-002 -1.28983613e-003 0. 0.
      5.94018847e-002 -1.38777878e-017 -1.38777878e-017 -1.38777878e-017
      -9.27914977e-002 -1.50387749e-001 -1.50387749e-001
      -9.45971310e-002 0. 0. 9.27914977e-002 -5.89784198e-002
      -1.38777878e-017 -1.38777878e-017 -1.38777878e-017
      -5.57906218e-002 -5.57906218e-002 -1.28983613e-003 0. 0. 0. 0.
      1.28983613e-003 -1.38777878e-017 -1.38777878e-017 9.21941176e-003
      -5.57906218e-002 -5.57906218e-002 0. 0. 0. 1.59698818e-002
      1.50387749e-001 -1.38777878e-017 5.57906218e-002 2.15780288e-002
      0. 0. 0. 0. 0. 1.50387749e-001 7.77921155e-002 -1.38777878e-017
      5.57906218e-002 5.57906218e-002 -9.45971310e-002 -9.45971310e-002
      -9.45971310e-002 -9.45971310e-002 -2.27203462e-002 7.77921155e-002
      5.70804588e-002 -1.38777878e-017 -1.38777878e-017 -1.38777878e-017
      -6.94078356e-002 -9.45971310e-002 -9.45971310e-002
      -8.09799135e-002 5.57906218e-002 5.70804588e-002 1.28983613e-003</_>
    <_>
      -5.98479599e-017 -5.98479599e-017 -5.98479599e-017 2.17502583e-002
      -7.29573146e-002 -2.17502583e-002 7.29573146e-002 -5.98479599e-017
      -5.98479599e-017 -5.98479599e-017 -5.98479599e-017
      -5.98479599e-017 -6.58667609e-002 -9.10160542e-002
      -7.29573146e-002 -5.36222719e-002 -9.46543887e-002
      -7.64937252e-002 -5.98479599e-017 -5.98479599e-017
      -5.98479599e-017 -5.98479599e-017 -6.58667609e-002
      -7.03736953e-003 0. 0. 0. 7.48496037e-003 -5.98479599e-017
      -5.98479599e-017 -5.98479599e-017 -1.78633079e-001
      -6.06596433e-002 0. 0. 0. 0. 1.02139354e-001 -5.98479599e-017
      -5.98479599e-017 -5.98479599e-017 -6.58667609e-002 0. 0. 0. 0. 0.
      1.12766311e-001 3.27716284e-002 -5.98479599e-017 8.39786828e-002
      8.39786828e-002 0. 0. 0. 0. 0. 0. -6.06596433e-002
      -5.98479599e-017 1.17973432e-001 1.25010803e-001 0. 0. 0. 0. 0. 0.
      5.20712137e-003 -5.98479599e-017 3.39947492e-002 9.46543887e-002
      5.83818033e-002 -8.39786828e-002 -7.03736953e-003 0. 0.
      -7.03736953e-003 -5.98479599e-017 -5.98479599e-017
      -5.98479599e-017 5.36222719e-002 5.36222719e-002 -1.78633079e-001
      -1.78633079e-001 -1.05675764e-001 -1.05675764e-001
      -2.52512153e-002 -5.98479599e-017 -5.98479599e-017
      -5.98479599e-017 -5.98479599e-017 -5.98479599e-017
      -1.12766311e-001 -1.78633079e-001 -1.78633079e-001
      -6.58667609e-002 -5.98479599e-017 -5.98479599e-017
      -5.98479599e-017</_>
    <_>
      3.81639165e-017 3.81639165e-017 3.81639165e-017 -7.95400795e-003
      -8.33947957e-002 -2.99512111e-002 3.81639165e-017 3.81639165e-017
      3.81639165e-017 3.81639165e-017 3.81639165e-017 3.81639165e-017
      -4.99629416e-002 -8.33947957e-002 -8.33947957e-002
      -8.33947957e-002 -8.33947957e-002 -2.99512111e-002 3.81639165e-017
      3.81639165e-017 3.81639165e-017 3.81639165e-017 -5.34435883e-002
      -8.33947957e-002 -8.33947957e-002 -8.33947957e-002
      -8.33947957e-002 -2.99512111e-002 3.81639165e-017 3.81639165e-017
      3.81639165e-017 -4.68908362e-002 -2.97102425e-002 -2.97102425e-002
      -4.80141118e-003 0. 0. 3.55378129e-002 3.81639165e-017
      3.81639165e-017 3.50863673e-002 1.81467440e-002 -1.18044671e-002
      0. 0. 0. 0. 3.34318578e-002 3.34318578e-002 6.67889193e-002
      2.97102425e-002 2.97102425e-002 -5.36845587e-002 0. 0. 0. 0. 0. 0.
      7.99141526e-002 1.18044671e-002 1.18044671e-002 -2.95813978e-002
      -4.96083274e-002 0. 0. 0. 0. 7.95400795e-003 6.62142038e-002
      3.81639165e-017 3.81639165e-017 3.81639165e-017 -8.33947957e-002
      -7.02904388e-002 -1.71805937e-002 -2.89850608e-002
      -2.89850608e-002 4.13053744e-002 3.81639165e-017 3.81639165e-017
      3.81639165e-017 3.81639165e-017 -8.33947957e-002 -8.33947957e-002
      -8.33947957e-002 -8.33947957e-002 -4.54895794e-002 3.81639165e-017
      3.81639165e-017 3.81639165e-017 3.81639165e-017 3.81639165e-017
      -3.34318578e-002 -8.33947957e-002 -8.33947957e-002
      -5.34435883e-002 3.81639165e-017 3.81639165e-017 3.81639165e-017</_>
    <_>
      -5.11743425e-017 -5.11743425e-017 -5.11743425e-017
      -5.09733222e-002 -8.66991132e-002 -2.54310835e-002
      -5.11743425e-017 -5.11743425e-017 -5.11743425e-017
      -5.11743425e-017 -5.11743425e-017 -5.11743425e-017
      -5.09733222e-002 -8.66991132e-002 -8.66991132e-002
      -8.66991132e-002 -8.66991132e-002 -1.52197443e-002
      -5.11743425e-017 -5.11743425e-017 -5.11743425e-017
      -5.11743425e-017 -6.12680316e-002 -8.17134455e-002
      -9.94102214e-004 -5.97977173e-003 -8.66991132e-002
      -1.52197443e-002 -5.11743425e-017 -5.11743425e-017
      -5.11743425e-017 0. 0. 0. 0. 0. -4.98566963e-003 -2.77893909e-004
      1.49418507e-002 1.49418507e-002 1.49418507e-002 2.54310835e-002 0.
      0. 0. 0. 0. 3.57257910e-002 3.57257910e-002 8.66991132e-002
      1.99275203e-002 8.66991132e-002 0. 0. 0. 0. 0. -1.49418507e-002
      -1.49418507e-002 6.14625551e-002 5.97977173e-003 7.27513656e-002
      0. 0. 0. 0. -4.98566963e-003 -8.66991132e-002 -3.57257910e-002
      -5.11743425e-017 -5.11743425e-017 -5.11743425e-017
      -1.02113383e-002 -1.99275203e-002 -1.99275203e-002
      -8.57050121e-002 -8.66991132e-002 -8.66991132e-002
      -5.11743425e-017 -5.11743425e-017 -5.11743425e-017
      -5.11743425e-017 -5.11743425e-017 -8.66991132e-002
      -8.66991132e-002 -8.66991132e-002 -8.66991132e-002
      -2.05060448e-002 -5.11743425e-017 -5.11743425e-017
      -5.11743425e-017 -5.11743425e-017 -5.11743425e-017
      -3.57257910e-002 -8.66991132e-002 -8.66991132e-002
      -6.12680316e-002 -5.11743425e-017 -5.11743425e-017
      -5.11743425e-017</_>
    <_>
      2.08166817e-017 2.08166817e-017 2.08166817e-017 -6.51461706e-002
      -3.11234087e-001 -1.42789558e-001 2.08166817e-017 2.08166817e-017
      2.08166817e-017 2.08166817e-017 2.08166817e-017 2.08166817e-017
      -1.68444544e-001 -1.87154651e-001 -5.13099767e-002 0. 0.
      9.85672846e-002 2.08166817e-017 2.08166817e-017 2.08166817e-017
      2.08166817e-017 1.42789558e-001 0. 0. 0. 0. 9.85672846e-002
      5.13099767e-002 2.08166817e-017 2.08166817e-017 -2.59924114e-001
      0. 0. 0. 0. 0. 9.85672846e-002 1.87154651e-001 2.08166817e-017
      2.08166817e-017 -1.17134571e-001 0. 0. 0. 0. 0. 2.46087924e-001
      1.22008480e-001 5.13099767e-002 2.08166817e-017 5.13099767e-002 0.
      0. 0. 0. 0. 0. -1.24079444e-001 5.13099767e-002 2.08166817e-017
      5.13099767e-002 0. 0. 0. 0. 0. 0. -1.23043969e-001 2.08166817e-017
      2.08166817e-017 2.08166817e-017 2.77812988e-001 0. 0. 0. 0.
      -1.24079444e-001 5.13099767e-002 2.08166817e-017 2.08166817e-017
      2.08166817e-017 1.23043962e-001 0. 0. 0. -1.24079444e-001
      1.78888626e-002 2.08166817e-017 2.08166817e-017 2.08166817e-017
      2.08166817e-017 2.08166817e-017 6.51461706e-002 0.
      -1.24079444e-001 -6.51461706e-002 2.08166817e-017 2.08166817e-017
      2.08166817e-017</_>
    <_>
      -6.93889390e-018 -6.93889390e-018 -6.93889390e-018 9.80162621e-002
      9.25435275e-002 6.97067678e-002 3.92704904e-002 -6.93889390e-018
      -6.93889390e-018 -6.93889390e-018 -6.93889390e-018
      -4.42989096e-002 -1.76110119e-001 -7.80938640e-002
      -3.92704904e-002 -5.45497686e-002 -5.66317178e-002
      -6.93889390e-018 -6.93889390e-018 -6.93889390e-018
      -6.49041263e-003 -4.42989096e-002 -1.76110119e-001
      -3.88233736e-002 0. 0. 6.49041263e-003 6.67923987e-002
      -6.93889390e-018 -6.93889390e-018 -6.49041263e-003
      -6.49041263e-003 6.97561577e-002 1.17457360e-001 8.38709902e-003
      0. 0. 0. -6.93889390e-018 -6.93889390e-018 -6.93889390e-018
      -6.93889390e-018 1.76110119e-001 1.76110119e-001 1.31811216e-001
      0. 0. 0. 7.52753019e-002 -6.93889390e-018 3.92704904e-002
      7.51794949e-002 4.42989096e-002 4.42989096e-002 4.61955965e-002 0.
      0. 0. -9.98635590e-002 -8.38709902e-003 1.12155572e-001
      7.72614479e-002 6.49041263e-003 6.49041263e-003 0. 0. 0. 0.
      -6.39545470e-002 -1.38301626e-001 3.69760804e-002 5.66317178e-002
      5.66317178e-002 -7.51794949e-002 -2.91436957e-003 0. 0.
      -3.88233736e-002 -1.76110119e-001 -6.70398623e-002
      -6.93889390e-018 6.10401817e-002 1.67412702e-002 -4.42989096e-002
      -4.42989096e-002 -5.02842013e-003 -5.02842013e-003
      -5.86527660e-002 -6.70398623e-002 -5.26860096e-002
      -6.93889390e-018 -6.93889390e-018 -6.93889390e-018
      -6.93889390e-018 -6.93889390e-018 -6.93889390e-018
      -6.93889390e-018 -3.78085002e-002 -4.61955965e-002
      -8.38709902e-003</_>
    <_>
      -1.38777878e-017 -1.38777878e-017 -1.38777878e-017
      -1.38777878e-017 -1.25256032e-002 -1.25256032e-002
      -1.38777878e-017 -1.38777878e-017 -1.38777878e-017
      -1.38777878e-017 -1.38777878e-017 -2.78292224e-002
      -1.12357020e-001 -1.12357020e-001 -1.12357020e-001
      -8.45277980e-002 -8.45277980e-002 -1.38777878e-017
      -1.38777878e-017 -1.38777878e-017 -2.78292224e-002
      -2.78292224e-002 -1.12357020e-001 -1.12357020e-001
      -1.12357020e-001 -1.12357020e-001 -8.45277980e-002
      -1.25256032e-002 -1.38777878e-017 -1.38777878e-017
      -2.78292224e-002 2.30880734e-002 2.30880734e-002 2.02119499e-002
      -5.18362923e-003 0. 0. -1.77092329e-002 -1.38777878e-017
      -1.38777878e-017 1.77092329e-002 6.86265305e-002 6.86265305e-002
      1.12357020e-001 8.45277980e-002 0. 0. 0. 9.69552919e-002
      5.09172976e-002 6.14397228e-002 6.14397228e-002 -2.30880734e-002
      2.78292224e-002 1.25256032e-002 0. 0. 0. 0. 9.98314172e-002
      4.37304899e-002 4.37304899e-002 -4.07973044e-002 -2.30880734e-002
      0. 0. 0. 0. 0. 0. -1.38777878e-017 -2.78292224e-002
      -2.78292224e-002 -1.12357020e-001 -1.12357020e-001 0.
      -4.37304899e-002 -4.37304899e-002 -4.37304899e-002
      -4.32309471e-002 -1.38777878e-017 -1.38777878e-017
      -2.78292224e-002 -2.78292224e-002 -2.78292224e-002
      -2.78292224e-002 -2.78292224e-002 -3.07053458e-002
      -4.32309471e-002 -4.03548256e-002 -1.38777878e-017
      -1.38777878e-017 -1.38777878e-017 -1.38777878e-017
      -1.38777878e-017 -1.38777878e-017 -1.38777878e-017
      -1.38777878e-017 -1.25256032e-002 -1.25256032e-002</_>
    <_>
      1.38777878e-017 1.38777878e-017 1.38777878e-017 1.38777878e-017
      -3.18162958e-003 -3.18162958e-003 1.38777878e-017 1.38777878e-017
      1.38777878e-017 1.38777878e-017 1.38777878e-017 -1.97023135e-002
      -8.08158368e-002 -8.08158368e-002 -8.08158368e-002
      -6.13015331e-002 -6.11135252e-002 1.38777878e-017 1.38777878e-017
      1.38777878e-017 -1.97023135e-002 -1.97023135e-002 -8.08158368e-002
      -8.08158368e-002 -1.72655657e-002 -1.72655657e-002
      -6.11135252e-002 -3.18162958e-003 1.38777878e-017 1.38777878e-017
      -1.95143055e-002 4.38479595e-002 6.11135252e-002 4.64581065e-002
      3.18162958e-003 0. 0. -4.60967757e-002 2.01906655e-002
      2.01906655e-002 1.72654893e-002 8.08158368e-002 8.08158368e-002
      8.08158368e-002 6.11135252e-002 0. 0. 0. 6.29787892e-002
      8.08158368e-002 1.72654893e-002 8.08158368e-002 1.97023135e-002
      1.97023135e-002 3.18162958e-003 0. 0. -3.45310569e-002
      -2.01906655e-002 5.74435405e-002 1.43403905e-002 6.35503456e-002
      1.97023135e-002 1.97023135e-002 1.88007441e-004 0.
      -1.43403905e-002 -8.08158368e-002 -8.08158368e-002
      -8.08158368e-002 1.38777878e-017 -5.36192255e-003 -2.43674684e-003
      -1.72654893e-002 -2.01906655e-002 -8.08158368e-002
      -8.08158368e-002 -8.08158368e-002 -8.08158368e-002
      -3.75393592e-002 1.38777878e-017 -1.88007441e-004 -1.97023135e-002
      -1.97023135e-002 -1.97023135e-002 -1.97023135e-002
      -1.97023135e-002 -3.43577303e-002 -3.75393592e-002
      -2.28839424e-002 1.38777878e-017 1.38777878e-017 1.38777878e-017
      1.38777878e-017 -1.88007441e-004 -1.88007441e-004 1.38777878e-017
      -1.88007441e-004 -3.36963707e-003 -3.18162958e-003</_>
    <_>
      -3.46944695e-018 -3.46944695e-018 -3.46944695e-018
      -3.46944695e-018 -3.46944695e-018 -3.46944695e-018
      -3.46944695e-018 -3.46944695e-018 -3.46944695e-018
      -3.46944695e-018 -3.46944695e-018 -5.22846244e-002
      -1.37262002e-001 -7.26535991e-002 -2.46924832e-002 7.13529391e-003
      5.22846244e-002 1.37262002e-001 -3.46944695e-018 -3.46944695e-018
      -2.58757863e-002 -5.22846244e-002 0. 0. 0. 0. 2.58757863e-002
      1.37262002e-001 2.46924832e-002 -3.46944695e-018 -7.13529391e-003
      -1.18330237e-003 1.11386217e-001 7.98834935e-002 0. 0. 0.
      1.87404919e-002 6.38342798e-002 -3.46944695e-018 -3.46944695e-018
      2.46924832e-002 1.37262002e-001 1.37262002e-001 8.49773735e-002 0.
      0. 0. 6.75597191e-002 2.46924832e-002 -3.46944695e-018
      2.46924832e-002 5.22846244e-002 5.22846244e-002 2.64088400e-002 0.
      0. 0. -8.02914947e-002 2.46924832e-002 -3.46944695e-018
      -1.71635661e-003 2.58757863e-002 2.58757863e-002 1.87404919e-002
      0. 0. 0. -8.91108140e-002 -1.10853158e-001 -3.46944695e-018
      -5.22846244e-002 8.49773735e-002 0. 0. 0. 0. -8.02914947e-002
      -1.12569518e-001 -5.73785044e-002 -3.46944695e-018
      -1.87404919e-002 2.03689747e-002 8.49773735e-002 8.49773735e-002
      8.49773735e-002 -4.13343823e-003 -3.26860212e-002 -5.73785044e-002
      -5.22846244e-002 -3.46944695e-018 -3.46944695e-018
      -3.46944695e-018 1.21578902e-001 1.02838412e-001 2.94106957e-002
      -3.46944695e-018 -4.51493300e-002 -4.51493300e-002
      -3.46944695e-018</_>
    <_>
      -2.77555756e-017 -2.77555756e-017 -2.77555756e-017
      -3.62755060e-002 -8.36595446e-002 -1.22249693e-001
      -3.56003419e-002 -2.77555756e-017 -2.77555756e-017
      -2.77555756e-017 -2.77555756e-017 -2.77555756e-017
      -2.77555756e-017 -3.62755060e-002 -1.22924857e-001
      -1.29475892e-001 -9.73319784e-002 -2.77555756e-017
      -2.77555756e-017 -2.77555756e-017 -2.77555756e-017
      -2.77555756e-017 -2.77555756e-017 -9.43421721e-002
      -1.58525199e-001 -1.58525199e-001 -1.58525199e-001
      -9.73319784e-002 -2.77555756e-017 -2.77555756e-017
      -2.77555756e-017 2.80266237e-002 -1.12453466e-002 -1.04477674e-001
      0. 0. 0. -1.61358733e-002 -2.77555756e-017 -2.77555756e-017
      4.21567708e-002 7.01833963e-002 -8.83418024e-002 0. 0. 0. 0. 0.
      9.97833684e-002 7.01833963e-002 4.64110151e-002 7.14570144e-003
      -5.40475212e-002 0. 0. 0. 0. 0. 9.32323262e-002 1.58525199e-001
      -1.62163768e-002 -4.11340930e-002 -7.01833963e-002
      -4.41624969e-002 0. 0. 0. 0. 5.39670177e-002 1.32504299e-001
      -7.22620636e-003 -6.11932240e-002 -6.11932240e-002
      -6.11932240e-002 -1.17471613e-001 -2.60208976e-002
      -1.14362702e-001 -5.01796715e-002 2.80266237e-002 -2.77555756e-017
      -2.77555756e-017 -2.90493015e-002 -2.90493015e-002
      -2.77555756e-017 -2.77555756e-017 -3.56003419e-002
      -3.56003419e-002 -2.77555756e-017 -2.77555756e-017
      -2.77555756e-017 -2.77555756e-017 -2.77555756e-017
      -2.77555756e-017 -2.77555756e-017 -2.77555756e-017
      -2.77555756e-017 -2.77555756e-017 -2.77555756e-017
      -2.77555756e-017 -2.77555756e-017</_>
    <_>
      8.67361738e-019 8.67361738e-019 8.67361738e-019 -3.67376581e-002
      -1.03948951e-001 -1.15650333e-001 -2.74297465e-002 8.67361738e-019
      8.67361738e-019 8.67361738e-019 8.67361738e-019 8.67361738e-019
      8.67361738e-019 -3.67376581e-002 -1.24958247e-001 -1.22688778e-001
      -7.29698539e-002 8.67361738e-019 8.67361738e-019 8.67361738e-019
      8.67361738e-019 8.67361738e-019 8.67361738e-019 -8.33069384e-002
      -6.71996027e-002 -7.25908801e-002 -1.52387992e-001
      -7.29698539e-002 8.67361738e-019 8.67361738e-019 8.67361738e-019
      1.06368586e-001 9.33889896e-002 0. 0. 0. -5.39128203e-003
      -6.51041120e-002 5.21810539e-002 5.21810539e-002 4.12644744e-002
      1.52387992e-001 0. 0. 0. 0. 0. 0. 9.11195204e-002 1.52387992e-001
      -5.30480361e-003 7.94181377e-002 0. 0. 0. 0. 0. -8.72838795e-002
      4.12079357e-002 1.00206941e-001 -1.83339920e-002 9.61493980e-003
      0. 0. 0. 0. -4.04941067e-002 -1.52387992e-001 -5.54774813e-002
      8.67361738e-019 -7.03844056e-003 -4.43153158e-002 -3.33987363e-002
      2.63140965e-002 -1.48918554e-002 -1.31207794e-001 -1.52387992e-001
      -8.86982158e-002 8.67361738e-019 8.67361738e-019 8.67361738e-019
      -2.96992194e-002 -2.96992194e-002 8.67361738e-019 8.67361738e-019
      -2.74297465e-002 -2.74297465e-002 8.67361738e-019 8.67361738e-019
      8.67361738e-019 8.67361738e-019 8.67361738e-019 8.67361738e-019
      8.67361738e-019 8.67361738e-019 8.67361738e-019 8.67361738e-019
      8.67361738e-019 8.67361738e-019 8.67361738e-019</_>
    <_>
      1.04083409e-017 1.04083409e-017 1.04083409e-017 -8.76289085e-002
      -1.30656093e-001 -1.20179906e-001 -6.32624254e-002 1.04083409e-017
      1.04083409e-017 1.04083409e-017 1.04083409e-017 1.04083409e-017
      1.04083409e-017 -2.43353005e-002 4.06887457e-002 8.76289085e-002
      8.76289085e-002 1.64781630e-001 1.04083409e-017 1.04083409e-017
      1.04083409e-017 1.04083409e-017 2.07808807e-001 5.69174774e-002 0.
      0. 0. 8.76289085e-002 2.25736797e-002 1.04083409e-017
      1.04083409e-017 2.25736797e-002 1.44546390e-001 0. 0. 0. 0. 0.
      1.07552364e-001 1.04083409e-017 1.04083409e-017 2.25736797e-002 0.
      0. 0. 0. 0. 0. 5.68862967e-002 2.25736797e-002 -6.32624254e-002
      -5.45790419e-002 0. 0. 0. 0. 0. 0. -4.67530861e-002
      2.25736797e-002 -1.20179906e-001 -9.76062268e-002 0. 0. 0. 0. 0.
      0. -5.45790419e-002 1.04083409e-017 -4.30271812e-002
      -1.30656093e-001 7.71527216e-002 1.20179906e-001 0. 0. 0.
      -9.13548097e-002 2.25736797e-002 1.04083409e-017 1.04083409e-017
      -8.76289085e-002 5.68862967e-002 2.07808807e-001 2.07808807e-001
      1.44546390e-001 -4.06887457e-002 2.25736797e-002 1.04083409e-017
      1.04083409e-017 1.04083409e-017 1.04083409e-017 1.04083409e-017
      1.22830130e-001 1.22830130e-001 2.25736797e-002 1.04083409e-017
      1.04083409e-017 1.04083409e-017 1.04083409e-017</_>
    <_>
      -4.85722573e-017 -4.85722573e-017 -4.85722573e-017
      -4.85722573e-017 -4.85722573e-017 -4.85722573e-017
      -4.85722573e-017 -4.85722573e-017 -4.85722573e-017
      -4.85722573e-017 -4.85722573e-017 -4.85722573e-017
      -4.85722573e-017 -4.85722573e-017 -4.85722573e-017
      -4.85722573e-017 -4.85722573e-017 -4.85722573e-017
      -4.85722573e-017 -4.85722573e-017 -4.85722573e-017
      -4.85722573e-017 -4.85722573e-017 5.15488870e-002 1.31874666e-001
      8.03257823e-002 -4.85722573e-017 -4.85722573e-017 -4.85722573e-017
      -4.85722573e-017 -3.16227116e-002 1.65244207e-001 1.26636297e-001
      1.26636297e-001 0. 0. -5.15488870e-002 -1.06814809e-001
      4.97910231e-002 1.06548816e-001 -4.61620875e-002 1.12868190e-001
      1.12868190e-001 0. 0. 0. 0. 0. 0. 1.12868190e-001 2.63316855e-002
      1.58948153e-001 1.58948153e-001 0. 0. 0. 0. -1.65001526e-001
      -1.06548816e-001 -1.06548816e-001 8.72607529e-002 1.61424503e-001
      1.72716260e-001 3.89031917e-002 0. 0. -1.10001601e-001
      -2.85584450e-001 -2.85584450e-001 -1.83394089e-001
      -4.85722573e-017 5.84527142e-002 6.35824427e-002 1.32616475e-001
      1.13718636e-001 -3.65089588e-002 -1.37681058e-002 -3.89031917e-002
      -4.85722573e-017 -4.85722573e-017 -4.85722573e-017
      -4.85722573e-017 -4.85722573e-017 -4.85722573e-017
      -4.85722573e-017 -4.85722573e-017 -4.85722573e-017
      -4.85722573e-017 -4.85722573e-017 -4.85722573e-017
      -4.85722573e-017 -4.85722573e-017 -4.85722573e-017
      -4.85722573e-017 -4.85722573e-017 -4.85722573e-017
      -4.85722573e-017 -4.85722573e-017 -4.85722573e-017
      -4.85722573e-017</_>
    <_>
      6.93889390e-018 6.93889390e-018 6.93889390e-018 6.93889390e-018
      6.93889390e-018 6.93889390e-018 6.93889390e-018 6.93889390e-018
      6.93889390e-018 6.93889390e-018 6.93889390e-018 6.93889390e-018
      6.93889390e-018 6.93889390e-018 5.61302342e-002 9.17135850e-002
      9.17135850e-002 9.17135850e-002 6.93889390e-018 6.93889390e-018
      6.93889390e-018 6.93889390e-018 9.17135850e-002 9.17135850e-002
      9.17135850e-002 9.17135850e-002 9.17135850e-002 9.17135850e-002
      3.55833471e-002 6.93889390e-018 6.93889390e-018 2.29969434e-003
      3.49022858e-002 3.49022858e-002 0. 0. 0. 5.45735145e-003
      6.36484623e-002 6.93889390e-018 -2.89849937e-002 -2.66852994e-002
      2.94449329e-002 0. 0. 0. 0. 0. 0. -2.66852994e-002
      -3.49022858e-002 6.81063393e-004 5.68112954e-002 0. 0. 0. 0. 0.
      -5.61302342e-002 -5.61302342e-002 -2.94449329e-002 6.13841508e-003
      6.22686483e-002 3.87410074e-002 0. 0. 0. 0. -5.61302342e-002
      -6.81859404e-002 6.93889390e-018 6.93889390e-018 9.17135850e-002
      9.17135850e-002 8.62562284e-002 2.35276427e-002 5.29725775e-002
      -3.15765734e-003 2.29969434e-003 6.93889390e-018 6.93889390e-018
      6.93889390e-018 6.36484623e-002 9.17135850e-002 9.17135850e-002
      9.17135850e-002 3.55833471e-002 3.55833471e-002 6.93889390e-018
      6.93889390e-018 6.93889390e-018 6.93889390e-018 6.93889390e-018
      6.36484623e-002 6.36484623e-002 3.55833471e-002 6.93889390e-018
      6.93889390e-018 6.93889390e-018 6.93889390e-018</_>
    <_>
      6.93889390e-018 6.93889390e-018 6.93889390e-018 6.93889390e-018
      6.93889390e-018 6.93889390e-018 6.93889390e-018 6.93889390e-018
      6.93889390e-018 6.93889390e-018 6.93889390e-018 6.93889390e-018
      6.93889390e-018 6.93889390e-018 6.98909909e-002 1.05599135e-001
      1.05599135e-001 1.05599135e-001 6.93889390e-018 6.93889390e-018
      6.93889390e-018 6.93889390e-018 1.05599135e-001 1.05599135e-001
      3.95390466e-002 3.95390466e-002 1.05599135e-001 1.05599135e-001
      3.57081443e-002 6.93889390e-018 6.93889390e-018 -3.03519480e-002
      0. 0. 0. 0. 0. 5.29208332e-002 4.11584675e-002 -4.68194894e-002
      -1.31392572e-002 -5.86519651e-002 0. 0. 0. 0. 0. 0. 0.
      -6.98909909e-002 -1.31392572e-002 -5.86519651e-002 0. 0. 0. 0. 0.
      5.26783019e-002 -1.18324747e-002 -2.30715033e-002 -5.85881341e-003
      -5.67517355e-002 0. 0. 0. 0. 5.85881341e-003 1.05599135e-001
      3.57081443e-002 6.93889390e-018 6.93889390e-018 -5.85881341e-003
      6.60600886e-002 1.31392572e-002 4.68194894e-002 1.05599135e-001
      1.05599135e-001 3.57081443e-002 3.57081443e-002 6.93889390e-018
      6.93889390e-018 6.93889390e-018 8.79779607e-002 1.05599135e-001
      1.05599135e-001 1.05599135e-001 3.57081443e-002 3.57081443e-002
      6.93889390e-018 6.93889390e-018 6.93889390e-018 6.93889390e-018
      6.93889390e-018 6.45683557e-002 6.45683557e-002 3.57081443e-002
      6.93889390e-018 6.93889390e-018 6.93889390e-018 6.93889390e-018</_></support_vectors>
  <decision_functions>
    <_>
      <sv_count>1</sv_count>
      <rho>1.3565250166317608e+000</rho>
      <alpha>
        1.</alpha>
      <index>
        0</index></_>
    <_>
      <sv_count>1</sv_count>
      <rho>8.6450960566228774e-001</rho>
      <alpha>
        1.</alpha>
      <index>
        1</index></_>
    <_>
      <sv_count>1</sv_count>
      <rho>8.2130574776335585e-001</rho>
      <alpha>
        1.</alpha>
      <index>
        2</index></_>
    <_>
      <sv_count>1</sv_count>
      <rho>1.4079947321018521e-001</rho>
      <alpha>
        1.</alpha>
      <index>
        3</index></_>
    <_>
      <sv_count>1</sv_count>
      <rho>2.3146136437505141e-001</rho>
      <alpha>
        1.</alpha>
      <index>
        4</index></_>
    <_>
      <sv_count>1</sv_count>
      <rho>9.4402888827064346e-001</rho>
      <alpha>
        1.</alpha>
      <index>
        5</index></_>
    <_>
      <sv_count>1</sv_count>
      <rho>-1.3356711749797798e-001</rho>
      <alpha>
        1.</alpha>
      <index>
        6</index></_>
    <_>
      <sv_count>1</sv_count>
      <rho>-3.4325566966960869e-001</rho>
      <alpha>
        1.</alpha>
      <index>
        7</index></_>
    <_>
      <sv_count>1</sv_count>
      <rho>-7.5294484246023496e-001</rho>
      <alpha>
        1.</alpha>
      <index>
        8</index></_>
    <_>
      <sv_count>1</sv_count>
      <rho>-7.7997243794871962e-001</rho>
      <alpha>
        1.</alpha>
      <index>
        9</index></_>
    <_>
      <sv_count>1</sv_count>
      <rho>8.7748277427773507e-003</rho>
      <alpha>
        1.</alpha>
      <index>
        10</index></_>
    <_>
      <sv_count>1</sv_count>
      <rho>9.1817030724143628e-002</rho>
      <alpha>
        1.</alpha>
      <index>
        11</index></_>
    <_>
      <sv_count>1</sv_count>
      <rho>-6.4999189119380330e-001</rho>
      <alpha>
        1.</alpha>
      <index>
        12</index></_>
    <_>
      <sv_count>1</sv_count>
      <rho>-4.4426261654254456e-001</rho>
      <alpha>
        1.</alpha>
      <index>
        13</index></_>
    <_>
      <sv_count>1</sv_count>
      <rho>1.8859321485045982e-001</rho>
      <alpha>
        1.</alpha>
      <index>
        14</index></_>
    <_>
      <sv_count>1</sv_count>
      <rho>-8.9865022861099619e-001</rho>
      <alpha>
        1.</alpha>
      <index>
        15</index></_>
    <_>
      <sv_count>1</sv_count>
      <rho>-6.7211042038873925e-001</rho>
      <alpha>
        1.</alpha>
      <index>
        16</index></_>
    <_>
      <sv_count>1</sv_count>
      <rho>1.6987162066538664e-001</rho>
      <alpha>
        1.</alpha>
      <index>
        17</index></_>
    <_>
      <sv_count>1</sv_count>
      <rho>4.1513867272348648e-001</rho>
      <alpha>
        1.</alpha>
      <index>
        18</index></_>
    <_>
      <sv_count>1</sv_count>
      <rho>8.9461208135916104e-001</rho>
      <alpha>
        1.</alpha>
      <index>
        19</index></_>
    <_>
      <sv_count>1</sv_count>
      <rho>9.8507527501762648e-001</rho>
      <alpha>
        1.</alpha>
      <index>
        20</index></_></decision_functions></svm>
</opencv_storage>
