<?xml version="1.0"?>
<opencv_storage>
<svm type_id="opencv-ml-svm">
  <svm_type>C_SVC</svm_type>
  <kernel><type>LINEAR</type></kernel>
  <C>1.</C>
  <term_criteria><epsilon>2.2204460492503131e-016</epsilon>
    <iterations>100</iterations></term_criteria>
  <var_all>39</var_all>
  <var_count>39</var_count>
  <class_count>8</class_count>
  <class_labels type_id="opencv-matrix">
    <rows>1</rows>
    <cols>8</cols>
    <dt>i</dt>
    <data>
      1 2 3 4 5 6 7 8</data></class_labels>
  <sv_total>28</sv_total>
  <support_vectors>
    <_>
      1.53257129e-009 6.08558025e-007 -2.47556947e-010 2.18619880e-005
      3.97099484e-006 5.17475291e-006 7.04450213e-006 6.26715018e-006
      3.70613998e-006 8.01274382e-006 3.94337758e-006 4.04291541e-006
      1.93391361e-006 2.27542614e-006 2.25856775e-006 4.73822774e-006
      1.88211561e-006 2.05123138e-006 3.44402633e-006 3.17929312e-006
      4.18521768e-006 8.46861622e-006 2.60491902e-006 4.02171599e-006
      4.36693972e-006 4.78419588e-006 3.74279603e-006 2.86689828e-006
      5.19196192e-006 3.23160839e-006 6.94890150e-006 8.10902293e-006
      1.03713819e-005 5.24858933e-006 1.23091604e-005 2.80278255e-006
      1.70019155e-006 3.76768003e-006 2.78431162e-006</_>
    <_>
      8.14275367e-008 -6.52913241e-006 -2.55028310e-009 2.25662843e-005
      1.56377700e-005 6.52907102e-006 3.16842743e-005 3.48321919e-005
      2.70120599e-005 3.97510339e-005 2.22053895e-005 4.23330721e-006
      -3.50443679e-006 -9.71775535e-006 -2.19709764e-005
      -3.87449436e-005 -2.97619681e-005 -3.57630706e-005
      -3.48717767e-005 -2.02871488e-005 1.94995118e-006 -1.56966598e-005
      -1.57004865e-006 -1.50122805e-005 -2.14624815e-005
      -1.11883082e-005 1.28289366e-005 1.92587704e-005 -7.37215487e-006
      3.42876911e-006 7.13687359e-006 2.45447700e-005 -1.22819119e-006
      -2.41906093e-007 -3.60558033e-007 1.69825526e-005 -8.75534511e-007
      -4.77358162e-006 -2.40839909e-005</_>
    <_>
      3.82985688e-009 3.34932906e-006 -2.51274757e-009 1.63343666e-005
      1.83492866e-005 7.19396076e-006 1.04588826e-005 -1.37216693e-006
      -9.40065547e-006 -1.35649825e-005 8.63749756e-006 -1.49780533e-006
      -3.74545061e-006 -1.34545571e-005 -1.14155064e-005
      -1.53374331e-005 -1.60371346e-005 -1.14312561e-005
      -5.72691806e-006 1.36326446e-006 1.38469240e-005 7.32314356e-006
      8.07374181e-006 -7.79227139e-006 -3.23805762e-005 -1.81333307e-005
      6.94088521e-006 7.46701653e-006 -1.47644650e-005 1.73753178e-005
      3.48250978e-005 3.35876430e-005 3.02033241e-005 1.06116340e-005
      1.48917343e-005 1.06115358e-005 -9.94381935e-006 -1.27006570e-005
      -2.62975027e-005</_>
    <_>
      -2.78487189e-008 4.52530657e-007 -4.57307126e-009 1.66823629e-005
      -1.30983235e-005 -5.39349685e-006 7.07810705e-006 1.39723497e-005
      1.14957165e-005 -1.56552396e-005 6.86804788e-006 -7.41250869e-006
      -1.32016839e-006 -6.80486710e-006 -1.47525852e-005
      -2.75027887e-005 -1.66561804e-005 -6.89518083e-006
      -2.37283984e-006 1.07479818e-005 1.69982886e-005 1.91810614e-005
      1.27355506e-005 2.17317447e-005 1.83339289e-005 1.91741019e-005
      1.93496235e-005 6.75245610e-006 -3.18211314e-005 5.28807732e-006
      1.84721648e-005 3.16190890e-005 1.54580302e-005 5.83521660e-006
      1.76118101e-005 6.08408209e-006 -1.32989744e-005 -1.27085386e-005
      -2.12969171e-005</_>
    <_>
      -3.38180932e-008 1.83084398e-006 -4.47817960e-009 2.38478460e-005
      -1.15866787e-005 4.97882013e-007 5.33477032e-006 5.94572884e-006
      1.09946350e-005 -1.33329368e-005 8.23621758e-006 -1.44573426e-006
      -2.03837288e-007 -9.67101096e-006 -9.41894541e-006
      -2.40896934e-005 -1.21111489e-005 -3.75676768e-006 4.67237840e-007
      3.00081729e-006 9.07749381e-006 5.69213080e-006 8.68154075e-006
      1.01118585e-005 1.19634060e-005 1.21972498e-005 1.60088493e-005
      5.31604519e-006 -1.13582091e-005 7.58412079e-006 2.70686778e-005
      3.29305149e-005 2.19327358e-005 2.12549276e-005 3.13216187e-005
      1.77960756e-005 1.67761914e-006 5.51406174e-006 -1.84564783e-006</_>
    <_>
      8.20205681e-009 4.67196095e-008 -9.09134434e-011 1.23577956e-005
      2.91484434e-006 2.89218792e-006 3.68828978e-006 2.94308029e-006
      1.91239019e-006 4.11149495e-006 1.72768523e-006 2.05243100e-006
      8.77117088e-007 1.59797708e-006 1.29234161e-006 2.90150319e-006
      1.09462894e-006 1.32465539e-006 2.11622455e-006 1.95131861e-006
      2.20112065e-006 4.31146918e-006 1.18496837e-006 2.32965999e-006
      2.49220784e-006 2.61871514e-006 2.96762960e-006 2.67013775e-006
      5.45973171e-006 3.09432039e-006 3.90517471e-006 3.43916167e-006
      4.23970960e-006 2.67246173e-006 6.08698883e-006 1.75304194e-006
      1.29589796e-006 2.18053924e-006 1.52528730e-006</_>
    <_>
      1.61930769e-009 -9.08884914e-008 -5.72085400e-011 -9.53816470e-006
      -7.07363142e-006 -5.86205715e-006 -4.03643662e-006
      -3.53168446e-007 1.38398684e-006 4.84603163e-007 1.44215142e-006
      8.62262993e-007 9.92356718e-007 8.60747832e-007 9.37575521e-007
      1.31731827e-006 9.34842831e-007 9.84084750e-007 8.05297134e-007
      9.78117669e-007 1.62933168e-006 1.42181500e-006 5.72880651e-007
      1.19183403e-006 1.59833496e-006 1.91751496e-006 2.19876438e-006
      9.76287197e-007 -4.18848458e-006 -5.21480251e-006 -9.49922560e-006
      -7.84326585e-006 -7.83675932e-006 -3.12267412e-006
      -3.47844798e-006 1.17649684e-007 -8.50429899e-007 -1.87278010e-006
      -1.36462586e-006</_>
    <_>
      1.65035502e-007 -2.01089733e-005 -6.24644447e-010 -1.23566288e-005
      4.07281805e-005 4.34276262e-006 1.09031926e-005 1.36429626e-005
      1.39876338e-005 1.03826878e-005 9.10597282e-006 3.40297993e-006
      -2.05607103e-006 6.07712354e-006 -1.50977185e-005 -2.66124771e-005
      -4.12344925e-005 -4.24184873e-005 -3.45085064e-005
      -2.30075657e-005 -2.63074671e-005 -4.64427940e-005
      -2.27996425e-005 -2.12446794e-005 -1.20686936e-005
      -1.19794086e-005 3.21069674e-005 3.33128410e-005 2.62357207e-005
      2.70525161e-005 -2.23772367e-005 -3.46664820e-005 -4.57453098e-005
      -3.70761381e-006 -3.84601299e-005 3.13109267e-005 1.81792275e-005
      7.36167067e-006 -5.78291747e-007</_>
    <_>
      3.49705842e-009 -4.29956162e-006 -3.50127904e-009 3.56286619e-005
      4.29731881e-005 -4.80359085e-006 -3.71289570e-005 -5.68148716e-005
      -3.83415136e-005 -5.91982534e-005 -1.14673376e-005
      -1.53834098e-005 -1.03361981e-005 7.20013850e-006 5.27692964e-006
      -1.43095303e-005 -3.78682489e-005 -3.62733044e-005
      -3.74971060e-005 -2.74247250e-005 -1.94603817e-005
      -7.21099932e-005 -7.65318782e-006 -1.60426334e-005
      -4.91148749e-005 -1.16275996e-005 3.82158469e-005 1.16745969e-005
      2.63351358e-005 6.12056101e-005 4.61383352e-005 3.98186103e-006
      -1.10867441e-005 7.94345578e-006 -3.20404956e-006 5.13791838e-006
      4.80745257e-006 -1.23231230e-005 4.77690946e-006</_>
    <_>
      -5.03206632e-009 -1.09600023e-006 -7.74406261e-010
      -2.62991307e-005 -6.85252098e-006 -8.36524123e-006
      -7.05150887e-006 -4.15419390e-006 -2.56908356e-006
      -1.35629225e-005 -3.03831689e-006 -7.11862140e-006
      -2.76238302e-006 -3.73045214e-006 -5.50317372e-006
      -8.62108300e-006 -4.83834810e-006 -3.98439715e-006
      -4.53513348e-006 -7.66038966e-007 6.70838034e-008 -5.06615925e-006
      -5.06773119e-007 -1.79320566e-007 -5.82219968e-007 7.52016660e-007
      2.00924887e-006 -5.92053539e-007 -1.51643626e-005 -2.50088237e-006
      -6.27719373e-006 -6.28247062e-006 -1.09248303e-005
      -7.12542715e-006 -1.51059512e-005 -3.95938059e-006
      -5.52325173e-006 -8.24927065e-006 -7.37105256e-006</_>
    <_>
      -5.61636648e-009 -9.09836899e-007 -1.25676602e-009
      -3.71062597e-005 -5.26358417e-006 -4.31935359e-006
      -6.48907508e-006 -5.10286418e-006 -1.62729134e-006
      -1.42639110e-005 -9.24140750e-007 -5.02250396e-006
      -5.02250430e-007 -3.79701305e-006 -3.69656300e-006
      -8.41771634e-006 -5.00241413e-006 -4.21890354e-006
      -4.27917348e-006 -3.37512279e-006 -2.73224214e-006
      -1.06477082e-005 -6.02700482e-007 -2.53134203e-006
      -1.90855144e-006 1.20540093e-007 3.11395252e-006 0.
      -1.10896890e-005 7.83510643e-007 -2.41080193e-006 -6.62970535e-007
      -6.75024557e-006 -7.03150590e-007 -1.47862520e-005 2.59161197e-006
      -1.40630118e-006 -6.66988535e-006 -5.14304429e-006</_>
    <_>
      6.89921791e-008 -1.50046128e-006 -1.52849969e-010 3.66022869e-005
      1.18703247e-005 6.50707307e-006 5.92245351e-006 2.66891675e-006
      2.05887864e-006 9.68435506e-006 2.79600795e-006 4.60070396e-006
      1.62676827e-006 5.76994398e-006 3.45688272e-006 8.87097121e-006
      3.27895486e-006 3.86357488e-006 6.76125592e-006 3.68564702e-006
      3.96524774e-006 1.15398880e-005 3.43146439e-006 6.50707307e-006
      6.60874639e-006 7.54922166e-006 7.75256740e-006 9.81144603e-006
      2.17834440e-005 1.10061046e-005 8.28635075e-006 1.57593183e-006
      4.11775727e-006 2.33847936e-006 8.74387933e-006 8.13384133e-007
      4.62612252e-006 4.49903109e-006 1.80469613e-006</_>
    <_>
      1.35627315e-010 -1.09396993e-007 3.17607052e-011 -8.18993522e-006
      -4.30867067e-006 -3.76878893e-006 -3.09566735e-006
      -1.27875808e-006 -1.31509623e-007 -1.58503701e-006
      -8.65194920e-008 -4.87969942e-007 -4.84509144e-008
      -3.32234833e-007 -2.23220283e-007 -7.49258788e-007 8.65194849e-009
      -1.73038972e-009 -3.63381844e-007 -2.73401582e-007
      -2.31872235e-007 -1.12821408e-006 -2.80323150e-007
      -5.77950175e-007 -4.65474841e-007 -3.65112243e-007
      -1.86882090e-007 -3.09739761e-007 -2.73401588e-006
      -2.74439822e-006 -4.85201281e-006 -4.15293562e-006
      -4.78798847e-006 -2.51944743e-006 -3.33446110e-006
      -2.92435857e-007 -6.19479522e-007 -1.18531705e-006
      -1.11264058e-006</_>
    <_>
      -1.48609303e-007 1.97428144e-005 -2.34988606e-009 2.68325475e-005
      -7.22003369e-006 5.22861683e-007 -4.10002103e-005 -6.79991208e-005
      -5.18140187e-005 -3.66995591e-005 -1.30832232e-005
      -1.24792059e-005 -5.36676816e-006 -4.93694188e-006 1.98739581e-005
      1.79896961e-005 2.25367294e-005 3.82179060e-005 2.35791940e-005
      1.70001858e-005 2.76870342e-005 -7.58230556e-007 2.60383877e-005
      1.41851051e-005 -3.84698906e-005 1.27498442e-005 7.71290070e-006
      -2.09867831e-005 -1.73976841e-005 1.89900602e-005 6.64317922e-005
      4.71339736e-005 4.12666232e-005 8.23419941e-006 7.68023347e-006
      -2.86367467e-005 -2.33000119e-005 -3.65891137e-005
      -1.13133037e-005</_>
    <_>
      -6.27317220e-008 2.92976256e-006 -2.83163026e-009 -2.09581799e-006
      -2.29664893e-005 -1.25960860e-005 -2.00894083e-005
      -1.31484576e-005 -8.46628154e-006 -3.53031719e-005
      -1.04750643e-005 -1.58826406e-005 -5.30134184e-006
      -8.80592779e-006 -1.01878077e-005 -1.08218528e-005 6.06915705e-007
      7.58973874e-006 9.83761947e-006 1.46588254e-005 1.48673362e-005
      2.55599407e-005 1.45183913e-005 2.19943886e-005 2.45046285e-005
      1.97929530e-005 1.21529729e-005 -3.34232800e-006 -2.43542072e-005
      1.22887809e-006 1.50853539e-005 1.19600327e-005 1.12365469e-005
      -2.88464139e-006 8.86645830e-006 -7.48582352e-006 -1.23968075e-005
      -1.02370932e-005 -1.69981704e-005</_>
    <_>
      -8.51738804e-008 4.69041879e-006 -4.02367162e-009 -2.39535584e-005
      -3.34350916e-005 -1.26264204e-005 -2.69155735e-005
      -2.19933700e-005 -1.08426048e-005 -4.56753078e-005
      -7.40691803e-006 -1.16932506e-005 7.71513896e-007 -7.70463066e-006
      -4.69438965e-006 -6.94685923e-006 4.40243139e-006 9.34878244e-006
      1.36571080e-005 1.01600126e-005 4.18806121e-006 5.22189248e-006
      8.45943669e-006 1.09496295e-005 1.44945579e-005 1.16109686e-005
      5.28884630e-006 -6.80581297e-006 -6.34228036e-006 8.51807818e-006
      2.59633707e-005 2.02491101e-005 1.66057962e-005 9.28041482e-006
      2.33730007e-005 7.06387391e-006 4.01421357e-006 6.48433115e-006
      5.54633334e-006</_>
    <_>
      2.20094929e-008 1.06921368e-006 -2.81287042e-011 2.69809025e-005
      2.58496789e-006 2.76383048e-006 1.34211643e-006 2.87222349e-007
      1.53589042e-007 2.18770424e-006 -5.88968021e-007 2.32727257e-006
      7.77346600e-007 3.50626556e-006 3.65304004e-006 8.37519110e-006
      7.50807658e-006 7.69905364e-006 8.55451162e-006 5.74062915e-006
      7.74678847e-006 1.35930459e-005 5.17310264e-006 8.12635790e-006
      8.08996083e-006 8.44462920e-006 8.36268555e-006 5.63648609e-006
      1.39926451e-005 5.87428121e-006 6.78708284e-006 5.16472846e-006
      1.03888551e-005 5.07386721e-006 1.49549560e-005 8.58758654e-007
      1.76121307e-006 4.85813825e-006 4.18533773e-006</_>
    <_>
      9.15127862e-010 7.34572367e-008 3.26212356e-011 -1.01850983e-005
      -7.06560877e-006 -5.05405342e-006 -4.31810531e-006
      -7.11811936e-007 6.32370075e-007 -2.74747009e-007 1.10098199e-006
      1.29452872e-006 1.30332148e-006 1.63983952e-006 2.20699667e-006
      3.40719635e-006 2.84493149e-006 2.91533661e-006 3.07618552e-006
      2.79377491e-006 2.77506160e-006 3.61124489e-006 1.31205695e-006
      2.13554313e-006 2.28746671e-006 2.31726654e-006 2.02750630e-006
      5.69860731e-007 -3.28679084e-006 -4.25267535e-006 -8.02248724e-006
      -6.32452566e-006 -6.08881192e-006 -2.23641837e-006
      -3.26283498e-006 4.66871910e-007 -2.61897469e-007 -1.16752096e-006
      1.47677213e-007</_>
    <_>
      -2.16555431e-008 -4.41404563e-006 -2.47121013e-009
      -3.29530667e-005 -2.63378533e-005 -1.24219632e-005 1.26859140e-006
      1.69431933e-005 1.88921349e-005 3.13836927e-006 2.58022806e-006
      -4.83951590e-006 1.99115789e-006 7.52236383e-006 -5.42661473e-006
      -9.05180877e-006 2.05173251e-006 4.34364574e-006 8.77137495e-007
      1.16306392e-005 7.04239710e-006 1.31214110e-005 5.06891001e-006
      2.71721092e-005 4.53505600e-005 3.76570642e-005 1.81996311e-005
      5.65580740e-006 -2.60757515e-005 -7.90448667e-006 -1.47462697e-005
      -5.81099948e-006 -1.95542962e-005 -1.02416470e-005
      -1.72818691e-005 -2.91308584e-006 -6.13615430e-006
      -7.84136591e-006 -4.64308596e-006</_>
    <_>
      -2.68308824e-008 -3.22198071e-006 -3.82753651e-009
      -7.14445414e-005 -1.92565421e-005 2.19760068e-006 5.38093127e-006
      1.26330588e-005 1.93192427e-005 6.50925858e-006 1.08251734e-005
      4.06059007e-006 8.70542772e-006 6.16928401e-006 1.00413922e-006
      -4.98535655e-006 1.78072514e-006 5.25665655e-006 5.96637210e-006
      3.90133891e-006 -2.36647134e-006 -6.00417343e-006 3.03869047e-006
      1.34166785e-005 2.89402269e-005 2.33114642e-005 1.59461124e-005
      6.35198330e-006 -1.22928932e-005 2.70938703e-008 -1.11575878e-006
      9.86100167e-006 -9.56608164e-006 9.53058043e-006 -2.12029699e-005
      2.05806828e-005 7.61389947e-006 -1.05472873e-006 1.01575358e-006</_>
    <_>
      4.26976321e-008 -2.20400040e-007 1.26218105e-010 2.23931529e-005
      7.34134483e-006 8.65376387e-006 9.98668929e-006 1.08274580e-005
      7.13627924e-006 1.24064627e-005 2.70686451e-006 5.39322264e-006
      2.33774654e-006 5.43423585e-006 5.16765067e-006 1.31857114e-005
      7.46438400e-006 7.30033162e-006 7.89502155e-006 5.04461104e-006
      4.22434914e-006 1.17707596e-005 3.32206105e-006 5.35220943e-006
      6.19297816e-006 5.24967663e-006 6.27500413e-006 6.74665489e-006
      1.35548289e-005 7.68995596e-006 7.15678561e-006 5.18815705e-006
      8.05907439e-006 5.78284698e-006 1.14426548e-005 3.83472479e-006
      3.11699546e-006 7.71046234e-006 7.83350151e-006</_>
    <_>
      1.30508715e-009 -1.99232730e-007 8.11602105e-011 -8.08930236e-006
      -6.35141078e-006 -4.78417951e-006 -3.38192012e-006
      -6.54198189e-008 1.40794828e-006 5.17669832e-007 7.62283094e-007
      6.94018922e-007 7.67971756e-007 9.81297262e-007 1.05809443e-006
      1.10360384e-006 1.31124068e-006 1.12920293e-006 7.85037798e-007
      5.57490637e-007 3.72608525e-007 3.64075504e-007 -3.98207582e-008
      7.85037798e-007 2.03939180e-006 1.51887753e-006 5.23358551e-007
      -1.99103795e-007 -2.67652376e-006 -4.57654278e-006
      -8.01534952e-006 -6.41967517e-006 -6.60740170e-006
      -3.22832580e-006 -2.86709451e-006 -3.18566066e-007
      -3.89674568e-007 -6.48509513e-007 2.47457564e-007</_>
    <_>
      1.21866552e-008 9.74788122e-007 -2.61824518e-009 -4.79107512e-005
      1.99211863e-005 2.32187740e-005 8.46612784e-006 2.72314446e-006
      9.99242184e-006 6.77779735e-006 9.92036712e-006 6.97536916e-006
      -5.98997076e-007 -1.99404458e-005 -7.16552995e-006
      -1.16810179e-005 -1.68531938e-006 2.60660454e-006 7.68743303e-006
      -6.35660626e-006 -8.64865251e-006 -1.78530390e-005 6.54205405e-006
      1.60802728e-007 1.69482610e-006 1.02212903e-006 1.89862458e-005
      1.90757346e-005 4.66371857e-005 2.21130376e-005 3.50428090e-005
      3.58102370e-005 3.28207752e-005 4.17928641e-005 1.79828949e-005
      3.25710644e-005 2.07314479e-005 6.90491970e-006 2.40831032e-005</_>
    <_>
      1.21669439e-008 5.02550748e-008 1.70448627e-010 1.44609703e-005
      4.21268169e-006 3.82270264e-006 3.48260437e-006 2.28999374e-006
      1.55538191e-006 5.64109359e-006 1.48282766e-006 2.82961605e-006
      1.09284849e-006 2.10407347e-006 2.24464725e-006 4.50289872e-006
      1.89094533e-006 1.73676756e-006 2.28545900e-006 1.23342238e-006
      1.08831387e-006 3.47353512e-006 6.84730821e-007 1.31504589e-006
      1.76397543e-006 1.84106432e-006 2.20383549e-006 2.58474552e-006
      8.49791741e-006 3.30121861e-006 3.37377287e-006 2.23104348e-006
      4.10838493e-006 2.73438854e-006 6.26687415e-006 1.63700543e-006
      2.07233097e-006 2.87496255e-006 2.72531929e-006</_>
    <_>
      2.45574783e-009 -6.91681876e-008 2.28962904e-010 -7.15124543e-006
      -6.29267697e-006 -5.28403370e-006 -3.12714292e-006
      -5.58418378e-007 5.47948048e-007 8.06216519e-007 1.09240591e-006
      1.15871819e-006 9.10919994e-007 1.32275352e-006 1.81136966e-006
      2.90028538e-006 2.75370053e-006 1.64733422e-006 1.43443719e-006
      1.06448499e-006 1.06448499e-006 6.91042771e-007 -4.78145751e-007
      -7.78295600e-007 -5.72378838e-007 -6.66611925e-007
      -5.79359096e-007 -4.78145751e-007 -3.00149873e-006
      -5.43061878e-006 -9.13363056e-006 -8.35184528e-006
      -7.69570306e-006 -3.69952181e-006 -2.42912006e-006
      -5.93319527e-008 2.40817940e-007 7.46884609e-007 1.17267859e-006</_>
    <_>
      1.30072069e-008 -2.54270631e-008 2.71616535e-010 1.73093031e-005
      3.91399453e-006 2.85355281e-006 3.39823418e-006 2.54024030e-006
      1.34001289e-006 5.72156614e-006 1.00741977e-006 2.22210770e-006
      5.59142109e-007 2.06786171e-006 1.77383004e-006 4.51651840e-006
      1.90397520e-006 1.74008869e-006 2.17872616e-006 1.84613293e-006
      1.80757138e-006 4.82019050e-006 7.03747787e-007 1.77865024e-006
      2.05340120e-006 2.20764719e-006 2.13052408e-006 2.56434123e-006
      7.43273358e-006 2.52095970e-006 2.28959038e-006 7.90511251e-007
      3.12830366e-006 1.16166586e-006 6.15056297e-006 9.64038094e-009
      1.08454287e-006 2.38117400e-006 2.09196264e-006</_>
    <_>
      1.48967527e-009 -5.66669591e-008 2.60826527e-010 -4.10289431e-006
      -5.39397615e-006 -4.48377750e-006 -3.46715592e-006
      -8.79391735e-007 2.80061063e-009 6.44140457e-008 1.65236031e-007
      7.70167901e-007 8.34581954e-007 1.45911815e-006 1.44231444e-006
      2.21808364e-006 1.54313648e-006 7.00152668e-007 6.55342888e-007
      4.59300139e-007 9.24201515e-008 1.96042748e-007 -5.76925800e-007
      -9.07397805e-007 -6.60944124e-007 -7.84170993e-007
      -1.15385160e-006 -1.17345587e-006 -3.33832782e-006
      -4.86185991e-006 -8.52505855e-006 -7.57285125e-006
      -7.13035479e-006 -4.66861775e-006 -2.99945395e-006
      -1.36389735e-006 -1.43671321e-006 -1.27707847e-006
      -5.68523944e-007</_>
    <_>
      -1.99841521e-009 -2.56809720e-008 2.20456639e-011 -6.16305124e-006
      -2.96194412e-006 -2.51427969e-006 -2.17393199e-006
      -9.64829269e-007 -2.24854276e-007 -1.32561820e-006
      -1.56375933e-007 -4.40509979e-007 -5.51915065e-008
      -3.67943358e-007 -2.02368852e-007 -7.82901736e-007
      -1.04250624e-007 -1.62508314e-007 -4.23134878e-007
      -3.65899240e-007 -3.50568257e-007 -1.10894041e-006
      -2.89244383e-007 -6.39812640e-007 -6.72518695e-007
      -7.14423379e-007 -7.93122354e-007 -9.13726012e-007
      -3.03042248e-006 -2.51734582e-006 -3.70702946e-006
      -2.94661322e-006 -3.32886543e-006 -1.85095951e-006
      -2.57764782e-006 -5.13076600e-007 -7.10335087e-007
      -1.05374897e-006 -7.78813444e-007</_></support_vectors>
  <decision_functions>
    <_>
      <sv_count>1</sv_count>
      <rho>3.6283615912714509e+000</rho>
      <alpha>
        1.</alpha>
      <index>
        0</index></_>
    <_>
      <sv_count>1</sv_count>
      <rho>1.1332539902450673e+000</rho>
      <alpha>
        1.</alpha>
      <index>
        1</index></_>
    <_>
      <sv_count>1</sv_count>
      <rho>1.8115916656784510e+000</rho>
      <alpha>
        1.</alpha>
      <index>
        2</index></_>
    <_>
      <sv_count>1</sv_count>
      <rho>1.9415285450894266e+000</rho>
      <alpha>
        1.</alpha>
      <index>
        3</index></_>
    <_>
      <sv_count>1</sv_count>
      <rho>4.7257179887140852e+000</rho>
      <alpha>
        1.</alpha>
      <index>
        4</index></_>
    <_>
      <sv_count>1</sv_count>
      <rho>1.6222767904993169e+000</rho>
      <alpha>
        1.</alpha>
      <index>
        5</index></_>
    <_>
      <sv_count>1</sv_count>
      <rho>-2.8918693940562199e+000</rho>
      <alpha>
        1.</alpha>
      <index>
        6</index></_>
    <_>
      <sv_count>1</sv_count>
      <rho>-2.1872994126092764e+000</rho>
      <alpha>
        1.</alpha>
      <index>
        7</index></_>
    <_>
      <sv_count>1</sv_count>
      <rho>-8.7668765937743987e-001</rho>
      <alpha>
        1.</alpha>
      <index>
        8</index></_>
    <_>
      <sv_count>1</sv_count>
      <rho>-4.1747385289070804e+000</rho>
      <alpha>
        1.</alpha>
      <index>
        9</index></_>
    <_>
      <sv_count>1</sv_count>
      <rho>-4.0878695518287111e+000</rho>
      <alpha>
        1.</alpha>
      <index>
        10</index></_>
    <_>
      <sv_count>1</sv_count>
      <rho>2.4534404167129686e+000</rho>
      <alpha>
        1.</alpha>
      <index>
        11</index></_>
    <_>
      <sv_count>1</sv_count>
      <rho>-1.9630130155765539e+000</rho>
      <alpha>
        1.</alpha>
      <index>
        12</index></_>
    <_>
      <sv_count>1</sv_count>
      <rho>1.1642286950463054e+000</rho>
      <alpha>
        1.</alpha>
      <index>
        13</index></_>
    <_>
      <sv_count>1</sv_count>
      <rho>-1.2243232011990011e+000</rho>
      <alpha>
        1.</alpha>
      <index>
        14</index></_>
    <_>
      <sv_count>1</sv_count>
      <rho>-9.4483103662715884e-001</rho>
      <alpha>
        1.</alpha>
      <index>
        15</index></_>
    <_>
      <sv_count>1</sv_count>
      <rho>2.2920476020632945e+000</rho>
      <alpha>
        1.</alpha>
      <index>
        16</index></_>
    <_>
      <sv_count>1</sv_count>
      <rho>-2.3063927712096310e+000</rho>
      <alpha>
        1.</alpha>
      <index>
        17</index></_>
    <_>
      <sv_count>1</sv_count>
      <rho>-2.8804127640957402e+000</rho>
      <alpha>
        1.</alpha>
      <index>
        18</index></_>
    <_>
      <sv_count>1</sv_count>
      <rho>-3.5002301161488361e+000</rho>
      <alpha>
        1.</alpha>
      <index>
        19</index></_>
    <_>
      <sv_count>1</sv_count>
      <rho>2.4791963105928541e+000</rho>
      <alpha>
        1.</alpha>
      <index>
        20</index></_>
    <_>
      <sv_count>1</sv_count>
      <rho>-2.2668986555783834e+000</rho>
      <alpha>
        1.</alpha>
      <index>
        21</index></_>
    <_>
      <sv_count>1</sv_count>
      <rho>3.7751619459153329e+000</rho>
      <alpha>
        1.</alpha>
      <index>
        22</index></_>
    <_>
      <sv_count>1</sv_count>
      <rho>1.6941517187514026e+000</rho>
      <alpha>
        1.</alpha>
      <index>
        23</index></_>
    <_>
      <sv_count>1</sv_count>
      <rho>-2.4402807280882191e+000</rho>
      <alpha>
        1.</alpha>
      <index>
        24</index></_>
    <_>
      <sv_count>1</sv_count>
      <rho>1.6477180996858183e+000</rho>
      <alpha>
        1.</alpha>
      <index>
        25</index></_>
    <_>
      <sv_count>1</sv_count>
      <rho>-2.2427890998622457e+000</rho>
      <alpha>
        1.</alpha>
      <index>
        26</index></_>
    <_>
      <sv_count>1</sv_count>
      <rho>-1.3190865810771248e+000</rho>
      <alpha>
        1.</alpha>
      <index>
        27</index></_></decision_functions></svm>
</opencv_storage>
