<?xml version="1.0"?>
<opencv_storage>
<svm type_id="opencv-ml-svm">
  <svm_type>C_SVC</svm_type>
  <kernel><type>LINEAR</type></kernel>
  <C>1.</C>
  <term_criteria><epsilon>2.2204460492503131e-016</epsilon>
    <iterations>100</iterations></term_criteria>
  <var_all>141</var_all>
  <var_count>141</var_count>
  <class_count>8</class_count>
  <class_labels type_id="opencv-matrix">
    <rows>1</rows>
    <cols>8</cols>
    <dt>i</dt>
    <data>
      1 2 3 4 5 6 7 8</data></class_labels>
  <sv_total>28</sv_total>
  <support_vectors>
    <_>
      -2.32142142e-007 -1.28326320e-007 4.59697475e-010 1.01218092e-007
      -1.50270574e-010 1.47210885e-005 4.20648848e-006 4.94457163e-006
      6.61016293e-006 6.49240064e-006 4.17773254e-006 7.67366510e-006
      3.22044912e-006 3.65612800e-006 1.53235112e-006 1.77675861e-006
      1.77906600e-006 4.90830053e-006 1.49925438e-006 1.32600189e-006
      1.90539731e-006 1.70074873e-006 2.74719901e-006 5.60872559e-006
      1.77486436e-006 3.10400742e-006 4.19768503e-006 4.98022246e-006
      3.16816727e-006 1.67568851e-006 7.20225842e-007 -1.38680591e-007
      2.85625265e-006 4.49934350e-006 5.48672233e-006 3.23776840e-006
      7.86822784e-006 3.42213048e-006 1.96376186e-006 1.59122817e-006
      6.93169738e-007 -8.94270702e-009 -5.84010174e-009 -5.77924997e-009
      -4.13666967e-009 -4.44843096e-009 -2.55494093e-009 8.59426030e-010
      -1.51295998e-009 -8.03743561e-009 -1.06761506e-008
      -1.47748915e-008 -1.63261955e-008 -1.53604862e-008
      -1.07599254e-008 -5.56626922e-009 -3.17096038e-009
      -3.38394113e-009 -2.47908338e-009 -5.23950217e-009
      -5.33077982e-009 -4.52470239e-009 -2.94297364e-009 4.71393202e-010
      6.23522345e-010 5.16987883e-026 5.93096516e-010 3.49689888e-010
      -4.25961544e-010 2.03019890e-009 3.36852102e-009 3.64985642e-009
      4.39508208e-009 4.70684336e-009 4.05289491e-009 3.71070819e-009
      4.08332079e-009 5.57377211e-009 5.14030774e-009 5.85510751e-009
      6.19729423e-009 6.56990728e-009 6.25814600e-009 6.28857189e-009
      5.63462388e-009 3.92368893e-009 2.58536681e-009 1.93141858e-009
      1.61965741e-009 -4.65390881e-009 -9.80963666e-009 -8.94270702e-009
      -5.84010174e-009 -5.77924997e-009 -4.13666967e-009
      -4.44843096e-009 -2.55494093e-009 8.59426030e-010 -1.51295998e-009
      -8.03743561e-009 -1.06761506e-008 -1.47748915e-008
      -1.63261955e-008 -1.53604862e-008 -1.07599254e-008
      -5.56626922e-009 -3.17096038e-009 -3.38394113e-009
      -2.47908338e-009 -5.23950217e-009 -5.33077982e-009
      -4.52470239e-009 -2.94297364e-009 4.71393202e-010 6.23522345e-010
      5.16987883e-026 5.93096516e-010 3.49689888e-010 -4.25961544e-010
      2.03019890e-009 3.36852102e-009 3.64985642e-009 4.39508208e-009
      4.70684336e-009 4.05289491e-009 3.71070819e-009 4.08332079e-009
      5.57377211e-009 5.14030774e-009 5.85510751e-009 6.19729423e-009
      6.56990728e-009 6.25814600e-009 6.28857189e-009 5.63462388e-009
      3.92368893e-009 2.58536681e-009 1.93141858e-009 1.61965741e-009
      -4.65390881e-009 -9.80963666e-009</_>
    <_>
      -1.93874694e-005 -1.00948114e-006 3.88172019e-008 -3.61131833e-006
      -1.53028590e-009 6.53090228e-006 7.08353991e-006 -7.92591379e-007
      2.09680147e-005 2.55785799e-005 3.03565066e-005 2.71656445e-005
      1.18728503e-005 -2.34263098e-006 -2.07911035e-006 -8.24044855e-006
      -1.44891146e-005 -2.55946979e-005 -2.07923240e-005
      -2.68754193e-005 -2.43467784e-005 -1.28469501e-005 1.57414854e-006
      -1.22876545e-005 6.66901940e-007 -9.78774460e-006 -1.23515210e-005
      -3.17553281e-006 8.66414939e-006 1.37242541e-005 -2.67745472e-005
      6.09370181e-006 -8.37559412e-007 1.88205686e-005 -6.52074959e-006
      2.36650203e-006 -4.10381574e-007 2.05252891e-005 2.60314232e-006
      -7.21036668e-006 -1.63986715e-005 5.60931639e-008 2.98101277e-008
      8.73190942e-009 -3.07393222e-008 -7.83770560e-008 -1.06194186e-007
      -1.04003739e-007 -5.74653853e-008 -1.95271017e-008 4.14534185e-008
      5.77711319e-008 4.57934348e-008 4.20234336e-008 7.37967980e-008
      8.62594902e-008 8.58751008e-008 8.52847961e-008 8.53052740e-008
      9.89463587e-008 8.30693736e-008 7.09686319e-008 5.52546382e-008
      3.76136882e-008 1.70241456e-008 4.86115370e-009 1.45031880e-008
      3.50196210e-008 6.89745860e-008 1.09607520e-007 1.24987466e-007
      1.37949385e-007 1.35694307e-007 1.28859327e-007 1.32932456e-007
      1.20274706e-007 1.03351056e-007 9.45628216e-008 7.25324441e-008
      6.04711872e-008 4.51905890e-008 4.92469496e-008 4.52096636e-008
      4.47266508e-008 5.26080335e-008 8.80146231e-008 1.15326863e-007
      1.02484655e-007 9.56185957e-008 8.38937737e-008 7.26072784e-008
      5.60931639e-008 2.98101277e-008 8.73190942e-009 -3.07393222e-008
      -7.83770560e-008 -1.06194186e-007 -1.04003739e-007
      -5.74653853e-008 -1.95271017e-008 4.14534185e-008 5.77711319e-008
      4.57934348e-008 4.20234336e-008 7.37967980e-008 8.62594902e-008
      8.58751008e-008 8.52847961e-008 8.53052740e-008 9.89463587e-008
      8.30693736e-008 7.09686319e-008 5.52546382e-008 3.76136882e-008
      1.70241456e-008 4.86115370e-009 1.45031880e-008 3.50196210e-008
      6.89745860e-008 1.09607520e-007 1.24987466e-007 1.37949385e-007
      1.35694307e-007 1.28859327e-007 1.32932456e-007 1.20274706e-007
      1.03351056e-007 9.45628216e-008 7.25324441e-008 6.04711872e-008
      4.51905890e-008 4.92469496e-008 4.52096636e-008 4.47266508e-008
      5.26080335e-008 8.80146231e-008 1.15326863e-007 1.02484655e-007
      9.56185957e-008 8.38937737e-008 7.26072784e-008</_>
    <_>
      -2.29986599e-005 -5.06690299e-007 -3.00671460e-010 2.57247939e-006
      -1.40401890e-009 1.12218177e-005 5.02944704e-006 2.60061029e-006
      2.66061124e-006 2.60981710e-006 3.61935736e-006 -7.26331245e-006
      5.66170047e-006 2.60235964e-007 -2.05489482e-006 -8.09799712e-006
      -6.66907408e-006 -8.36604522e-006 -9.08509901e-006
      -5.81264658e-006 -7.70879342e-006 -3.73750709e-006 5.59799537e-006
      -2.08542338e-006 2.34170420e-006 -7.92210358e-006 -2.18786608e-005
      -8.59741067e-006 9.60506259e-006 1.22420433e-005 -7.11693338e-006
      1.59137126e-005 2.52413429e-005 2.07835328e-005 2.07431949e-005
      9.49077366e-006 1.44384967e-005 1.20341074e-005 -3.54057147e-006
      -1.16855454e-005 -2.36478190e-005 -1.75912021e-007
      -1.64360856e-007 -1.48483565e-007 -1.36417626e-007
      -1.30545786e-007 -1.17764863e-007 -1.07114914e-007
      -1.01839596e-007 -1.07009072e-007 -1.09912904e-007
      -1.22499927e-007 -1.10814113e-007 -1.00287579e-007
      -9.09203237e-008 -7.33514014e-008 -5.63663889e-008
      -3.67997934e-008 -1.46516133e-008 3.29878724e-009 1.45340024e-008
      1.27252742e-008 1.12387966e-008 9.36589117e-009 -3.80640675e-009
      2.06795153e-024 -9.16346909e-009 -4.76684825e-009 2.59147348e-009
      2.10552908e-008 2.17689138e-008 1.56389977e-008 5.76190606e-009
      -5.01639486e-009 -2.38038282e-008 -4.59456970e-008
      -6.59565913e-008 -8.10610246e-008 -9.70024914e-008
      -1.17335638e-007 -1.42896127e-007 -1.82789549e-007
      -2.36950385e-007 -2.90984218e-007 -3.16682105e-007
      -2.44583475e-007 -1.86034555e-007 -1.89845920e-007
      -1.89008887e-007 -1.90496721e-007 -1.89659687e-007
      -1.75912021e-007 -1.64360856e-007 -1.48483565e-007
      -1.36417626e-007 -1.30545786e-007 -1.17764863e-007
      -1.07114914e-007 -1.01839596e-007 -1.07009072e-007
      -1.09912904e-007 -1.22499927e-007 -1.10814113e-007
      -1.00287579e-007 -9.09203237e-008 -7.33514014e-008
      -5.63663889e-008 -3.67997934e-008 -1.46516133e-008 3.29878724e-009
      1.45340024e-008 1.27252742e-008 1.12387966e-008 9.36589117e-009
      -3.80640675e-009 2.06795153e-024 -9.16346909e-009 -4.76684825e-009
      2.59147348e-009 2.10552908e-008 2.17689138e-008 1.56389977e-008
      5.76190606e-009 -5.01639486e-009 -2.38038282e-008 -4.59456970e-008
      -6.59565913e-008 -8.10610246e-008 -9.70024914e-008
      -1.17335638e-007 -1.42896127e-007 -1.82789549e-007
      -2.36950385e-007 -2.90984218e-007 -3.16682105e-007
      -2.44583475e-007 -1.86034555e-007 -1.89845920e-007
      -1.89008887e-007 -1.90496721e-007 -1.89659687e-007</_>
    <_>
      5.18326608e-008 4.19853166e-008 -2.49582595e-008 1.31536729e-006
      -2.57414068e-009 1.43179568e-005 -9.11207644e-006 -4.59398007e-006
      6.26921019e-006 1.08271270e-005 1.80065963e-005 -1.25984561e-005
      8.57698251e-006 -3.16558021e-006 2.64911637e-006 -1.75218543e-006
      -6.58959470e-006 -1.73119988e-005 -7.21124161e-006
      -3.31757929e-006 7.44459157e-007 1.00315328e-005 1.64084777e-005
      1.53398341e-005 1.02687291e-005 1.62044980e-005 1.37794968e-005
      1.52686316e-005 1.78546816e-005 2.44847797e-006 -2.39187520e-005
      1.09883581e-006 1.05737181e-005 1.95936864e-005 7.10346376e-006
      5.16496311e-006 7.78270623e-006 1.04791243e-005 -1.01388741e-005
      -1.15726807e-005 -1.35171085e-005 -1.54798641e-007
      -1.55797736e-007 -2.16453600e-007 -2.52593082e-007
      -2.56345714e-007 -2.50005797e-007 -2.20670032e-007
      -1.78029538e-007 -1.48519959e-007 -1.15886436e-007
      -8.43939247e-008 -5.15470191e-008 -2.91669888e-008
      -1.42346197e-008 -1.07572129e-009 7.87958943e-009 2.25819399e-008
      3.19844311e-008 3.57970542e-008 3.56679912e-008 3.37616797e-008
      2.65274025e-008 1.87730969e-008 1.00796900e-008 1.65436123e-024
      1.33441755e-008 3.48336222e-008 5.77055737e-008 7.11750374e-008
      7.11469283e-008 7.05706853e-008 7.64186794e-008 6.80881271e-008
      5.51349224e-008 4.87387908e-008 3.45883535e-008 2.59959005e-008
      1.75362906e-008 2.28958186e-009 -1.14698890e-008 -2.45521612e-008
      -3.57281209e-008 -5.80800439e-008 -8.08510379e-008
      -1.02682932e-007 -1.23027590e-007 -1.42014073e-007
      -1.50316509e-007 -1.59110883e-007 -1.59473743e-007
      -1.54798641e-007 -1.55797736e-007 -2.16453600e-007
      -2.52593082e-007 -2.56345714e-007 -2.50005797e-007
      -2.20670032e-007 -1.78029538e-007 -1.48519959e-007
      -1.15886436e-007 -8.43939247e-008 -5.15470191e-008
      -2.91669888e-008 -1.42346197e-008 -1.07572129e-009 7.87958943e-009
      2.25819399e-008 3.19844311e-008 3.57970542e-008 3.56679912e-008
      3.37616797e-008 2.65274025e-008 1.87730969e-008 1.00796900e-008
      1.65436123e-024 1.33441755e-008 3.48336222e-008 5.77055737e-008
      7.11750374e-008 7.11469283e-008 7.05706853e-008 7.64186794e-008
      6.80881271e-008 5.51349224e-008 4.87387908e-008 3.45883535e-008
      2.59959005e-008 1.75362906e-008 2.28958186e-009 -1.14698890e-008
      -2.45521612e-008 -3.57281209e-008 -5.80800439e-008
      -8.08510379e-008 -1.02682932e-007 -1.23027590e-007
      -1.42014073e-007 -1.50316509e-007 -1.59110883e-007
      -1.59473743e-007</_>
    <_>
      -6.15149702e-007 2.16087663e-008 -1.63484550e-008 1.16434796e-006
      -1.72180714e-009 1.57368286e-005 -2.43787827e-006 3.05669732e-006
      6.62707544e-006 9.02979355e-006 1.29768578e-005 -3.01567570e-006
      5.91225626e-006 -4.85140617e-007 -9.34220381e-008 -5.97360258e-006
      -7.44079216e-006 -1.68252282e-005 -7.84718759e-006
      -1.87560499e-006 -8.57634006e-007 5.26507108e-007 4.74982380e-006
      1.74927175e-006 4.34324875e-006 5.71244209e-006 7.57453290e-006
      9.25887889e-006 1.16641195e-005 4.97187284e-006 -8.21663798e-006
      1.26646933e-006 1.21355924e-005 1.65297151e-005 9.87627482e-006
      1.30697217e-005 1.45555459e-005 1.53937217e-005 1.65181234e-006
      -1.32072523e-006 -2.72877492e-006 -8.26770687e-008
      -7.99745479e-008 -7.29867224e-008 -5.85147433e-008
      -4.19336637e-008 -2.89641289e-008 -1.87141396e-008
      -5.26846178e-010 8.76595507e-009 1.28458568e-008 1.39133141e-008
      1.42392036e-008 1.56264957e-008 1.71271139e-008 1.83384632e-008
      1.82328694e-008 2.02634212e-008 2.27164101e-008 2.14757847e-008
      2.04238297e-008 1.71928338e-008 1.30993989e-008 8.68901395e-009
      4.46713155e-009 -1.03397577e-025 5.61728664e-009 1.41702268e-008
      2.42208849e-008 3.00737462e-008 2.98376044e-008 2.61283297e-008
      2.65159681e-008 1.97897840e-008 1.21692629e-008 2.51070698e-009
      -1.06153255e-008 -2.28454731e-008 -3.73374682e-008
      -5.28569046e-008 -7.12139681e-008 -8.62154366e-008
      -1.11672804e-007 -1.33324775e-007 -1.46615520e-007
      -1.53443168e-007 -1.43250062e-007 -1.10187322e-007
      -9.51284420e-008 -9.12355631e-008 -8.43598116e-008
      -8.26770687e-008 -7.99745479e-008 -7.29867224e-008
      -5.85147433e-008 -4.19336637e-008 -2.89641289e-008
      -1.87141396e-008 -5.26846178e-010 8.76595507e-009 1.28458568e-008
      1.39133141e-008 1.42392036e-008 1.56264957e-008 1.71271139e-008
      1.83384632e-008 1.82328694e-008 2.02634212e-008 2.27164101e-008
      2.14757847e-008 2.04238297e-008 1.71928338e-008 1.30993989e-008
      8.68901395e-009 4.46713155e-009 -1.03397577e-025 5.61728664e-009
      1.41702268e-008 2.42208849e-008 3.00737462e-008 2.98376044e-008
      2.61283297e-008 2.65159681e-008 1.97897840e-008 1.21692629e-008
      2.51070698e-009 -1.06153255e-008 -2.28454731e-008 -3.73374682e-008
      -5.28569046e-008 -7.12139681e-008 -8.62154366e-008
      -1.11672804e-007 -1.33324775e-007 -1.46615520e-007
      -1.53443168e-007 -1.43250062e-007 -1.10187322e-007
      -9.51284420e-008 -9.12355631e-008 -8.43598116e-008</_>
    <_>
      4.67325066e-007 2.46665337e-008 1.05143194e-009 2.51009524e-008
      -5.12777321e-011 7.89923342e-006 1.82771760e-006 2.09430414e-006
      2.75617026e-006 2.44947296e-006 1.70139492e-006 3.02909666e-006
      1.34874131e-006 1.39850022e-006 5.89946922e-007 9.78200774e-007
      8.40739460e-007 2.25423605e-006 6.20993148e-007 6.30186150e-007
      1.12298869e-006 1.09521909e-006 1.34836114e-006 2.74849936e-006
      6.80188805e-007 1.46378170e-006 1.64916241e-006 1.92296625e-006
      2.19235608e-006 1.96755423e-006 4.38534516e-006 2.48361903e-006
      2.85332749e-006 2.39790961e-006 2.81462394e-006 1.94654126e-006
      3.86131524e-006 1.77795323e-006 8.23444452e-007 9.19150580e-007
      6.88851628e-007 -1.27211675e-009 -1.11469878e-009 -1.05836073e-009
      -6.97235936e-010 1.24606835e-012 1.28988972e-010 1.49545862e-010
      3.70140474e-010 3.59475255e-010 4.57344551e-010 4.82302975e-010
      6.57067234e-010 5.30097855e-010 6.01502737e-010 6.34846842e-010
      4.90373631e-010 8.38396130e-010 1.18869814e-009 1.17347387e-009
      1.15824961e-009 1.06172882e-009 6.73366085e-010 3.76191522e-010
      2.81950269e-010 2.58493941e-026 4.67379691e-010 1.12552145e-009
      1.90224703e-009 1.93802818e-009 1.52682900e-009 1.19920585e-009
      9.96272620e-010 3.84419691e-010 -1.11129057e-010 -4.23527879e-010
      -8.11890610e-010 -1.00265263e-009 -8.48445314e-010
      -9.52578239e-010 -9.52578239e-010 -1.21625121e-009
      -1.78699033e-009 -2.27720642e-009 -2.46035636e-009
      -2.63817368e-009 -2.60772515e-009 -2.29304664e-009
      -1.86890281e-009 -1.64541269e-009 -1.41431034e-009
      -1.27211675e-009 -1.11469878e-009 -1.05836073e-009
      -6.97235936e-010 1.24606835e-012 1.28988972e-010 1.49545862e-010
      3.70140474e-010 3.59475255e-010 4.57344551e-010 4.82302975e-010
      6.57067234e-010 5.30097855e-010 6.01502737e-010 6.34846842e-010
      4.90373631e-010 8.38396130e-010 1.18869814e-009 1.17347387e-009
      1.15824961e-009 1.06172882e-009 6.73366085e-010 3.76191522e-010
      2.81950269e-010 2.58493941e-026 4.67379691e-010 1.12552145e-009
      1.90224703e-009 1.93802818e-009 1.52682900e-009 1.19920585e-009
      9.96272620e-010 3.84419691e-010 -1.11129057e-010 -4.23527879e-010
      -8.11890610e-010 -1.00265263e-009 -8.48445314e-010
      -9.52578239e-010 -9.52578239e-010 -1.21625121e-009
      -1.78699033e-009 -2.27720642e-009 -2.46035636e-009
      -2.63817368e-009 -2.60772515e-009 -2.29304664e-009
      -1.86890281e-009 -1.64541269e-009 -1.41431034e-009</_>
    <_>
      -2.74151120e-007 -2.39208600e-008 9.11434886e-011 -1.36279521e-008
      -2.20193655e-011 -5.41982808e-006 -5.59899036e-006
      -4.26427550e-006 -2.71007525e-006 -1.80029488e-007 1.06795289e-006
      -1.47985219e-007 8.05670254e-007 4.96614007e-007 5.22748110e-007
      3.52080519e-007 5.37020526e-007 1.07421579e-006 6.06799858e-007
      6.62467869e-007 4.80760548e-007 7.19873356e-007 1.01537796e-006
      9.09110213e-007 4.38884911e-007 9.56759550e-007 1.18630476e-006
      1.32825426e-006 1.74523143e-006 1.05092488e-006 -2.72480770e-006
      -4.17214187e-006 -7.07503204e-006 -5.41559757e-006
      -5.50000050e-006 -2.33659603e-006 -2.01599573e-006 6.57059275e-007
      -4.31220315e-007 -1.05854781e-006 -9.90970534e-007 2.52454346e-009
      2.66888533e-009 3.41120066e-009 3.92876087e-009 4.35009317e-009
      4.49855619e-009 4.62296246e-009 4.30955094e-009 4.15696633e-009
      4.06073841e-009 3.86416144e-009 2.58780064e-009 1.81730697e-009
      -2.93475910e-010 -1.45300227e-009 -1.66951497e-009
      -1.93826288e-009 -1.93414151e-009 -1.78155701e-009
      -1.17946197e-009 1.12713193e-010 6.58451627e-010 4.05518036e-010
      -2.44690906e-010 -2.58493941e-026 -3.69097058e-010 2.85233226e-010
      1.16019749e-009 2.13138951e-009 8.15157386e-010 -5.29253086e-010
      -7.05894454e-010 -7.54008356e-010 -1.99806971e-009
      -2.17058971e-009 -1.79737136e-009 -1.35198208e-009
      -9.50585388e-010 -6.01423966e-010 -3.00376418e-010
      -3.45025744e-012 2.06067004e-011 -1.03799427e-010 -1.80091636e-010
      -7.97424696e-011 1.93126751e-010 3.41589840e-010 2.17183702e-010
      1.21243271e-009 1.88257721e-009 2.52454346e-009 2.66888533e-009
      3.41120066e-009 3.92876087e-009 4.35009317e-009 4.49855619e-009
      4.62296246e-009 4.30955094e-009 4.15696633e-009 4.06073841e-009
      3.86416144e-009 2.58780064e-009 1.81730697e-009 -2.93475910e-010
      -1.45300227e-009 -1.66951497e-009 -1.93826288e-009
      -1.93414151e-009 -1.78155701e-009 -1.17946197e-009 1.12713193e-010
      6.58451627e-010 4.05518036e-010 -2.44690906e-010 -2.58493941e-026
      -3.69097058e-010 2.85233226e-010 1.16019749e-009 2.13138951e-009
      8.15157386e-010 -5.29253086e-010 -7.05894454e-010 -7.54008356e-010
      -1.99806971e-009 -2.17058971e-009 -1.79737136e-009
      -1.35198208e-009 -9.50585388e-010 -6.01423966e-010
      -3.00376418e-010 -3.45025744e-012 2.06067004e-011 -1.03799427e-010
      -1.80091636e-010 -7.97424696e-011 1.93126751e-010 3.41589840e-010
      2.17183702e-010 1.21243271e-009 1.88257721e-009</_>
    <_>
      -1.76397145e-006 6.77181617e-007 1.89778788e-008 -4.72463671e-006
      -1.20810534e-012 -3.56793353e-005 1.06962871e-005 -1.04833871e-005
      -5.74155592e-006 -8.38394317e-006 -3.81900281e-006 1.16246497e-006
      -8.71442126e-007 -4.85848977e-006 -3.92405718e-006
      -3.38418499e-006 -8.08693676e-006 -1.57836057e-005
      -1.92868538e-005 -1.75913538e-005 -1.38749110e-005
      -9.31572959e-006 -1.65092697e-005 -2.16692242e-005
      -1.11784666e-005 -1.77785369e-005 -1.38093328e-005
      -1.14277555e-005 2.00078034e-006 1.26857367e-005 2.08570091e-005
      2.05840715e-005 1.28866520e-006 -1.33027070e-005 -2.41232738e-005
      -1.22865640e-005 -1.36778608e-005 5.08570020e-006 6.51995242e-006
      7.65193454e-006 2.88051979e-006 1.43957564e-007 1.28446118e-007
      1.55345148e-007 1.37318324e-007 1.08076392e-007 8.10951164e-008
      5.42365264e-008 2.03918677e-008 1.09609024e-008 -2.01642703e-008
      -1.16803012e-008 2.05573603e-008 4.21345590e-008 5.76958676e-008
      6.39890700e-008 3.88989392e-008 3.38117658e-008 1.75970865e-008
      2.28928769e-008 2.93920888e-008 3.93131039e-008 3.85616836e-008
      2.94337923e-008 1.51491317e-008 3.36569395e-009 9.80170078e-009
      1.72564079e-008 3.00542133e-008 4.29889297e-008 6.49496812e-008
      6.99725362e-008 6.82052672e-008 8.24635080e-008 9.15248677e-008
      1.11577563e-007 1.08925207e-007 1.02373292e-007 8.81911433e-008
      7.57869003e-008 6.41510027e-008 5.38083782e-008 5.46393260e-008
      6.49200871e-008 9.85931550e-008 1.08217876e-007 1.04970383e-007
      1.04585361e-007 1.03313809e-007 1.11250465e-007 1.22736893e-007
      1.43957564e-007 1.28446118e-007 1.55345148e-007 1.37318324e-007
      1.08076392e-007 8.10951164e-008 5.42365264e-008 2.03918677e-008
      1.09609024e-008 -2.01642703e-008 -1.16803012e-008 2.05573603e-008
      4.21345590e-008 5.76958676e-008 6.39890700e-008 3.88989392e-008
      3.38117658e-008 1.75970865e-008 2.28928769e-008 2.93920888e-008
      3.93131039e-008 3.85616836e-008 2.94337923e-008 1.51491317e-008
      3.36569395e-009 9.80170078e-009 1.72564079e-008 3.00542133e-008
      4.29889297e-008 6.49496812e-008 6.99725362e-008 6.82052672e-008
      8.24635080e-008 9.15248677e-008 1.11577563e-007 1.08925207e-007
      1.02373292e-007 8.81911433e-008 7.57869003e-008 6.41510027e-008
      5.38083782e-008 5.46393260e-008 6.49200871e-008 9.85931550e-008
      1.08217876e-007 1.04970383e-007 1.04585361e-007 1.03313809e-007
      1.11250465e-007 1.22736893e-007</_>
    <_>
      6.69583358e-008 1.69117095e-006 1.81270732e-008 1.87357148e-006
      -1.27327937e-009 1.23740347e-005 1.57650175e-005 -4.10129496e-006
      -2.12329160e-005 -3.36290213e-005 -1.76248286e-005
      -3.14988793e-005 -1.09167995e-005 -8.86725320e-006
      -4.73172258e-006 -9.21323408e-006 -8.07498327e-006
      -1.53107540e-005 -1.54210029e-005 -8.39506265e-006
      -1.58522616e-005 -9.85720180e-006 -1.41878236e-005
      -4.19788339e-005 -8.77756793e-006 -3.02224671e-005
      -4.06057334e-005 -1.18066000e-005 1.35591808e-005 1.32158802e-005
      1.53052788e-005 1.99944625e-005 1.30877870e-005 -8.22536003e-006
      -1.44864662e-005 -4.83930833e-008 -1.45840531e-005
      -5.03659123e-007 1.23404436e-006 -2.44117200e-006 -1.00542638e-005
      -8.04377933e-008 -7.91273251e-008 -7.81669769e-008
      -8.28615896e-008 -9.50066052e-008 -7.85068934e-008
      -4.30320917e-008 -6.36175272e-008 -5.93731393e-008
      -2.48555381e-008 1.31543745e-008 3.91691408e-008 6.29585983e-008
      8.19796284e-008 1.09045303e-007 8.74251072e-008 4.54330618e-008
      9.33015976e-009 2.05861017e-008 4.19592538e-008 7.36967820e-008
      6.84879922e-008 5.07221181e-008 2.69336269e-008 -1.03397577e-024
      -4.97618301e-011 -2.23890009e-008 -3.15290904e-008
      -8.53150262e-009 6.63295907e-008 7.85032412e-008 7.41825161e-008
      6.53325074e-008 4.49198438e-008 3.62951802e-008 1.13181819e-008
      -1.95850962e-008 -6.37813216e-008 -1.10591095e-007
      -1.46013832e-007 -1.83881482e-007 -2.31659342e-007
      -2.85104932e-007 -3.38583476e-007 -3.57228402e-007
      -3.64859346e-007 -3.72209541e-007 -3.87932886e-007
      -3.33309742e-007 -2.00013019e-007 -8.04377933e-008
      -7.91273251e-008 -7.81669769e-008 -8.28615896e-008
      -9.50066052e-008 -7.85068934e-008 -4.30320917e-008
      -6.36175272e-008 -5.93731393e-008 -2.48555381e-008 1.31543745e-008
      3.91691408e-008 6.29585983e-008 8.19796284e-008 1.09045303e-007
      8.74251072e-008 4.54330618e-008 9.33015976e-009 2.05861017e-008
      4.19592538e-008 7.36967820e-008 6.84879922e-008 5.07221181e-008
      2.69336269e-008 -1.03397577e-024 -4.97618301e-011 -2.23890009e-008
      -3.15290904e-008 -8.53150262e-009 6.63295907e-008 7.85032412e-008
      7.41825161e-008 6.53325074e-008 4.49198438e-008 3.62951802e-008
      1.13181819e-008 -1.95850962e-008 -6.37813216e-008 -1.10591095e-007
      -1.46013832e-007 -1.83881482e-007 -2.31659342e-007
      -2.85104932e-007 -3.38583476e-007 -3.57228402e-007
      -3.64859346e-007 -3.72209541e-007 -3.87932886e-007
      -3.33309742e-007 -2.00013019e-007</_>
    <_>
      1.01877504e-006 1.80201951e-007 -5.20268939e-009 -2.15789804e-008
      -2.99997083e-010 -2.06303084e-005 -4.46204376e-006
      -5.69289432e-006 -5.92807737e-006 -4.27329769e-006
      -2.12782766e-006 -9.67359028e-006 -1.99115857e-006
      -4.14502892e-006 -1.32659977e-006 -1.96824567e-006
      -2.97773863e-006 -7.11730854e-006 -2.61351988e-006
      -2.15585601e-006 -2.42078136e-006 -9.40230436e-008
      -6.36316742e-008 -3.54482222e-006 2.01364841e-007 1.24854338e-007
      -2.03241768e-007 6.16122975e-008 1.39152189e-006 8.71278075e-007
      -3.73558328e-006 2.02812362e-006 3.49261995e-007 -3.44862912e-007
      -4.33945570e-006 -2.48130436e-006 -8.55084818e-006
      -2.00295244e-006 -2.69264478e-006 -2.92288837e-006
      -3.28755573e-006 -1.39995553e-008 -1.58215077e-008
      -2.25953087e-008 -3.03314103e-008 -3.45469360e-008
      -3.48430866e-008 -3.55587240e-008 -3.15034505e-008
      -2.45199079e-008 -1.57927058e-008 -7.30404759e-009 2.05238138e-009
      7.10687464e-009 9.14668696e-009 9.45095646e-009 7.32473371e-009
      8.12678103e-009 6.92593582e-009 1.06274491e-008 1.10757368e-008
      1.05410392e-008 8.84241746e-009 5.53158408e-009 2.18383001e-009
      -5.16987883e-026 1.97408823e-009 4.75022333e-009 8.18438739e-009
      1.04834319e-008 1.11414611e-008 1.17994903e-008 1.20092327e-008
      1.30003350e-008 1.39914382e-008 1.55829625e-008 1.35224640e-008
      1.21487984e-008 1.02035136e-008 6.19773077e-009 2.87878033e-009
      6.66146693e-010 -1.12700305e-009 -4.89424101e-009 -8.21319102e-009
      -1.08741123e-008 -1.39545175e-008 -1.70637264e-008
      -1.88568752e-008 -1.72815842e-008 -1.39707517e-008
      -1.39995553e-008 -1.58215077e-008 -2.25953087e-008
      -3.03314103e-008 -3.45469360e-008 -3.48430866e-008
      -3.55587240e-008 -3.15034505e-008 -2.45199079e-008
      -1.57927058e-008 -7.30404759e-009 2.05238138e-009 7.10687464e-009
      9.14668696e-009 9.45095646e-009 7.32473371e-009 8.12678103e-009
      6.92593582e-009 1.06274491e-008 1.10757368e-008 1.05410392e-008
      8.84241746e-009 5.53158408e-009 2.18383001e-009 -5.16987883e-026
      1.97408823e-009 4.75022333e-009 8.18438739e-009 1.04834319e-008
      1.11414611e-008 1.17994903e-008 1.20092327e-008 1.30003350e-008
      1.39914382e-008 1.55829625e-008 1.35224640e-008 1.21487984e-008
      1.02035136e-008 6.19773077e-009 2.87878033e-009 6.66146693e-010
      -1.12700305e-009 -4.89424101e-009 -8.21319102e-009
      -1.08741123e-008 -1.39545175e-008 -1.70637264e-008
      -1.88568752e-008 -1.72815842e-008 -1.39707517e-008</_>
    <_>
      9.78618573e-007 1.98383731e-007 -5.04811348e-009 1.06321153e-007
      -4.99309261e-010 -2.48825927e-005 -2.94603001e-006
      -2.73658020e-006 -3.74671299e-006 -2.54703332e-006
      -6.67250333e-007 -7.55994051e-006 -1.23991492e-006
      -2.65409153e-006 -8.22717993e-007 -2.51121378e-006
      -3.48959475e-006 -8.59799366e-006 -4.12283953e-006
      -2.25324925e-006 -2.41421026e-006 -1.09501605e-006
      -1.26120801e-006 -5.73179796e-006 3.91648953e-008 -2.77575907e-007
      -3.23133577e-007 2.63238093e-007 2.29186526e-006 1.89163291e-006
      -3.63102731e-006 2.62084359e-006 1.73047420e-006 1.96285919e-006
      -2.27574947e-006 1.59467504e-006 -8.25069765e-006 2.14921420e-006
      -5.16126988e-007 -2.85489546e-006 -2.51157462e-006
      -1.45136543e-008 -1.16809140e-008 -8.61634142e-009
      -6.15735063e-009 -4.68163419e-009 -1.69296444e-009
      -9.54029522e-010 2.50281951e-009 7.70821629e-009 1.00307389e-008
      1.50368447e-008 1.87873113e-008 2.01273131e-008 1.94824175e-008
      1.84164684e-008 1.62786531e-008 1.64264105e-008 1.54468989e-008
      1.58028719e-008 1.52974540e-008 1.33606175e-008 1.06935909e-008
      6.37413189e-009 2.65573918e-009 0. 2.25848007e-009 5.04993469e-009
      7.58454188e-009 8.88823948e-009 1.08102070e-008 1.11393748e-008
      9.68745351e-009 9.39082678e-009 9.50726253e-009 8.69346373e-009
      5.21987786e-009 2.98133351e-010 -5.01710762e-009 -1.21572663e-008
      -2.01958699e-008 -2.78414447e-008 -3.45643123e-008
      -4.61207961e-008 -5.09063582e-008 -5.53870159e-008
      -5.86563296e-008 -5.69195358e-008 -5.04134512e-008
      -3.57175303e-008 -1.90517611e-008 -1.45136543e-008
      -1.16809140e-008 -8.61634142e-009 -6.15735063e-009
      -4.68163419e-009 -1.69296444e-009 -9.54029522e-010 2.50281951e-009
      7.70821629e-009 1.00307389e-008 1.50368447e-008 1.87873113e-008
      2.01273131e-008 1.94824175e-008 1.84164684e-008 1.62786531e-008
      1.64264105e-008 1.54468989e-008 1.58028719e-008 1.52974540e-008
      1.33606175e-008 1.06935909e-008 6.37413189e-009 2.65573918e-009 0.
      2.25848007e-009 5.04993469e-009 7.58454188e-009 8.88823948e-009
      1.08102070e-008 1.11393748e-008 9.68745351e-009 9.39082678e-009
      9.50726253e-009 8.69346373e-009 5.21987786e-009 2.98133351e-010
      -5.01710762e-009 -1.21572663e-008 -2.01958699e-008
      -2.78414447e-008 -3.45643123e-008 -4.61207961e-008
      -5.09063582e-008 -5.53870159e-008 -5.86563296e-008
      -5.69195358e-008 -5.04134512e-008 -3.57175303e-008
      -1.90517611e-008</_>
    <_>
      2.82395558e-006 3.50076760e-007 9.94123539e-009 -2.36238094e-007
      -3.53146019e-011 2.01025232e-005 3.32215382e-006 2.31453373e-006
      1.32686625e-006 7.18303568e-007 2.29458081e-007 4.14022179e-006
      5.88609851e-007 1.28696047e-006 -5.48704065e-007 9.47761635e-007
      5.68656958e-007 3.93071650e-006 -9.97643834e-009 5.58680540e-007
      3.12262500e-006 2.21476921e-006 1.72592377e-006 5.11791268e-006
      1.34681909e-006 2.68366193e-006 3.51170615e-006 4.87847819e-006
      6.55451959e-006 7.61202227e-006 1.79276594e-005 9.27808742e-006
      9.38782796e-006 3.82097596e-006 4.29984493e-006 1.24705480e-006
      6.42482610e-006 1.07745529e-006 1.53637143e-006 3.71123497e-006
      9.57738052e-007 6.23527396e-010 3.11763682e-009 1.68352390e-008
      2.24469865e-008 1.99528767e-008 1.74587669e-008 1.49646571e-008
      1.43411301e-008 8.72938344e-009 3.74116427e-009 7.48232853e-009
      1.30940752e-008 1.37176022e-008 1.49646571e-008 1.68352390e-008
      1.55881850e-008 1.37176022e-008 8.72938344e-009 1.87058213e-009
      2.49410959e-009 3.74116427e-009 3.74116427e-009 2.49410959e-009
      2.49410959e-009 0. 2.49410959e-009 3.11763682e-009 2.49410959e-009
      0. -1.87058213e-009 -1.24705479e-009 4.36469172e-009
      1.18470203e-008 1.12234932e-008 8.10585554e-009 6.23527363e-009
      4.36469172e-009 2.49410959e-009 6.23527396e-010 -1.87058213e-009
      -2.49410959e-009 -4.98821917e-009 -7.48232853e-009
      -7.48232853e-009 -7.48232853e-009 -8.10585554e-009
      -6.85880108e-009 -4.98821917e-009 -3.11763682e-009
      -1.24705479e-009 6.23527396e-010 3.11763682e-009 1.68352390e-008
      2.24469865e-008 1.99528767e-008 1.74587669e-008 1.49646571e-008
      1.43411301e-008 8.72938344e-009 3.74116427e-009 7.48232853e-009
      1.30940752e-008 1.37176022e-008 1.49646571e-008 1.68352390e-008
      1.55881850e-008 1.37176022e-008 8.72938344e-009 1.87058213e-009
      2.49410959e-009 3.74116427e-009 3.74116427e-009 2.49410959e-009
      2.49410959e-009 0. 2.49410959e-009 3.11763682e-009 2.49410959e-009
      0. -1.87058213e-009 -1.24705479e-009 4.36469172e-009
      1.18470203e-008 1.12234932e-008 8.10585554e-009 6.23527363e-009
      4.36469172e-009 2.49410959e-009 6.23527396e-010 -1.87058213e-009
      -2.49410959e-009 -4.98821917e-009 -7.48232853e-009
      -7.48232853e-009 -7.48232853e-009 -8.10585554e-009
      -6.85880108e-009 -4.98821917e-009 -3.11763682e-009
      -1.24705479e-009</_>
    <_>
      -1.04899350e-007 6.88466617e-009 2.89061608e-010 -3.59074299e-008
      1.50419729e-011 -6.71538874e-006 -3.18381535e-006 -2.61184505e-006
      -2.17989304e-006 -9.34370632e-007 -5.12485379e-008
      -1.09269206e-006 6.40606723e-009 -1.83945644e-007 3.02000309e-008
      -6.13152125e-008 1.55575925e-008 -2.90103316e-007 8.69394796e-008
      1.12563754e-007 -1.05242535e-007 4.75879283e-008 4.02667091e-008
      -4.69473207e-007 -5.85697570e-008 -2.56242689e-008
      -2.19636593e-008 -5.76546029e-008 1.96757782e-007 1.43678932e-007
      -1.46332877e-006 -1.76990488e-006 -3.45103990e-006
      -2.87266357e-006 -3.18747607e-006 -1.54386214e-006
      -2.36658434e-006 -2.86442713e-007 -5.53667235e-007
      -8.34619016e-007 -6.27794577e-007 1.88750193e-009 1.54431978e-009
      2.00189598e-009 2.00189598e-009 2.23068408e-009 2.00189598e-009
      1.42992573e-009 1.42992573e-009 2.23068408e-009 2.45947218e-009
      2.85985147e-009 3.03144243e-009 2.74545742e-009 1.25833466e-009
      5.71970284e-011 -4.57576227e-010 -4.57576227e-010 -4.57576227e-010
      1.14394057e-010 2.85985152e-010 7.43561379e-010 6.86364354e-010
      1.71591089e-010 -2.28788113e-010 0. -2.28788113e-010
      1.14394057e-010 4.57576227e-010 7.43561379e-010 5.71970284e-011
      -4.00379202e-010 -4.57576227e-010 -5.14773280e-010
      -1.14394061e-009 -1.31553168e-009 -1.20113763e-009
      -1.08674358e-009 -9.15152454e-010 -8.57955429e-010
      -8.57955429e-010 -6.86364354e-010 -6.86364354e-010
      -8.00758404e-010 -8.00758404e-010 -8.00758404e-010
      -6.86364354e-010 -6.29167329e-010 -7.43561379e-010 5.71970304e-010
      1.65871383e-009 1.88750193e-009 1.54431978e-009 2.00189598e-009
      2.00189598e-009 2.23068408e-009 2.00189598e-009 1.42992573e-009
      1.42992573e-009 2.23068408e-009 2.45947218e-009 2.85985147e-009
      3.03144243e-009 2.74545742e-009 1.25833466e-009 5.71970284e-011
      -4.57576227e-010 -4.57576227e-010 -4.57576227e-010 1.14394057e-010
      2.85985152e-010 7.43561379e-010 6.86364354e-010 1.71591089e-010
      -2.28788113e-010 0. -2.28788113e-010 1.14394057e-010
      4.57576227e-010 7.43561379e-010 5.71970284e-011 -4.00379202e-010
      -4.57576227e-010 -5.14773280e-010 -1.14394061e-009
      -1.31553168e-009 -1.20113763e-009 -1.08674358e-009
      -9.15152454e-010 -8.57955429e-010 -8.57955429e-010
      -6.86364354e-010 -6.86364354e-010 -8.00758404e-010
      -8.00758404e-010 -8.00758404e-010 -6.86364354e-010
      -6.29167329e-010 -7.43561379e-010 5.71970304e-010 1.65871383e-009</_>
    <_>
      -5.64282936e-006 7.23013102e-007 -4.34565912e-008 1.32681052e-005
      -1.24157307e-009 3.26303743e-005 -8.23426376e-007 2.07792655e-005
      -4.98886311e-006 -2.14966822e-005 -1.60825966e-005
      -4.85856363e-005 -5.26017902e-006 -7.20113576e-006
      -3.81217114e-006 -8.66499431e-006 -3.76928483e-006
      -3.63270578e-006 9.06621335e-006 1.30560193e-005 3.43394231e-006
      2.72647810e-007 1.84870023e-005 1.22967023e-007 4.61226955e-006
      -1.42864076e-006 -3.45391745e-005 -1.11047439e-005 7.68460450e-006
      3.12664702e-006 -5.89991350e-006 1.64361481e-005 4.14661263e-005
      3.89109155e-005 4.25271392e-005 2.23490933e-005 -1.02094164e-005
      -2.73113801e-006 -1.62060824e-005 -3.17857230e-005
      -3.78290570e-005 -5.59223679e-007 -5.32729757e-007
      -4.85317685e-007 -4.18985081e-007 -3.54253388e-007
      -2.59662613e-007 -1.98038819e-007 -1.57754656e-007
      -1.33246076e-007 -4.36702194e-008 -8.22262347e-009
      -2.05167474e-008 -1.41180179e-008 -8.82593376e-009
      -9.35340694e-009 -9.39586187e-009 -2.94883371e-008
      -4.95464576e-008 -3.46819711e-008 -2.35288944e-008
      -1.47850141e-008 -8.55912674e-009 -1.61788538e-008
      -1.65387402e-008 -6.67526256e-009 -2.30601351e-008
      -4.96348598e-008 -7.03857594e-008 -8.88831977e-008
      -1.01559344e-007 -1.17531457e-007 -1.29119982e-007
      -1.59740068e-007 -1.88314914e-007 -2.25879489e-007
      -2.68902767e-007 -3.14787883e-007 -3.65023993e-007
      -4.20414807e-007 -4.27424595e-007 -4.82468863e-007
      -5.52047652e-007 -6.03261924e-007 -7.31703835e-007
      -7.65864854e-007 -7.34351772e-007 -6.83314681e-007
      -6.77817070e-007 -6.55030874e-007 -5.92302285e-007
      -5.59223679e-007 -5.32729757e-007 -4.85317685e-007
      -4.18985081e-007 -3.54253388e-007 -2.59662613e-007
      -1.98038819e-007 -1.57754656e-007 -1.33246076e-007
      -4.36702194e-008 -8.22262347e-009 -2.05167474e-008
      -1.41180179e-008 -8.82593376e-009 -9.35340694e-009
      -9.39586187e-009 -2.94883371e-008 -4.95464576e-008
      -3.46819711e-008 -2.35288944e-008 -1.47850141e-008
      -8.55912674e-009 -1.61788538e-008 -1.65387402e-008
      -6.67526256e-009 -2.30601351e-008 -4.96348598e-008
      -7.03857594e-008 -8.88831977e-008 -1.01559344e-007
      -1.17531457e-007 -1.29119982e-007 -1.59740068e-007
      -1.88314914e-007 -2.25879489e-007 -2.68902767e-007
      -3.14787883e-007 -3.65023993e-007 -4.20414807e-007
      -4.27424595e-007 -4.82468863e-007 -5.52047652e-007
      -6.03261924e-007 -7.31703835e-007 -7.65864854e-007
      -7.34351772e-007 -6.83314681e-007 -6.77817070e-007
      -6.55030874e-007 -5.92302285e-007</_>
    <_>
      7.64814195e-006 4.59072027e-007 -3.21957856e-008 2.98088594e-006
      -1.66416581e-009 4.03292597e-006 -1.68569914e-005 -6.59967191e-006
      -1.32925888e-005 -9.04513672e-006 -6.14750297e-006
      -3.14054669e-005 -4.39669702e-006 -7.36967877e-006 2.04627980e-007
      -2.36788324e-007 -3.17891272e-006 -5.63924823e-006 4.47617776e-006
      6.43215799e-006 6.81075244e-006 1.47545343e-005 1.52874309e-005
      1.59980536e-005 1.02498307e-005 1.82720178e-005 1.62316828e-005
      1.64118246e-005 1.12374200e-005 -5.13791974e-007 -1.48784729e-005
      8.90076080e-007 1.00611842e-005 6.87677129e-006 1.17994034e-006
      -1.11325915e-006 -1.07447740e-005 -9.08894526e-006
      -1.25000415e-005 -1.13357528e-005 -1.08050899e-005
      -1.95355526e-007 -1.57032247e-007 -1.99286973e-007
      -2.13350049e-007 -2.11904549e-007 -1.93363064e-007
      -1.78287365e-007 -1.55078297e-007 -1.40749819e-007
      -1.24672738e-007 -1.06174078e-007 -7.07887509e-008
      -4.89878325e-008 -4.61100527e-008 -3.86544734e-008
      -2.70444005e-008 -1.87623854e-008 -1.14453673e-008
      -6.20650198e-009 -3.02676884e-009 1.65370195e-009 1.65799852e-009
      3.03538528e-009 8.26436697e-010 -2.34899988e-009 1.65055369e-009
      4.96687003e-009 7.59333307e-009 1.27053799e-008 1.13213776e-008
      1.32603075e-008 1.75459167e-008 1.28619781e-008 8.71146089e-009
      6.23332230e-009 9.87840365e-010 -9.47941170e-010 -2.31954034e-009
      -1.47494337e-008 -2.23482122e-008 -3.14784891e-008
      -4.00647515e-008 -5.95606409e-008 -8.74695161e-008
      -1.30399044e-007 -1.56264846e-007 -1.72836820e-007
      -1.86658156e-007 -2.01027788e-007 -2.05029821e-007
      -1.95355526e-007 -1.57032247e-007 -1.99286973e-007
      -2.13350049e-007 -2.11904549e-007 -1.93363064e-007
      -1.78287365e-007 -1.55078297e-007 -1.40749819e-007
      -1.24672738e-007 -1.06174078e-007 -7.07887509e-008
      -4.89878325e-008 -4.61100527e-008 -3.86544734e-008
      -2.70444005e-008 -1.87623854e-008 -1.14453673e-008
      -6.20650198e-009 -3.02676884e-009 1.65370195e-009 1.65799852e-009
      3.03538528e-009 8.26436697e-010 -2.34899988e-009 1.65055369e-009
      4.96687003e-009 7.59333307e-009 1.27053799e-008 1.13213776e-008
      1.32603075e-008 1.75459167e-008 1.28619781e-008 8.71146089e-009
      6.23332230e-009 9.87840365e-010 -9.47941170e-010 -2.31954034e-009
      -1.47494337e-008 -2.23482122e-008 -3.14784891e-008
      -4.00647515e-008 -5.95606409e-008 -8.74695161e-008
      -1.30399044e-007 -1.56264846e-007 -1.72836820e-007
      -1.86658156e-007 -2.01027788e-007 -2.05029821e-007</_>
    <_>
      5.00153237e-006 5.95035942e-007 -6.45296652e-008 6.13166503e-006
      -3.59981356e-009 1.29053331e-006 -2.29282487e-005 5.67877214e-006
      -9.21110768e-006 -6.51519167e-006 -1.95845382e-006
      -4.21800687e-005 -2.32450589e-006 -7.55773954e-006 3.98093988e-007
      -9.00127725e-006 -1.42493482e-005 -2.79386877e-005
      -8.23322534e-006 5.29651697e-006 6.49711410e-006 8.29906458e-006
      7.74599084e-006 -9.11053007e-007 9.28473946e-006 1.68639890e-005
      1.58396615e-005 1.77537477e-005 1.20647210e-005 -7.87109457e-007
      -2.33433657e-005 1.81067108e-007 2.37691602e-005 2.43741142e-005
      1.47160881e-005 1.95383436e-005 -3.62604368e-007 1.33010299e-005
      -1.11933207e-006 -8.78031187e-006 -6.43458816e-006
      -2.78506519e-007 -2.39247925e-007 -2.09152816e-007
      -1.43243227e-007 -8.83534170e-008 -3.00584020e-008
      -1.38677123e-008 7.69760966e-009 1.21570158e-008 -1.41976066e-008
      -1.58965090e-008 -9.06401443e-009 3.03783954e-009 -6.81826506e-009
      -1.33044438e-008 -1.15592211e-008 -3.35729489e-009 1.70038383e-008
      2.03906101e-008 1.73206782e-008 1.10771383e-008 8.54824123e-009
      6.80301770e-009 -5.41034717e-010 -3.80728515e-009 1.52102719e-009
      1.98786254e-009 2.72521539e-009 -4.42251880e-009 -5.15987164e-009
      -1.05623830e-008 -1.71690822e-008 -3.05030028e-008
      -3.60555106e-008 -5.54087762e-008 -7.26999758e-008
      -9.96214879e-008 -1.26589327e-007 -1.67191075e-007
      -2.16218936e-007 -2.69474612e-007 -3.17401970e-007
      -4.11678286e-007 -4.62768213e-007 -5.34480364e-007
      -5.64577078e-007 -5.48656942e-007 -4.94617552e-007
      -4.05304803e-007 -3.02824958e-007 -2.78506519e-007
      -2.39247925e-007 -2.09152816e-007 -1.43243227e-007
      -8.83534170e-008 -3.00584020e-008 -1.38677123e-008 7.69760966e-009
      1.21570158e-008 -1.41976066e-008 -1.58965090e-008 -9.06401443e-009
      3.03783954e-009 -6.81826506e-009 -1.33044438e-008 -1.15592211e-008
      -3.35729489e-009 1.70038383e-008 2.03906101e-008 1.73206782e-008
      1.10771383e-008 8.54824123e-009 6.80301770e-009 -5.41034717e-010
      -3.80728515e-009 1.52102719e-009 1.98786254e-009 2.72521539e-009
      -4.42251880e-009 -5.15987164e-009 -1.05623830e-008
      -1.71690822e-008 -3.05030028e-008 -3.60555106e-008
      -5.54087762e-008 -7.26999758e-008 -9.96214879e-008
      -1.26589327e-007 -1.67191075e-007 -2.16218936e-007
      -2.69474612e-007 -3.17401970e-007 -4.11678286e-007
      -4.62768213e-007 -5.34480364e-007 -5.64577078e-007
      -5.48656942e-007 -4.94617552e-007 -4.05304803e-007
      -3.02824958e-007</_>
    <_>
      2.61671130e-006 1.50799238e-007 2.56847543e-009 3.30363576e-007
      -2.97026188e-011 1.70243766e-005 1.03640980e-006 2.47516687e-006
      2.19246726e-006 1.81846076e-006 1.06104073e-006 2.60583761e-006
      6.08691664e-007 1.18783612e-006 2.32962321e-007 1.13930878e-006
      1.37874713e-006 4.13488533e-006 2.24293171e-006 2.48596689e-006
      2.91991546e-006 2.48980382e-006 3.18349407e-006 5.67233701e-006
      2.12981672e-006 3.29262684e-006 3.77486595e-006 4.25515327e-006
      4.16206422e-006 3.44715386e-006 8.95118865e-006 3.91710182e-006
      5.03200272e-006 4.24250447e-006 5.76013372e-006 3.41913733e-006
      5.31562682e-006 6.63360083e-007 3.73086749e-007 8.77763910e-007
      3.07372261e-007 -8.21532886e-009 -7.33322247e-009 -5.89504090e-009
      -3.32048766e-009 -7.22215454e-010 2.33497977e-009 4.53378757e-009
      6.05559514e-009 7.06993042e-009 1.35193794e-008 1.52700661e-008
      1.41698289e-008 1.21761810e-008 1.11737055e-008 9.66431291e-009
      8.02158073e-009 5.23111909e-009 3.21369864e-009 3.67256781e-009
      3.14082094e-009 2.15020468e-009 1.37716372e-009 7.36906980e-010
      2.29434666e-010 -3.50359575e-010 1.68972211e-010 -6.04068850e-010
      -1.46245638e-009 -2.58585708e-009 -4.47043913e-009
      -5.23162091e-009 -6.12558670e-009 -7.12806258e-009
      -7.29759053e-009 -7.64794983e-009 -7.36991224e-009
      -7.17666548e-009 -6.95969948e-009 -6.95969948e-009
      -6.16288576e-009 -5.17277154e-009 -6.39276854e-009
      -9.35220257e-009 -1.41476688e-008 -1.35074121e-008
      -1.31570523e-008 -1.25529835e-008 -1.13205179e-008
      -1.02089768e-008 -9.09743569e-009 -8.21532886e-009
      -7.33322247e-009 -5.89504090e-009 -3.32048766e-009
      -7.22215454e-010 2.33497977e-009 4.53378757e-009 6.05559514e-009
      7.06993042e-009 1.35193794e-008 1.52700661e-008 1.41698289e-008
      1.21761810e-008 1.11737055e-008 9.66431291e-009 8.02158073e-009
      5.23111909e-009 3.21369864e-009 3.67256781e-009 3.14082094e-009
      2.15020468e-009 1.37716372e-009 7.36906980e-010 2.29434666e-010
      -3.50359575e-010 1.68972211e-010 -6.04068850e-010 -1.46245638e-009
      -2.58585708e-009 -4.47043913e-009 -5.23162091e-009
      -6.12558670e-009 -7.12806258e-009 -7.29759053e-009
      -7.64794983e-009 -7.36991224e-009 -7.17666548e-009
      -6.95969948e-009 -6.95969948e-009 -6.16288576e-009
      -5.17277154e-009 -6.39276854e-009 -9.35220257e-009
      -1.41476688e-008 -1.35074121e-008 -1.31570523e-008
      -1.25529835e-008 -1.13205179e-008 -1.02089768e-008
      -9.09743569e-009</_>
    <_>
      6.78524486e-007 1.06274287e-008 -2.67682460e-010 8.64195755e-008
      1.97696182e-011 -5.73436910e-006 -5.62120113e-006 -3.45600438e-006
      -2.70295368e-006 -4.52068377e-007 5.93477409e-007 1.38737555e-008
      8.91806337e-007 1.04317564e-006 7.47293029e-007 1.04985804e-006
      1.45907154e-006 2.56566909e-006 1.78881942e-006 1.87916794e-006
      1.80664154e-006 1.81148323e-006 1.94592212e-006 2.45807496e-006
      8.47950560e-007 1.66449433e-006 1.63275638e-006 1.61197124e-006
      1.49407697e-006 5.96795076e-007 -2.30021783e-006 -4.11087103e-006
      -6.55223494e-006 -5.11626968e-006 -4.87734087e-006
      -1.55696398e-006 -2.39752194e-006 4.82283951e-007 -2.49283119e-007
      -8.17617263e-007 -2.38152296e-007 -8.57983573e-010
      -1.22983373e-010 1.43877776e-009 3.06886294e-009 4.45198856e-009
      5.31485789e-009 5.22798294e-009 4.41977299e-009 3.88585208e-009
      2.93221469e-009 2.52127719e-009 3.35292416e-009 2.68624811e-009
      -9.99517691e-010 -3.09130677e-009 -3.34704531e-009
      -3.83119270e-009 -3.81752807e-009 -3.93173227e-009
      -3.43392004e-009 -1.78528414e-009 -9.77073977e-010
      -4.65596783e-010 -6.94005742e-010 -1.27869285e-010
      -6.94005742e-010 -7.35000172e-010 -1.00440356e-009
      -7.89659449e-010 -2.56616461e-009 -3.37437500e-009
      -3.23284088e-009 -3.01809666e-009 -4.42465886e-009
      -4.42465886e-009 -3.65744302e-009 -2.91755708e-009
      -2.27821051e-009 -1.98147743e-009 -1.51099477e-009
      -1.15471654e-009 -9.80966863e-010 -8.02331312e-010
      -1.22693367e-009 -2.82579626e-009 -4.28312497e-009
      -4.01372136e-009 -4.15525525e-009 -3.13230109e-009
      -2.23721619e-009 -8.57983573e-010 -1.22983373e-010 1.43877776e-009
      3.06886294e-009 4.45198856e-009 5.31485789e-009 5.22798294e-009
      4.41977299e-009 3.88585208e-009 2.93221469e-009 2.52127719e-009
      3.35292416e-009 2.68624811e-009 -9.99517691e-010 -3.09130677e-009
      -3.34704531e-009 -3.83119270e-009 -3.81752807e-009
      -3.93173227e-009 -3.43392004e-009 -1.78528414e-009
      -9.77073977e-010 -4.65596783e-010 -6.94005742e-010
      -1.27869285e-010 -6.94005742e-010 -7.35000172e-010
      -1.00440356e-009 -7.89659449e-010 -2.56616461e-009
      -3.37437500e-009 -3.23284088e-009 -3.01809666e-009
      -4.42465886e-009 -4.42465886e-009 -3.65744302e-009
      -2.91755708e-009 -2.27821051e-009 -1.98147743e-009
      -1.51099477e-009 -1.15471654e-009 -9.80966863e-010
      -8.02331312e-010 -1.22693367e-009 -2.82579626e-009
      -4.28312497e-009 -4.01372136e-009 -4.15525525e-009
      -3.13230109e-009 -2.23721619e-009</_>
    <_>
      1.58782932e-005 3.83692395e-007 -1.33667992e-008 -1.65680342e-006
      -1.01024999e-009 -1.92159659e-005 -1.32377036e-005
      -1.15305065e-005 -5.07294180e-006 4.49652998e-006 4.68789767e-006
      -4.26519046e-006 -9.88059583e-007 -3.93183609e-006 1.06379650e-006
      3.25217979e-006 -2.30233468e-006 -5.91523531e-006 4.58963228e-007
      -9.87394401e-007 1.99575561e-006 9.52250593e-006 6.45235104e-006
      1.28588545e-005 6.19938646e-006 1.84902947e-005 3.05666326e-005
      2.47242951e-005 1.17648560e-005 1.71965735e-006 -7.60419698e-006
      -6.24505537e-006 -7.02750276e-006 -1.84463113e-006
      -1.17770305e-005 -8.00103953e-006 -1.30999497e-005
      -8.75545447e-006 -7.97839584e-006 -3.99364080e-006
      -7.01214219e-007 2.84401658e-008 2.69943161e-008 -3.50831826e-008
      -7.91608343e-008 -1.02545982e-007 -1.06883533e-007
      -1.00874836e-007 -8.08057337e-008 -6.28058814e-008
      -3.59056322e-008 -1.10746337e-008 1.08646647e-008 2.45269636e-008
      3.81892633e-008 4.29511609e-008 4.31764597e-008 4.07091072e-008
      3.34798571e-008 2.97657046e-008 2.33589024e-008 2.19130527e-008
      1.69521019e-008 1.19911512e-008 9.92190152e-009 3.30872245e-024
      1.34370017e-008 2.64759006e-008 3.49519524e-008 4.48738540e-008
      5.19040526e-008 5.95576530e-008 7.01029563e-008 7.56873035e-008
      8.20941040e-008 9.11935558e-008 9.61545084e-008 1.08570006e-007
      1.15401157e-007 1.17669458e-007 1.28015714e-007 1.51175556e-007
      1.81989009e-007 2.03676763e-007 2.01780324e-007 1.26265817e-007
      7.25178140e-008 5.94789142e-008 4.85092677e-008 3.56694194e-008
      3.29767680e-008 2.84401658e-008 2.69943161e-008 -3.50831826e-008
      -7.91608343e-008 -1.02545982e-007 -1.06883533e-007
      -1.00874836e-007 -8.08057337e-008 -6.28058814e-008
      -3.59056322e-008 -1.10746337e-008 1.08646647e-008 2.45269636e-008
      3.81892633e-008 4.29511609e-008 4.31764597e-008 4.07091072e-008
      3.34798571e-008 2.97657046e-008 2.33589024e-008 2.19130527e-008
      1.69521019e-008 1.19911512e-008 9.92190152e-009 3.30872245e-024
      1.34370017e-008 2.64759006e-008 3.49519524e-008 4.48738540e-008
      5.19040526e-008 5.95576530e-008 7.01029563e-008 7.56873035e-008
      8.20941040e-008 9.11935558e-008 9.61545084e-008 1.08570006e-007
      1.15401157e-007 1.17669458e-007 1.28015714e-007 1.51175556e-007
      1.81989009e-007 2.03676763e-007 2.01780324e-007 1.26265817e-007
      7.25178140e-008 5.94789142e-008 4.85092677e-008 3.56694194e-008
      3.29767680e-008</_>
    <_>
      1.22343718e-005 3.24139251e-007 -1.77699846e-008 -1.00026864e-006
      -1.70698367e-009 -3.83677398e-005 -6.96736879e-006 2.37465747e-006
      5.70944394e-006 1.24102298e-005 1.12286962e-005 6.33704030e-006
      4.43809085e-006 1.46781088e-006 2.55249802e-006 7.85489704e-007
      -4.90497268e-006 -1.23701520e-005 -6.58464933e-006
      -1.54493887e-006 1.39624365e-006 3.45934450e-006 4.75715893e-007
      2.49954769e-006 4.19639082e-006 1.42576073e-005 2.47345306e-005
      2.08858037e-005 1.25189908e-005 5.23724566e-006 -1.02231725e-005
      -4.87057514e-006 -1.45965828e-006 9.28103509e-006 -2.07568041e-006
      9.61394926e-006 -1.07244841e-005 1.15058310e-005 3.02821377e-006
      -3.84550094e-006 1.10722613e-006 1.64005076e-008 2.17503295e-008
      1.95797032e-008 2.72536376e-008 3.27569474e-008 4.44651569e-008
      4.74908646e-008 5.95060499e-008 6.93506124e-008 6.93506124e-008
      7.58624878e-008 7.35383736e-008 7.33848893e-008 7.54020277e-008
      6.77280880e-008 5.95936882e-008 5.47919683e-008 5.33229354e-008
      4.65040806e-008 3.65060302e-008 2.66614677e-008 1.99961008e-008
      1.33307339e-008 8.98948205e-009 0. 1.23221646e-008 2.41838638e-008
      2.98406633e-008 3.01476391e-008 3.68130060e-008 4.01456894e-008
      4.14612344e-008 4.47939179e-008 5.04507192e-008 5.06042070e-008
      5.07576949e-008 5.07576949e-008 4.52543851e-008 3.57168020e-008
      2.70342966e-008 2.74947638e-008 3.77997900e-008 2.26712604e-008
      1.17304948e-008 -7.22223277e-008 -1.21510993e-007 -1.13837054e-007
      -8.66274874e-008 -4.07373584e-008 1.46903485e-008 1.64005076e-008
      2.17503295e-008 1.95797032e-008 2.72536376e-008 3.27569474e-008
      4.44651569e-008 4.74908646e-008 5.95060499e-008 6.93506124e-008
      6.93506124e-008 7.58624878e-008 7.35383736e-008 7.33848893e-008
      7.54020277e-008 6.77280880e-008 5.95936882e-008 5.47919683e-008
      5.33229354e-008 4.65040806e-008 3.65060302e-008 2.66614677e-008
      1.99961008e-008 1.33307339e-008 8.98948205e-009 0. 1.23221646e-008
      2.41838638e-008 2.98406633e-008 3.01476391e-008 3.68130060e-008
      4.01456894e-008 4.14612344e-008 4.47939179e-008 5.04507192e-008
      5.06042070e-008 5.07576949e-008 5.07576949e-008 4.52543851e-008
      3.57168020e-008 2.70342966e-008 2.74947638e-008 3.77997900e-008
      2.26712604e-008 1.17304948e-008 -7.22223277e-008 -1.21510993e-007
      -1.13837054e-007 -8.66274874e-008 -4.07373584e-008 1.46903485e-008</_>
    <_>
      2.17132242e-006 1.27229342e-007 5.05840037e-009 -2.15264421e-007
      6.72996173e-011 1.86948382e-005 3.21427069e-006 4.73629279e-006
      5.24697134e-006 6.05804917e-006 2.20292691e-006 7.69021790e-006
      1.10146345e-006 2.21294022e-006 5.30705108e-007 2.80372524e-006
      2.71360545e-006 8.32105525e-006 3.32441687e-006 2.92388472e-006
      3.89517527e-006 3.45458989e-006 2.89384479e-006 8.24094968e-006
      3.03403112e-006 4.71626618e-006 4.91653236e-006 5.03669207e-006
      4.83642589e-006 5.69757003e-006 1.18156986e-005 7.30971215e-006
      6.96925963e-006 4.86646559e-006 5.36713105e-006 2.95392465e-006
      7.07940580e-006 8.01064346e-007 6.40851454e-007 3.61480284e-006
      4.31573426e-006 1.81491142e-008 2.00266079e-008 1.87749443e-008
      1.68974505e-008 1.56457869e-008 1.37682932e-008 1.12649667e-008
      1.06391358e-008 1.00133040e-008 1.00133040e-008 1.06391358e-008
      1.12649667e-008 1.00133040e-008 1.06391358e-008 8.76164119e-009
      7.50997842e-009 5.63248337e-009 3.75498921e-009 1.87749460e-009 0.
      -6.25831498e-010 -1.25166300e-009 -1.87749460e-009 0. 0.
      1.25166300e-009 2.50332599e-009 3.75498921e-009 1.25166300e-009
      -1.87749460e-009 -2.50332599e-009 -4.38082060e-009
      -5.63248337e-009 -4.38082060e-009 -3.12915760e-009
      -6.25831498e-010 2.50332599e-009 5.63248337e-009 7.50997842e-009
      1.31424613e-008 1.68974505e-008 2.00266079e-008 2.69107545e-008
      3.37949011e-008 3.81757204e-008 2.69107545e-008 1.43941250e-008
      1.50199568e-008 1.50199568e-008 1.68974505e-008 1.81491142e-008
      2.00266079e-008 1.87749443e-008 1.68974505e-008 1.56457869e-008
      1.37682932e-008 1.12649667e-008 1.06391358e-008 1.00133040e-008
      1.00133040e-008 1.06391358e-008 1.12649667e-008 1.00133040e-008
      1.06391358e-008 8.76164119e-009 7.50997842e-009 5.63248337e-009
      3.75498921e-009 1.87749460e-009 0. -6.25831498e-010
      -1.25166300e-009 -1.87749460e-009 0. 0. 1.25166300e-009
      2.50332599e-009 3.75498921e-009 1.25166300e-009 -1.87749460e-009
      -2.50332599e-009 -4.38082060e-009 -5.63248337e-009
      -4.38082060e-009 -3.12915760e-009 -6.25831498e-010 2.50332599e-009
      5.63248337e-009 7.50997842e-009 1.31424613e-008 1.68974505e-008
      2.00266079e-008 2.69107545e-008 3.37949011e-008 3.81757204e-008
      2.69107545e-008 1.43941250e-008 1.50199568e-008 1.50199568e-008
      1.68974505e-008</_>
    <_>
      5.87022498e-007 -1.93010807e-009 4.79817130e-010 -1.14231014e-007
      4.02249276e-011 -6.23572032e-006 -4.24739710e-006 -3.07837558e-006
      -2.06729214e-006 -1.64988521e-007 6.78286142e-007 1.98832325e-007
      4.73813202e-007 4.63942087e-007 4.31508454e-007 5.45731268e-007
      6.10598534e-007 8.70067709e-007 7.57255009e-007 6.44442366e-007
      5.18938293e-007 5.65473499e-007 4.51250656e-007 6.06368076e-007
      2.19984699e-007 8.88399768e-007 1.64988523e-006 1.28042382e-006
      5.66883671e-007 6.20469649e-008 -1.93332698e-006 -3.46193883e-006
      -5.63781305e-006 -4.24457676e-006 -4.47161210e-006
      -2.08985466e-006 -2.17869456e-006 -1.84730737e-007
      -3.27156727e-007 -4.48430342e-007 7.19180733e-008 7.05079151e-009
      6.87452184e-009 7.05079151e-009 7.05079151e-009 7.13892678e-009
      6.78638701e-009 6.34571240e-009 5.72876813e-009 5.64063329e-009
      5.46436363e-009 5.55249846e-009 5.02368902e-009 4.40674475e-009
      2.82031665e-009 1.49829327e-009 6.16944273e-010 -1.76269790e-010
      -7.93214050e-010 -1.23388855e-009 -1.41015832e-009
      -4.40674469e-010 -8.81348952e-011 0. -8.81348952e-011 0.
      8.81348952e-011 3.52539581e-010 4.40674469e-010 7.93214050e-010 0.
      -4.40674469e-010 0. 3.52539581e-010 -8.81348952e-011
      3.52539581e-010 1.32202349e-009 2.37964226e-009 3.08472137e-009
      4.05420542e-009 5.02368902e-009 6.78638701e-009 8.63721983e-009
      1.03999174e-008 1.11931318e-008 8.28468050e-009 6.08130790e-009
      6.16944273e-009 5.90503824e-009 6.52198251e-009 6.96265667e-009
      7.05079151e-009 6.87452184e-009 7.05079151e-009 7.05079151e-009
      7.13892678e-009 6.78638701e-009 6.34571240e-009 5.72876813e-009
      5.64063329e-009 5.46436363e-009 5.55249846e-009 5.02368902e-009
      4.40674475e-009 2.82031665e-009 1.49829327e-009 6.16944273e-010
      -1.76269790e-010 -7.93214050e-010 -1.23388855e-009
      -1.41015832e-009 -4.40674469e-010 -8.81348952e-011 0.
      -8.81348952e-011 0. 8.81348952e-011 3.52539581e-010
      4.40674469e-010 7.93214050e-010 0. -4.40674469e-010 0.
      3.52539581e-010 -8.81348952e-011 3.52539581e-010 1.32202349e-009
      2.37964226e-009 3.08472137e-009 4.05420542e-009 5.02368902e-009
      6.78638701e-009 8.63721983e-009 1.03999174e-008 1.11931318e-008
      8.28468050e-009 6.08130790e-009 6.16944273e-009 5.90503824e-009
      6.52198251e-009 6.96265667e-009</_>
    <_>
      -9.19679337e-007 1.42795962e-008 -5.66896219e-009 1.02173033e-006
      -9.36457134e-010 -9.30877195e-006 1.35434184e-005 2.35442167e-005
      1.96932979e-005 1.48281615e-005 1.10621577e-005 1.77512065e-005
      7.99528516e-006 9.36822198e-006 2.60349589e-006 -1.27163014e-006
      8.74351684e-008 -2.62026811e-006 -6.63196852e-006 2.14044758e-006
      2.26648172e-006 -5.95703978e-006 -5.83125347e-006 -1.00553307e-005
      -5.58324189e-007 -9.19192075e-007 -5.92941262e-007 1.71606109e-006
      5.81168661e-006 7.90412560e-006 7.31517457e-006 7.84115946e-006
      1.44302094e-005 2.07177000e-005 2.01328858e-005 2.98672840e-005
      1.34227093e-005 3.09286152e-005 1.97877380e-005 6.17758224e-006
      9.08367747e-006 -1.52100252e-008 -1.46539747e-009 8.60548681e-008
      1.61316009e-007 2.03871920e-007 2.25988799e-007 2.22089056e-007
      2.10298921e-007 1.98781422e-007 1.61807492e-007 1.35119492e-007
      9.98569973e-008 7.94090553e-008 6.16184366e-008 4.40706920e-008
      2.95641218e-008 2.34929498e-008 2.94213027e-008 2.39824409e-008
      1.86919848e-008 7.71792052e-009 4.93451013e-009 2.40886155e-009
      -2.48460891e-010 4.13590306e-025 -1.13072121e-010 -3.13935722e-009
      -6.03955419e-009 -1.72564931e-008 -1.74956529e-008
      -2.31643735e-008 -3.45074014e-008 -3.71535513e-008
      -3.68902029e-008 -4.87543410e-008 -5.43248753e-008
      -7.15017876e-008 -8.82133904e-008 -1.01998772e-007
      -1.26878717e-007 -1.54653264e-007 -1.80033851e-007
      -2.21308113e-007 -2.27282939e-007 -2.35293939e-007
      -2.32106288e-007 -2.04891535e-007 -1.57162162e-007
      -9.78101724e-008 -2.25346746e-008 -1.52100252e-008
      -1.46539747e-009 8.60548681e-008 1.61316009e-007 2.03871920e-007
      2.25988799e-007 2.22089056e-007 2.10298921e-007 1.98781422e-007
      1.61807492e-007 1.35119492e-007 9.98569973e-008 7.94090553e-008
      6.16184366e-008 4.40706920e-008 2.95641218e-008 2.34929498e-008
      2.94213027e-008 2.39824409e-008 1.86919848e-008 7.71792052e-009
      4.93451013e-009 2.40886155e-009 -2.48460891e-010 4.13590306e-025
      -1.13072121e-010 -3.13935722e-009 -6.03955419e-009
      -1.72564931e-008 -1.74956529e-008 -2.31643735e-008
      -3.45074014e-008 -3.71535513e-008 -3.68902029e-008
      -4.87543410e-008 -5.43248753e-008 -7.15017876e-008
      -8.82133904e-008 -1.01998772e-007 -1.26878717e-007
      -1.54653264e-007 -1.80033851e-007 -2.21308113e-007
      -2.27282939e-007 -2.35293939e-007 -2.32106288e-007
      -2.04891535e-007 -1.57162162e-007 -9.78101724e-008
      -2.25346746e-008</_>
    <_>
      4.26597950e-007 2.55115058e-008 3.15723203e-009 -3.86711001e-008
      7.35054240e-011 1.04289820e-005 1.96301039e-006 2.11160500e-006
      2.29148236e-006 1.51527206e-006 8.17269324e-007 3.78915774e-006
      8.15314138e-007 1.47225785e-006 3.08919965e-007 9.42401471e-007
      1.06166806e-006 3.06573747e-006 7.64479182e-007 8.11403766e-007
      1.26109740e-006 6.13929558e-007 4.61424776e-007 2.26215457e-006
      2.40488333e-007 6.10019185e-007 9.61953333e-007 1.12618932e-006
      1.29433556e-006 1.65213532e-006 5.62899140e-006 2.15852947e-006
      2.28170643e-006 1.34126014e-006 2.64928212e-006 1.58174851e-006
      3.98858720e-006 1.01865385e-006 1.14378599e-006 1.43119894e-006
      1.21612800e-006 6.47656595e-009 6.59876553e-009 1.00203472e-008
      1.24643345e-008 1.36863285e-008 1.35641285e-008 1.28309328e-008
      1.13645404e-008 9.89814808e-009 7.45416084e-009 5.62117064e-009
      3.91037958e-009 2.68838596e-009 1.83299043e-009 9.77594894e-010
      2.44398723e-010 -2.44398723e-010 -4.88797447e-010 -7.33196170e-010
      -7.33196170e-010 -7.33196170e-010 -7.33196170e-010
      -6.10996809e-010 -2.44398723e-010 0. -2.44398723e-010
      -7.33196170e-010 -1.34419298e-009 -1.95518979e-009
      -2.44398723e-009 -2.93278468e-009 -3.42158213e-009
      -3.66598085e-009 -3.66598085e-009 -3.66598085e-009
      -3.17718341e-009 -3.05498404e-009 -2.81058532e-009
      -2.07738915e-009 -1.34419298e-009 -7.33196170e-010
      -4.88797447e-010 1.22199362e-010 9.77594894e-010 1.83299043e-009
      2.81058532e-009 3.91037958e-009 4.88797447e-009 5.86556936e-009
      6.35436681e-009 6.47656595e-009 6.59876553e-009 1.00203472e-008
      1.24643345e-008 1.36863285e-008 1.35641285e-008 1.28309328e-008
      1.13645404e-008 9.89814808e-009 7.45416084e-009 5.62117064e-009
      3.91037958e-009 2.68838596e-009 1.83299043e-009 9.77594894e-010
      2.44398723e-010 -2.44398723e-010 -4.88797447e-010 -7.33196170e-010
      -7.33196170e-010 -7.33196170e-010 -7.33196170e-010
      -6.10996809e-010 -2.44398723e-010 0. -2.44398723e-010
      -7.33196170e-010 -1.34419298e-009 -1.95518979e-009
      -2.44398723e-009 -2.93278468e-009 -3.42158213e-009
      -3.66598085e-009 -3.66598085e-009 -3.66598085e-009
      -3.17718341e-009 -3.05498404e-009 -2.81058532e-009
      -2.07738915e-009 -1.34419298e-009 -7.33196170e-010
      -4.88797447e-010 1.22199362e-010 9.77594894e-010 1.83299043e-009
      2.81058532e-009 3.91037958e-009 4.88797447e-009 5.86556936e-009
      6.35436681e-009</_>
    <_>
      -2.29923160e-007 -2.70667169e-008 1.43888812e-009 -8.41995202e-008
      1.19484853e-010 -5.87874047e-006 -4.40729946e-006 -3.47729269e-006
      -2.09637346e-006 -4.23261980e-007 3.34865973e-007 5.15129329e-007
      6.31871160e-007 7.26970939e-007 4.58098185e-007 7.43510441e-007
      1.16607248e-006 2.12196255e-006 1.54472218e-006 1.16739557e-006
      8.65799336e-007 7.16575357e-007 6.91471882e-007 5.24620873e-007
      -2.11087269e-007 -2.32495523e-007 -1.11098792e-007
      -1.51416941e-007 -1.41874125e-007 8.21969195e-008 -1.73143792e-006
      -4.06988647e-006 -6.82121390e-006 -5.72189356e-006
      -5.39866096e-006 -2.67224664e-006 -2.10530334e-006 1.03593784e-007
      2.63863484e-007 3.41574435e-007 5.67657708e-007 1.43418051e-008
      1.52895723e-008 1.48979602e-008 1.30424640e-008 1.10856702e-008
      9.89905491e-009 8.04617883e-009 6.13831519e-009 5.21521892e-009
      4.22708490e-009 3.59685037e-009 2.55313326e-009 1.38740952e-009
      -7.59714291e-010 -2.33218689e-009 -2.83031376e-009
      -3.26021765e-009 -3.39864514e-009 -3.47853657e-009
      -3.26695160e-009 -1.74332804e-009 -9.44037737e-010
      -5.07813902e-010 -7.09711845e-010 1.29246971e-026 -6.55928367e-010
      -7.68247854e-010 -9.39103351e-010 -8.26783864e-010
      -2.10777995e-009 -2.94779978e-009 -2.87957680e-009
      -2.60945576e-009 -3.63831942e-009 -3.52936680e-009
      -2.61143707e-009 -1.75697779e-009 -9.05885478e-010
      -2.80999529e-010 1.87470553e-010 1.30868383e-009 1.99367323e-009
      2.98951308e-009 4.11072643e-009 5.30016253e-009 6.83485890e-009
      7.33574490e-009 7.04702741e-009 7.45496731e-009 1.03627151e-008
      1.43418051e-008 1.52895723e-008 1.48979602e-008 1.30424640e-008
      1.10856702e-008 9.89905491e-009 8.04617883e-009 6.13831519e-009
      5.21521892e-009 4.22708490e-009 3.59685037e-009 2.55313326e-009
      1.38740952e-009 -7.59714291e-010 -2.33218689e-009 -2.83031376e-009
      -3.26021765e-009 -3.39864514e-009 -3.47853657e-009
      -3.26695160e-009 -1.74332804e-009 -9.44037737e-010
      -5.07813902e-010 -7.09711845e-010 1.29246971e-026 -6.55928367e-010
      -7.68247854e-010 -9.39103351e-010 -8.26783864e-010
      -2.10777995e-009 -2.94779978e-009 -2.87957680e-009
      -2.60945576e-009 -3.63831942e-009 -3.52936680e-009
      -2.61143707e-009 -1.75697779e-009 -9.05885478e-010
      -2.80999529e-010 1.87470553e-010 1.30868383e-009 1.99367323e-009
      2.98951308e-009 4.11072643e-009 5.30016253e-009 6.83485890e-009
      7.33574490e-009 7.04702741e-009 7.45496731e-009 1.03627151e-008</_>
    <_>
      7.19819639e-007 3.08673407e-008 3.52951912e-009 -6.90367230e-008
      1.52199017e-010 1.28923266e-005 1.26427085e-006 1.38445739e-006
      1.95534381e-006 9.52247831e-007 2.21882999e-007 3.64720177e-006
      6.63337687e-007 1.57398256e-006 7.37298706e-007 1.97845679e-006
      1.93223104e-006 4.04011962e-006 1.18106470e-006 7.71967905e-007
      1.13483907e-006 6.33291052e-007 4.22964462e-007 2.43840168e-006
      -6.93384372e-009 2.77353735e-007 7.53477650e-007 9.61493015e-007
      6.49469996e-007 1.07474580e-006 5.58636657e-006 1.90911828e-006
      1.52544555e-006 4.34520871e-007 1.76350761e-006 2.93532707e-007
      3.75583204e-006 2.54240931e-008 7.74279215e-007 1.92760854e-006
      1.09785856e-006 8.81175932e-009 8.37839398e-009 7.94502952e-009
      7.51166418e-009 7.07829884e-009 6.64493349e-009 6.06711303e-009
      5.34483791e-009 4.47810722e-009 3.03355652e-009 2.45573628e-009
      1.73346093e-009 1.15564058e-009 8.66730465e-010 5.77820292e-010
      1.44455073e-010 -1.44455073e-010 -2.88910146e-010 -2.88910146e-010
      -2.88910146e-010 -1.44455073e-010 -1.44455073e-010
      -1.44455073e-010 0. 0. 0. -2.88910146e-010 -5.77820292e-010
      -7.22275351e-010 -1.15564058e-009 -1.58900582e-009
      -1.73346093e-009 -1.87791604e-009 -1.87791604e-009
      -1.58900582e-009 -1.01118558e-009 -5.77820292e-010
      -5.77820292e-010 0. 7.22275351e-010 1.87791604e-009
      3.03355652e-009 4.04474232e-009 5.77820281e-009 8.52284909e-009
      1.12674963e-008 1.60345142e-008 1.99348005e-008 2.02237107e-008
      1.66123328e-008 8.81175932e-009 8.37839398e-009 7.94502952e-009
      7.51166418e-009 7.07829884e-009 6.64493349e-009 6.06711303e-009
      5.34483791e-009 4.47810722e-009 3.03355652e-009 2.45573628e-009
      1.73346093e-009 1.15564058e-009 8.66730465e-010 5.77820292e-010
      1.44455073e-010 -1.44455073e-010 -2.88910146e-010 -2.88910146e-010
      -2.88910146e-010 -1.44455073e-010 -1.44455073e-010
      -1.44455073e-010 0. 0. 0. -2.88910146e-010 -5.77820292e-010
      -7.22275351e-010 -1.15564058e-009 -1.58900582e-009
      -1.73346093e-009 -1.87791604e-009 -1.87791604e-009
      -1.58900582e-009 -1.01118558e-009 -5.77820292e-010
      -5.77820292e-010 0. 7.22275351e-010 1.87791604e-009
      3.03355652e-009 4.04474232e-009 5.77820281e-009 8.52284909e-009
      1.12674963e-008 1.60345142e-008 1.99348005e-008 2.02237107e-008
      1.66123328e-008</_>
    <_>
      -1.73541210e-007 -2.11497238e-008 9.75745373e-010 -6.14661957e-008
      1.28843547e-010 -4.37450262e-006 -4.18888385e-006 -3.24001303e-006
      -2.47676076e-006 -8.82380675e-007 -1.13587461e-007
      -2.92279935e-007 9.55796935e-008 4.05867411e-007 4.23875179e-007
      7.99267866e-007 8.42209488e-007 1.51126733e-006 9.82116035e-007
      5.11143583e-007 3.33836311e-007 3.18598978e-007 2.31330560e-007
      1.49602997e-007 -2.31330560e-007 -3.15828544e-007 -1.87003749e-007
      -3.86474426e-007 -4.88980163e-007 -5.52699987e-007
      -2.16370267e-006 -3.10149176e-006 -5.95641586e-006
      -5.03247884e-006 -4.69448696e-006 -2.93111066e-006
      -2.18725131e-006 -8.11734822e-007 -8.50520735e-007
      -6.80139578e-007 -4.21104744e-007 6.49318599e-009 6.49318599e-009
      6.66633726e-009 6.49318599e-009 5.97373084e-009 5.54085178e-009
      4.84824536e-009 3.89591159e-009 3.28988081e-009 2.77042589e-009
      2.59727440e-009 2.07781947e-009 1.38521294e-009 -3.46303236e-010
      -1.47178880e-009 -1.90466776e-009 -2.16439533e-009
      -2.33754682e-009 -2.33754682e-009 -2.16439533e-009
      -9.52333878e-010 -4.32879038e-010 -1.73151618e-010
      -4.32879038e-010 0. -4.32879038e-010 -5.19454868e-010
      -6.92606472e-010 -5.19454868e-010 -1.64494041e-009
      -2.25097097e-009 -2.16439533e-009 -1.99124361e-009
      -2.68385003e-009 -2.25097097e-009 -1.47178880e-009
      -6.06030670e-010 8.65758090e-011 9.52333878e-010 1.81809201e-009
      2.94357760e-009 4.06906286e-009 5.28112443e-009 7.01264069e-009
      8.05155054e-009 7.70524711e-009 2.94357760e-009 3.89591159e-009
      5.36770006e-009 6.06030692e-009 6.49318599e-009 6.49318599e-009
      6.66633726e-009 6.49318599e-009 5.97373084e-009 5.54085178e-009
      4.84824536e-009 3.89591159e-009 3.28988081e-009 2.77042589e-009
      2.59727440e-009 2.07781947e-009 1.38521294e-009 -3.46303236e-010
      -1.47178880e-009 -1.90466776e-009 -2.16439533e-009
      -2.33754682e-009 -2.33754682e-009 -2.16439533e-009
      -9.52333878e-010 -4.32879038e-010 -1.73151618e-010
      -4.32879038e-010 0. -4.32879038e-010 -5.19454868e-010
      -6.92606472e-010 -5.19454868e-010 -1.64494041e-009
      -2.25097097e-009 -2.16439533e-009 -1.99124361e-009
      -2.68385003e-009 -2.25097097e-009 -1.47178880e-009
      -6.06030670e-010 8.65758090e-011 9.52333878e-010 1.81809201e-009
      2.94357760e-009 4.06906286e-009 5.28112443e-009 7.01264069e-009
      8.05155054e-009 7.70524711e-009 2.94357760e-009 3.89591159e-009
      5.36770006e-009 6.06030692e-009</_>
    <_>
      -2.45336793e-007 -1.55107021e-008 -4.06575357e-010
      -7.01054770e-009 1.08738817e-011 -4.92880690e-006 -1.88828301e-006
      -1.53867563e-006 -1.32830587e-006 -5.88732632e-007
      -8.82846720e-008 -9.16647082e-007 -5.49887353e-008
      -2.08856306e-007 2.62331596e-008 -1.53867560e-007 -7.31501544e-008
      -4.81277596e-007 2.62331596e-008 -2.52241916e-009 -2.20459427e-007
      -1.46804794e-007 -9.33295041e-008 -6.35649599e-007
      -1.20067156e-007 -2.31053590e-007 -2.98654413e-007
      -3.67768706e-007 -4.00560168e-007 -4.85313421e-007
      -2.18138803e-006 -1.78738617e-006 -2.60162301e-006
      -1.93419100e-006 -2.20156744e-006 -1.12550345e-006
      -1.74954994e-006 -2.37611886e-007 -3.60201454e-007
      -5.79651896e-007 -4.18721584e-007 0. -6.30604804e-011
      6.30604804e-011 9.45907172e-011 1.57651198e-010 1.57651198e-010
      1.26120961e-010 -3.15302402e-011 3.15302402e-011 1.89181434e-010
      3.15302395e-010 2.52241922e-010 1.57651198e-010 -3.78362869e-010
      -6.93665236e-010 -7.56725738e-010 -8.19786239e-010
      -8.19786239e-010 -8.19786239e-010 -7.56725738e-010
      -3.78362869e-010 -1.57651198e-010 -6.30604804e-011
      -1.57651198e-010 0. -1.57651198e-010 -1.26120961e-010
      -9.45907172e-011 0. -2.83772145e-010 -4.41423342e-010
      -3.46832618e-010 -2.52241922e-010 -5.36014066e-010
      -5.36014066e-010 -4.09893119e-010 -2.52241922e-010
      -1.57651198e-010 -6.30604804e-011 -6.30604804e-011 0.
      6.30604804e-011 6.30604804e-011 3.15302402e-011 -3.15302402e-011
      -6.30604804e-011 -1.26120961e-010 -3.15302395e-010
      -1.89181434e-010 -1.26120961e-010 0. -6.30604804e-011
      6.30604804e-011 9.45907172e-011 1.57651198e-010 1.57651198e-010
      1.26120961e-010 -3.15302402e-011 3.15302402e-011 1.89181434e-010
      3.15302395e-010 2.52241922e-010 1.57651198e-010 -3.78362869e-010
      -6.93665236e-010 -7.56725738e-010 -8.19786239e-010
      -8.19786239e-010 -8.19786239e-010 -7.56725738e-010
      -3.78362869e-010 -1.57651198e-010 -6.30604804e-011
      -1.57651198e-010 0. -1.57651198e-010 -1.26120961e-010
      -9.45907172e-011 0. -2.83772145e-010 -4.41423342e-010
      -3.46832618e-010 -2.52241922e-010 -5.36014066e-010
      -5.36014066e-010 -4.09893119e-010 -2.52241922e-010
      -1.57651198e-010 -6.30604804e-011 -6.30604804e-011 0.
      6.30604804e-011 6.30604804e-011 3.15302402e-011 -3.15302402e-011
      -6.30604804e-011 -1.26120961e-010 -3.15302395e-010
      -1.89181434e-010 -1.26120961e-010</_></support_vectors>
  <decision_functions>
    <_>
      <sv_count>1</sv_count>
      <rho>4.1350165970287547e+000</rho>
      <alpha>
        1.</alpha>
      <index>
        0</index></_>
    <_>
      <sv_count>1</sv_count>
      <rho>-7.8104832965947912e-001</rho>
      <alpha>
        1.</alpha>
      <index>
        1</index></_>
    <_>
      <sv_count>1</sv_count>
      <rho>2.2464626388003626e+000</rho>
      <alpha>
        1.</alpha>
      <index>
        2</index></_>
    <_>
      <sv_count>1</sv_count>
      <rho>2.6840471396539032e+000</rho>
      <alpha>
        1.</alpha>
      <index>
        3</index></_>
    <_>
      <sv_count>1</sv_count>
      <rho>4.3616709047989488e+000</rho>
      <alpha>
        1.</alpha>
      <index>
        4</index></_>
    <_>
      <sv_count>1</sv_count>
      <rho>1.9239897323905235e+000</rho>
      <alpha>
        1.</alpha>
      <index>
        5</index></_>
    <_>
      <sv_count>1</sv_count>
      <rho>-2.9638759638871210e+000</rho>
      <alpha>
        1.</alpha>
      <index>
        6</index></_>
    <_>
      <sv_count>1</sv_count>
      <rho>-5.1048129822925494e+000</rho>
      <alpha>
        1.</alpha>
      <index>
        7</index></_>
    <_>
      <sv_count>1</sv_count>
      <rho>-2.9299708546711138e+000</rho>
      <alpha>
        1.</alpha>
      <index>
        8</index></_>
    <_>
      <sv_count>1</sv_count>
      <rho>-4.2281128582125849e+000</rho>
      <alpha>
        1.</alpha>
      <index>
        9</index></_>
    <_>
      <sv_count>1</sv_count>
      <rho>-4.1023652776791062e+000</rho>
      <alpha>
        1.</alpha>
      <index>
        10</index></_>
    <_>
      <sv_count>1</sv_count>
      <rho>3.0160679713081233e+000</rho>
      <alpha>
        1.</alpha>
      <index>
        11</index></_>
    <_>
      <sv_count>1</sv_count>
      <rho>-2.2449774969136671e+000</rho>
      <alpha>
        1.</alpha>
      <index>
        12</index></_>
    <_>
      <sv_count>1</sv_count>
      <rho>2.3385861246394737e+000</rho>
      <alpha>
        1.</alpha>
      <index>
        13</index></_>
    <_>
      <sv_count>1</sv_count>
      <rho>-1.6711549270066026e+000</rho>
      <alpha>
        1.</alpha>
      <index>
        14</index></_>
    <_>
      <sv_count>1</sv_count>
      <rho>-1.5542617819913778e+000</rho>
      <alpha>
        1.</alpha>
      <index>
        15</index></_>
    <_>
      <sv_count>1</sv_count>
      <rho>2.6058732021486861e+000</rho>
      <alpha>
        1.</alpha>
      <index>
        16</index></_>
    <_>
      <sv_count>1</sv_count>
      <rho>-2.6181876053767055e+000</rho>
      <alpha>
        1.</alpha>
      <index>
        17</index></_>
    <_>
      <sv_count>1</sv_count>
      <rho>-3.2694854422763791e+000</rho>
      <alpha>
        1.</alpha>
      <index>
        18</index></_>
    <_>
      <sv_count>1</sv_count>
      <rho>-3.6900551700186242e+000</rho>
      <alpha>
        1.</alpha>
      <index>
        19</index></_>
    <_>
      <sv_count>1</sv_count>
      <rho>3.2035331422741504e+000</rho>
      <alpha>
        1.</alpha>
      <index>
        20</index></_>
    <_>
      <sv_count>1</sv_count>
      <rho>-2.5117814329483030e+000</rho>
      <alpha>
        1.</alpha>
      <index>
        21</index></_>
    <_>
      <sv_count>1</sv_count>
      <rho>5.5195441927558431e+000</rho>
      <alpha>
        1.</alpha>
      <index>
        22</index></_>
    <_>
      <sv_count>1</sv_count>
      <rho>2.0120993710639481e+000</rho>
      <alpha>
        1.</alpha>
      <index>
        23</index></_>
    <_>
      <sv_count>1</sv_count>
      <rho>-2.7859869364995342e+000</rho>
      <alpha>
        1.</alpha>
      <index>
        24</index></_>
    <_>
      <sv_count>1</sv_count>
      <rho>2.0503134115808637e+000</rho>
      <alpha>
        1.</alpha>
      <index>
        25</index></_>
    <_>
      <sv_count>1</sv_count>
      <rho>-2.5152653571579915e+000</rho>
      <alpha>
        1.</alpha>
      <index>
        26</index></_>
    <_>
      <sv_count>1</sv_count>
      <rho>-1.4810834104110626e+000</rho>
      <alpha>
        1.</alpha>
      <index>
        27</index></_></decision_functions></svm>
</opencv_storage>
