<?xml version="1.0"?>
<opencv_storage>
<svm type_id="opencv-ml-svm">
  <svm_type>C_SVC</svm_type>
  <kernel><type>LINEAR</type></kernel>
  <C>1.</C>
  <term_criteria><epsilon>2.2204460492503131e-016</epsilon>
    <iterations>100</iterations></term_criteria>
  <var_all>142</var_all>
  <var_count>142</var_count>
  <class_count>13</class_count>
  <class_labels type_id="opencv-matrix">
    <rows>1</rows>
    <cols>13</cols>
    <dt>i</dt>
    <data>
      1 2 3 4 5 6 7 8 9 10 11 12 13</data></class_labels>
  <sv_total>78</sv_total>
  <support_vectors>
    <_>
      -2.05491015e-005 -1.29428781e-006 -2.86462032e-009 1.34824825e-006
      -1.39943590e-009 -7.91853605e-009 -2.40101440e-006
      -4.60887406e-007 2.75640645e-007 3.63444451e-006 9.27388737e-006
      6.90338356e-006 1.61462572e-006 5.39568418e-006 3.19735523e-006
      1.26311966e-006 1.05385027e-006 2.71348699e-006 -2.09323935e-006
      6.70965676e-007 1.31077527e-007 -5.32295462e-006 -4.44919078e-006
      -6.75239846e-007 -1.09085795e-005 -3.36217863e-006
      -8.08659024e-006 1.33458775e-006 -5.15152897e-006 4.85397868e-006
      -3.57249291e-007 -1.73120088e-006 -3.06389848e-006
      -3.45351737e-006 6.90123989e-006 7.31134696e-006 2.13484441e-006
      7.66329958e-006 3.61112711e-006 -2.37365657e-006 -1.36577853e-006
      -6.24028553e-006 -1.15180342e-007 -8.58862990e-008
      -1.00594050e-007 -1.11250976e-007 -1.13681068e-007
      -1.19167943e-007 -1.26671836e-007 -1.18123715e-007
      -1.20364447e-007 -1.08976785e-007 -9.03835797e-008
      -1.04056134e-007 -1.12402425e-007 -1.23128288e-007
      -1.42582692e-007 -1.22047254e-007 -1.04035934e-007
      -3.55586671e-008 -1.91740508e-008 -1.08448264e-008
      -1.19864429e-008 -1.09288454e-008 -9.97247174e-009
      -7.09969417e-009 -2.06795153e-025 -5.76439341e-010 5.30328359e-009
      9.25730426e-009 1.57911870e-008 1.74259220e-008 1.51750346e-008
      1.19868986e-008 5.95002669e-009 -1.03062603e-009 -1.21110029e-008
      -1.45290002e-008 -1.56178945e-008 -1.53658686e-008
      -1.38590561e-008 -2.95524192e-008 -4.62013254e-008
      -6.26895797e-008 -6.84618797e-008 -6.67607338e-008
      -7.44231770e-008 -8.60773355e-008 -9.84074333e-008
      -1.19003417e-007 -1.29241727e-007 -1.28921826e-007
      -1.15180342e-007 -8.58862990e-008 -1.00594050e-007
      -1.11250976e-007 -1.13681068e-007 -1.19167943e-007
      -1.26671836e-007 -1.18123715e-007 -1.20364447e-007
      -1.08976785e-007 -9.03835797e-008 -1.04056134e-007
      -1.12402425e-007 -1.23128288e-007 -1.42582692e-007
      -1.22047254e-007 -1.04035934e-007 -3.55586671e-008
      -1.91740508e-008 -1.08448264e-008 -1.19864429e-008
      -1.09288454e-008 -9.97247174e-009 -7.09969417e-009
      -2.06795153e-025 -5.76439341e-010 5.30328359e-009 9.25730426e-009
      1.57911870e-008 1.74259220e-008 1.51750346e-008 1.19868986e-008
      5.95002669e-009 -1.03062603e-009 -1.21110029e-008 -1.45290002e-008
      -1.56178945e-008 -1.53658686e-008 -1.38590561e-008
      -2.95524192e-008 -4.62013254e-008 -6.26895797e-008
      -6.84618797e-008 -6.67607338e-008 -7.44231770e-008
      -8.60773355e-008 -9.84074333e-008 -1.19003417e-007
      -1.29241727e-007 -1.28921826e-007</_>
    <_>
      -1.30196267e-005 -6.32934757e-007 6.51703402e-008 -2.29074499e-006
      -2.42288678e-009 1.27697097e-009 1.26643745e-005 -4.35071797e-007
      -4.79992013e-006 6.69123710e-006 8.70660369e-006 1.44588457e-005
      2.50058893e-005 3.82188091e-006 -9.19473905e-007 -1.21134929e-006
      -1.35199957e-006 -9.35246953e-006 -1.12598254e-005
      -1.96223828e-005 -2.20665261e-005 -1.51799413e-005
      -8.71095654e-006 -6.07167658e-006 -8.31041405e-007
      -3.25064684e-006 -1.18643284e-005 -9.07048525e-006
      -4.74471972e-006 -3.33415960e-006 1.05138515e-005 1.94021613e-005
      6.62763023e-006 4.39106043e-006 7.82512507e-006 -2.27438068e-006
      -3.91441927e-006 6.81179586e-007 7.17378089e-006 -1.55437158e-006
      -2.07535668e-005 -2.39561195e-005 1.86187155e-008 1.54770419e-008
      1.19735173e-008 1.73194525e-009 -9.44565670e-009 -1.96616234e-008
      -4.28261373e-008 -1.67337859e-008 -1.38794780e-008
      -3.87475918e-009 1.08115372e-009 7.96963384e-009 4.60222867e-011
      2.05264161e-008 3.58922421e-008 4.11669738e-008 4.07825134e-008
      3.67410564e-008 3.89993353e-008 2.85341901e-008 2.29156303e-008
      2.10061213e-008 1.40158392e-008 9.10285269e-009 4.40789893e-009
      9.33494526e-009 2.47655425e-008 5.33375442e-008 8.59833378e-008
      1.00138756e-007 1.03408574e-007 9.83526078e-008 8.82274804e-008
      8.11201346e-008 6.70504008e-008 4.76841855e-008 3.74928355e-008
      1.51879238e-008 7.07820558e-009 -4.67340966e-009 -2.51921906e-009
      -3.92873928e-010 1.31033184e-008 1.27671296e-008 3.97188415e-008
      6.01134289e-008 6.29041494e-008 5.81693982e-008 4.87036580e-008
      3.59870356e-008 1.86187155e-008 1.54770419e-008 1.19735173e-008
      1.73194525e-009 -9.44565670e-009 -1.96616234e-008 -4.28261373e-008
      -1.67337859e-008 -1.38794780e-008 -3.87475918e-009 1.08115372e-009
      7.96963384e-009 4.60222867e-011 2.05264161e-008 3.58922421e-008
      4.11669738e-008 4.07825134e-008 3.67410564e-008 3.89993353e-008
      2.85341901e-008 2.29156303e-008 2.10061213e-008 1.40158392e-008
      9.10285269e-009 4.40789893e-009 9.33494526e-009 2.47655425e-008
      5.33375442e-008 8.59833378e-008 1.00138756e-007 1.03408574e-007
      9.83526078e-008 8.82274804e-008 8.11201346e-008 6.70504008e-008
      4.76841855e-008 3.74928355e-008 1.51879238e-008 7.07820558e-009
      -4.67340966e-009 -2.51921906e-009 -3.92873928e-010 1.31033184e-008
      1.27671296e-008 3.97188415e-008 6.01134289e-008 6.29041494e-008
      5.81693982e-008 4.87036580e-008 3.59870356e-008</_>
    <_>
      -2.89715190e-005 -5.82126574e-007 1.28293820e-007 3.05880576e-006
      -4.36221681e-009 -7.52725438e-009 1.67100170e-005 9.88718875e-006
      1.23454065e-005 1.47290584e-005 4.47599359e-006 9.95564642e-006
      2.27677046e-005 9.08249785e-006 1.18359530e-005 5.26902738e-007
      4.77001890e-007 -6.99100474e-006 1.16486572e-005 -1.42331828e-005
      -1.40377206e-005 -9.14093471e-006 -7.40755240e-006 3.25839505e-006
      8.73749468e-006 5.07343429e-006 -7.50406161e-006 -2.00020022e-005
      -1.23202644e-005 2.11333167e-006 1.79465369e-005 1.42673607e-005
      2.17359102e-005 2.34512918e-005 2.13474759e-005 -1.33053516e-006
      2.68491544e-006 -1.71856791e-005 6.58795034e-006 -1.04780047e-005
      -3.09925272e-005 -4.17007323e-005 -3.73332284e-007
      -3.44515001e-007 -3.21014909e-007 -2.92309920e-007
      -2.70230458e-007 -2.43593860e-007 -2.17068418e-007
      -1.59603132e-007 -1.44647728e-007 -1.33524154e-007
      -1.35154920e-007 -1.12761185e-007 -1.02367075e-007
      -9.16300777e-008 -8.53045350e-008 -7.34613934e-008
      -5.53279840e-008 -3.72987792e-008 -3.02167535e-008
      -2.48317829e-008 -1.65967222e-008 -1.65979142e-008
      -1.15686101e-008 -7.75359865e-009 3.10192730e-025 -5.41709344e-009
      -2.52746268e-009 2.45566323e-008 3.70770188e-008 3.16639941e-008
      1.13039507e-008 -5.29082067e-009 -4.14960404e-008 -8.55305018e-008
      -1.24073878e-007 -1.62946307e-007 -2.02471426e-007
      -2.49750769e-007 -2.70261751e-007 -3.24598631e-007
      -3.60039451e-007 -4.21689180e-007 -4.86767931e-007
      -5.26919337e-007 -4.30913360e-007 -4.10132827e-007
      -4.18499468e-007 -4.19071824e-007 -4.02446545e-007
      -3.82890278e-007 -3.73332284e-007 -3.44515001e-007
      -3.21014909e-007 -2.92309920e-007 -2.70230458e-007
      -2.43593860e-007 -2.17068418e-007 -1.59603132e-007
      -1.44647728e-007 -1.33524154e-007 -1.35154920e-007
      -1.12761185e-007 -1.02367075e-007 -9.16300777e-008
      -8.53045350e-008 -7.34613934e-008 -5.53279840e-008
      -3.72987792e-008 -3.02167535e-008 -2.48317829e-008
      -1.65967222e-008 -1.65979142e-008 -1.15686101e-008
      -7.75359865e-009 3.10192730e-025 -5.41709344e-009 -2.52746268e-009
      2.45566323e-008 3.70770188e-008 3.16639941e-008 1.13039507e-008
      -5.29082067e-009 -4.14960404e-008 -8.55305018e-008
      -1.24073878e-007 -1.62946307e-007 -2.02471426e-007
      -2.49750769e-007 -2.70261751e-007 -3.24598631e-007
      -3.60039451e-007 -4.21689180e-007 -4.86767931e-007
      -5.26919337e-007 -4.30913360e-007 -4.10132827e-007
      -4.18499468e-007 -4.19071824e-007 -4.02446545e-007
      -3.82890278e-007</_>
    <_>
      -9.41124381e-006 -1.22531176e-007 8.82213200e-008 1.92618859e-006
      -1.46691184e-008 -1.69489833e-009 2.76701030e-005 -1.50374262e-006
      2.26437282e-006 2.45637898e-006 7.28007126e-006 1.39627355e-005
      2.79589385e-005 5.53798009e-006 1.77295424e-005 2.29646116e-006
      1.06127491e-005 -1.06098059e-005 -3.53228870e-006 -2.06401492e-005
      -1.41498813e-005 -7.91679304e-006 3.57141607e-006 4.07742255e-006
      3.54355234e-006 3.85686690e-006 4.38937741e-006 4.77397634e-006
      4.21985123e-006 1.27272324e-005 1.79646595e-005 -1.39326266e-005
      9.18401747e-006 5.00792112e-006 1.71446645e-005 -1.18950657e-005
      -6.68668960e-008 -1.68299739e-005 3.16612636e-006 -1.40979710e-005
      -1.79106955e-005 -3.41951782e-005 -2.64825047e-007
      -2.25399276e-007 -1.89380756e-007 -1.51050884e-007
      -1.33646566e-007 -8.62889706e-008 -4.20491162e-008 1.24731327e-008
      3.19546629e-008 6.16908835e-008 8.09751910e-008 1.04847999e-007
      7.30020062e-008 7.72812214e-008 8.83782576e-008 9.64630260e-008
      1.03850965e-007 9.66547447e-008 8.22336546e-008 7.38732879e-008
      6.64907347e-008 6.93913975e-008 5.19224344e-008 2.93876905e-008
      2.85132185e-009 4.27030749e-008 9.18081327e-008 1.42909812e-007
      1.82601781e-007 2.21549215e-007 2.19925226e-007 1.76972009e-007
      1.41290116e-007 9.21999757e-008 6.13623428e-008 2.41844855e-008
      -1.24426442e-008 -6.30010959e-008 -1.01149190e-007
      -1.59470972e-007 -1.99127882e-007 -2.60236845e-007
      -3.00022691e-007 -3.53287703e-007 -4.04632118e-007
      -4.47331757e-007 -4.18657777e-007 -3.70697080e-007
      -3.25775147e-007 -2.90432354e-007 -2.64825047e-007
      -2.25399276e-007 -1.89380756e-007 -1.51050884e-007
      -1.33646566e-007 -8.62889706e-008 -4.20491162e-008 1.24731327e-008
      3.19546629e-008 6.16908835e-008 8.09751910e-008 1.04847999e-007
      7.30020062e-008 7.72812214e-008 8.83782576e-008 9.64630260e-008
      1.03850965e-007 9.66547447e-008 8.22336546e-008 7.38732879e-008
      6.64907347e-008 6.93913975e-008 5.19224344e-008 2.93876905e-008
      2.85132185e-009 4.27030749e-008 9.18081327e-008 1.42909812e-007
      1.82601781e-007 2.21549215e-007 2.19925226e-007 1.76972009e-007
      1.41290116e-007 9.21999757e-008 6.13623428e-008 2.41844855e-008
      -1.24426442e-008 -6.30010959e-008 -1.01149190e-007
      -1.59470972e-007 -1.99127882e-007 -2.60236845e-007
      -3.00022691e-007 -3.53287703e-007 -4.04632118e-007
      -4.47331757e-007 -4.18657777e-007 -3.70697080e-007
      -3.25775147e-007 -2.90432354e-007</_>
    <_>
      -5.95947631e-006 1.34013192e-007 1.31844601e-007 1.69428006e-006
      -1.11793197e-008 -3.99921829e-009 -1.65877964e-007
      -1.36381914e-005 -5.49594552e-006 7.45507691e-007 5.40525707e-006
      1.22757510e-005 3.88203880e-005 8.33092599e-007 2.24654650e-005
      7.37031041e-006 1.06140742e-005 -7.93280833e-006 1.98874604e-005
      -1.91892723e-005 -1.22675310e-005 -5.54365351e-006 1.96129622e-006
      4.59452622e-006 7.77492551e-006 2.22595691e-006 -3.48114736e-006
      -5.38353106e-007 -7.79033508e-006 -7.37544406e-006
      -3.47977743e-006 6.96693451e-006 -5.10381051e-006 3.80815845e-006
      3.17744957e-006 -9.77024865e-006 -7.25054542e-006 1.55675898e-005
      -2.52027439e-006 -1.19419074e-005 -2.11627757e-005
      -2.92150617e-005 -6.11776443e-007 -5.63809465e-007
      -5.12617703e-007 -4.53509927e-007 -4.10599569e-007
      -3.58587698e-007 -3.09157343e-007 -2.48344179e-007
      -2.09887929e-007 -1.69848263e-007 -1.48050688e-007
      -1.17145063e-007 -8.88050877e-008 -6.35670219e-008
      -4.35609842e-008 -2.49449030e-008 -1.55833586e-008
      -3.02372949e-009 -1.78755455e-009 9.45082945e-009 1.75112707e-008
      2.74246545e-008 2.57486619e-008 1.30971802e-008 1.56065717e-024
      2.46899461e-008 5.29617452e-008 9.65439071e-008 1.31118156e-007
      1.50447690e-007 1.40644843e-007 1.04644506e-007 6.21663077e-008
      9.71478187e-009 -5.03945508e-008 -9.35216846e-008 -1.47471667e-007
      -1.94825589e-007 -2.50435164e-007 -3.06928030e-007
      -3.69201302e-007 -4.33202558e-007 -5.00141425e-007
      -5.85127225e-007 -6.67927168e-007 -6.80095695e-007
      -6.23735104e-007 -5.97787619e-007 -6.59723980e-007
      -6.33568732e-007 -6.11776443e-007 -5.63809465e-007
      -5.12617703e-007 -4.53509927e-007 -4.10599569e-007
      -3.58587698e-007 -3.09157343e-007 -2.48344179e-007
      -2.09887929e-007 -1.69848263e-007 -1.48050688e-007
      -1.17145063e-007 -8.88050877e-008 -6.35670219e-008
      -4.35609842e-008 -2.49449030e-008 -1.55833586e-008
      -3.02372949e-009 -1.78755455e-009 9.45082945e-009 1.75112707e-008
      2.74246545e-008 2.57486619e-008 1.30971802e-008 1.56065717e-024
      2.46899461e-008 5.29617452e-008 9.65439071e-008 1.31118156e-007
      1.50447690e-007 1.40644843e-007 1.04644506e-007 6.21663077e-008
      9.71478187e-009 -5.03945508e-008 -9.35216846e-008 -1.47471667e-007
      -1.94825589e-007 -2.50435164e-007 -3.06928030e-007
      -3.69201302e-007 -4.33202558e-007 -5.00141425e-007
      -5.85127225e-007 -6.67927168e-007 -6.80095695e-007
      -6.23735104e-007 -5.97787619e-007 -6.59723980e-007
      -6.33568732e-007</_>
    <_>
      -4.49271502e-005 -3.12372492e-008 1.12243860e-007 -4.75974332e-007
      -2.44432607e-009 3.97263822e-009 -5.48648859e-006 -7.58977694e-006
      -3.14124293e-007 -1.38450582e-006 9.61251203e-007 3.89628042e-007
      9.50211415e-006 5.95338520e-007 6.11932592e-006 1.18588616e-006
      2.96711687e-006 4.95561892e-007 1.46915600e-005 -3.03146180e-006
      -2.39447445e-006 1.31046420e-006 2.20955394e-006 -2.64085247e-006
      9.19868944e-006 9.16058696e-008 -8.59849706e-007 -1.46655702e-006
      -4.96662096e-006 -4.91049150e-006 -2.73538802e-007 1.49772286e-005
      -2.33697824e-006 4.59708554e-006 1.39144845e-006 2.16173385e-006
      -6.68834730e-007 1.09767443e-005 1.63165737e-006 -1.98217026e-006
      -1.58221883e-005 -1.50652277e-005 -2.02540861e-007
      -1.99631586e-007 -1.93361572e-007 -1.78818198e-007
      -1.70411610e-007 -1.70654047e-007 -1.70562430e-007
      -1.51993021e-007 -1.55054266e-007 -1.57036197e-007
      -1.57711568e-007 -1.49750505e-007 -1.44807203e-007
      -1.44412411e-007 -1.50935918e-007 -1.50171076e-007
      -1.41090695e-007 -1.32874504e-007 -1.15522433e-007
      -9.25566894e-008 -6.51929781e-008 -4.47166677e-008
      -2.60021373e-008 -1.16276668e-008 1.55096365e-025 -6.80144385e-009
      -7.64349917e-009 -3.64336761e-009 -5.10302067e-009
      -1.84061619e-008 -3.49094194e-008 -5.87950169e-008
      -7.95573456e-008 -1.10059801e-007 -1.29488228e-007
      -1.62261784e-007 -1.82522029e-007 -1.94105681e-007
      -2.01923456e-007 -2.12438280e-007 -2.11296665e-007
      -2.15476959e-007 -2.12748887e-007 -2.25264003e-007
      -2.31797827e-007 -2.31451295e-007 -2.26508263e-007
      -2.22164346e-007 -2.17273495e-007 -2.13841830e-007
      -2.02540861e-007 -1.99631586e-007 -1.93361572e-007
      -1.78818198e-007 -1.70411610e-007 -1.70654047e-007
      -1.70562430e-007 -1.51993021e-007 -1.55054266e-007
      -1.57036197e-007 -1.57711568e-007 -1.49750505e-007
      -1.44807203e-007 -1.44412411e-007 -1.50935918e-007
      -1.50171076e-007 -1.41090695e-007 -1.32874504e-007
      -1.15522433e-007 -9.25566894e-008 -6.51929781e-008
      -4.47166677e-008 -2.60021373e-008 -1.16276668e-008 1.55096365e-025
      -6.80144385e-009 -7.64349917e-009 -3.64336761e-009
      -5.10302067e-009 -1.84061619e-008 -3.49094194e-008
      -5.87950169e-008 -7.95573456e-008 -1.10059801e-007
      -1.29488228e-007 -1.62261784e-007 -1.82522029e-007
      -1.94105681e-007 -2.01923456e-007 -2.12438280e-007
      -2.11296665e-007 -2.15476959e-007 -2.12748887e-007
      -2.25264003e-007 -2.31797827e-007 -2.31451295e-007
      -2.26508263e-007 -2.22164346e-007 -2.17273495e-007
      -2.13841830e-007</_>
    <_>
      -3.02102562e-005 -1.07620542e-006 7.18254611e-008 -5.46319643e-006
      -9.18758569e-010 -7.85937893e-009 -1.09879629e-005
      -2.12913437e-006 1.50436324e-006 5.63391097e-007 1.00591151e-005
      1.18537555e-005 1.45516469e-005 1.40956327e-005 1.60523105e-005
      1.49888765e-005 1.23343971e-005 8.14988834e-006 -7.99252666e-006
      -1.19266156e-006 -1.88692127e-006 -8.32176192e-006
      -1.45570593e-005 -4.86612043e-006 -1.15119192e-005
      -1.52942048e-005 -1.52303810e-005 -2.25328040e-006
      -2.49143773e-006 8.64251524e-006 1.84928595e-005 2.60704728e-005
      1.84643704e-006 -5.61597608e-006 -4.96960138e-006 -8.58487510e-006
      -3.34838478e-006 3.18186767e-006 2.61432956e-006 -1.33122812e-005
      -2.58711789e-005 -1.56374772e-005 -9.34983575e-008
      -7.99907056e-008 -7.01150711e-008 -6.95043454e-008
      -7.10016153e-008 -8.27389428e-008 -8.68391155e-008
      -1.15443406e-007 -1.26580773e-007 -8.94218388e-008
      -1.02602421e-007 -5.58312472e-008 -8.96288554e-008
      -9.56244648e-008 -7.11392047e-008 -6.23967580e-008
      -5.80631934e-008 -6.66225830e-008 -7.92984309e-008
      -9.49462802e-008 -7.67576438e-008 -5.01147177e-008
      -2.47706513e-008 -9.30857436e-009 2.66188960e-010 2.87586710e-009
      6.90374513e-009 2.30638371e-008 3.34059713e-008 3.88153012e-008
      3.57838879e-008 3.06837364e-008 2.00674268e-008 9.88898297e-010
      -1.50750701e-008 -2.01279846e-008 -4.27445634e-008
      -5.76467194e-008 -7.17352648e-008 -8.60295444e-008
      -1.04257524e-007 -1.38935562e-007 -1.60492206e-007
      -1.91726812e-007 -1.88028210e-007 -1.32496908e-007
      -1.28949836e-007 -1.19806586e-007 -1.13104036e-007
      -1.07044528e-007 -9.34983575e-008 -7.99907056e-008
      -7.01150711e-008 -6.95043454e-008 -7.10016153e-008
      -8.27389428e-008 -8.68391155e-008 -1.15443406e-007
      -1.26580773e-007 -8.94218388e-008 -1.02602421e-007
      -5.58312472e-008 -8.96288554e-008 -9.56244648e-008
      -7.11392047e-008 -6.23967580e-008 -5.80631934e-008
      -6.66225830e-008 -7.92984309e-008 -9.49462802e-008
      -7.67576438e-008 -5.01147177e-008 -2.47706513e-008
      -9.30857436e-009 2.66188960e-010 2.87586710e-009 6.90374513e-009
      2.30638371e-008 3.34059713e-008 3.88153012e-008 3.57838879e-008
      3.06837364e-008 2.00674268e-008 9.88898297e-010 -1.50750701e-008
      -2.01279846e-008 -4.27445634e-008 -5.76467194e-008
      -7.17352648e-008 -8.60295444e-008 -1.04257524e-007
      -1.38935562e-007 -1.60492206e-007 -1.91726812e-007
      -1.88028210e-007 -1.32496908e-007 -1.28949836e-007
      -1.19806586e-007 -1.13104036e-007 -1.07044528e-007</_>
    <_>
      -8.82873610e-006 -2.10814406e-008 6.77676155e-008 -1.37146799e-006
      -9.85016513e-010 2.03667944e-010 -5.99700797e-006 -8.58290548e-007
      5.67559982e-006 1.38295845e-005 1.08468375e-005 9.70069868e-006
      8.99805491e-006 -6.96208417e-006 -3.53730957e-006 -3.02377111e-006
      -6.65957577e-006 -2.75533625e-006 2.58949490e-006 -7.38479457e-006
      -7.86913552e-006 -1.16094261e-005 -8.26501218e-006
      -1.19566575e-005 -4.10657376e-005 -6.43909686e-007
      -1.45393942e-005 -1.30280905e-005 -1.15778939e-005 4.02073647e-006
      3.54964914e-006 -4.89307422e-006 -8.33695867e-006 6.71250746e-006
      9.91722300e-006 1.70502165e-006 -7.95485903e-007 3.60168924e-005
      5.21604306e-006 -7.79782113e-006 -6.49056210e-006 -1.71818610e-005
      -1.59459770e-008 -2.22037002e-008 -2.13497380e-008
      -2.28287540e-008 -2.76228516e-008 -3.28422942e-008
      -2.85884827e-008 -2.24997834e-008 -2.49120120e-008
      -3.07318153e-008 -4.64478980e-008 -7.37422639e-008
      -8.47958930e-008 -9.04165560e-008 -9.42769844e-008
      -9.17483760e-008 -9.19812138e-008 -8.78516175e-008
      -7.24810647e-008 -4.48184707e-008 -3.47290694e-008
      -1.71944023e-008 -6.13063733e-009 -9.11920747e-011
      -3.10192730e-025 -2.53171417e-009 2.99095748e-009 1.18364181e-008
      1.67604846e-008 1.36180107e-008 -2.17868057e-009 -1.53036872e-008
      -9.22137122e-009 2.96018721e-009 6.56505683e-010 -3.83086318e-009
      -1.15136372e-008 -7.37871053e-009 9.88147164e-009 1.28323379e-008
      1.77847053e-008 1.47546295e-008 1.43013832e-008 5.52751223e-009
      4.27716662e-009 1.63208191e-009 -5.00641195e-010 -3.67487063e-009
      -4.52459448e-009 -7.52823670e-009 -1.59459770e-008
      -2.22037002e-008 -2.13497380e-008 -2.28287540e-008
      -2.76228516e-008 -3.28422942e-008 -2.85884827e-008
      -2.24997834e-008 -2.49120120e-008 -3.07318153e-008
      -4.64478980e-008 -7.37422639e-008 -8.47958930e-008
      -9.04165560e-008 -9.42769844e-008 -9.17483760e-008
      -9.19812138e-008 -8.78516175e-008 -7.24810647e-008
      -4.48184707e-008 -3.47290694e-008 -1.71944023e-008
      -6.13063733e-009 -9.11920747e-011 -3.10192730e-025
      -2.53171417e-009 2.99095748e-009 1.18364181e-008 1.67604846e-008
      1.36180107e-008 -2.17868057e-009 -1.53036872e-008 -9.22137122e-009
      2.96018721e-009 6.56505683e-010 -3.83086318e-009 -1.15136372e-008
      -7.37871053e-009 9.88147164e-009 1.28323379e-008 1.77847053e-008
      1.47546295e-008 1.43013832e-008 5.52751223e-009 4.27716662e-009
      1.63208191e-009 -5.00641195e-010 -3.67487063e-009 -4.52459448e-009
      -7.52823670e-009</_>
    <_>
      -3.29880932e-005 -2.06678396e-006 3.59232466e-008 2.46388299e-006
      -1.82535809e-009 -1.25996626e-008 1.81700179e-005 -1.72343734e-005
      -7.74837554e-006 4.48607716e-006 -4.53525581e-006 6.07747052e-006
      -5.22095479e-006 3.57516456e-006 1.86363934e-006 -1.32225955e-006
      -5.17902299e-006 -4.57328179e-006 1.46726616e-005 1.53659198e-006
      2.14305464e-006 5.82915845e-006 9.71896498e-006 1.28078300e-005
      1.20224986e-005 7.49059700e-006 1.14312234e-005 7.57771750e-006
      4.34802769e-006 1.13956394e-005 1.06880534e-005 1.49692805e-005
      4.50602010e-006 2.19619437e-006 9.45246211e-006 1.61854473e-006
      -4.25465805e-006 1.31669085e-005 3.09800976e-006 -2.15873297e-005
      -2.75729853e-005 -4.07110238e-005 -1.84311006e-007
      -1.49600325e-007 -1.45510441e-007 -1.46416937e-007
      -1.33637513e-007 -1.23991597e-007 -1.13287868e-007
      -1.08785642e-007 -1.07060444e-007 -1.02850017e-007
      -1.04541030e-007 -1.05897470e-007 -1.07927590e-007
      -1.05669201e-007 -1.04220412e-007 -1.05062774e-007
      -1.00310054e-007 -9.95412321e-008 -8.40474144e-008
      -6.47338325e-008 -4.39868515e-008 -2.99084526e-008
      -1.68491336e-008 -4.12437773e-009 -6.20385459e-025 6.00136496e-010
      6.09347106e-009 2.00813632e-009 2.05347050e-009 -2.29736630e-009
      -3.34949455e-008 -8.99982169e-008 -1.39795290e-007
      -1.76700595e-007 -1.49746199e-007 -1.44749819e-007
      -1.50327537e-007 -1.96959647e-007 -2.36180824e-007
      -2.48832038e-007 -2.52734424e-007 -2.39267393e-007
      -2.27628959e-007 -2.34668349e-007 -2.35120041e-007
      -2.46083118e-007 -2.85987142e-007 -2.97800540e-007
      -2.74142025e-007 -2.22269506e-007 -1.84311006e-007
      -1.49600325e-007 -1.45510441e-007 -1.46416937e-007
      -1.33637513e-007 -1.23991597e-007 -1.13287868e-007
      -1.08785642e-007 -1.07060444e-007 -1.02850017e-007
      -1.04541030e-007 -1.05897470e-007 -1.07927590e-007
      -1.05669201e-007 -1.04220412e-007 -1.05062774e-007
      -1.00310054e-007 -9.95412321e-008 -8.40474144e-008
      -6.47338325e-008 -4.39868515e-008 -2.99084526e-008
      -1.68491336e-008 -4.12437773e-009 -6.20385459e-025 6.00136496e-010
      6.09347106e-009 2.00813632e-009 2.05347050e-009 -2.29736630e-009
      -3.34949455e-008 -8.99982169e-008 -1.39795290e-007
      -1.76700595e-007 -1.49746199e-007 -1.44749819e-007
      -1.50327537e-007 -1.96959647e-007 -2.36180824e-007
      -2.48832038e-007 -2.52734424e-007 -2.39267393e-007
      -2.27628959e-007 -2.34668349e-007 -2.35120041e-007
      -2.46083118e-007 -2.85987142e-007 -2.97800540e-007
      -2.74142025e-007 -2.22269506e-007</_>
    <_>
      -1.58764378e-005 -6.92986191e-007 3.13936113e-008 -6.04190689e-007
      -4.16744017e-009 -3.16804938e-009 1.87594779e-007 -3.63012441e-006
      -2.77399209e-007 8.82667973e-006 -2.12657113e-007 5.83627980e-007
      2.14018723e-006 -1.04306664e-005 -8.78150240e-006 -9.10362814e-006
      -9.68749737e-006 -1.66420377e-005 6.96676761e-006 -1.19529441e-005
      -1.63086279e-005 -1.55906691e-005 -5.02560897e-006
      -6.02102455e-006 -2.16714689e-005 -1.77967434e-006
      -9.49738114e-006 -9.98406904e-006 -5.89007277e-006 1.64176220e-006
      1.54255395e-005 2.89891559e-005 1.54296540e-005 1.89193033e-005
      1.36963645e-005 3.49501761e-006 -8.75200112e-006 1.71061529e-005
      -5.97201642e-006 -1.49703328e-005 -1.22634792e-005
      -3.27949783e-005 -3.91914377e-008 -3.77540097e-008
      -8.19945001e-008 -1.01869702e-007 -1.03659914e-007
      -9.72269945e-008 -8.12524448e-008 -8.58085372e-008
      -1.03871777e-007 -9.25395653e-008 -8.23787545e-008
      -6.67077131e-008 -5.30026014e-008 -4.41064536e-008
      -3.26415375e-008 -2.27380390e-008 -1.22573756e-008
      -8.61366889e-009 -1.15438334e-008 -7.08039671e-009
      -6.65388011e-009 1.62557648e-010 7.61839036e-010 -1.56399660e-009
      1.69731795e-009 5.86142024e-009 1.96803160e-008 3.20310605e-008
      4.31854588e-008 5.21411998e-008 4.73047024e-008 2.43021230e-008
      -2.39798581e-009 -3.47466944e-008 -6.23182501e-008
      -8.72877379e-008 -8.45924006e-008 -8.21425772e-008
      -1.13339162e-007 -1.46625666e-007 -1.56863393e-007
      -1.54225077e-007 -1.32578094e-007 -1.46829279e-007
      -1.27970893e-007 -9.98333576e-008 -8.62179519e-008
      -7.00399170e-008 -6.08008150e-008 -4.93753447e-008
      -3.91914377e-008 -3.77540097e-008 -8.19945001e-008
      -1.01869702e-007 -1.03659914e-007 -9.72269945e-008
      -8.12524448e-008 -8.58085372e-008 -1.03871777e-007
      -9.25395653e-008 -8.23787545e-008 -6.67077131e-008
      -5.30026014e-008 -4.41064536e-008 -3.26415375e-008
      -2.27380390e-008 -1.22573756e-008 -8.61366889e-009
      -1.15438334e-008 -7.08039671e-009 -6.65388011e-009 1.62557648e-010
      7.61839036e-010 -1.56399660e-009 1.69731795e-009 5.86142024e-009
      1.96803160e-008 3.20310605e-008 4.31854588e-008 5.21411998e-008
      4.73047024e-008 2.43021230e-008 -2.39798581e-009 -3.47466944e-008
      -6.23182501e-008 -8.72877379e-008 -8.45924006e-008
      -8.21425772e-008 -1.13339162e-007 -1.46625666e-007
      -1.56863393e-007 -1.54225077e-007 -1.32578094e-007
      -1.46829279e-007 -1.27970893e-007 -9.98333576e-008
      -8.62179519e-008 -7.00399170e-008 -6.08008150e-008
      -4.93753447e-008</_>
    <_>
      -3.94112885e-006 -1.48914069e-007 4.05513134e-008 8.28504596e-007
      -2.24647945e-009 -4.98424946e-009 1.66026530e-005 -1.07155647e-005
      -4.48821811e-006 9.85053248e-007 -3.71807033e-007 3.27286125e-006
      1.21030371e-005 -1.79283006e-006 4.35798938e-006 -2.63813763e-006
      9.20677962e-007 -9.41430017e-007 1.55261350e-005 -4.52695986e-006
      -3.80659594e-006 -5.35932543e-007 3.13803639e-006 3.85820613e-006
      9.80251571e-006 2.13944713e-006 5.56757550e-006 7.08139714e-006
      9.82689562e-006 1.24690096e-005 1.53229503e-005 2.87302992e-005
      1.30875742e-005 1.36443223e-005 7.65463574e-006 -8.81580945e-007
      -1.15176617e-005 1.40579496e-005 -1.41310272e-006 -7.41373060e-006
      -1.22154984e-006 -6.87685406e-006 -1.49847182e-007
      -1.48301623e-007 -1.42631492e-007 -1.34643031e-007
      -1.17893343e-007 -1.06639980e-007 -9.60724975e-008
      -1.01829521e-007 -1.23051379e-007 -1.40921443e-007
      -1.24510038e-007 -4.59786094e-008 -3.36048842e-008
      -1.79662560e-008 -1.05767786e-008 -4.73285500e-009 9.37274258e-010
      4.02838163e-009 6.76583012e-010 7.63480112e-010 1.79694815e-009
      3.77698717e-009 3.95078148e-009 2.40522757e-009 -6.20385459e-025
      6.52980292e-009 1.53779371e-008 2.50857450e-008 2.43998652e-008
      1.33202978e-008 -2.91731328e-009 -1.29727091e-008 -1.87297360e-008
      -1.55517306e-008 -3.26490146e-009 -1.86428384e-008
      -3.90050232e-008 -5.37839782e-008 -7.17409350e-008
      -8.89251197e-008 -1.07654856e-007 -1.19941689e-007
      -1.30509164e-007 -1.40651451e-007 -1.47954040e-007
      -1.55343514e-007 -1.53025184e-007 -1.50619954e-007
      -1.50706853e-007 -1.54744527e-007 -1.49847182e-007
      -1.48301623e-007 -1.42631492e-007 -1.34643031e-007
      -1.17893343e-007 -1.06639980e-007 -9.60724975e-008
      -1.01829521e-007 -1.23051379e-007 -1.40921443e-007
      -1.24510038e-007 -4.59786094e-008 -3.36048842e-008
      -1.79662560e-008 -1.05767786e-008 -4.73285500e-009 9.37274258e-010
      4.02838163e-009 6.76583012e-010 7.63480112e-010 1.79694815e-009
      3.77698717e-009 3.95078148e-009 2.40522757e-009 -6.20385459e-025
      6.52980292e-009 1.53779371e-008 2.50857450e-008 2.43998652e-008
      1.33202978e-008 -2.91731328e-009 -1.29727091e-008 -1.87297360e-008
      -1.55517306e-008 -3.26490146e-009 -1.86428384e-008
      -3.90050232e-008 -5.37839782e-008 -7.17409350e-008
      -8.89251197e-008 -1.07654856e-007 -1.19941689e-007
      -1.30509164e-007 -1.40651451e-007 -1.47954040e-007
      -1.55343514e-007 -1.53025184e-007 -1.50619954e-007
      -1.50706853e-007 -1.54744527e-007</_>
    <_>
      0. 0. 0. 0. 0. 0. 0. 0. 0. 0. 0. 0. 0. 0. 0. 0. 0. 0. 0. 0. 0. 0.
      0. 0. 0. 0. 0. 0. 0. 0. 0. 0. 0. 0. 0. 0. 0. 0. 0. 0. 0. 0. 0. 0.
      0. 0. 0. 0. 0. 0. 0. 0. 0. 0. 0. 0. 0. 0. 0. 0. 0. 0. 0. 0. 0. 0.
      0. 0. 0. 0. 0. 0. 0. 0. 0. 0. 0. 0. 0. 0. 0. 0. 0. 0. 0. 0. 0. 0.
      0. 0. 0. 0. 0. 0. 0. 0. 0. 0. 0. 0. 0. 0. 0. 0. 0. 0. 0. 0. 0. 0.
      0. 0. 0. 0. 0. 0. 0. 0. 0. 0. 0. 0. 0. 0. 0. 0. 0. 0. 0. 0. 0. 0.
      0. 0. 0. 0. 0. 0. 0. 0. 0. 0.</_>
    <_>
      1.41295000e+004 9.21879272e+002 1.58757721e+002 1.00787708e+003
      -4.52484970e+001 4. 83056. 19328. 14416. 14976. 10000. 6128.
      20048. 6400. 10320. 4832. 8000. 7008. 19888. 6304. 6208. 8688.
      8752. 8160. 19536. 4016. 9136. 12256. 15152. 17648. 19184. 47712.
      23456. 21920. 10736. 17072. 12848. 25344. 10464. 12064. 15136.
      14224. 112. 112. 110. 107. 102. 101. 103. 95. 93. 99. 101. 100.
      99. 98. 97. 87. 71. 56. 51. 46. 44. 35. 24. 12. 1. 9. 16. 24. 37.
      56. 65. 70. 73. 73. 75. 77. 78. 76. 75. 76. 76. 77. 77. 78. 79.
      81. 82. 82. 84. 86. 112. 112. 110. 107. 102. 101. 103. 95. 93. 99.
      101. 100. 99. 98. 97. 87. 71. 56. 51. 46. 44. 35. 24. 12. 1. 9.
      16. 24. 37. 56. 65. 70. 73. 73. 75. 77. 78. 76. 75. 76. 76. 77.
      77. 78. 79. 81. 82. 82. 84. 86.</_>
    <_>
      3.70988255e-006 1.35349694e-006 4.69554422e-008 -2.31550032e-007
      -7.70500386e-010 6.17139406e-009 6.43130397e-006 9.74801969e-006
      6.12316671e-006 -4.51795358e-006 -1.18116004e-005 -9.08360198e-006
      4.03660442e-006 -3.37293727e-007 3.96832229e-006 -8.61919432e-007
      4.89306785e-007 -6.73792101e-006 1.08051161e-007 -1.46517232e-005
      -1.13861406e-005 -5.24858933e-006 -6.62468801e-006
      -3.88390163e-006 -1.64256903e-006 1.87432317e-006 -4.83586336e-006
      -1.63182121e-005 -2.26415182e-006 5.78437084e-006 1.37175866e-005
      1.10894780e-005 1.31283159e-005 1.46246111e-005 6.28362727e-007
      -6.87899683e-006 -2.12616783e-006 -2.74497938e-006 4.70982695e-006
      7.24915753e-006 2.24218024e-006 -1.09566190e-005 -1.04590413e-007
      -9.58014041e-008 -4.72079549e-008 -2.79373946e-008
      -3.59497996e-008 -3.96641759e-008 -2.97476017e-008
      -2.22870078e-008 -3.09056709e-008 -3.52230671e-008
      -2.19569287e-008 1.59313345e-008 4.10540011e-008 5.18407113e-008
      7.15545738e-008 7.65988304e-008 8.08579870e-008 5.84688600e-008
      3.52839535e-008 3.55470746e-008 3.34294405e-008 1.99584580e-008
      1.17439694e-008 8.32860891e-009 -1.04690046e-024 5.82057558e-009
      7.56582175e-009 7.99126099e-009 1.69539960e-009 -2.11306150e-009
      -3.42983153e-009 9.27541954e-009 2.67884843e-008 8.84145734e-009
      -1.59443108e-008 -3.75741074e-008 -5.97263607e-008
      -7.33440331e-008 -7.72422339e-008 -1.00769071e-007
      -1.21462648e-007 -1.57696519e-007 -1.96916815e-007
      -2.17390280e-007 -1.65788791e-007 -1.46955443e-007
      -1.49216618e-007 -1.55093161e-007 -1.43863716e-007
      -1.12851062e-007 -1.04590413e-007 -9.58014041e-008
      -4.72079549e-008 -2.79373946e-008 -3.59497996e-008
      -3.96641759e-008 -2.97476017e-008 -2.22870078e-008
      -3.09056709e-008 -3.52230671e-008 -2.19569287e-008 1.59313345e-008
      4.10540011e-008 5.18407113e-008 7.15545738e-008 7.65988304e-008
      8.08579870e-008 5.84688600e-008 3.52839535e-008 3.55470746e-008
      3.34294405e-008 1.99584580e-008 1.17439694e-008 8.32860891e-009
      -1.04690046e-024 5.82057558e-009 7.56582175e-009 7.99126099e-009
      1.69539960e-009 -2.11306150e-009 -3.42983153e-009 9.27541954e-009
      2.67884843e-008 8.84145734e-009 -1.59443108e-008 -3.75741074e-008
      -5.97263607e-008 -7.33440331e-008 -7.72422339e-008
      -1.00769071e-007 -1.21462648e-007 -1.57696519e-007
      -1.96916815e-007 -2.17390280e-007 -1.65788791e-007
      -1.46955443e-007 -1.49216618e-007 -1.55093161e-007
      -1.43863716e-007 -1.12851062e-007</_>
    <_>
      1.78582304e-005 1.35533605e-006 2.11506812e-008 -1.40392001e-006
      -2.95971314e-009 9.29537869e-009 4.12067720e-006 3.61901073e-007
      -1.46660238e-006 -5.05775097e-006 -4.47943876e-006
      -1.95758162e-006 -1.44257933e-006 -2.66910729e-006 5.06209858e-007
      3.47622381e-006 4.73743648e-006 -8.21511821e-006 -1.32115892e-005
      -1.29033715e-005 -8.77124967e-006 -3.81570590e-006 2.96363896e-006
      1.93659844e-006 5.88627563e-006 7.15944680e-006 9.33839237e-006
      1.10743931e-005 1.41465325e-005 1.16518759e-005 1.08850018e-005
      1.33495587e-006 1.03214043e-005 4.89894956e-006 3.51903691e-006
      -2.77243680e-006 5.52257973e-007 -6.86322073e-006 2.31918216e-006
      -1.75200148e-006 -2.56500243e-006 -6.51556820e-006
      -3.03517353e-008 1.98571470e-008 3.90375234e-008 4.31995915e-008
      3.03440935e-008 3.41437492e-008 5.19023899e-008 6.92556981e-008
      7.57555725e-008 8.03031455e-008 8.53903046e-008 1.12659620e-007
      1.14298366e-007 1.27037481e-007 1.41363671e-007 1.36411856e-007
      1.36917876e-007 1.08201675e-007 8.30656006e-008 7.33581658e-008
      6.01190280e-008 5.03271096e-008 3.68836623e-008 2.14395364e-008
      7.51901985e-010 2.11959765e-008 4.16962465e-008 5.36189546e-008
      6.60542696e-008 7.18444184e-008 7.60120855e-008 7.52147926e-008
      8.19832877e-008 8.29737061e-008 8.78653310e-008 7.52996598e-008
      6.17392502e-008 4.47054731e-008 2.66863331e-008 8.13601098e-009
      -2.83899881e-009 -1.78059967e-008 -3.12518651e-008
      -3.50191307e-008 -4.18316333e-008 -5.21325738e-008
      -4.58723086e-008 -4.05929974e-008 -3.78150382e-008
      -3.29841399e-008 -3.03517353e-008 1.98571470e-008 3.90375234e-008
      4.31995915e-008 3.03440935e-008 3.41437492e-008 5.19023899e-008
      6.92556981e-008 7.57555725e-008 8.03031455e-008 8.53903046e-008
      1.12659620e-007 1.14298366e-007 1.27037481e-007 1.41363671e-007
      1.36411856e-007 1.36917876e-007 1.08201675e-007 8.30656006e-008
      7.33581658e-008 6.01190280e-008 5.03271096e-008 3.68836623e-008
      2.14395364e-008 7.51901985e-010 2.11959765e-008 4.16962465e-008
      5.36189546e-008 6.60542696e-008 7.18444184e-008 7.60120855e-008
      7.52147926e-008 8.19832877e-008 8.29737061e-008 8.78653310e-008
      7.52996598e-008 6.17392502e-008 4.47054731e-008 2.66863331e-008
      8.13601098e-009 -2.83899881e-009 -1.78059967e-008 -3.12518651e-008
      -3.50191307e-008 -4.18316333e-008 -5.21325738e-008
      -4.58723086e-008 -4.05929974e-008 -3.78150382e-008
      -3.29841399e-008</_>
    <_>
      2.82586807e-005 2.94731171e-006 7.22867526e-008 -4.33674495e-006
      -3.86186461e-009 1.91921181e-008 -8.24771632e-006 7.61031151e-006
      3.48933190e-006 -1.09049952e-005 -1.11544769e-005 -3.09263987e-006
      1.48147512e-006 -3.04583955e-006 3.70269572e-006 5.27909560e-006
      2.73527758e-006 -1.54917125e-005 -1.22182601e-005 -2.14427855e-005
      -9.28799182e-006 2.37374093e-006 1.31408444e-006 2.90206867e-006
      6.44688726e-006 8.70640451e-006 1.40110824e-005 1.11281715e-005
      1.93134783e-005 1.44082142e-005 7.80013943e-006 1.66184182e-005
      1.13280639e-005 1.10874616e-005 -7.11438133e-006 -1.33312951e-005
      -5.16894033e-006 9.32951662e-006 9.98168798e-006 2.60693128e-006
      -1.77655022e-006 -1.23414327e-006 -2.41838990e-007
      -2.24874483e-007 -1.05894550e-007 -3.20265698e-008
      -5.41650058e-009 3.18611804e-008 6.10308746e-008 7.51426299e-008
      8.44456594e-008 8.89235636e-008 9.24441892e-008 1.43814660e-007
      1.81926865e-007 2.17524189e-007 2.61084239e-007 2.40895190e-007
      2.18991985e-007 1.38330719e-007 1.02142650e-007 9.34197502e-008
      8.43575094e-008 7.72297426e-008 6.41140900e-008 3.65652255e-008
      2.06795153e-025 3.27161800e-008 4.95400805e-008 6.36547739e-008
      5.79904871e-008 5.52518848e-008 5.31006279e-008 5.72052237e-008
      8.20458013e-008 8.15292580e-008 7.13342274e-008 3.82369478e-008
      -6.09590733e-009 -4.66625174e-008 -1.01092098e-007
      -1.38627072e-007 -1.77288896e-007 -2.11328953e-007
      -2.68851153e-007 -2.94895216e-007 -3.52535153e-007
      -3.90297998e-007 -3.52146770e-007 -2.95427924e-007
      -2.98964494e-007 -2.50451961e-007 -2.41838990e-007
      -2.24874483e-007 -1.05894550e-007 -3.20265698e-008
      -5.41650058e-009 3.18611804e-008 6.10308746e-008 7.51426299e-008
      8.44456594e-008 8.89235636e-008 9.24441892e-008 1.43814660e-007
      1.81926865e-007 2.17524189e-007 2.61084239e-007 2.40895190e-007
      2.18991985e-007 1.38330719e-007 1.02142650e-007 9.34197502e-008
      8.43575094e-008 7.72297426e-008 6.41140900e-008 3.65652255e-008
      2.06795153e-025 3.27161800e-008 4.95400805e-008 6.36547739e-008
      5.79904871e-008 5.52518848e-008 5.31006279e-008 5.72052237e-008
      8.20458013e-008 8.15292580e-008 7.13342274e-008 3.82369478e-008
      -6.09590733e-009 -4.66625174e-008 -1.01092098e-007
      -1.38627072e-007 -1.77288896e-007 -2.11328953e-007
      -2.68851153e-007 -2.94895216e-007 -3.52535153e-007
      -3.90297998e-007 -3.52146770e-007 -2.95427924e-007
      -2.98964494e-007 -2.50451961e-007</_>
    <_>
      -2.72513425e-005 2.65970061e-006 2.18522558e-007 -9.40628433e-006
      1.06098708e-009 1.87909546e-008 -5.40379733e-006 1.41071196e-005
      1.36047265e-005 1.31594561e-005 8.34818093e-006 2.38266898e-006
      2.07330067e-005 3.39223192e-007 4.12714962e-006 -4.21793089e-007
      1.16295978e-005 7.03046226e-007 9.89364889e-006 -5.51752737e-006
      -6.05527703e-006 3.63309891e-006 6.83083158e-007 9.48323486e-006
      1.43987500e-005 1.54285735e-005 3.41782979e-005 2.42735405e-005
      2.73777077e-005 2.30283422e-005 1.35571063e-005 2.46090312e-005
      -1.15375396e-005 1.35304072e-006 -8.15311796e-006 -1.49418420e-005
      -2.98814666e-006 -4.54688916e-006 1.72841501e-005 1.74862926e-005
      2.56464386e-006 9.52085884e-006 -1.75368182e-008 -6.70458267e-009
      5.37403277e-009 -2.68422240e-009 -2.46336729e-008 -7.87096326e-008
      -5.60498243e-008 -3.41991360e-008 -1.69263856e-008 7.07799952e-009
      5.76074086e-008 8.49700115e-008 1.71712387e-007 1.12040020e-007
      4.84729803e-008 4.10578807e-008 4.47348043e-008 7.63609833e-008
      5.31561177e-008 2.68824198e-008 5.15938292e-010 -2.27052670e-008
      -3.04343040e-008 -1.33822473e-008 0. -5.53741497e-010
      -4.77513540e-009 -1.68740488e-008 -4.08124841e-008
      -6.36043751e-008 -9.36373397e-008 -1.23467501e-007
      -1.34462255e-007 -1.86781861e-007 -2.32989919e-007
      -2.82440340e-007 -3.12387783e-007 -3.28166976e-007
      -3.51214879e-007 -3.70542864e-007 -3.73502616e-007
      -3.69230463e-007 -3.52504372e-007 -3.15762065e-007
      -1.81811231e-007 -8.87844962e-008 -6.47643219e-008
      -9.14437948e-008 -7.45110782e-008 -1.23613120e-008
      -1.75368182e-008 -6.70458267e-009 5.37403277e-009 -2.68422240e-009
      -2.46336729e-008 -7.87096326e-008 -5.60498243e-008
      -3.41991360e-008 -1.69263856e-008 7.07799952e-009 5.76074086e-008
      8.49700115e-008 1.71712387e-007 1.12040020e-007 4.84729803e-008
      4.10578807e-008 4.47348043e-008 7.63609833e-008 5.31561177e-008
      2.68824198e-008 5.15938292e-010 -2.27052670e-008 -3.04343040e-008
      -1.33822473e-008 0. -5.53741497e-010 -4.77513540e-009
      -1.68740488e-008 -4.08124841e-008 -6.36043751e-008
      -9.36373397e-008 -1.23467501e-007 -1.34462255e-007
      -1.86781861e-007 -2.32989919e-007 -2.82440340e-007
      -3.12387783e-007 -3.28166976e-007 -3.51214879e-007
      -3.70542864e-007 -3.73502616e-007 -3.69230463e-007
      -3.52504372e-007 -3.15762065e-007 -1.81811231e-007
      -8.87844962e-008 -6.47643219e-008 -9.14437948e-008
      -7.45110782e-008 -1.23613120e-008</_>
    <_>
      -1.74921354e-007 8.41950509e-007 5.68941410e-008 -5.73360830e-006
      1.91097960e-009 5.82834847e-009 1.58877526e-006 -4.35785068e-006
      1.49117079e-006 -2.08721144e-006 -1.09009272e-006 4.13623775e-006
      4.50401421e-006 6.09499421e-006 3.73946796e-006 5.19312789e-006
      7.50796471e-006 3.49309585e-006 -8.54500649e-006 9.17706245e-007
      1.21415815e-006 4.27563282e-006 -2.07085584e-008 -2.14676015e-006
      5.31939349e-006 -5.82607349e-008 9.81514131e-006 5.40719748e-006
      1.36815415e-005 8.07113338e-006 1.39319191e-005 1.60545333e-005
      -3.01725368e-006 -5.53357131e-006 -9.34669879e-006
      -9.89483578e-006 -7.57633916e-006 5.26372196e-006 2.13753492e-006
      -1.74278318e-006 -8.95172343e-006 -1.68024926e-007 1.24771645e-007
      1.05502046e-007 1.44649448e-007 1.62359186e-007 1.69093624e-007
      1.70295380e-007 1.72193793e-007 1.48455527e-007 1.31398522e-007
      1.15284699e-007 7.03410805e-008 9.43201428e-008 7.88608929e-008
      8.93376821e-008 1.28278785e-007 1.18227980e-007 1.44837301e-007
      4.40891839e-008 9.24787003e-009 -2.37016984e-008 -2.96825373e-008
      -1.75333312e-008 -6.60373001e-009 7.19447257e-009 7.24360294e-010
      6.31422159e-009 7.85607668e-009 9.98331906e-009 6.90289736e-009
      9.30906852e-010 -1.59111857e-009 8.58999538e-010 9.30541777e-009
      9.03871111e-009 1.67798877e-008 1.95849488e-008 7.73900588e-009
      -6.39160946e-009 -1.05950804e-008 -1.12834242e-010
      -1.42166379e-009 3.08733594e-009 -6.64892696e-010 -2.57456367e-009
      2.95571017e-008 9.15639902e-008 1.09548232e-007 1.39255789e-007
      1.43371821e-007 1.40720161e-007 1.24771645e-007 1.05502046e-007
      1.44649448e-007 1.62359186e-007 1.69093624e-007 1.70295380e-007
      1.72193793e-007 1.48455527e-007 1.31398522e-007 1.15284699e-007
      7.03410805e-008 9.43201428e-008 7.88608929e-008 8.93376821e-008
      1.28278785e-007 1.18227980e-007 1.44837301e-007 4.40891839e-008
      9.24787003e-009 -2.37016984e-008 -2.96825373e-008 -1.75333312e-008
      -6.60373001e-009 7.19447257e-009 7.24360294e-010 6.31422159e-009
      7.85607668e-009 9.98331906e-009 6.90289736e-009 9.30906852e-010
      -1.59111857e-009 8.58999538e-010 9.30541777e-009 9.03871111e-009
      1.67798877e-008 1.95849488e-008 7.73900588e-009 -6.39160946e-009
      -1.05950804e-008 -1.12834242e-010 -1.42166379e-009 3.08733594e-009
      -6.64892696e-010 -2.57456367e-009 2.95571017e-008 9.15639902e-008
      1.09548232e-007 1.39255789e-007 1.43371821e-007 1.40720161e-007</_>
    <_>
      1.82976764e-005 1.16409240e-006 4.46563497e-008 -1.87358819e-006
      3.23904903e-010 7.19611748e-009 -3.38110726e-006 -6.99027578e-006
      2.52208210e-008 -1.99610668e-006 -6.84409406e-006 -5.35258596e-006
      1.42633940e-006 -1.26482155e-005 -3.84670244e-007 3.43142869e-006
      1.00855834e-006 -4.07419566e-006 4.65013318e-006 -4.44622492e-006
      -5.58786451e-006 -6.83010876e-006 -4.35234051e-006
      -1.17615191e-005 -2.49086152e-005 -1.38256826e-006
      -1.46882521e-005 -1.31474071e-005 -1.00676198e-005
      -7.30410147e-006 -5.68060568e-006 4.33160767e-006 -5.65658354e-007
      6.90543493e-006 -2.48997731e-006 -1.64843459e-006 -6.33635091e-006
      2.19416670e-005 -6.65538573e-006 -3.38045311e-006 7.71978375e-006
      5.34880701e-006 8.97809329e-008 8.83225155e-008 8.78073934e-008
      8.93360337e-008 8.41229877e-008 8.32015559e-008 8.10511338e-008
      7.14339023e-008 6.62117401e-008 6.98497971e-008 4.70056527e-008
      3.89987740e-008 3.53550860e-008 3.78544449e-008 3.53949261e-008
      2.76465482e-008 2.32770745e-008 9.13490084e-009 1.68337533e-009
      3.33312000e-009 6.05730266e-009 8.54800941e-009 7.63225660e-009
      4.65287320e-009 1.68021062e-025 9.61554059e-010 7.82992249e-009
      8.92842511e-009 1.14424994e-008 1.75188060e-008 2.61321240e-008
      2.84668342e-008 4.06578415e-008 3.95007618e-008 3.67143365e-008
      3.54809373e-008 3.26791358e-008 3.22030544e-008 3.75188272e-008
      3.64442378e-008 3.88159158e-008 3.84845364e-008 3.77565748e-008
      5.39619833e-008 6.47199911e-008 8.05984044e-008 8.26079471e-008
      7.78803937e-008 7.84168321e-008 7.95486272e-008 8.97809329e-008
      8.83225155e-008 8.78073934e-008 8.93360337e-008 8.41229877e-008
      8.32015559e-008 8.10511338e-008 7.14339023e-008 6.62117401e-008
      6.98497971e-008 4.70056527e-008 3.89987740e-008 3.53550860e-008
      3.78544449e-008 3.53949261e-008 2.76465482e-008 2.32770745e-008
      9.13490084e-009 1.68337533e-009 3.33312000e-009 6.05730266e-009
      8.54800941e-009 7.63225660e-009 4.65287320e-009 1.68021062e-025
      9.61554059e-010 7.82992249e-009 8.92842511e-009 1.14424994e-008
      1.75188060e-008 2.61321240e-008 2.84668342e-008 4.06578415e-008
      3.95007618e-008 3.67143365e-008 3.54809373e-008 3.26791358e-008
      3.22030544e-008 3.75188272e-008 3.64442378e-008 3.88159158e-008
      3.84845364e-008 3.77565748e-008 5.39619833e-008 6.47199911e-008
      8.05984044e-008 8.26079471e-008 7.78803937e-008 7.84168321e-008
      7.95486272e-008</_>
    <_>
      -5.44565228e-006 -1.64201452e-007 6.03636252e-009 1.98554844e-007
      1.17844345e-009 2.10051115e-010 1.16531264e-005 -1.99632668e-005
      -1.74060096e-005 -1.68297993e-005 -1.98391826e-005
      -1.04325854e-005 -3.32215495e-005 -8.23904065e-006
      -1.48882591e-005 -3.78726327e-006 -1.00635252e-005
      -1.42262952e-005 -1.30493590e-005 -8.26324867e-006
      -5.75883996e-006 -4.36725304e-006 -4.72933721e-007
      -1.12060127e-006 -6.11571204e-006 2.34187428e-006 1.74351328e-006
      4.75468005e-006 3.56047508e-006 4.70232044e-006 7.09204551e-006
      1.10428891e-005 7.40583573e-007 -3.67397274e-006 -5.07529603e-006
      -4.49233858e-006 -5.69706708e-006 4.77635240e-006 1.73309331e-006
      -1.79258814e-006 -2.53643897e-008 -1.22380488e-005 5.27145172e-009
      8.09232414e-009 4.83206293e-008 5.74055932e-008 5.54328814e-008
      5.94742779e-008 5.28350022e-008 3.49707889e-008 2.68004161e-008
      2.83401658e-008 2.32126318e-008 2.66234697e-008 2.81150001e-008
      2.96208285e-008 2.12342908e-008 -9.78566916e-009 -2.61265161e-008
      -5.01162241e-008 -2.92328721e-008 -1.12810019e-008 1.74995096e-009
      4.37247172e-009 6.01721828e-009 1.96662486e-009 5.16987883e-026
      -3.28920824e-009 -1.50950044e-008 -2.52604160e-008
      -2.75962400e-008 -1.76124857e-008 -2.07003055e-008
      -5.67221186e-008 -7.99030886e-008 -7.87985357e-008
      -5.03909590e-008 -4.46246773e-008 -4.59175773e-008
      -6.03898016e-008 -6.54262351e-008 -7.00149130e-008
      -8.05693219e-008 -8.48554080e-008 -8.27386870e-008
      -7.50420384e-008 -6.80211230e-008 -7.33374179e-008
      -8.78175612e-008 -9.12499019e-008 -6.24428154e-008
      -7.82451526e-009 5.27145172e-009 8.09232414e-009 4.83206293e-008
      5.74055932e-008 5.54328814e-008 5.94742779e-008 5.28350022e-008
      3.49707889e-008 2.68004161e-008 2.83401658e-008 2.32126318e-008
      2.66234697e-008 2.81150001e-008 2.96208285e-008 2.12342908e-008
      -9.78566916e-009 -2.61265161e-008 -5.01162241e-008
      -2.92328721e-008 -1.12810019e-008 1.74995096e-009 4.37247172e-009
      6.01721828e-009 1.96662486e-009 5.16987883e-026 -3.28920824e-009
      -1.50950044e-008 -2.52604160e-008 -2.75962400e-008
      -1.76124857e-008 -2.07003055e-008 -5.67221186e-008
      -7.99030886e-008 -7.87985357e-008 -5.03909590e-008
      -4.46246773e-008 -4.59175773e-008 -6.03898016e-008
      -6.54262351e-008 -7.00149130e-008 -8.05693219e-008
      -8.48554080e-008 -8.27386870e-008 -7.50420384e-008
      -6.80211230e-008 -7.33374179e-008 -8.78175612e-008
      -9.12499019e-008 -6.24428154e-008 -7.82451526e-009</_>
    <_>
      1.04600731e-005 8.64328285e-007 2.87355473e-008 -4.29096735e-006
      -3.09486353e-010 8.36561309e-009 -4.43034196e-006 1.98781640e-006
      5.56671830e-006 4.58408113e-006 -5.65022901e-006 -8.59817555e-006
      4.06905610e-006 -1.33935728e-005 -8.61472017e-006 5.56661143e-006
      -2.71156011e-007 -1.93818905e-005 -2.73522824e-006
      -1.52510247e-005 -1.49008001e-005 -1.16202682e-005
      -7.47790500e-006 -8.17961609e-006 -1.67588332e-005 7.26669305e-006
      -2.35959396e-006 -4.79105711e-006 2.33152650e-006 3.60464537e-006
      7.97972552e-006 2.24036303e-005 1.19508322e-005 1.50870128e-005
      3.01880846e-006 -2.91933588e-006 -1.24028966e-005 1.44174564e-005
      -1.05797271e-005 -1.01526139e-005 -1.23945745e-006
      -1.28742722e-005 1.15303529e-007 1.26895202e-007 1.37043926e-007
      1.44392928e-007 1.44142504e-007 1.48631855e-007 1.55301450e-007
      1.54954392e-007 1.25600636e-007 1.12498391e-007 7.52907283e-008
      8.03025628e-008 9.13908096e-008 1.13758972e-007 1.23410032e-007
      1.24560799e-007 1.24085474e-007 1.13398464e-007 8.19036785e-008
      6.47345146e-008 4.13795185e-008 2.64825317e-008 1.01148112e-008
      5.10607290e-009 1.40024015e-009 3.20266658e-009 1.84958360e-008
      2.54146180e-008 2.15594227e-008 1.72400334e-008 1.21985115e-008
      1.72940595e-008 2.60163198e-008 8.26890290e-009 -1.13862999e-008
      -3.36883872e-008 -3.49103892e-008 -4.41973746e-008
      -6.46598508e-008 -8.31642950e-008 -9.00910848e-008
      -8.00759921e-008 -5.34721458e-008 3.17231463e-009 5.38448859e-008
      8.70912515e-008 9.95848524e-008 1.14136213e-007 1.18460257e-007
      1.23857646e-007 1.15303529e-007 1.26895202e-007 1.37043926e-007
      1.44392928e-007 1.44142504e-007 1.48631855e-007 1.55301450e-007
      1.54954392e-007 1.25600636e-007 1.12498391e-007 7.52907283e-008
      8.03025628e-008 9.13908096e-008 1.13758972e-007 1.23410032e-007
      1.24560799e-007 1.24085474e-007 1.13398464e-007 8.19036785e-008
      6.47345146e-008 4.13795185e-008 2.64825317e-008 1.01148112e-008
      5.10607290e-009 1.40024015e-009 3.20266658e-009 1.84958360e-008
      2.54146180e-008 2.15594227e-008 1.72400334e-008 1.21985115e-008
      1.72940595e-008 2.60163198e-008 8.26890290e-009 -1.13862999e-008
      -3.36883872e-008 -3.49103892e-008 -4.41973746e-008
      -6.46598508e-008 -8.31642950e-008 -9.00910848e-008
      -8.00759921e-008 -5.34721458e-008 3.17231463e-009 5.38448859e-008
      8.70912515e-008 9.95848524e-008 1.14136213e-007 1.18460257e-007
      1.23857646e-007</_>
    <_>
      3.24425150e-006 7.42224245e-007 5.42075753e-008 -1.28260649e-006
      -5.66054592e-010 3.07515435e-009 -2.21624873e-006 -8.10139227e-006
      -5.44779004e-006 -5.80721689e-006 -1.09704124e-005
      -8.09018093e-006 3.12916967e-007 -7.31694945e-006 -4.65311041e-006
      -2.97020301e-006 -2.49283971e-006 -8.68133066e-006 3.75344416e-006
      -1.35697774e-005 -8.97789960e-006 -2.34450226e-006 8.48614206e-007
      8.14121165e-007 6.45517730e-006 4.65839821e-006 4.95726817e-006
      7.38765448e-006 1.22746505e-005 1.28618522e-005 1.65343336e-005
      3.66518834e-005 2.01621588e-005 1.50987735e-005 1.77260074e-006
      -1.01972655e-005 -1.87979495e-005 2.58263208e-006 -7.71106534e-006
      -9.54798361e-006 5.48156549e-007 -2.42096348e-006 -1.11903525e-007
      -1.13221546e-007 -6.81858126e-008 -5.16254275e-008
      -3.99423712e-008 -3.47635059e-008 -5.25988710e-008
      -5.12124352e-008 -4.47001085e-008 -5.28677937e-008
      -4.38742838e-008 3.94616606e-008 6.28043395e-008 8.96145380e-008
      9.42570324e-008 7.39674277e-008 6.44138325e-008 4.83558793e-008
      4.55595313e-008 3.83777774e-008 3.00643315e-008 2.59528932e-008
      2.15705693e-008 1.00431148e-008 -3.23117427e-025 7.62084706e-009
      9.94910465e-009 1.50198396e-008 9.00052211e-009 -6.63347288e-009
      -2.45249705e-008 -3.67339794e-008 -3.34276891e-008
      -2.53626951e-008 7.38102646e-009 -5.29258026e-010 -1.92688487e-009
      -2.81944654e-008 -5.48236621e-008 -7.96510378e-008
      -1.02037504e-007 -1.10511529e-007 -1.21333628e-007
      -1.07406116e-007 -1.03274999e-007 -1.07027851e-007
      -1.08261183e-007 -1.08561416e-007 -1.09574586e-007
      -1.10613598e-007 -1.11903525e-007 -1.13221546e-007
      -6.81858126e-008 -5.16254275e-008 -3.99423712e-008
      -3.47635059e-008 -5.25988710e-008 -5.12124352e-008
      -4.47001085e-008 -5.28677937e-008 -4.38742838e-008 3.94616606e-008
      6.28043395e-008 8.96145380e-008 9.42570324e-008 7.39674277e-008
      6.44138325e-008 4.83558793e-008 4.55595313e-008 3.83777774e-008
      3.00643315e-008 2.59528932e-008 2.15705693e-008 1.00431148e-008
      -3.23117427e-025 7.62084706e-009 9.94910465e-009 1.50198396e-008
      9.00052211e-009 -6.63347288e-009 -2.45249705e-008 -3.67339794e-008
      -3.34276891e-008 -2.53626951e-008 7.38102646e-009 -5.29258026e-010
      -1.92688487e-009 -2.81944654e-008 -5.48236621e-008
      -7.96510378e-008 -1.02037504e-007 -1.10511529e-007
      -1.21333628e-007 -1.07406116e-007 -1.03274999e-007
      -1.07027851e-007 -1.08261183e-007 -1.08561416e-007
      -1.09574586e-007 -1.10613598e-007</_>
    <_>
      0. 0. 0. 0. 0. 0. 0. 0. 0. 0. 0. 0. 0. 0. 0. 0. 0. 0. 0. 0. 0. 0.
      0. 0. 0. 0. 0. 0. 0. 0. 0. 0. 0. 0. 0. 0. 0. 0. 0. 0. 0. 0. 0. 0.
      0. 0. 0. 0. 0. 0. 0. 0. 0. 0. 0. 0. 0. 0. 0. 0. 0. 0. 0. 0. 0. 0.
      0. 0. 0. 0. 0. 0. 0. 0. 0. 0. 0. 0. 0. 0. 0. 0. 0. 0. 0. 0. 0. 0.
      0. 0. 0. 0. 0. 0. 0. 0. 0. 0. 0. 0. 0. 0. 0. 0. 0. 0. 0. 0. 0. 0.
      0. 0. 0. 0. 0. 0. 0. 0. 0. 0. 0. 0. 0. 0. 0. 0. 0. 0. 0. 0. 0. 0.
      0. 0. 0. 0. 0. 0. 0. 0. 0. 0.</_>
    <_>
      22994. 9.81116882e+002 1.45668167e+002 2.66806152e+003
      -4.53570595e+001 1. 149024. 31920. 35072. 34432. 26000. 13520.
      42448. 16048. 23328. 10928. 20688. 20928. 48912. 19712. 20384.
      26800. 24336. 24960. 50192. 13536. 28592. 29584. 32896. 32448.
      28448. 67520. 35232. 43296. 31584. 45264. 37776. 52160. 24672.
      23360. 25152. 27312. 80. 85. 91. 99. 105. 109. 108. 106. 101. 93.
      85. 92. 87. 69. 58. 54. 47. 42. 35. 31. 25. 18. 13. 7.
      -4.80613327e-009 7. 14. 20. 27. 31. 38. 43. 49. 52. 56. 60. 64.
      69. 71. 76. 78. 81. 87. 86. 74. 62. 65. 68. 71. 74. 80. 85. 91.
      99. 105. 109. 108. 106. 101. 93. 85. 92. 87. 69. 58. 54. 47. 42.
      35. 31. 25. 18. 13. 7. -4.80613327e-009 7. 14. 20. 27. 31. 38. 43.
      49. 52. 56. 60. 64. 69. 71. 76. 78. 81. 87. 86. 74. 62. 65. 68.
      71. 74.</_>
    <_>
      -1.45790509e-005 3.15143581e-007 7.20925541e-008 -1.14186810e-006
      -7.94389976e-009 4.06838702e-010 -7.67080292e-006 -5.67156894e-006
      2.35890934e-006 -5.04435639e-006 -3.11119243e-006 -2.45774186e-006
      -1.19734459e-005 -6.69045266e-006 -6.38265010e-006
      -1.41251576e-005 -1.22799102e-005 -1.52139037e-005
      -3.26834634e-005 -8.06763182e-006 8.30270073e-006 1.34059410e-005
      1.69429695e-005 1.43127863e-005 2.16211047e-005 1.53430246e-005
      1.70594285e-005 1.87240366e-005 1.22352012e-005 1.78740720e-005
      6.36166669e-006 -1.61602893e-005 -7.24915208e-006 -4.00006275e-006
      1.35477057e-006 -1.82991721e-006 -3.72469026e-006 8.26752876e-006
      -1.30435683e-005 -1.69454033e-005 5.91360458e-006 -1.60775362e-005
      -1.51564038e-007 -5.88616622e-008 -1.25240680e-008 3.35857209e-008
      5.76191184e-008 1.19963602e-007 1.68095340e-007 2.29536667e-007
      2.43391781e-007 2.18267317e-007 2.07697127e-007 2.09887247e-007
      1.55524290e-007 1.16558233e-007 8.97127919e-008 8.34321341e-008
      8.02849343e-008 7.95205182e-008 7.43111457e-008 6.68718130e-008
      5.04522077e-008 4.64771404e-008 3.12433173e-008 1.38291636e-008
      -2.30464248e-009 1.30830946e-008 2.71871912e-008 3.61934909e-008
      4.77540425e-008 5.54619533e-008 5.03945650e-008 2.29747492e-008
      2.90261526e-009 -1.71403318e-008 -3.54790402e-008 -5.15848981e-008
      -7.42664739e-008 -9.11669886e-008 -1.16726795e-007
      -1.57610145e-007 -1.85530425e-007 -2.42739191e-007
      -2.90338249e-007 -3.04981512e-007 -3.40420854e-007
      -3.73254949e-007 -3.69881235e-007 -3.41105618e-007
      -2.96144407e-007 -2.17731071e-007 -1.51564038e-007
      -5.88616622e-008 -1.25240680e-008 3.35857209e-008 5.76191184e-008
      1.19963602e-007 1.68095340e-007 2.29536667e-007 2.43391781e-007
      2.18267317e-007 2.07697127e-007 2.09887247e-007 1.55524290e-007
      1.16558233e-007 8.97127919e-008 8.34321341e-008 8.02849343e-008
      7.95205182e-008 7.43111457e-008 6.68718130e-008 5.04522077e-008
      4.64771404e-008 3.12433173e-008 1.38291636e-008 -2.30464248e-009
      1.30830946e-008 2.71871912e-008 3.61934909e-008 4.77540425e-008
      5.54619533e-008 5.03945650e-008 2.29747492e-008 2.90261526e-009
      -1.71403318e-008 -3.54790402e-008 -5.15848981e-008
      -7.42664739e-008 -9.11669886e-008 -1.16726795e-007
      -1.57610145e-007 -1.85530425e-007 -2.42739191e-007
      -2.90338249e-007 -3.04981512e-007 -3.40420854e-007
      -3.73254949e-007 -3.69881235e-007 -3.41105618e-007
      -2.96144407e-007 -2.17731071e-007</_>
    <_>
      1.84988016e-006 6.03603098e-007 1.04030926e-008 3.22023175e-006
      -2.19498109e-009 -1.39208245e-009 -9.82420715e-006
      -1.47753553e-005 -3.76308435e-006 -1.62835222e-005
      -1.29103282e-005 -7.51874677e-006 -2.09393274e-005
      -4.68570715e-006 -9.10628046e-007 -1.71451416e-006
      -6.92611820e-006 -1.11453437e-005 1.03794832e-006 2.69306361e-006
      9.60541456e-006 1.64105440e-005 1.26943987e-005 1.59693736e-005
      2.17933230e-005 1.29320488e-005 1.90478841e-005 1.74907127e-005
      1.61455318e-005 1.33527001e-005 -8.85795544e-007 -8.20057949e-007
      -4.70658233e-006 -2.72228522e-006 -1.17371028e-005
      -7.59192915e-007 -1.05862546e-005 2.01888679e-006 -1.00315829e-005
      -9.62167633e-006 8.44361125e-007 2.26048272e-007 -3.46583590e-007
      -3.02180013e-007 -2.68430114e-007 -2.28320474e-007
      -1.90100863e-007 -1.48814777e-007 -1.08721785e-007
      -4.99151014e-008 3.59696783e-009 2.26686954e-008 1.90497254e-008
      1.35732181e-008 3.54620013e-008 1.32373152e-008 -1.12623360e-008
      -1.62654512e-008 -1.54232698e-008 -6.12604589e-009
      -4.72120743e-009 -1.71257286e-009 -1.27667085e-010 1.85151811e-010
      3.42360740e-009 -2.72672440e-009 -5.46957324e-009 -2.39382469e-009
      -9.54699431e-009 -1.71114802e-008 -2.52759218e-008
      -3.55855150e-008 -4.88415495e-008 -6.37045474e-008
      -8.50103703e-008 -9.89875772e-008 -1.39737693e-007
      -1.57676936e-007 -1.86651860e-007 -2.11153974e-007
      -2.46221134e-007 -2.90821788e-007 -3.38475559e-007
      -3.96833457e-007 -4.83445660e-007 -5.26608005e-007
      -5.78142590e-007 -5.77567505e-007 -5.69894553e-007
      -5.08202845e-007 -4.47273067e-007 -3.79572640e-007
      -3.46583590e-007 -3.02180013e-007 -2.68430114e-007
      -2.28320474e-007 -1.90100863e-007 -1.48814777e-007
      -1.08721785e-007 -4.99151014e-008 3.59696783e-009 2.26686954e-008
      1.90497254e-008 1.35732181e-008 3.54620013e-008 1.32373152e-008
      -1.12623360e-008 -1.62654512e-008 -1.54232698e-008
      -6.12604589e-009 -4.72120743e-009 -1.71257286e-009
      -1.27667085e-010 1.85151811e-010 3.42360740e-009 -2.72672440e-009
      -5.46957324e-009 -2.39382469e-009 -9.54699431e-009
      -1.71114802e-008 -2.52759218e-008 -3.55855150e-008
      -4.88415495e-008 -6.37045474e-008 -8.50103703e-008
      -9.89875772e-008 -1.39737693e-007 -1.57676936e-007
      -1.86651860e-007 -2.11153974e-007 -2.46221134e-007
      -2.90821788e-007 -3.38475559e-007 -3.96833457e-007
      -4.83445660e-007 -5.26608005e-007 -5.78142590e-007
      -5.77567505e-007 -5.69894553e-007 -5.08202845e-007
      -4.47273067e-007 -3.79572640e-007</_>
    <_>
      -2.89795262e-005 6.21921288e-007 3.52186404e-008 1.81823987e-006
      6.75958567e-010 4.44435067e-009 -1.94486165e-006 -8.30714453e-006
      -6.46851163e-007 -4.89621925e-006 -2.63013135e-007
      -1.71368345e-006 -1.47316741e-005 -2.97849260e-006
      -1.30635806e-006 -2.86413228e-006 -2.66650227e-006 2.26218731e-006
      5.30024818e-006 9.45237207e-006 1.61330499e-005 1.30649687e-005
      7.29372914e-006 4.55735335e-006 4.74382614e-006 8.68658481e-006
      9.41386224e-006 3.27717544e-006 2.40135319e-006 5.92492097e-006
      4.80800418e-006 -2.08051051e-006 -3.27063708e-006 1.22962047e-006
      6.39300197e-006 4.69658880e-006 3.91707317e-006 -2.34456411e-006
      -2.71807676e-006 -2.80610266e-006 2.40066197e-006 -4.68066617e-007
      -2.03005413e-007 -1.93165576e-007 -1.87611974e-007
      -1.78634252e-007 -1.68153690e-007 -1.63056598e-007
      -1.59517157e-007 -1.38143605e-007 -1.26517506e-007
      -9.45356931e-008 -8.21166495e-008 -8.79158009e-008
      -9.54950892e-008 -1.10650596e-007 -1.28625388e-007
      -1.30517236e-007 -1.35440573e-007 -1.26181405e-007
      -1.06088493e-007 -8.41657553e-008 -6.43529674e-008
      -4.65577408e-008 -3.11736343e-008 -1.57334110e-008
      -4.15605195e-009 -1.72253838e-008 -3.70238595e-008
      -5.79610671e-008 -7.85531640e-008 -1.07427418e-007
      -1.23740591e-007 -1.41654652e-007 -1.53097616e-007
      -1.64710841e-007 -1.62801783e-007 -1.73870731e-007
      -1.85348583e-007 -1.73435794e-007 -1.73455206e-007
      -1.74594447e-007 -1.73354707e-007 -1.87673081e-007
      -2.36337016e-007 -2.69333043e-007 -2.71334642e-007
      -2.74531118e-007 -2.66083248e-007 -2.54822623e-007
      -2.37092067e-007 -2.19749822e-007 -2.03005413e-007
      -1.93165576e-007 -1.87611974e-007 -1.78634252e-007
      -1.68153690e-007 -1.63056598e-007 -1.59517157e-007
      -1.38143605e-007 -1.26517506e-007 -9.45356931e-008
      -8.21166495e-008 -8.79158009e-008 -9.54950892e-008
      -1.10650596e-007 -1.28625388e-007 -1.30517236e-007
      -1.35440573e-007 -1.26181405e-007 -1.06088493e-007
      -8.41657553e-008 -6.43529674e-008 -4.65577408e-008
      -3.11736343e-008 -1.57334110e-008 -4.15605195e-009
      -1.72253838e-008 -3.70238595e-008 -5.79610671e-008
      -7.85531640e-008 -1.07427418e-007 -1.23740591e-007
      -1.41654652e-007 -1.53097616e-007 -1.64710841e-007
      -1.62801783e-007 -1.73870731e-007 -1.85348583e-007
      -1.73435794e-007 -1.73455206e-007 -1.74594447e-007
      -1.73354707e-007 -1.87673081e-007 -2.36337016e-007
      -2.69333043e-007 -2.71334642e-007 -2.74531118e-007
      -2.66083248e-007 -2.54822623e-007 -2.37092067e-007
      -2.19749822e-007</_>
    <_>
      -5.64578440e-005 -9.74130103e-007 -1.72813692e-008
      -1.43580046e-005 8.99243968e-009 -2.57793893e-008 1.08730255e-005
      -1.23472346e-005 2.93127937e-006 -5.20036065e-006 1.50986216e-005
      1.41371274e-005 -2.15963391e-005 1.33877111e-005 2.52640734e-006
      6.81744586e-006 1.08267375e-006 2.12250307e-005 -2.62582689e-005
      3.83904480e-005 4.91373503e-005 2.94059046e-005 -5.80845972e-006
      2.02971260e-005 -7.36810580e-006 -1.98571397e-005 -2.29877132e-005
      -4.39587393e-006 -5.19477044e-006 9.94316633e-006 1.06749540e-005
      5.73906300e-006 1.91526146e-006 9.59932277e-006 -8.76376544e-006
      -1.24976013e-005 -3.31015281e-006 -2.38239500e-006
      -1.28459878e-005 -2.53113049e-005 -2.41938983e-006 3.22446758e-005
      -2.68609057e-007 -1.87900255e-007 -1.30917073e-007
      -1.30834099e-008 5.95327840e-008 9.87567645e-008 1.58484539e-007
      2.14077573e-007 2.41719732e-007 2.40595512e-007 2.46266723e-007
      2.38655161e-007 7.65522330e-008 -4.68354173e-008 -6.09782163e-008
      -7.21090387e-008 -1.11004255e-007 -1.51598783e-007
      -2.76146920e-007 -3.97686762e-007 -3.42928047e-007
      -2.59767717e-007 -1.56603775e-007 -7.96661013e-008
      -8.07386780e-009 -6.80024499e-008 -1.34643415e-007
      -1.38955883e-007 -1.50606027e-007 -1.75028774e-007
      -1.76973131e-007 -1.62390833e-007 -1.61692768e-007
      -1.73359766e-007 -1.82925831e-007 -1.31740691e-007
      -1.51249537e-007 -1.09243572e-007 -1.41365021e-007
      -1.71113072e-007 -2.08820808e-007 -3.11973878e-007
      -4.16549483e-007 -5.42283033e-007 -5.95864776e-007
      -4.66129706e-007 -4.74099494e-007 -4.57796006e-007
      -4.30229903e-007 -3.55844520e-007 -2.68609057e-007
      -1.87900255e-007 -1.30917073e-007 -1.30834099e-008 5.95327840e-008
      9.87567645e-008 1.58484539e-007 2.14077573e-007 2.41719732e-007
      2.40595512e-007 2.46266723e-007 2.38655161e-007 7.65522330e-008
      -4.68354173e-008 -6.09782163e-008 -7.21090387e-008
      -1.11004255e-007 -1.51598783e-007 -2.76146920e-007
      -3.97686762e-007 -3.42928047e-007 -2.59767717e-007
      -1.56603775e-007 -7.96661013e-008 -8.07386780e-009
      -6.80024499e-008 -1.34643415e-007 -1.38955883e-007
      -1.50606027e-007 -1.75028774e-007 -1.76973131e-007
      -1.62390833e-007 -1.61692768e-007 -1.73359766e-007
      -1.82925831e-007 -1.31740691e-007 -1.51249537e-007
      -1.09243572e-007 -1.41365021e-007 -1.71113072e-007
      -2.08820808e-007 -3.11973878e-007 -4.16549483e-007
      -5.42283033e-007 -5.95864776e-007 -4.66129706e-007
      -4.74099494e-007 -4.57796006e-007 -4.30229903e-007
      -3.55844520e-007</_>
    <_>
      8.66698883e-006 7.11407893e-007 3.08592085e-008 1.32404864e-006
      1.29196875e-009 -6.49604426e-010 -2.44619769e-005 -8.91742366e-006
      1.39177864e-005 4.81300367e-006 -3.38469363e-006 -3.76663593e-006
      -1.28466500e-005 -1.59931278e-005 -9.03953878e-006
      -7.86341752e-006 -8.14165742e-006 5.12953829e-006 1.15407238e-005
      1.04991223e-005 1.48501867e-005 9.64097126e-006 9.32896182e-006
      3.98697966e-006 -2.62601534e-005 7.25268228e-006 -7.53089444e-006
      -1.16327665e-005 -1.62095421e-005 -8.10864913e-006
      -1.51775339e-005 -3.16522746e-005 -1.97266963e-005 1.22059191e-005
      1.06756324e-005 8.41169276e-006 6.46249828e-006 3.62365427e-005
      -5.45733792e-006 -1.15785924e-005 5.37259939e-006 2.44341209e-006
      -8.27369249e-008 -7.82124232e-008 -6.57548114e-008
      -3.40884689e-008 -2.13874110e-008 -1.20092114e-008 2.23277041e-009
      1.89529921e-008 2.64883919e-008 1.29767894e-008 -5.79166359e-009
      2.43118237e-009 -1.90333012e-008 -6.07795343e-008 -9.36514084e-008
      -1.01440584e-007 -1.18623966e-007 -1.26637445e-007
      -1.24591296e-007 -1.03936102e-007 -8.36066860e-008
      -6.17051867e-008 -3.31621486e-008 -1.50761874e-008
      -3.00791148e-009 -1.63325087e-008 -3.03111065e-008
      -4.57879992e-008 -5.76073731e-008 -7.43853334e-008
      -8.12347167e-008 -8.66255263e-008 -7.05814216e-008
      -5.58442004e-008 -4.94174976e-008 -4.18850412e-008
      -4.22433999e-008 -2.69882801e-008 -6.91445523e-009
      -2.55242161e-010 5.30451860e-009 3.47836288e-010 -9.05579700e-009
      -2.55704382e-008 -6.36782502e-008 -1.13361253e-007
      -1.08198513e-007 -1.06941570e-007 -1.00007668e-007
      -9.16328631e-008 -8.27369249e-008 -7.82124232e-008
      -6.57548114e-008 -3.40884689e-008 -2.13874110e-008
      -1.20092114e-008 2.23277041e-009 1.89529921e-008 2.64883919e-008
      1.29767894e-008 -5.79166359e-009 2.43118237e-009 -1.90333012e-008
      -6.07795343e-008 -9.36514084e-008 -1.01440584e-007
      -1.18623966e-007 -1.26637445e-007 -1.24591296e-007
      -1.03936102e-007 -8.36066860e-008 -6.17051867e-008
      -3.31621486e-008 -1.50761874e-008 -3.00791148e-009
      -1.63325087e-008 -3.03111065e-008 -4.57879992e-008
      -5.76073731e-008 -7.43853334e-008 -8.12347167e-008
      -8.66255263e-008 -7.05814216e-008 -5.58442004e-008
      -4.94174976e-008 -4.18850412e-008 -4.22433999e-008
      -2.69882801e-008 -6.91445523e-009 -2.55242161e-010 5.30451860e-009
      3.47836288e-010 -9.05579700e-009 -2.55704382e-008 -6.36782502e-008
      -1.13361253e-007 -1.08198513e-007 -1.06941570e-007
      -1.00007668e-007 -9.16328631e-008</_>
    <_>
      -1.54720528e-005 -9.01270880e-007 3.82719190e-009 2.57738634e-006
      1.11719312e-009 -7.92073518e-009 4.70932628e-006 -1.65567999e-005
      -4.29295187e-006 -9.80980712e-006 -1.20744053e-005
      -7.58251144e-006 -3.02626577e-005 -5.99586292e-006
      -9.33521005e-006 -6.37320500e-006 -1.21242138e-005
      -6.23812230e-006 1.52658902e-006 6.78384004e-006 8.02926206e-006
      8.42024383e-006 9.00598116e-006 1.00632260e-005 1.07153364e-005
      6.18855347e-006 1.48049812e-005 1.37247616e-005 1.04533137e-005
      8.53769598e-006 3.78204186e-006 6.45881710e-006 -1.37981522e-006
      4.25073949e-006 3.12982570e-006 4.95763015e-006 1.04447429e-006
      1.29188652e-006 -3.89174602e-006 -1.01418118e-005 -1.22863585e-005
      -2.12665418e-005 -8.88540583e-008 -7.56084120e-008
      -6.46798597e-008 -4.37994672e-008 -3.28882237e-008
      -2.15584510e-008 -2.16790053e-008 -2.44040255e-008
      -3.05968655e-008 -4.07539460e-008 -5.45986119e-008
      -5.93390617e-008 -6.23806002e-008 -7.79592639e-008
      -8.95156305e-008 -9.41280618e-008 -9.96813725e-008
      -1.01705382e-007 -8.14786674e-008 -5.94041616e-008
      -3.92429627e-008 -3.21970113e-008 -2.18377672e-008
      -1.18231718e-008 -2.03543316e-009 -1.40975347e-008
      -3.32494920e-008 -5.32412443e-008 -6.18635383e-008
      -6.21561398e-008 -6.85180765e-008 -9.62230686e-008
      -1.28592390e-007 -1.38739367e-007 -1.34291568e-007
      -1.32162896e-007 -1.33589296e-007 -1.38631947e-007
      -1.37930911e-007 -1.29560547e-007 -1.31577238e-007
      -1.31668216e-007 -1.28636557e-007 -1.41849384e-007
      -1.66619799e-007 -1.74901871e-007 -1.78851678e-007
      -1.80160143e-007 -1.49083448e-007 -1.05961355e-007
      -8.88540583e-008 -7.56084120e-008 -6.46798597e-008
      -4.37994672e-008 -3.28882237e-008 -2.15584510e-008
      -2.16790053e-008 -2.44040255e-008 -3.05968655e-008
      -4.07539460e-008 -5.45986119e-008 -5.93390617e-008
      -6.23806002e-008 -7.79592639e-008 -8.95156305e-008
      -9.41280618e-008 -9.96813725e-008 -1.01705382e-007
      -8.14786674e-008 -5.94041616e-008 -3.92429627e-008
      -3.21970113e-008 -2.18377672e-008 -1.18231718e-008
      -2.03543316e-009 -1.40975347e-008 -3.32494920e-008
      -5.32412443e-008 -6.18635383e-008 -6.21561398e-008
      -6.85180765e-008 -9.62230686e-008 -1.28592390e-007
      -1.38739367e-007 -1.34291568e-007 -1.32162896e-007
      -1.33589296e-007 -1.38631947e-007 -1.37930911e-007
      -1.29560547e-007 -1.31577238e-007 -1.31668216e-007
      -1.28636557e-007 -1.41849384e-007 -1.66619799e-007
      -1.74901871e-007 -1.78851678e-007 -1.80160143e-007
      -1.49083448e-007 -1.05961355e-007</_>
    <_>
      -2.48357919e-005 -4.95630275e-007 1.89155180e-008 -1.16093963e-006
      4.75196105e-010 -3.96576549e-009 6.04652996e-006 -8.16975080e-006
      1.52461780e-005 8.33082686e-006 -2.47343405e-006 -3.65639676e-006
      -2.23403531e-005 -2.00986869e-005 -2.18608457e-005
      -1.92212501e-005 -2.60487523e-005 -2.18557889e-005
      -6.47081197e-006 -1.71144791e-006 4.02867545e-006 5.86194915e-007
      8.15722899e-007 1.75452624e-006 -1.75288260e-005 1.35489681e-005
      6.90534353e-006 6.16046600e-006 5.42270755e-006 1.91432464e-005
      1.36257304e-005 5.28544035e-007 5.71768896e-006 2.74496670e-005
      2.19171216e-005 7.12265546e-006 6.88917908e-006 1.38289988e-005
      -1.55722755e-005 -2.72191937e-005 -8.95100766e-006
      -2.91772885e-005 -1.82529707e-008 1.48619606e-008 2.05242010e-008
      4.26452722e-008 5.78876076e-008 4.00934148e-008 3.69763669e-008
      4.91183201e-008 3.59126169e-008 2.46750336e-008 2.14945057e-008
      4.78410698e-008 4.79205120e-008 2.00344044e-008 7.75774112e-009
      -1.00713916e-010 -1.62206053e-008 -1.59501923e-008
      -2.21599361e-008 -1.71882117e-008 -2.09197903e-008
      -2.38162468e-008 -1.94693364e-008 -1.34227376e-008
      -1.26454125e-009 -1.87694376e-008 -3.19200453e-008
      -4.52555469e-008 -5.88641278e-008 -8.15435328e-008
      -9.78125740e-008 -1.24258690e-007 -1.52456735e-007
      -1.82656677e-007 -2.10742201e-007 -2.29011292e-007
      -2.23868710e-007 -2.08625693e-007 -2.23981189e-007
      -2.24832945e-007 -2.41477494e-007 -2.46887083e-007
      -2.32352804e-007 -2.32174060e-007 -2.13151935e-007
      -1.97977428e-007 -1.66449098e-007 -1.32159855e-007
      -9.58631432e-008 -5.21086072e-008 -1.82529707e-008 1.48619606e-008
      2.05242010e-008 4.26452722e-008 5.78876076e-008 4.00934148e-008
      3.69763669e-008 4.91183201e-008 3.59126169e-008 2.46750336e-008
      2.14945057e-008 4.78410698e-008 4.79205120e-008 2.00344044e-008
      7.75774112e-009 -1.00713916e-010 -1.62206053e-008 -1.59501923e-008
      -2.21599361e-008 -1.71882117e-008 -2.09197903e-008
      -2.38162468e-008 -1.94693364e-008 -1.34227376e-008
      -1.26454125e-009 -1.87694376e-008 -3.19200453e-008
      -4.52555469e-008 -5.88641278e-008 -8.15435328e-008
      -9.78125740e-008 -1.24258690e-007 -1.52456735e-007
      -1.82656677e-007 -2.10742201e-007 -2.29011292e-007
      -2.23868710e-007 -2.08625693e-007 -2.23981189e-007
      -2.24832945e-007 -2.41477494e-007 -2.46887083e-007
      -2.32352804e-007 -2.32174060e-007 -2.13151935e-007
      -1.97977428e-007 -1.66449098e-007 -1.32159855e-007
      -9.58631432e-008 -5.21086072e-008</_>
    <_>
      1.07779113e-006 2.46018516e-007 3.73555409e-008 8.00025646e-007
      -4.78529993e-010 -6.27474694e-009 6.70482996e-006 -2.11152419e-005
      -8.90485899e-006 -9.96964536e-006 -8.05649688e-006
      -6.88507498e-006 -1.60588315e-005 -1.31176785e-005
      -1.05248564e-005 -9.68528093e-006 -1.22515930e-005
      -9.44500698e-006 8.07674724e-007 7.24489325e-007 4.50135121e-006
      3.89663273e-006 4.92005529e-006 1.02060576e-005 1.24095077e-005
      8.28060365e-006 1.32821733e-005 1.35983419e-005 1.57548675e-005
      1.39333697e-005 1.16413339e-005 1.68028982e-005 5.45219655e-006
      1.36857889e-005 8.89330659e-006 -5.61198760e-007 -1.52225011e-005
      5.92959532e-006 -1.85821173e-005 -1.94263030e-005 -1.12619109e-005
      -1.89059010e-005 -2.13649713e-007 -2.07580982e-007
      -1.90475063e-007 -1.55630119e-007 -1.25833239e-007
      -9.65346416e-008 -8.22288513e-008 -1.10266889e-007
      -1.18736359e-007 -7.37364303e-008 -2.36796733e-008 5.17495558e-008
      5.49278525e-008 5.75986689e-008 5.08100975e-008 4.77761297e-008
      3.09550394e-008 2.18328271e-008 2.25136549e-008 1.92470324e-008
      1.08478222e-008 5.44040635e-009 3.31594308e-009 -4.22329394e-010
      -2.56629407e-009 -1.61063907e-009 -7.86588483e-009
      -1.13651613e-008 -2.31979964e-008 -4.54231994e-008
      -6.46534417e-008 -8.80083846e-008 -9.93759528e-008
      -9.12373181e-008 -7.79127944e-008 -6.80763463e-008
      -8.09588059e-008 -1.04667592e-007 -1.29406729e-007
      -1.38694801e-007 -1.49582306e-007 -1.64960568e-007
      -1.90325196e-007 -2.35186661e-007 -2.37300796e-007
      -2.39607800e-007 -2.23092911e-007 -2.28275624e-007
      -2.25725657e-007 -2.24189719e-007 -2.13649713e-007
      -2.07580982e-007 -1.90475063e-007 -1.55630119e-007
      -1.25833239e-007 -9.65346416e-008 -8.22288513e-008
      -1.10266889e-007 -1.18736359e-007 -7.37364303e-008
      -2.36796733e-008 5.17495558e-008 5.49278525e-008 5.75986689e-008
      5.08100975e-008 4.77761297e-008 3.09550394e-008 2.18328271e-008
      2.25136549e-008 1.92470324e-008 1.08478222e-008 5.44040635e-009
      3.31594308e-009 -4.22329394e-010 -2.56629407e-009 -1.61063907e-009
      -7.86588483e-009 -1.13651613e-008 -2.31979964e-008
      -4.54231994e-008 -6.46534417e-008 -8.80083846e-008
      -9.93759528e-008 -9.12373181e-008 -7.79127944e-008
      -6.80763463e-008 -8.09588059e-008 -1.04667592e-007
      -1.29406729e-007 -1.38694801e-007 -1.49582306e-007
      -1.64960568e-007 -1.90325196e-007 -2.35186661e-007
      -2.37300796e-007 -2.39607800e-007 -2.23092911e-007
      -2.28275624e-007 -2.25725657e-007 -2.24189719e-007</_>
    <_>
      0. 0. 0. 0. 0. 0. 0. 0. 0. 0. 0. 0. 0. 0. 0. 0. 0. 0. 0. 0. 0. 0.
      0. 0. 0. 0. 0. 0. 0. 0. 0. 0. 0. 0. 0. 0. 0. 0. 0. 0. 0. 0. 0. 0.
      0. 0. 0. 0. 0. 0. 0. 0. 0. 0. 0. 0. 0. 0. 0. 0. 0. 0. 0. 0. 0. 0.
      0. 0. 0. 0. 0. 0. 0. 0. 0. 0. 0. 0. 0. 0. 0. 0. 0. 0. 0. 0. 0. 0.
      0. 0. 0. 0. 0. 0. 0. 0. 0. 0. 0. 0. 0. 0. 0. 0. 0. 0. 0. 0. 0. 0.
      0. 0. 0. 0. 0. 0. 0. 0. 0. 0. 0. 0. 0. 0. 0. 0. 0. 0. 0. 0. 0. 0.
      0. 0. 0. 0. 0. 0. 0. 0. 0. 0.</_>
    <_>
      12706. 5.91671143e+002 8.85666122e+001 3.39615894e+003
      -4.50990639e+001 2. 228672. 1376. 2752. 2080. 800. 240. 6720. 448.
      1632. 416. 3168. 3328. 9952. 1840. 3824. 7712. 7696. 5552. 10160.
      1392. 2304. 3296. 4080. 3568. 2480. 19888. 4880. 11456. 3232.
      12224. 5536. 48784. 4480. 9168. 25216. 22032. 130. 125. 122. 121.
      118. 111. 104. 98. 93. 88. 83. 79. 78. 74. 70. 64. 58. 50. 43. 36.
      28. 22. 14. 7. 1. 7. 13. 20. 35. 45. 54. 56. 60. 67. 71. 77. 85.
      99. 109. 118. 131. 141. 148. 151. 122. 127. 128. 126. 124. 119.
      130. 125. 122. 121. 118. 111. 104. 98. 93. 88. 83. 79. 78. 74. 70.
      64. 58. 50. 43. 36. 28. 22. 14. 7. 1. 7. 13. 20. 35. 45. 54. 56.
      60. 67. 71. 77. 85. 99. 109. 118. 131. 141. 148. 151. 122. 127.
      128. 126. 124. 119.</_>
    <_>
      1.46769917e-005 4.24022460e-007 -3.29025163e-008 7.10987933e-007
      -1.35900025e-009 7.13445703e-009 -8.49448588e-006 -1.31604038e-005
      -1.67123544e-005 -2.10593043e-005 -1.07585920e-005
      -4.15462773e-006 -2.29768812e-005 -7.52769211e-006
      -6.83277403e-006 3.09053280e-006 -8.86428211e-007 -8.10504935e-006
      -5.37610231e-006 6.36792038e-006 7.65121604e-006 8.64464891e-006
      6.76887748e-006 7.15246370e-006 1.08955855e-005 4.75994148e-006
      9.93728190e-006 1.11248710e-005 1.04088203e-005 3.93033770e-006
      1.86335149e-006 1.09786370e-005 -3.96416908e-006 -1.00511197e-005
      -1.53350975e-005 3.34674837e-006 -1.08445010e-005 -5.42753378e-006
      -3.34212677e-006 -3.41820760e-006 -3.21702669e-006 1.13328761e-005
      2.45081004e-008 2.65105768e-008 4.13977403e-008 5.42707959e-008
      6.07319564e-008 6.82257948e-008 7.06917120e-008 8.53597157e-008
      1.01723970e-007 1.06716726e-007 1.07864714e-007 1.00113844e-007
      9.29282749e-008 8.31125817e-008 7.84173082e-008 7.21933944e-008
      6.09937061e-008 4.86564034e-008 3.98431048e-008 3.39161019e-008
      2.38028690e-008 3.61516790e-008 3.20639693e-008 1.48585855e-008
      -4.13590306e-025 1.43217314e-008 2.70664078e-008 3.42334552e-008
      3.54484371e-008 4.08083380e-008 4.60002134e-008 4.10476986e-008
      4.10841601e-008 4.62019933e-008 3.56584344e-008 2.77308754e-008
      1.25468098e-008 -1.02471907e-008 -5.60890214e-008 -6.89915325e-008
      -1.06923082e-007 -1.28931376e-007 -1.48437550e-007
      -1.56390485e-007 -1.43824650e-007 -1.29078316e-007
      -7.51342952e-008 -2.97451361e-008 -3.09281889e-009 2.56010839e-008
      2.45081004e-008 2.65105768e-008 4.13977403e-008 5.42707959e-008
      6.07319564e-008 6.82257948e-008 7.06917120e-008 8.53597157e-008
      1.01723970e-007 1.06716726e-007 1.07864714e-007 1.00113844e-007
      9.29282749e-008 8.31125817e-008 7.84173082e-008 7.21933944e-008
      6.09937061e-008 4.86564034e-008 3.98431048e-008 3.39161019e-008
      2.38028690e-008 3.61516790e-008 3.20639693e-008 1.48585855e-008
      -4.13590306e-025 1.43217314e-008 2.70664078e-008 3.42334552e-008
      3.54484371e-008 4.08083380e-008 4.60002134e-008 4.10476986e-008
      4.10841601e-008 4.62019933e-008 3.56584344e-008 2.77308754e-008
      1.25468098e-008 -1.02471907e-008 -5.60890214e-008 -6.89915325e-008
      -1.06923082e-007 -1.28931376e-007 -1.48437550e-007
      -1.56390485e-007 -1.43824650e-007 -1.29078316e-007
      -7.51342952e-008 -2.97451361e-008 -3.09281889e-009 2.56010839e-008</_>
    <_>
      -2.53024555e-005 4.19532938e-007 -8.75905748e-009 -8.35664252e-007
      6.29075458e-010 1.17658114e-008 -5.40244673e-006 -6.73673685e-006
      -3.78163372e-006 -2.53736584e-006 5.92249671e-006 1.44006162e-006
      -1.17033396e-005 -4.69004817e-006 -7.51210791e-006
      -4.25544704e-006 -4.56824591e-006 8.47394517e-007 -6.98725955e-007
      6.51492746e-006 1.05101681e-005 1.30756225e-005 1.22904903e-005
      4.42443570e-006 5.87881823e-006 2.14741885e-006 5.54593316e-006
      3.27882481e-006 -1.00937382e-006 -1.18437833e-006 1.31735305e-007
      2.46614263e-006 -8.30633894e-007 2.56256180e-006 3.47006198e-006
      4.20928973e-006 3.67563848e-006 8.79438539e-006 1.20042500e-006
      3.12962953e-008 -1.30212470e-006 2.88937895e-006 4.33945075e-008
      3.09984252e-008 2.28134347e-008 1.85207885e-008 9.76660885e-009
      -9.08416720e-009 -3.40015198e-008 -5.05599829e-008
      -6.31902992e-008 -6.84708752e-008 -6.80032741e-008
      -7.50562492e-008 -7.43748245e-008 -7.85006407e-008
      -8.61431104e-008 -8.77957547e-008 -8.44833536e-008
      -8.23810851e-008 -7.51127587e-008 -5.90899241e-008
      -4.49289423e-008 -3.02705097e-008 -2.24254233e-008
      -9.67197877e-009 8.27180613e-025 -7.06891612e-009 -1.16610055e-008
      -2.16434870e-008 -2.43081555e-008 -4.16561896e-008
      -4.49665940e-008 -6.22149301e-008 -6.43212914e-008
      -6.26235774e-008 -5.40763097e-008 -5.64879308e-008
      -5.38511706e-008 -2.37061286e-008 -5.00688735e-009 2.31773924e-008
      3.72246518e-008 6.12390352e-008 9.49212122e-008 1.11376188e-007
      7.52212941e-008 7.06372276e-008 5.81734731e-008 5.93733027e-008
      4.44733601e-008 2.06513455e-008 4.33945075e-008 3.09984252e-008
      2.28134347e-008 1.85207885e-008 9.76660885e-009 -9.08416720e-009
      -3.40015198e-008 -5.05599829e-008 -6.31902992e-008
      -6.84708752e-008 -6.80032741e-008 -7.50562492e-008
      -7.43748245e-008 -7.85006407e-008 -8.61431104e-008
      -8.77957547e-008 -8.44833536e-008 -8.23810851e-008
      -7.51127587e-008 -5.90899241e-008 -4.49289423e-008
      -3.02705097e-008 -2.24254233e-008 -9.67197877e-009 8.27180613e-025
      -7.06891612e-009 -1.16610055e-008 -2.16434870e-008
      -2.43081555e-008 -4.16561896e-008 -4.49665940e-008
      -6.22149301e-008 -6.43212914e-008 -6.26235774e-008
      -5.40763097e-008 -5.64879308e-008 -5.38511706e-008
      -2.37061286e-008 -5.00688735e-009 2.31773924e-008 3.72246518e-008
      6.12390352e-008 9.49212122e-008 1.11376188e-007 7.52212941e-008
      7.06372276e-008 5.81734731e-008 5.93733027e-008 4.44733601e-008
      2.06513455e-008</_>
    <_>
      -2.95672344e-005 -1.21127459e-006 -1.42019616e-007
      -1.69235536e-005 1.00489963e-008 -1.04680442e-008 -3.25950123e-006
      -1.42482331e-005 -1.34125812e-005 -1.69655596e-005 1.82173499e-005
      2.29298876e-005 -1.90883711e-005 1.87550650e-005 6.98593203e-006
      2.93476514e-005 2.98477553e-005 3.16862061e-005 -5.73396937e-005
      2.67885407e-005 2.60736233e-005 1.11368881e-005 9.43700343e-007
      1.27737267e-005 -2.63127567e-005 -3.85651656e-005 -3.27804155e-005
      9.24950837e-006 6.38196070e-006 4.54404380e-006 1.18440457e-005
      9.13251461e-006 4.70172290e-006 1.83231464e-006 -4.70807890e-006
      5.26544272e-006 1.03925031e-005 -8.04543379e-006 -8.72774308e-006
      -1.75682235e-005 -1.22832835e-005 4.10602224e-005 5.75410866e-007
      5.63805656e-007 5.56894634e-007 5.47344882e-007 5.22211622e-007
      4.63909203e-007 4.21222779e-007 4.07174525e-007 3.72954588e-007
      3.19334646e-007 3.34650622e-007 2.92080159e-007 8.39599608e-008
      4.50083393e-009 6.61172308e-008 6.00000973e-008 4.96209864e-008
      -1.23685906e-008 -1.75690190e-007 -2.91887687e-007
      -2.56756692e-007 -1.87069730e-007 -1.09098707e-007
      -4.51252085e-008 1.29821698e-009 -2.70054734e-008 -6.65851374e-008
      -3.07353929e-008 1.72262009e-008 5.15110585e-008 1.02151958e-007
      1.62875864e-007 2.19476576e-007 2.89287044e-007 3.04222254e-007
      3.39296776e-007 2.68610137e-007 3.33459383e-007 3.03390607e-007
      3.27208880e-007 3.26956041e-007 3.12926886e-007 3.60243234e-007
      3.58020571e-007 2.43587550e-007 4.54939794e-007 4.79301661e-007
      5.05905120e-007 5.19693401e-007 5.22556775e-007 5.75410866e-007
      5.63805656e-007 5.56894634e-007 5.47344882e-007 5.22211622e-007
      4.63909203e-007 4.21222779e-007 4.07174525e-007 3.72954588e-007
      3.19334646e-007 3.34650622e-007 2.92080159e-007 8.39599608e-008
      4.50083393e-009 6.61172308e-008 6.00000973e-008 4.96209864e-008
      -1.23685906e-008 -1.75690190e-007 -2.91887687e-007
      -2.56756692e-007 -1.87069730e-007 -1.09098707e-007
      -4.51252085e-008 1.29821698e-009 -2.70054734e-008 -6.65851374e-008
      -3.07353929e-008 1.72262009e-008 5.15110585e-008 1.02151958e-007
      1.62875864e-007 2.19476576e-007 2.89287044e-007 3.04222254e-007
      3.39296776e-007 2.68610137e-007 3.33459383e-007 3.03390607e-007
      3.27208880e-007 3.26956041e-007 3.12926886e-007 3.60243234e-007
      3.58020571e-007 2.43587550e-007 4.54939794e-007 4.79301661e-007
      5.05905120e-007 5.19693401e-007 5.22556775e-007</_>
    <_>
      1.36305098e-005 3.50818908e-007 1.57256359e-008 -1.79049403e-006
      1.06546305e-009 2.91735547e-009 -2.15932414e-005 -9.75772036e-006
      -2.26840893e-006 7.86757369e-007 1.88630543e-006 2.83833151e-006
      -6.21852996e-006 -1.10890014e-005 -7.83019550e-006
      -2.21482696e-006 -4.74905983e-006 -1.04299818e-006
      -5.13606392e-006 3.88196304e-006 7.64500840e-007 -3.24894677e-006
      -3.08698168e-006 -1.09495559e-005 -2.84700618e-005
      -2.51271831e-006 -6.86522253e-006 3.51988501e-006 -3.34063293e-006
      -1.03609136e-005 -1.00660518e-005 -3.73033822e-006
      -1.11025229e-005 5.20131664e-007 9.67165874e-007 3.56234318e-006
      -3.48172625e-006 3.12574339e-005 -5.73232137e-006 -3.30351986e-006
      1.22102638e-005 1.52213179e-005 1.31581672e-007 1.19390862e-007
      1.12410262e-007 1.07760926e-007 9.83324000e-008 9.02829100e-008
      8.33343208e-008 7.97342139e-008 7.89422643e-008 7.25859692e-008
      6.26427337e-008 4.68201051e-008 3.09589794e-008 1.89230409e-008
      4.36975833e-009 -1.14453904e-008 -2.47747067e-008 -4.01126563e-008
      -4.57529090e-008 -3.96536350e-008 -3.29944783e-008
      -1.77639379e-008 -7.62803243e-009 6.45148102e-010 -8.78879401e-025
      2.69188027e-009 2.30613417e-009 6.19332419e-010 -5.58856850e-010
      5.17121013e-010 2.45574783e-009 7.78774023e-009 3.09843884e-008
      4.80999987e-008 6.02447372e-008 7.18679871e-008 8.22289721e-008
      8.91447201e-008 9.70388925e-008 1.10554794e-007 1.31739370e-007
      1.57644592e-007 1.86911123e-007 2.00994393e-007 1.63713054e-007
      1.36624791e-007 1.43077344e-007 1.44861303e-007 1.47288915e-007
      1.43540618e-007 1.31581672e-007 1.19390862e-007 1.12410262e-007
      1.07760926e-007 9.83324000e-008 9.02829100e-008 8.33343208e-008
      7.97342139e-008 7.89422643e-008 7.25859692e-008 6.26427337e-008
      4.68201051e-008 3.09589794e-008 1.89230409e-008 4.36975833e-009
      -1.14453904e-008 -2.47747067e-008 -4.01126563e-008
      -4.57529090e-008 -3.96536350e-008 -3.29944783e-008
      -1.77639379e-008 -7.62803243e-009 6.45148102e-010 -8.78879401e-025
      2.69188027e-009 2.30613417e-009 6.19332419e-010 -5.58856850e-010
      5.17121013e-010 2.45574783e-009 7.78774023e-009 3.09843884e-008
      4.80999987e-008 6.02447372e-008 7.18679871e-008 8.22289721e-008
      8.91447201e-008 9.70388925e-008 1.10554794e-007 1.31739370e-007
      1.57644592e-007 1.86911123e-007 2.00994393e-007 1.63713054e-007
      1.36624791e-007 1.43077344e-007 1.44861303e-007 1.47288915e-007
      1.43540618e-007</_>
    <_>
      -1.25462984e-005 -1.26387738e-006 2.16796359e-008 -6.61754086e-007
      1.48465917e-009 -6.84202472e-009 -4.83899430e-006 -2.27044002e-005
      -1.69134764e-005 -1.90283063e-005 -1.12792031e-005
      -5.35193294e-006 -2.54090846e-005 -6.53610732e-006
      -1.08076010e-005 -3.30471880e-006 -9.70741075e-006
      -4.35469792e-006 -1.01947606e-007 6.94544133e-006 6.67481208e-006
      8.47527463e-006 1.19032811e-005 8.07950801e-006 1.19611122e-005
      7.17839157e-006 1.61036205e-005 2.17557554e-005 1.92827101e-005
      1.10287810e-005 7.57924909e-006 2.08076053e-005 -1.01156093e-005
      -1.02152071e-005 -9.42273346e-006 -6.64298432e-006
      -6.28444150e-006 7.37291793e-006 -3.54517329e-006 -3.69064014e-006
      -3.20231470e-006 -1.80680217e-005 8.29933811e-008 7.72781448e-008
      7.51465024e-008 7.32901952e-008 6.84327190e-008 6.49362306e-008
      6.02323240e-008 5.90701177e-008 5.40375567e-008 4.42899690e-008
      3.28946896e-008 1.89379552e-008 6.02746075e-009 -9.01233932e-009
      -2.58944741e-008 -4.24866506e-008 -5.66911389e-008
      -7.39202122e-008 -6.56073382e-008 -5.27977981e-008
      -3.35147270e-008 -2.22928520e-008 -1.08704930e-008
      -2.62909428e-009 2.06795153e-025 -4.43131887e-009 -2.01138182e-008
      -3.91805592e-008 -5.00433863e-008 -5.00346076e-008
      -5.38936575e-008 -7.90742263e-008 -8.34539549e-008
      -7.67232393e-008 -6.33577173e-008 -6.43782059e-008
      -7.87800474e-008 -6.66631124e-008 -3.19748885e-008 3.92971788e-009
      3.35141692e-008 5.94617511e-008 6.95169788e-008 7.83731551e-008
      3.18390931e-008 -3.08426729e-009 -6.32085850e-009 -1.12872209e-008
      1.70537913e-008 6.73084770e-008 8.29933811e-008 7.72781448e-008
      7.51465024e-008 7.32901952e-008 6.84327190e-008 6.49362306e-008
      6.02323240e-008 5.90701177e-008 5.40375567e-008 4.42899690e-008
      3.28946896e-008 1.89379552e-008 6.02746075e-009 -9.01233932e-009
      -2.58944741e-008 -4.24866506e-008 -5.66911389e-008
      -7.39202122e-008 -6.56073382e-008 -5.27977981e-008
      -3.35147270e-008 -2.22928520e-008 -1.08704930e-008
      -2.62909428e-009 2.06795153e-025 -4.43131887e-009 -2.01138182e-008
      -3.91805592e-008 -5.00433863e-008 -5.00346076e-008
      -5.38936575e-008 -7.90742263e-008 -8.34539549e-008
      -7.67232393e-008 -6.33577173e-008 -6.43782059e-008
      -7.87800474e-008 -6.66631124e-008 -3.19748885e-008 3.92971788e-009
      3.35141692e-008 5.94617511e-008 6.95169788e-008 7.83731551e-008
      3.18390931e-008 -3.08426729e-009 -6.32085850e-009 -1.12872209e-008
      1.70537913e-008 6.73084770e-008</_>
    <_>
      -4.12269110e-005 -1.27940416e-006 7.71269271e-009 -5.71699911e-006
      -2.72730893e-010 3.51225715e-009 -9.65678191e-006 -1.24256067e-005
      3.57413091e-006 8.54948030e-006 6.94032269e-006 4.65175481e-006
      -1.52933862e-005 -1.80397547e-005 -2.30992355e-005
      -1.20218438e-005 -2.62681315e-005 -2.67846517e-005
      -1.71769771e-005 -9.38874655e-006 -6.16840725e-006
      -6.58727095e-006 6.57035025e-006 -6.14946521e-006 -4.28938656e-005
      8.35605442e-006 -9.61053843e-007 2.63172433e-006 5.25981159e-006
      4.71570229e-006 1.45636786e-005 3.09350398e-005 5.80082315e-006
      3.06322108e-005 2.16089429e-005 1.16754181e-005 5.69729036e-006
      3.68677283e-005 -1.15524672e-005 -9.60973830e-006 2.30040700e-006
      -2.28923800e-005 3.46244917e-007 3.34098303e-007 3.18576070e-007
      3.06126310e-007 2.90090668e-007 2.83620068e-007 2.77458327e-007
      2.18258918e-007 1.13165939e-007 7.14967214e-008 5.49923627e-008
      6.61776625e-008 7.00216631e-008 4.97333374e-008 3.27078276e-008
      1.93492813e-008 2.75018568e-008 3.16711954e-008 1.98508445e-008
      1.02971143e-008 -9.96499772e-009 -2.55773092e-008 -2.48220502e-008
      -1.41242520e-008 3.81765758e-010 -1.89261016e-008 -4.27000835e-008
      -6.78526106e-008 -9.91087674e-008 -1.24464620e-007
      -1.57350442e-007 -1.90106988e-007 -2.18870937e-007
      -2.32897790e-007 -2.72225464e-007 -3.08870256e-007
      -3.13648002e-007 -2.47157686e-007 -1.88856390e-007
      -1.78952220e-007 -1.31380787e-007 -3.67020903e-008 6.02577686e-008
      1.30056392e-007 2.38993067e-007 3.17780405e-007 3.50330509e-007
      3.57506849e-007 3.67435206e-007 3.62802041e-007 3.46244917e-007
      3.34098303e-007 3.18576070e-007 3.06126310e-007 2.90090668e-007
      2.83620068e-007 2.77458327e-007 2.18258918e-007 1.13165939e-007
      7.14967214e-008 5.49923627e-008 6.61776625e-008 7.00216631e-008
      4.97333374e-008 3.27078276e-008 1.93492813e-008 2.75018568e-008
      3.16711954e-008 1.98508445e-008 1.02971143e-008 -9.96499772e-009
      -2.55773092e-008 -2.48220502e-008 -1.41242520e-008 3.81765758e-010
      -1.89261016e-008 -4.27000835e-008 -6.78526106e-008
      -9.91087674e-008 -1.24464620e-007 -1.57350442e-007
      -1.90106988e-007 -2.18870937e-007 -2.32897790e-007
      -2.72225464e-007 -3.08870256e-007 -3.13648002e-007
      -2.47157686e-007 -1.88856390e-007 -1.78952220e-007
      -1.31380787e-007 -3.67020903e-008 6.02577686e-008 1.30056392e-007
      2.38993067e-007 3.17780405e-007 3.50330509e-007 3.57506849e-007
      3.67435206e-007 3.62802041e-007</_>
    <_>
      -4.88788146e-006 -1.45551141e-007 7.52370326e-008 -2.39066912e-006
      -1.43972811e-009 -4.27807390e-009 -7.86705129e-007
      -2.84795642e-005 -1.68585848e-005 -1.08506738e-005
      -6.87029205e-006 -8.95682297e-006 1.77484822e-006 -1.10312249e-005
      -3.55110637e-006 -2.14044690e-006 -3.70561020e-006
      -1.02708409e-005 1.06410598e-005 -9.15959208e-006 -3.31963633e-007
      5.04752961e-006 1.16206029e-005 7.73862848e-006 2.23521456e-005
      1.13268243e-005 1.50926007e-005 1.29760429e-005 1.57315517e-005
      1.12941025e-005 1.56642709e-005 2.62628018e-005 5.60753051e-006
      1.19966244e-005 -3.82120697e-006 -9.97369807e-006 -3.61033162e-005
      1.80594707e-005 -2.58182663e-005 -2.65127801e-005 -1.57916256e-005
      -1.95624943e-005 -1.17023092e-007 -1.12081779e-007
      -9.80073835e-008 -7.78405109e-008 -6.24447054e-008
      -5.27116661e-008 -4.66146943e-008 -1.34944017e-007
      -1.55328820e-007 -1.49146075e-007 -7.21080227e-008 4.75863153e-008
      5.98480483e-008 6.99478377e-008 6.51366747e-008 7.30771887e-008
      8.09310663e-008 7.34658556e-008 5.64901725e-008 4.05920773e-008
      2.65775544e-008 1.08228830e-008 4.77177231e-009 5.83089044e-009
      -1.24077092e-024 6.62151978e-009 1.40309506e-008 1.68811809e-008
      5.58402302e-009 -1.26257138e-008 -2.79728845e-008 -6.37039506e-008
      -5.96295706e-008 -2.41917633e-008 5.45176393e-009 3.94861175e-008
      -2.30188935e-008 -4.77025708e-008 -6.69184175e-008
      -6.99463598e-008 -7.77097782e-008 -7.55236869e-008
      -7.25628482e-008 -6.47093401e-008 -4.55089868e-008
      -7.48411750e-008 -1.03767320e-007 -1.19612736e-007
      -1.26497923e-007 -1.29225228e-007 -1.17023092e-007
      -1.12081779e-007 -9.80073835e-008 -7.78405109e-008
      -6.24447054e-008 -5.27116661e-008 -4.66146943e-008
      -1.34944017e-007 -1.55328820e-007 -1.49146075e-007
      -7.21080227e-008 4.75863153e-008 5.98480483e-008 6.99478377e-008
      6.51366747e-008 7.30771887e-008 8.09310663e-008 7.34658556e-008
      5.64901725e-008 4.05920773e-008 2.65775544e-008 1.08228830e-008
      4.77177231e-009 5.83089044e-009 -1.24077092e-024 6.62151978e-009
      1.40309506e-008 1.68811809e-008 5.58402302e-009 -1.26257138e-008
      -2.79728845e-008 -6.37039506e-008 -5.96295706e-008
      -2.41917633e-008 5.45176393e-009 3.94861175e-008 -2.30188935e-008
      -4.77025708e-008 -6.69184175e-008 -6.99463598e-008
      -7.77097782e-008 -7.55236869e-008 -7.25628482e-008
      -6.47093401e-008 -4.55089868e-008 -7.48411750e-008
      -1.03767320e-007 -1.19612736e-007 -1.26497923e-007
      -1.29225228e-007</_>
    <_>
      0. 0. 0. 0. 0. 0. 0. 0. 0. 0. 0. 0. 0. 0. 0. 0. 0. 0. 0. 0. 0. 0.
      0. 0. 0. 0. 0. 0. 0. 0. 0. 0. 0. 0. 0. 0. 0. 0. 0. 0. 0. 0. 0. 0.
      0. 0. 0. 0. 0. 0. 0. 0. 0. 0. 0. 0. 0. 0. 0. 0. 0. 0. 0. 0. 0. 0.
      0. 0. 0. 0. 0. 0. 0. 0. 0. 0. 0. 0. 0. 0. 0. 0. 0. 0. 0. 0. 0. 0.
      0. 0. 0. 0. 0. 0. 0. 0. 0. 0. 0. 0. 0. 0. 0. 0. 0. 0. 0. 0. 0. 0.
      0. 0. 0. 0. 0. 0. 0. 0. 0. 0. 0. 0. 0. 0. 0. 0. 0. 0. 0. 0. 0. 0.
      0. 0. 0. 0. 0. 0. 0. 0. 0. 0.</_>
    <_>
      1.83755000e+004 7.09144226e+002 9.86899948e+001 3.80238599e+003
      -4.30057602e+001 1. 225552. 1456. 2848. 3280. 1872. 1040. 9712.
      3904. 7312. 7216. 9328. 8592. 24368. 7888. 4960. 6576. 5360. 4176.
      14080. 1584. 3952. 5600. 6976. 3168. 3472. 37376. 10528. 18768.
      5888. 21504. 8224. 58544. 8032. 15776. 28576. 29232. 75. 62. 46.
      33. 28. 15. 7. -1.77119588e-007 -1.66175596e-007 -1.70226613e-007
      -1.77630312e-007 -1.90003391e-007 16. 19. 18. 17. 15. 13. 10. 9.
      8. 5. 4. 2. -2.82894397e-009 2. 4. 7. 11. 14. 21. 35. 44. 53. 62.
      71. 80. 91. 100. 112. 118. 130. 130. 124. 126. 127. 120. 112. 103.
      87. 75. 62. 46. 33. 28. 15. 7. -1.77119588e-007 -1.66175596e-007
      -1.70226613e-007 -1.77630312e-007 -1.90003391e-007 16. 19. 18. 17.
      15. 13. 10. 9. 8. 5. 4. 2. -2.82894397e-009 2. 4. 7. 11. 14. 21.
      35. 44. 53. 62. 71. 80. 91. 100. 112. 118. 130. 130. 124. 126.
      127. 120. 112. 103. 87.</_>
    <_>
      -2.74677259e-005 2.30881028e-007 3.84907418e-011 5.23062340e-007
      6.26136742e-009 2.23355556e-009 5.61829938e-006 -6.83771441e-006
      -2.89042964e-006 -3.19299238e-006 -1.34071388e-006
      -4.75713477e-006 -5.42814723e-006 4.63072382e-007 4.43362921e-007
      7.07330082e-006 3.54875579e-006 9.97335792e-006 2.64085756e-005
      1.20692157e-005 4.74795434e-006 3.24096982e-006 -7.56130660e-008
      -1.26872021e-006 -4.34198910e-006 -2.64198911e-006
      -3.25264097e-007 -4.00809722e-006 -2.92572668e-006
      -7.21109564e-006 -1.04214250e-005 1.78035334e-005 -4.91202582e-006
      6.75913043e-006 -8.82721963e-007 5.22183291e-006 3.14388700e-007
      4.77514868e-006 7.20963180e-006 5.77696755e-006 -1.38301666e-005
      4.88339538e-006 -1.71167130e-007 -2.06893588e-007 -2.23075020e-007
      -2.34978828e-007 -2.34673706e-007 -2.66929533e-007
      -2.86931623e-007 -3.08056173e-007 -3.10462099e-007
      -3.12815871e-007 -3.10062575e-007 -3.07844999e-007
      -2.55727059e-007 -2.42574885e-007 -2.40637206e-007
      -2.32218198e-007 -2.19965969e-007 -2.05222051e-007
      -1.87386490e-007 -1.60002202e-007 -1.26144926e-007
