<?xml version="1.0"?>
<opencv_storage>
<svm type_id="opencv-ml-svm">
  <svm_type>C_SVC</svm_type>
  <kernel><type>LINEAR</type></kernel>
  <C>1.</C>
  <term_criteria><epsilon>2.2204460492503131e-016</epsilon>
    <iterations>100</iterations></term_criteria>
  <var_all>100</var_all>
  <var_count>100</var_count>
  <class_count>13</class_count>
  <class_labels type_id="opencv-matrix">
    <rows>1</rows>
    <cols>13</cols>
    <dt>i</dt>
    <data>
      1 2 3 4 5 6 7 8 9 10 11 12 13</data></class_labels>
  <sv_total>78</sv_total>
  <support_vectors>
    <_>
      -6.93889390e-018 -6.93889390e-018 -6.93889390e-018 3.74058150e-002
      1.74941272e-001 -6.99342089e-003 -1.49558550e-002 2.22517792e-002
      -6.93889390e-018 -6.93889390e-018 -6.93889390e-018
      -6.93889390e-018 5.19805998e-002 1.74941272e-001 1.22602068e-001
      0. 1.75101608e-002 6.50116662e-003 -6.93889390e-018
      -6.93889390e-018 -6.93889390e-018 4.87545580e-002 8.93864110e-002
      1.74941272e-001 1.52991995e-001 0. -1.13487439e-002
      6.50116662e-003 -3.36384363e-002 -6.93889390e-018 4.06318568e-002
      1.59787238e-001 1.74941272e-001 8.59776437e-002 3.36384363e-002 0.
      0. 1.78499110e-002 3.76737979e-003 3.76737979e-003 1.13487439e-002
      8.50224569e-002 1.07926920e-001 3.36384363e-002 0. 0. 0.
      5.57479784e-002 4.43992354e-002 3.76737979e-003 1.13487439e-002
      2.65027788e-002 8.56751427e-002 3.36384363e-002 0. 0. 0.
      8.89636278e-002 1.29954100e-001 -1.84843987e-002 -6.93889390e-018
      -6.93889390e-018 1.12057641e-001 3.36384363e-002 0. 0. 0.
      6.59622177e-002 8.93222392e-002 -3.36384363e-002 -6.93889390e-018
      -6.93889390e-018 1.54636027e-002 5.66398501e-002 0. 0.
      2.19492763e-002 1.18301421e-001 -4.14858125e-002 -3.36384363e-002
      -6.93889390e-018 -6.93889390e-018 -6.93889390e-018 7.87596181e-002
      2.30014138e-002 0. 2.19492763e-002 1.00413606e-001
      -4.14858125e-002 -6.93889390e-018 -6.93889390e-018
      -6.93889390e-018 -6.93889390e-018 6.36055842e-002 2.30014138e-002
      4.49506901e-002 1.54592386e-002 -3.01370695e-002 -4.14858125e-002
      -6.93889390e-018</_>
    <_>
      2.42861287e-017 2.42861287e-017 2.42861287e-017 2.42861287e-017
      3.84469777e-002 -1.47508904e-001 -7.44466260e-002 2.42861287e-017
      2.42861287e-017 2.42861287e-017 2.42861287e-017 2.42861287e-017
      1.07500471e-001 1.33593470e-001 1.02734208e-001 -1.01185754e-001
      -1.28176957e-001 -4.88233455e-002 2.42861287e-017 2.42861287e-017
      2.42861287e-017 4.08148654e-002 1.33593470e-001 1.33593470e-001
      1.07970200e-001 -1.01185754e-001 -1.01185754e-001 -1.03763659e-002
      -4.88233455e-002 2.42861287e-017 2.42861287e-017 4.08148654e-002
      1.50509685e-001 -4.94197520e-005 1.03763659e-002 0.
      -1.01185754e-001 6.15392067e-002 -4.88233455e-002 -4.88233455e-002
      2.42861287e-017 1.01185754e-001 3.48600075e-002 -4.39552665e-002
      -8.42695460e-002 0. -1.01185754e-001 8.47701356e-002
      -1.03763659e-002 -4.88233455e-002 2.42861287e-017 1.01185754e-001
      7.83146843e-002 -5.00585476e-004 -6.45399839e-002 0. 0.
      5.39108589e-002 8.47701356e-002 -1.03763659e-002 1.47218611e-002
      2.32309271e-002 1.07500471e-001 -5.23624085e-002 0. 0. 0.
      4.79560010e-002 8.47701356e-002 6.15392067e-002 2.42861287e-017
      1.24416679e-001 1.24416679e-001 1.55963957e-001 0. 0.
      2.56232768e-002 7.88152739e-002 7.88152739e-002 1.57166384e-002
      2.42861287e-017 1.01185754e-001 1.01185754e-001 7.64606819e-002
      -3.22193815e-003 -1.10362552e-001 -5.86462691e-002
      -5.45427296e-003 9.76177957e-003 3.84469777e-002 2.42861287e-017
      2.42861287e-017 2.42861287e-017 -2.56232768e-002 -1.27638623e-001
      -8.72934833e-002 -1.32733032e-001 -3.15472782e-002
      -1.63312238e-002 3.84469777e-002</_>
    <_>
      0. 0. 0. 4.56232727e-002 7.41855800e-002 -8.72025937e-002
      4.50579263e-003 0. 0. 0. 0. 0. 0. 4.56232727e-002 6.04927167e-002
      -4.56232727e-002 1.12705084e-003 -2.64734086e-002 0. 0. 0. 0. 0.
      7.93246627e-002 1.10550523e-001 0. -4.56232727e-002
      4.58585210e-002 -2.64734086e-002 0. 0. 0. 4.56232727e-002
      1.07359119e-001 2.64734086e-002 0. 0. 1.36227936e-001
      -2.64734086e-002 -2.64734086e-002 0. 0. 1.43326104e-001
      2.64734086e-002 0. 0. 0. 2.49903932e-001 2.08889856e-003
      -2.64734086e-002 5.13908453e-003 1.40384659e-001 1.43326104e-001
      2.64734086e-002 0. 0. 0. 1.69018224e-001 2.42889505e-002
      -2.13343240e-002 1.40384659e-001 2.02191770e-001 2.76377350e-001
      2.64734086e-002 0. 0. 0. 1.11279622e-001 8.09569731e-002
      3.53336968e-002 1.29859835e-001 1.58422142e-001 2.04045415e-001
      1.18800849e-002 0. 0. 3.59669887e-002 2.83574499e-002
      -3.85887399e-002 -2.64734086e-002 0. 1.07430376e-001
      4.56232727e-002 7.77090117e-002 -4.31556292e-002 -1.00894235e-001
      -5.97881638e-002 -3.85887399e-002 -8.42120126e-002 0. 0.
      4.56232727e-002 4.56232727e-002 9.65628494e-003 -1.04962736e-001
      -7.18864100e-003 -5.20942658e-002 -3.85887399e-002
      -8.42120126e-002 0.</_>
    <_>
      -1.73472348e-017 -1.73472348e-017 -1.73472348e-017
      -1.73472348e-017 -1.73472348e-017 -8.22356865e-002
      -6.96492121e-002 -1.73472348e-017 -1.73472348e-017
      -1.73472348e-017 -1.73472348e-017 -1.73472348e-017
      -1.73472348e-017 -1.73472348e-017 -1.73031334e-002
      -1.28906861e-001 -1.05928980e-001 -4.66711782e-002
      -1.73472348e-017 -1.73472348e-017 -1.73472348e-017
      -1.73472348e-017 -1.73472348e-017 -1.73472348e-017
      -2.29780320e-002 -1.28906861e-001 -1.02537081e-001
      -2.03013923e-002 -4.66711782e-002 -1.73472348e-017 5.58113195e-002
      6.26784787e-002 6.26784787e-002 -2.25407444e-003 3.10654733e-002
      0. 0. 5.10854907e-002 9.14014224e-003 9.14014224e-003
      8.93496349e-002 9.62167978e-002 5.42622767e-002 4.66711782e-002 0.
      0. 0. 8.22356865e-002 8.22356865e-002 3.39399166e-002
      6.38402626e-002 6.38402626e-002 2.42738649e-002 2.03013923e-002 0.
      0. 0. 6.49325550e-002 8.22356865e-002 5.27941510e-002
      3.26900668e-002 3.26900668e-002 3.26900668e-002 -2.11025868e-003
      0. 0. 0. 4.59559150e-002 8.22356865e-002 5.04060313e-002
      -1.73472348e-017 -1.73472348e-017 -1.73472348e-017
      -3.38175111e-002 -8.39208364e-002 -2.38812109e-003
      -4.15416919e-002 -1.26067607e-003 -1.68051682e-002
      -2.03013923e-002 -1.73472348e-017 -1.73472348e-017
      -1.73472348e-017 -2.29780320e-002 -1.09930225e-001
      -1.28906861e-001 -1.05928831e-001 -6.56478181e-002
      -6.56478181e-002 -1.73472348e-017 -1.73472348e-017
      -1.73472348e-017 -1.73472348e-017 -2.29780320e-002
      -1.09930225e-001 -8.69521946e-002 -8.86256993e-002
      -6.56478181e-002 -6.56478181e-002 -1.73472348e-017</_>
    <_>
      6.93889390e-018 6.93889390e-018 6.93889390e-018 6.93889390e-018
      6.93889390e-018 -1.29005685e-001 -9.41509232e-002 6.93889390e-018
      6.93889390e-018 6.93889390e-018 6.93889390e-018 6.93889390e-018
      3.22738662e-002 3.22738662e-002 3.22738662e-002 -1.38597444e-001
      -9.41509232e-002 -4.18656282e-002 6.93889390e-018 6.93889390e-018
      6.93889390e-018 3.22738662e-002 3.22738662e-002 3.22738662e-002
      5.33674434e-002 -1.25158042e-001 -1.38597444e-001 -9.59176011e-003
      -9.59176011e-003 3.22738662e-002 6.93889390e-018 7.47627318e-002
      1.34702206e-001 5.69650903e-003 1.58816986e-002 -2.59839296e-002
      -3.61691192e-002 3.28971073e-002 9.28365737e-002 3.15132402e-002
      1.34394029e-002 7.47627318e-002 6.45542890e-002 4.18656282e-002 0.
      0. 0. 1.29005685e-001 9.67318267e-002 9.67318267e-002
      1.34394029e-002 9.09927189e-002 1.00723408e-001 4.18656282e-002 0.
      0. 0. 8.65168273e-002 5.42429574e-002 3.43038216e-002
      1.62299834e-002 6.84429854e-002 1.70871317e-001 4.18656282e-002 0.
      0. 0. 3.43038216e-002 1.80738382e-002 -4.18656282e-002
      1.62299834e-002 6.84429854e-002 1.28382444e-001 -6.23238913e-004
      -4.24888656e-002 -1.34394029e-002 -2.24774405e-002 1.80738382e-002
      -4.18656282e-002 -4.18656282e-002 1.62299834e-002 3.61691192e-002
      9.61085856e-002 6.95246756e-002 -4.24888656e-002 -7.47627318e-002
      -4.24165763e-002 -4.18656282e-002 -4.18656282e-002 6.93889390e-018
      1.01851895e-002 3.61691192e-002 3.61691192e-002 2.75933072e-002
      -1.10931851e-001 -4.24165763e-002 -9.57835540e-002
      -4.18656282e-002 -4.18656282e-002 6.93889390e-018</_>
    <_>
      -2.77555756e-017 -2.77555756e-017 -2.77555756e-017
      -2.77555756e-017 -2.77555756e-017 -5.15045598e-002
      -6.49585621e-003 -2.77555756e-017 -2.77555756e-017
      -2.77555756e-017 -2.77555756e-017 -2.77555756e-017
      -2.77555756e-017 1.05162725e-001 1.27333567e-001 0.
      2.81452965e-002 1.41688660e-001 -2.77555756e-017 -2.77555756e-017
      -2.77555756e-017 -2.77555756e-017 7.71281496e-002 1.82896778e-001
      1.27424926e-001 0. 0. 1.41688660e-001 -1.93407107e-002
      -2.77555756e-017 -2.77555756e-017 2.18674000e-002 1.82896778e-001
      7.49039203e-002 4.12081107e-002 0. 0. 1.41688660e-001
      -3.75618739e-003 -4.12081107e-002 -2.77555756e-017 2.18674000e-002
      1.30375773e-001 4.12081107e-002 0. 0. 0. 1.41688660e-001
      3.65259424e-002 -1.93407107e-002 -2.77555756e-017 2.18674000e-002
      1.30375773e-001 4.12081107e-002 0. 0. 0. 1.07992858e-001
      -1.11876586e-002 -1.93407107e-002 -2.77555756e-017 2.18674000e-002
      1.82896778e-001 4.12081107e-002 0. 0. 0. 6.86385259e-002
      -1.93407107e-002 -4.12081107e-002 -2.77555756e-017
      -2.77555756e-017 9.27126706e-002 6.55838251e-002 0. 0.
      5.54718487e-002 5.46207353e-002 -6.55838251e-002 -4.12081107e-002
      -2.77555756e-017 -2.77555756e-017 3.74519229e-002 1.27424926e-001
      2.43757106e-002 0. -1.53734209e-002 4.64676842e-002
      -6.55838251e-002 -2.77555756e-017 -2.77555756e-017
      -2.77555756e-017 -2.77555756e-017 2.98093501e-002 -7.32398629e-002
      9.00229067e-003 -3.54501302e-003 2.46002823e-002 -6.55838251e-002
      -2.77555756e-017</_>
    <_>
      -5.48172618e-016 -5.48172618e-016 -5.48172618e-016 1.34981826e-001
      3.02725852e-001 -1.95636407e-001 -1.69598401e-001 -5.48172618e-016
      -5.48172618e-016 -5.48172618e-016 -5.48172618e-016
      -5.48172618e-016 -5.48172618e-016 1.34981826e-001 1.98170662e-001
      0. 5.63528202e-003 3.20958555e-001 -5.48172618e-016
      -5.48172618e-016 -5.48172618e-016 -5.48172618e-016
      -5.48172618e-016 -5.48172618e-016 2.66202241e-001 0.
      -1.34981826e-001 3.20958555e-001 -7.05658346e-002 -5.48172618e-016
      -5.48172618e-016 -5.48172618e-016 1.34981826e-001 7.58689716e-002
      7.05658346e-002 0. 0. 2.26261735e-001 -7.05658346e-002
      -7.05658346e-002 -5.48172618e-016 -5.48172618e-016
      -1.13769494e-001 7.05658346e-002 0. 0. 0. 9.71781909e-002
      -7.05658346e-002 -7.05658346e-002 -5.48172618e-016 1.34981826e-001
      -1.13769494e-001 7.05658346e-002 0. 0. 0. 1.27604827e-001
      -7.05658346e-002 -7.05658346e-002 -5.48172618e-016 1.34981826e-001
      3.02725852e-001 -4.80546027e-001 0. 0. 0. -1.48273408e-001
      -3.40422243e-002 -7.05658346e-002 -5.48172618e-016 1.34981826e-001
      1.34981826e-001 -2.71242380e-001 0. 0. 0. -4.37182225e-002
      -1.74938634e-001 -3.40422243e-002 -5.48172618e-016
      -5.48172618e-016 1.34981826e-001 -1.57290503e-001 -3.11757237e-001
      0. 0. -8.02418292e-002 -1.74938634e-001 1.71505436e-001
      -5.48172618e-016 -5.48172618e-016 -5.48172618e-016
      -5.48172618e-016 -7.03281581e-001 1.08134210e-001 3.34808171e-001
      -2.15223655e-001 -3.46444070e-001 -5.48172618e-016</_>
    <_>
      -5.55111512e-017 -5.55111512e-017 -5.55111512e-017
      -5.55111512e-017 4.16675746e-001 -1.53806563e-002 -1.73037291e-001
      -5.55111512e-017 -5.55111512e-017 -5.55111512e-017
      -5.55111512e-017 -5.55111512e-017 -5.55111512e-017 1.80474706e-006
      3.43768924e-001 -1.53806563e-002 -2.45944113e-001 -5.55111512e-017
      -5.55111512e-017 -5.55111512e-017 -5.55111512e-017
      -5.55111512e-017 -5.55111512e-017 6.78831413e-002 2.43638441e-001
      -6.73000440e-002 -4.16675746e-001 -5.55111512e-017
      -5.55111512e-017 -5.55111512e-017 -5.55111512e-017
      -5.55111512e-017 -5.55111512e-017 -1.69202303e-005 0. 0.
      -1.69660166e-001 -5.55111512e-017 -5.55111512e-017
      -5.55111512e-017 -5.55111512e-017 -5.55111512e-017
      -3.09971254e-002 0. 0. 0. 0. 1.51883051e-001 -5.55111512e-017
      -5.55111512e-017 -5.55111512e-017 -5.55111512e-017 1.65912420e-001
      0. 0. 0. 0. 7.89762288e-002 -5.55111512e-017 -5.55111512e-017
      -5.55111512e-017 -5.55111512e-017 -5.55111512e-017 0. 0. 0. 0.
      -7.29068220e-002 -5.55111512e-017 -5.55111512e-017
      -5.55111512e-017 -5.55111512e-017 5.83102927e-004 0. 0. 0.
      1.73037291e-001 -5.55111512e-017 -5.55111512e-017 -5.55111512e-017
      5.83102927e-004 5.83102927e-004 5.83102927e-004 1.03903949e-001 0.
      0. -7.39782825e-002 -5.55111512e-017 -5.55111512e-017
      -5.55111512e-017 9.57156271e-002 -5.55111512e-017 -5.55111512e-017
      2.43638441e-001 0. -3.07651442e-002 -3.09971254e-002
      -5.55111512e-017 -5.55111512e-017 -5.55111512e-017</_>
    <_>
      -6.93889390e-017 -6.93889390e-017 -6.93889390e-017
      -6.93889390e-017 -6.93889390e-017 -1.03289947e-001
      -1.56975836e-002 -6.93889390e-017 -6.93889390e-017
      -6.93889390e-017 -6.93889390e-017 -6.93889390e-017
      -6.93889390e-017 7.25272298e-002 1.28114268e-001 0.
      3.98894623e-002 6.84818923e-002 -6.93889390e-017 -6.93889390e-017
      -6.93889390e-017 -6.93889390e-017 -6.93889390e-017 7.25272298e-002
      1.39146835e-001 0. 0. 1.22149535e-001 -4.65564057e-002
      -6.93889390e-017 -6.93889390e-017 -6.93889390e-017
      -6.93889390e-017 9.92573649e-002 5.26110530e-002 0. 0.
      1.22149535e-001 6.84818923e-002 -5.26110530e-002 6.05464727e-003
      6.05464727e-003 6.23438954e-002 5.26110530e-002 0. 0. 0.
      1.22149535e-001 1.22149535e-001 -5.26110530e-002 5.36676385e-002
      7.85818771e-002 1.34871125e-001 5.26110530e-002 0. 0. 0.
      7.55032152e-002 1.03289947e-001 -5.26110530e-002 -6.93889390e-017
      7.85818771e-002 1.74760580e-001 5.26110530e-002 0. 0. 0.
      7.55032152e-002 -5.26110530e-002 -5.26110530e-002 6.05464727e-003
      6.05464727e-003 1.74760580e-001 5.26110530e-002 0. 0.
      3.56137566e-002 6.24272451e-002 -5.26110530e-002 -5.26110530e-002
      -6.93889390e-017 -6.93889390e-017 7.85818771e-002 1.39146835e-001
      0. 0. 3.56137566e-002 6.24272451e-002 -5.26110530e-002
      -6.93889390e-017 9.61787105e-002 -6.93889390e-017 6.05464727e-003
      2.41085310e-002 0. 3.56137566e-002 2.25377828e-002
      -5.26110530e-002 -5.26110530e-002 -6.93889390e-017</_>
    <_>
      5.03069808e-017 5.03069808e-017 5.03069808e-017 5.03069808e-017
      2.40548179e-002 -3.14069577e-002 -1.98743604e-002 4.02795933e-002
      4.02795933e-002 2.40548179e-002 5.03069808e-017 5.03069808e-017
      5.03069808e-017 2.40548179e-002 7.46541768e-002 -1.40207745e-002
      -2.82056024e-003 1.08214617e-001 8.45075995e-002 5.03069808e-017
      5.03069808e-017 5.03069808e-017 5.03069808e-017 8.22940692e-002
      7.87666142e-002 0. 0. 1.22235388e-001 9.81805697e-002
      1.79596543e-002 5.03069808e-017 5.03069808e-017 4.20144722e-002
      4.82672788e-002 4.06273939e-002 0. -6.43344149e-002
      5.79009801e-002 5.79009801e-002 5.79009801e-002 5.03069808e-017
      5.03069808e-017 5.17947339e-002 4.06273939e-002 0.
      -2.40548179e-002 -6.43344149e-002 -3.47799330e-004 1.36729749e-002
      -2.66066194e-002 5.03069808e-017 9.63148400e-002 1.18342675e-001
      4.06273939e-002 0. 0. -9.85283703e-002 1.60671324e-002
      2.37070173e-002 -4.06273939e-002 3.80755924e-002 1.62862778e-001
      1.62862778e-001 4.06273939e-002 0. 0. -1.79596543e-002
      6.33159578e-002 3.99413221e-002 2.59205494e-002 5.60352467e-002
      1.62862778e-001 1.62862778e-001 7.39472881e-002 0.
      -4.02795933e-002 5.74098621e-003 2.45810859e-002 2.45810859e-002
      -5.73470199e-004 5.03069808e-017 9.85283703e-002 9.85283703e-002
      2.84529738e-002 -3.10145188e-002 -6.43344149e-002 -3.47738080e-002
      -1.59337074e-002 -5.59876300e-002 5.03069808e-017 5.03069808e-017
      5.03069808e-017 1.79596543e-002 -5.21157421e-002 -1.11583233e-001
      -4.15078402e-002 -6.71878457e-002 -7.39472881e-002
      -7.39472881e-002 5.03069808e-017</_>
    <_>
      6.07153217e-018 6.07153217e-018 6.07153217e-018 6.07153217e-018
      6.07153217e-018 -8.64139497e-002 7.25473613e-002 1.32087931e-001
      6.07153217e-018 6.07153217e-018 6.07153217e-018 6.07153217e-018
      6.07153217e-018 6.07153217e-018 3.67414393e-002 0. 0.
      8.64139497e-002 6.07153217e-018 6.07153217e-018 6.07153217e-018
      6.07153217e-018 3.67414393e-002 3.67414393e-002 1.18221357e-001 0.
      0. 8.64139497e-002 -4.56739888e-002 6.07153217e-018
      6.07153217e-018 6.07153217e-018 3.67414393e-002 4.35147397e-002
      4.56739888e-002 0. 0. 1.23155385e-001 2.22690925e-002
      -4.56739888e-002 6.07153217e-018 3.67414393e-002 9.41227600e-002
      4.56739888e-002 0. 0. 0. 1.23155385e-001 2.44283415e-002
      -4.56739888e-002 3.67414393e-002 1.00886293e-001 9.62820128e-002
      4.56739888e-002 0. 0. 0. 1.23155385e-001 2.44283415e-002
      -4.56739888e-002 3.67414393e-002 1.00886293e-001 1.68829381e-001
      4.56739888e-002 0. 0. 0. 5.06080203e-002 2.44283415e-002
      -4.56739888e-002 3.67414393e-002 1.00886293e-001 1.68829381e-001
      1.18221357e-001 0. 0. 5.06080203e-002 5.06080203e-002
      5.06080203e-002 2.22690925e-002 6.07153217e-018 6.19856045e-002
      6.41448572e-002 1.35368332e-002 -3.21371555e-002 -1.04684524e-001
      -5.40765002e-002 -1.73350610e-002 5.06080203e-002 7.01023340e-002
      6.07153217e-018 6.07153217e-018 6.07153217e-018 -5.06080203e-002
      -9.62820128e-002 -4.56739888e-002 -1.18221357e-001
      -5.62357493e-002 -5.40765002e-002 6.41448572e-002</_>
    <_>
      4.00333926e-002 4.00333926e-002 4.00333926e-002 4.00333926e-002
      4.00333926e-002 2.67376751e-002 5.80088096e-003 4.00333926e-002
      4.00333926e-002 4.00333926e-002 4.00333926e-002 4.00333926e-002
      4.00333926e-002 4.00333926e-002 4.00333926e-002 0. 4.14348644e-004
      1.32957166e-002 4.00333926e-002 4.00333926e-002 4.00333926e-002
      4.00333926e-002 4.00333926e-002 4.00333926e-002 3.25385556e-002 0.
      0. 1.32957166e-002 1.32957166e-002 4.00333926e-002 4.00333926e-002
      4.00333926e-002 4.00333926e-002 2.67376751e-002 2.67376751e-002 0.
      0. 1.32957166e-002 1.32957166e-002 1.32957166e-002 4.00333926e-002
      4.00333926e-002 3.42325121e-002 2.67376751e-002 0. 0. 0.
      1.32957166e-002 1.32957166e-002 1.32957166e-002 4.00333926e-002
      4.00333926e-002 3.42325121e-002 2.67376751e-002 0. 0. 0.
      1.32957166e-002 1.32957166e-002 1.32957166e-002 4.00333926e-002
      4.00333926e-002 4.00333926e-002 2.67376751e-002 0. 0. 0.
      7.90918432e-003 1.32957166e-002 1.32957166e-002 4.00333926e-002
      4.00333926e-002 4.00333926e-002 3.21242064e-002 0. 0.
      7.49483565e-003 7.90918432e-003 7.90918432e-003 1.32957166e-002
      4.00333926e-002 4.00333926e-002 4.00333926e-002 3.25385556e-002
      5.38653228e-003 0. 7.49483565e-003 7.90918432e-003 7.90918432e-003
      4.00333926e-002 4.00333926e-002 4.00333926e-002 4.00333926e-002
      3.25385556e-002 5.38653228e-003 1.28813684e-002 7.49483565e-003
      7.90918432e-003 7.90918432e-003 4.00333926e-002</_>
    <_>
      -9.06631444e-003 -9.06631444e-003 -7.07744658e-002
      -1.37313336e-001 -2.71308661e-001 -1.80903435e-001
      -3.47613953e-002 4.16333634e-017 4.16333634e-017 4.16333634e-017
      4.16333634e-017 4.16333634e-017 1.60859022e-002 -8.13633353e-002
      -7.22970217e-002 -9.13878083e-002 -1.57710657e-001
      -2.46690791e-002 4.16333634e-017 4.16333634e-017 4.16333634e-017
      2.44010538e-002 3.24821062e-002 -8.45272653e-003 -3.03730331e-002
      -6.25351295e-002 -3.52623649e-002 2.88011003e-002 4.16333634e-017
      4.16333634e-017 -2.47369241e-002 4.61596809e-003 -5.34701794e-002
      -5.34701794e-002 -5.34701794e-002 -2.19203066e-002
      -6.25351295e-002 -1.05307205e-002 -4.97452542e-002
      -7.56051913e-002 -5.61254397e-002 -1.75662577e-001
      -1.27810061e-001 -1.27810061e-001 -5.34701794e-002 0.
      -3.03730331e-002 6.47769272e-002 -7.10775331e-002 -4.97452542e-002
      -6.51917532e-002 -3.77355739e-002 -1.24671765e-001
      -1.56833857e-001 -7.93301165e-002 0. 0. 3.13351192e-002
      -6.40969118e-003 -3.88924405e-002 7.97210410e-002 1.11180969e-001
      2.24285270e-003 -5.06392978e-002 0. 0. 0. 0. 6.05138019e-002
      4.64746356e-002 4.16333634e-017 1.51322484e-001 1.02126800e-001 0.
      0. 0. 0. 0. 2.05598116e-001 3.39486003e-002 4.16333634e-017
      6.25351295e-002 1.08514521e-002 -8.16113502e-002 -9.81583148e-002
      -7.93301165e-002 -7.93301165e-002 -5.46610355e-002 1.66109595e-002
      9.56567526e-002 4.16333634e-017 4.16333634e-017 4.16333634e-017
      -9.51499641e-002 -3.33845139e-001 -2.12895691e-001
      -3.81905138e-002 3.22235823e-002 4.94664386e-002 5.34701794e-002</_>
    <_>
      -1.12638660e-002 -1.12638660e-002 2.72716978e-003 5.23381680e-002
      -5.97767457e-002 -1.78424403e-001 -1.56125113e-017
      -1.56125113e-017 -1.56125113e-017 -1.56125113e-017
      -1.56125113e-017 -1.56125113e-017 -1.05955966e-001
      -1.97077483e-001 -4.57857102e-002 -1.74840033e-001
      -1.33382022e-001 -4.82083112e-003 -1.56125113e-017
      -1.56125113e-017 -1.56125113e-017 -1.22885659e-001
      -1.63728759e-001 -1.02742642e-001 -5.70495762e-002 0.
      -1.20991029e-001 6.64122328e-002 1.36892858e-003 -1.56125113e-017
      -1.56125113e-017 -3.15513641e-001 -8.15202892e-002 0. 0. 0. 0.
      7.14631453e-002 -6.76677302e-002 -6.76677302e-002 -5.38490005e-002
      -1.82540625e-001 0. 0. 0. 0. 0. 1.95566654e-001 -1.41759794e-002
      -6.76677302e-002 4.75126691e-003 4.02804976e-003 0. 0. 0. 0. 0. 0.
      -2.76712887e-002 -5.77727929e-002 1.61342904e-001 1.61342904e-001
      -1.36892858e-003 0. 0. 0. 0. 0. 2.71628425e-002 -1.56125113e-017
      1.02742642e-001 1.27213359e-001 4.36398312e-002 -6.98641315e-002
      0. 0. 0. -8.15202892e-002 1.03076205e-001 -1.56125113e-017
      -1.56125113e-017 1.76208958e-001 1.76208958e-001 -8.61789137e-002
      -9.43348482e-002 -9.57037732e-002 -9.57037732e-002
      -9.30983871e-002 -5.77727929e-002 -1.56125113e-017
      -1.56125113e-017 1.76208958e-001 1.76208958e-001 -3.47176604e-002
      -1.55387878e-001 -1.55387878e-001 -1.68707967e-002 3.79633345e-002
      -5.77727929e-002 -1.56125113e-017</_>
    <_>
      -9.65639669e-003 -9.65639669e-003 -9.65639669e-003
      -3.53428908e-002 -9.16988179e-002 -6.81201369e-002
      -3.32350805e-002 -1.49719473e-002 -1.36609474e-017
      -1.36609474e-017 -1.36609474e-017 -1.36609474e-017
      -5.39088435e-002 -1.01355217e-001 -9.16988179e-002
      -1.01355217e-001 -7.96232969e-002 -3.67318243e-002
      -1.36609474e-017 -1.36609474e-017 -1.36609474e-017
      -4.63602617e-002 -7.95953423e-002 -1.01355217e-001
      -1.01355217e-001 -1.01355217e-001 -8.84220228e-002
      -3.48160006e-002 -1.36609474e-017 -1.36609474e-017 1.59601364e-002
      -1.87326632e-002 -2.94472091e-002 -2.94472091e-002
      -1.31490184e-002 0. 0. 2.93954182e-002 2.15229895e-002
      2.15229895e-002 6.04027174e-002 7.74961011e-003 -7.22233718e-003
      0. 0. 0. 0. 2.17598751e-002 3.27772461e-002 4.56409678e-002
      8.77344329e-003 -1.94110326e-003 -5.69360591e-002 -1.91582437e-003
      0. 0. 0. 0. 1.10173691e-002 4.33612764e-002 -2.43405974e-003
      -2.43405974e-003 -4.59258519e-002 -2.60338020e-002 0. 0. 0. 0.
      4.42524478e-002 4.64051589e-002 -1.36609474e-017 -1.36609474e-017
      -2.03709435e-002 -5.40758222e-002 -4.49999683e-002
      -1.35343680e-002 -5.45017272e-002 -5.45017272e-002 1.35287177e-002
      1.91582437e-003 -1.36609474e-017 -1.36609474e-017 -1.36609474e-017
      -4.21308205e-002 -1.01355217e-001 -1.01355217e-001
      -1.01355217e-001 -7.95953423e-002 -1.07145468e-002
      -1.36609474e-017 -1.36609474e-017 -1.36609474e-017
      -1.36609474e-017 -2.17598751e-002 -1.01355217e-001
      -1.01355217e-001 -4.63602617e-002 -3.13883126e-002
      -1.07145468e-002 -1.36609474e-017</_>
    <_>
      -4.34601642e-002 -4.34601642e-002 -4.34601642e-002
      -1.01396501e-001 -1.96376517e-001 -1.52580544e-001
      -1.00412853e-002 4.16333634e-017 4.16333634e-017 4.16333634e-017
      4.16333634e-017 4.16333634e-017 -4.67010997e-002 -1.43765286e-001
      -1.00305118e-001 -1.43765286e-001 -1.77378163e-001
      -6.96808174e-002 4.16333634e-017 4.16333634e-017 4.16333634e-017
      -9.84728243e-003 -9.71034095e-002 -4.63226549e-002 0.
      -1.17676906e-001 -1.31709084e-001 2.63905730e-002 9.60713923e-002
      9.60713923e-002 -1.00412853e-002 -9.33629721e-002 0. 0. 0. 0. 0.
      4.22284678e-002 1.45974204e-001 4.99028079e-002 -1.20561961e-002
      -7.10150376e-002 0. 0. 0. 0. 0. 1.16342694e-001 3.23274992e-002
      4.99028079e-002 -5.55163585e-002 1.62410941e-002 0. 0. 0. 0. 0. 0.
      -8.40151906e-002 -4.07965714e-003 -4.34601642e-002 5.26112244e-002
      1.00412853e-002 0. 0. 0. 0. -9.60713923e-002 -9.25282612e-002
      4.16333634e-017 4.16333634e-017 9.60713923e-002 9.93123204e-002 0.
      0. 0. -9.60713923e-002 -9.60713923e-002 -5.04023135e-002
      4.16333634e-017 4.16333634e-017 4.16333634e-017 1.43765286e-001
      2.20974814e-002 0. -9.60713923e-002 -1.22159764e-001
      -1.62621826e-001 -5.04023135e-002 4.16333634e-017 4.16333634e-017
      4.16333634e-017 4.16333634e-017 2.74225920e-002 -9.60713923e-002
      -9.60713923e-002 -1.13452695e-001 -1.05918668e-001
      -5.04023135e-002 4.16333634e-017</_>
    <_>
      -5.53320050e-002 -5.53320050e-002 -5.53320050e-002
      -1.68882668e-001 -4.16515619e-001 -1.66617244e-001 1.30176485e-001
      -6.50820211e-002 -1.28369537e-016 -1.28369537e-016
      -1.28369537e-016 -1.28369537e-016 -1.86122194e-001
      -2.49687776e-001 -4.22686711e-002 0. 2.68168319e-002
      1.75895110e-001 1.57775264e-002 -1.28369537e-016 -1.28369537e-016
      -1.47230864e-001 1.93863865e-002 0. 0. 0. 0. 1.75895110e-001
      1.13378204e-001 -1.28369537e-016 -4.42636982e-002 -1.95343003e-001
      0. 0. 0. 0. 0. 1.20563097e-001 1.18234441e-001 -1.47230864e-001
      -2.16518175e-002 -2.59682328e-001 0. 0. 0. 0. 0. 2.80353069e-001
      7.39707425e-002 -4.96301800e-002 -5.53320050e-002 -6.19997736e-003
      6.50820211e-002 0. 0. 0. 0. 0. -2.06382304e-001 7.07838461e-002
      -5.53320050e-002 4.22686711e-002 8.76938999e-002 0. 0. 0. 0.
      -3.19421291e-002 -1.62118614e-001 -1.28369537e-016
      -1.28369537e-016 -1.28369537e-016 1.65776029e-001 0. 0. 0. 0.
      -3.19421291e-002 -2.68168319e-002 -1.28369537e-016
      -1.28369537e-016 -1.28369537e-016 2.49687776e-001 8.76938999e-002
      0. 0. -3.19421291e-002 4.68412563e-002 -2.68168319e-002
      -1.28369537e-016 -1.28369537e-016 -1.28369537e-016
      -1.28369537e-016 1.27684860e-003 -1.74440175e-001 -3.19421291e-002
      2.13350318e-002 1.08068869e-001 -2.68168319e-002 -1.28369537e-016</_>
    <_>
      -2.77555756e-017 -2.77555756e-017 -2.77555756e-017 1.09914556e-001
      0. -1.21111505e-001 1.27066867e-002 -3.03174276e-003
      -2.77555756e-017 -2.77555756e-017 -2.77555756e-017
      -2.77555756e-017 -1.43470511e-001 -6.25866205e-002 0.
      -6.25866205e-002 -1.47528742e-002 -3.03174276e-003
      -2.77555756e-017 -2.77555756e-017 -2.77555756e-017
      -9.66836885e-002 -1.78084940e-001 -2.02512756e-001 0. 0.
      -4.63355556e-002 9.10761878e-002 -2.77555756e-017 -2.77555756e-017
      -8.14012438e-002 -2.88455486e-001 -2.11633340e-001
      -1.17525406e-001 0. 0. 0. 2.90069208e-002 -3.46144252e-002
      -3.46144252e-002 -6.20692633e-002 -1.75053194e-001 0. 0. 0. 0. 0.
      2.02709669e-003 -1.16015665e-001 -3.46144252e-002 -6.20692633e-002
      1.47528742e-002 3.03174276e-003 0. 0. 0. 0. -3.15213054e-002
      -2.57968903e-001 -3.15826833e-002 -2.77555756e-017 1.08404823e-001
      -6.46137223e-002 0. 0. 0. 0. -9.41079259e-002 -1.76567644e-001
      -2.77555756e-017 -2.77555756e-017 1.08404823e-001 3.84110659e-002
      -1.17525406e-001 0. 0. 0. 0. 7.68221393e-002 -2.77555756e-017
      -2.77555756e-017 -2.77555756e-017 1.08404823e-001 -6.51310831e-002
      -1.17525406e-001 0. 0. 0. 7.68221393e-002 1.08404823e-001
      -2.77555756e-017 -2.77555756e-017 -2.77555756e-017
      -1.41953230e-001 -2.11633340e-001 -1.17525406e-001 3.84110734e-002
      -3.10653243e-002 -3.15826833e-002 -2.77555756e-017</_>
    <_>
      8.41340886e-017 8.41340886e-017 8.41340886e-017 -1.38817597e-002
      0. -1.10820774e-002 8.41340886e-017 8.41340886e-017
      8.41340886e-017 8.41340886e-017 8.41340886e-017 8.41340886e-017
      -5.30345440e-002 -5.48115671e-002 0. -2.49638371e-002
      -1.41329542e-001 -2.99371630e-002 8.41340886e-017 8.41340886e-017
      8.41340886e-017 -3.91527861e-002 -5.30345440e-002 -5.48115671e-002
      0. -1.25670761e-001 -1.41329542e-001 -2.99371630e-002
      8.41340886e-017 8.41340886e-017 8.41340886e-017 -1.80482328e-001
      -1.80482328e-001 0. 0. 0. -1.25670761e-001 -6.90899491e-002
      8.41340886e-017 8.41340886e-017 -3.91527861e-002 -8.29717070e-002
      -1.80482328e-001 0. 0. 0. 0. -5.35439327e-003 -1.38817597e-002
      8.41340886e-017 -3.91527861e-002 -3.91527861e-002 -7.26439878e-002
      0. 0. 0. 0. -1.07838333e-001 -1.41329542e-001 8.41340886e-017
      8.41340886e-017 8.41340886e-017 -7.97754005e-002 0. 0. 0. 0.
      -1.55518487e-001 -1.27447784e-001 8.41340886e-017 8.41340886e-017
      2.49638371e-002 -7.52725825e-002 0. 0. 0. 0. -1.80482328e-001
      8.41340886e-017 8.41340886e-017 8.41340886e-017 2.49638371e-002
      8.41340886e-017 3.91527861e-002 0. 0. -5.48115671e-002
      -1.36663407e-001 8.41340886e-017 8.41340886e-017 7.13141402e-003
      2.49638371e-002 8.41340886e-017 5.30345440e-002 0.
      -4.76801507e-002 -7.52725825e-002 -3.91527861e-002 8.41340886e-017
      8.41340886e-017</_>
    <_>
      -3.43615152e-002 -3.43615152e-002 -3.43615152e-002
      -1.16012730e-001 -1.99447855e-001 -1.49265900e-001 5.75740151e-002
      -2.19317283e-002 1.21430643e-017 1.21430643e-017 1.21430643e-017
      1.21430643e-017 -9.00533348e-002 -1.06647171e-001 3.43615152e-002
      0. 9.52475704e-003 7.05083534e-002 1.21430643e-017 1.21430643e-017
      1.21430643e-017 -6.58179969e-002 -1.21509820e-001 -1.06647171e-001
      0. 0. 0. 1.28089428e-001 1.21430643e-017 1.21430643e-017
      -4.66840267e-002 -2.24284604e-001 -2.33809367e-001 0. 0. 0. 0.
      9.37279165e-002 1.10410288e-001 -6.58179969e-002 -4.11869325e-002
      -1.42636836e-001 -1.09336875e-001 0. 0. 0. 0. 1.12299547e-001
      1.12299547e-001 -6.58179969e-002 2.95799393e-002 4.20889892e-002
      2.19317283e-002 0. 0. 0. 0. 0. -4.03165892e-002 -9.52475704e-003
      -1.14573641e-002 9.28006768e-002 2.74288226e-002 0. 0. 0. 0. 0.
      -1.78117543e-001 1.21430643e-017 1.21430643e-017 6.36037672e-003
      1.61411762e-001 0. 0. 0. 0. -9.83105451e-002 -9.52475704e-003
      1.21430643e-017 1.21430643e-017 1.21430643e-017 1.27162188e-001
      2.74288226e-002 0. 0. 0. -1.18749170e-002 -9.52475704e-003
      1.21430643e-017 1.06647171e-001 1.21430643e-017 1.21430643e-017
      -7.62862340e-003 0. 0. 6.02155626e-002 -4.38862704e-002
      -9.52475704e-003 1.21430643e-017</_>
    <_>
      -1.55892968e-002 -1.55892968e-002 -1.55892968e-002
      -6.03146441e-002 -7.29025304e-002 -7.10367858e-002 5.32783084e-002
      2.19577365e-003 1.34274755e-002 5.52935116e-002 6.93889390e-018
      6.93889390e-018 -4.66051064e-002 -8.84918272e-002 -1.86606124e-002
      0. 8.93059559e-003 7.79637545e-002 7.50643536e-002 6.93889390e-018
      6.93889390e-018 -6.15272410e-002 -3.52787375e-002 -3.42499092e-002
      0. 0. 1.21259678e-003 7.79637545e-002 1.02852359e-001
      4.08144407e-002 -2.98032109e-002 -1.50427878e-001 -4.76773866e-002
      0. 0. 0. -6.71659857e-002 8.35640728e-003 4.05253544e-002
      4.05253544e-002 1.31479362e-002 -9.29974541e-002 -3.42499092e-002
      0. 0. -6.96540475e-002 -8.30815211e-002 -2.63516828e-002
      -2.51390859e-002 -3.45389992e-002 -2.44136085e-003 7.36004189e-002
      1.12317018e-002 0. 0. -3.02760676e-002 -8.94248858e-002
      -6.36492372e-002 -1.04127824e-001 -3.34936455e-002 5.40647469e-002
      1.16780929e-001 1.52592668e-002 0. 0. 0. -4.08144407e-002
      -4.08144407e-002 -1.04295269e-001 8.47426336e-003 1.10468484e-001
      1.58145875e-001 8.54222775e-002 0. 0. -1.34274755e-002
      -5.28054535e-002 -6.87209889e-002 4.15707044e-002 8.47426336e-003
      6.93889390e-018 9.09798890e-002 6.52042404e-002 -5.06941229e-002
      -8.30815211e-002 -8.30815211e-002 -8.30815211e-002
      -1.41311046e-002 3.30964439e-002 6.93889390e-018 6.93889390e-018
      6.93889390e-018 4.08144407e-002 -7.75522739e-002 -1.17331430e-001
      -1.17331430e-001 -2.07128003e-002 -5.02955392e-002
      -7.71799870e-003 6.93889390e-018</_>
    <_>
      -2.41256375e-002 -2.41256375e-002 -2.88088880e-002
      -5.59918024e-002 -1.21803828e-001 -3.94339263e-002 1.06080130e-001
      7.83596858e-002 -3.46944695e-018 -3.46944695e-018 -3.46944695e-018
      -3.46944695e-018 -7.33710676e-002 -1.45929471e-001
      -5.42340539e-002 0. 3.09721790e-002 3.54126394e-002
      -3.46944695e-018 -3.46944695e-018 -3.46944695e-018
      -6.07046448e-002 -3.20606306e-002 -7.83596858e-002 0. 0.
      4.71284380e-003 3.54126394e-002 -3.46944695e-018 -3.46944695e-018
      -3.98493372e-002 -1.19670130e-001 -7.83596858e-002
      -2.63575856e-002 0. 0. 0. 7.41439313e-002 -1.07362065e-002
      -5.03849722e-002 -4.71284380e-003 -5.50810397e-002
      -2.63575856e-002 0. 0. 0. 0. 5.19058891e-002 -2.33043823e-002
      -5.03849722e-002 3.87312956e-002 6.55026957e-002 0. 0. 0. 0. 0.
      5.60682919e-003 -7.52102733e-002 -3.18661630e-002 4.34441417e-002
      9.64748710e-002 3.89257595e-002 0. 0. 0. 0. 0. -3.62845100e-002
      1.43198110e-002 6.75697774e-002 1.06280699e-001 8.65856558e-002 0.
      0. 0. -1.99266393e-002 0. 1.14063300e-001 3.40419374e-002
      -3.46944695e-018 1.23533374e-002 3.31040956e-002 -6.35799393e-002
      -1.07218541e-001 -1.07218541e-001 -1.07218541e-001 3.29828518e-003
      9.50602368e-002 4.60797139e-002 -3.46944695e-018 -3.46944695e-018
      -3.46944695e-018 -5.19058891e-002 -1.45929471e-001
      -1.45929471e-001 -6.07046448e-002 -4.83513102e-002 1.24515872e-002
      3.87109220e-002</_>
    <_>
      3.44681218e-002 3.44681218e-002 3.71410176e-002 0. 1.95239317e-002
      0. 4.69029844e-002 7.00211376e-002 7.12199062e-002 7.12199062e-002
      7.12199062e-002 4.23667245e-002 1.19876524e-003 0. 1.95239317e-002
      0. 1.16253309e-002 7.00211376e-002 7.12199062e-002 7.12199062e-002
      7.12199062e-002 1.72278509e-002 0. 0. 0. 0. 0. 7.00211376e-002
      7.12199062e-002 7.12199062e-002 3.52776535e-002 0. 0. 0. 0. 0. 0.
      5.04972078e-002 2.16440260e-002 2.16440260e-002 4.23667245e-002
      1.19876524e-003 0. 0. 0. 0. 0. 2.16440260e-002 2.16440260e-002
      2.16440260e-002 5.16959727e-002 1.19876524e-003 1.19876524e-003 0.
      0. 0. 0. 2.16440260e-002 0. 3.79505455e-002 5.16959727e-002
      3.00519466e-002 1.19876524e-003 0. 0. 0. 0. 0. 0. 4.95758764e-002
      7.12199062e-002 7.12199062e-002 1.19876524e-003 0. 0. 0. 0. 0.
      3.23480256e-002 4.95758764e-002 7.12199062e-002 7.12199062e-002
      4.95758764e-002 1.19876524e-003 0. 0. 0. 0. 4.50396165e-002
      7.12199062e-002 7.12199062e-002 7.12199062e-002 7.12199062e-002
      4.95758764e-002 0. 0. 0. 1.19876524e-003 5.95945716e-002
      7.12199062e-002</_>
    <_>
      1.52655666e-016 1.52655666e-016 1.15670182e-001 1.66998923e-001
      1.73055723e-001 1.46563649e-001 6.60742521e-002 1.52655666e-016
      1.52655666e-016 1.52655666e-016 1.52655666e-016 1.52655666e-016
      -1.35662600e-001 -7.23709911e-002 3.92746143e-002 1.83029026e-002
      6.69472367e-002 1.52655666e-016 1.52655666e-016 1.52655666e-016
      1.52655666e-016 -2.03632429e-001 -2.20393121e-001 -2.87203081e-002
      2.99679697e-004 1.00571312e-001 -1.09718191e-002 6.79502711e-002
      1.52655666e-016 1.52655666e-016 1.52655666e-016 -2.03632429e-001
      -1.39724405e-003 1.16410173e-001 3.11562084e-002 0.
      1.00571312e-001 5.72518632e-002 1.52655666e-016 1.52655666e-016
      1.52655666e-016 -1.56027108e-001 1.87852323e-001 1.87852323e-001
      1.32430866e-001 0. 1.00571312e-001 1.00571312e-001 1.63081765e-001
      1.52655666e-016 9.91064757e-002 -6.24239212e-003 1.48176640e-001
      1.18901916e-001 3.11562084e-002 0. 0. 1.00571312e-001
      -3.18668075e-002 -4.39500697e-002 4.28271554e-002 5.40403873e-002
      1.00571312e-001 1.00571312e-001 0. 0. 0. 0. -2.49010008e-002
      -1.38293266e-001 8.60692635e-002 -4.89440151e-002 6.25991151e-002
      -9.91064757e-002 -1.70756243e-002 0. 0. -1.08991452e-001
      -2.76533514e-001 -4.71769013e-002 1.52655666e-016 1.57258600e-001
      4.02808785e-002 -1.79607153e-003 5.97416870e-002 4.28589573e-003
      2.07667537e-002 -2.93808114e-002 -2.03204006e-001 -3.11562084e-002
      1.52655666e-016 1.66998923e-001 1.66998923e-001 5.13287373e-002
      1.02006972e-001 5.88451810e-002 -1.79797821e-002 -1.68144494e-001
      -1.31727517e-001 -3.11562084e-002</_>
    <_>
      6.93889390e-018 6.93889390e-018 6.93889390e-018 6.93889390e-018
      6.93889390e-018 6.93889390e-018 6.93889390e-018 6.93889390e-018
      6.93889390e-018 6.93889390e-018 6.93889390e-018 6.93889390e-018
      -1.00338481e-001 -1.37722373e-001 -1.37722373e-001
      -1.00338481e-001 6.93889390e-018 6.93889390e-018 6.93889390e-018
      6.93889390e-018 6.93889390e-018 -1.57505959e-001 -1.57505959e-001
      -1.57505959e-001 -1.57505959e-001 -1.57505959e-001
      -1.37722373e-001 6.93889390e-018 6.93889390e-018 6.93889390e-018
      3.43830809e-002 1.62001047e-002 -4.76073101e-002 -4.76073101e-002
      -1.09585430e-002 0. 6.38074204e-002 7.26324618e-002
      3.49319130e-002 2.76876278e-002 9.98784974e-002 5.37810177e-002
      5.37810177e-002 9.04297903e-002 0. 0. 6.38074204e-002
      6.38074204e-002 8.35910067e-002 1.26413479e-001 4.76073101e-002
      1.85531788e-002 -3.59836929e-002 4.72925901e-002 4.72925901e-002
      0. 0. 6.38074204e-002 6.38074204e-002 5.59033751e-002
      3.66487689e-002 1.68651808e-002 -1.20857194e-001 -2.09786966e-002
      0. 0. 0. 0. 6.38074204e-002 6.68082312e-002 6.93889390e-018
      -6.38074204e-002 -1.30883589e-001 -1.33884400e-001
      -1.32393420e-001 -6.69545401e-003 -7.10318536e-002
      -7.10318536e-002 -7.10318536e-002 6.93889390e-018 6.93889390e-018
      -6.38074204e-002 -6.38074204e-002 -6.38074204e-002
      -6.38074204e-002 -8.35910067e-002 -8.35910067e-002
      -8.35910067e-002 -8.35910067e-002 6.93889390e-018 6.93889390e-018
      6.93889390e-018 6.93889390e-018 6.93889390e-018 6.93889390e-018
      6.93889390e-018 6.93889390e-018 -6.38074204e-002 -6.38074204e-002
      6.93889390e-018</_>
    <_>
      2.08166817e-017 2.08166817e-017 2.08166817e-017 2.08166817e-017
      2.08166817e-017 2.08166817e-017 2.08166817e-017 2.08166817e-017
      2.08166817e-017 2.08166817e-017 2.08166817e-017 2.08166817e-017
      -2.29393635e-002 -6.21817522e-002 -6.21817522e-002
      -2.29393635e-002 -2.02990919e-002 2.08166817e-017 2.08166817e-017
      2.08166817e-017 2.08166817e-017 -8.77926871e-002 -1.08091779e-001
      -5.74964471e-002 3.93597819e-002 -6.30068257e-002 -6.21817522e-002
      1.12826295e-001 1.12826295e-001 8.35801512e-002 2.08166817e-017
      -2.25236528e-002 -1.58585664e-002 -1.58585664e-002
      -3.61576565e-002 -3.61576565e-002 5.31321578e-002 3.87105346e-002
      1.50023296e-001 1.33361399e-001 2.08166817e-017 -3.92523557e-002
      5.99084012e-002 9.60660577e-002 2.02990919e-002 0. 9.24956650e-002
      9.24956650e-002 8.24030712e-002 1.21645458e-001 3.20585421e-003
      7.58472905e-002 1.54708952e-001 1.15466565e-001 7.89419860e-002 0.
      0. 7.55174384e-002 -7.84279429e-004 -1.61652807e-002
      2.83893244e-003 1.14840150e-001 9.24956650e-002 9.24956650e-002 0.
      0. -3.20585421e-003 -1.78095326e-001 -1.21757321e-001
      -1.45151109e-001 -3.66921682e-004 1.99637059e-002 -5.72755374e-003
      -2.01840848e-002 -2.01840848e-002 -7.75369480e-002
      -1.78095326e-001 -1.80052340e-001 -2.76889175e-001 2.08166817e-017
      1.95701350e-003 -2.70918645e-002 3.55443135e-002 1.19124465e-001
      1.19124465e-001 -3.96118611e-002 -3.96118611e-002 -1.74930274e-001
      -1.38405696e-001 2.08166817e-017 2.08166817e-017 3.61576565e-002
      3.61576565e-002 9.91607532e-002 9.91607532e-002 1.35318413e-001
      -3.45675647e-002 -1.29020244e-001 -9.24956650e-002 2.08166817e-017</_>
    <_>
      -6.93889390e-018 -6.93889390e-018 -6.93889390e-018
      -6.93889390e-018 -2.02335119e-002 6.09236211e-002 8.11571330e-002
      -6.93889390e-018 -6.93889390e-018 -6.93889390e-018
      -6.93889390e-018 -6.93889390e-018 -1.52021974e-001
      -1.72343813e-002 4.56648087e-003 7.29278252e-002 1.54551134e-001
      2.24949792e-001 2.25134231e-002 -6.93889390e-018 -6.93889390e-018
      -8.19895416e-002 -5.41973896e-002 4.34695035e-002 4.34695035e-002
      4.37020510e-002 4.40682806e-002 2.04716280e-001 6.20152242e-002
      -6.93889390e-018 -6.93889390e-018 -6.62887320e-002 7.03986660e-002
      5.86509258e-002 2.02335119e-002 0. 4.37020510e-002 1.16949111e-001
      7.50735998e-002 -6.93889390e-018 -6.93889390e-018 -1.33089647e-002
      1.09182172e-001 1.09182172e-001 7.03986660e-002 0. 4.34695035e-002
      4.37020510e-002 6.37329593e-002 3.07593159e-002 -6.93889390e-018
      -8.43240507e-003 1.06616929e-001 1.06849477e-001 5.78355379e-002
      0. 0. 4.34695035e-002 -5.83832301e-002 -1.83337368e-002
      -6.90149069e-002 -3.37452590e-002 7.25615919e-002 7.25615919e-002
      2.88595408e-002 0. 0. -1.04764355e-002 -1.14173971e-001
      -7.95073733e-002 -6.05804659e-003 -1.12716958e-001 1.81010719e-002
      0. 0. 0. 0. -2.69861966e-002 -2.18891755e-001 -3.22137959e-002
      -6.93889390e-018 -4.37020510e-002 3.21831703e-002 8.33733007e-002
      7.95073733e-002 7.91411474e-002 2.65480275e-003 -1.43840332e-002
      -7.60495290e-002 -2.04660613e-002 -6.93889390e-018
      -6.93889390e-018 -6.93889390e-018 1.04536936e-001 1.27282903e-001
      8.52740481e-002 3.05571761e-002 -1.29123256e-002 -6.39355630e-002
      -2.02335119e-002</_>
    <_>
      -3.46944695e-017 -3.46944695e-017 -3.46944695e-017 1.22782655e-001
      1.99019626e-001 6.05668575e-002 6.65847957e-002 -3.46944695e-017
      -3.46944695e-017 -3.46944695e-017 -3.46944695e-017
      -3.46944695e-017 -1.81679770e-001 -6.12925589e-002 6.33714646e-002
      1.07111193e-001 8.70302245e-002 5.94261587e-002 -3.46944695e-017
      -3.46944695e-017 -3.46944695e-017 -9.81487557e-002
      -1.86697245e-001 -1.84285477e-001 1.71017647e-002 1.09252356e-001
      -6.10105181e-003 2.80706789e-002 -3.46944695e-017 -3.46944695e-017
      -3.46944695e-017 -9.81487557e-002 -8.70302245e-002 2.67105661e-002
      4.84270602e-002 0. 1.09252356e-001 -2.78292447e-002
      -3.46944695e-017 -3.46944695e-017 -3.46944695e-017
      -1.11874394e-001 5.70511520e-002 1.17590189e-001 8.85484889e-002
      0. 1.09252356e-001 -7.40530193e-002 -4.84270602e-002
      -3.46944695e-017 -3.46944695e-017 -9.74970870e-003 1.43460315e-002
      7.72805139e-002 4.84270602e-002 0. 0. 4.63178717e-002
      -1.75901756e-001 -4.84270602e-002 -7.48850703e-002 2.22221296e-002
      4.39061038e-002 4.63178717e-002 0. 0. 0. -5.56615628e-002
      -1.43049583e-001 -9.11705270e-002 -1.07954936e-002
      -6.61619827e-002 -8.70302245e-002 -1.08993918e-001
      -1.44315604e-002 0. 0. -4.85029258e-002 -1.21135555e-001
      -4.77939285e-003 -3.46944695e-017 -1.09252356e-001 3.23040556e-004
      -6.37665391e-002 -1.54279443e-002 7.41169304e-002 8.85484889e-002
      -3.60209914e-003 1.32165884e-003 1.15591496e-001 -3.46944695e-017
      -3.46944695e-017 -3.46944695e-017 -3.46944695e-017 1.20370887e-001
      1.11942880e-001 2.02818334e-001 -1.35798827e-001 -1.57679409e-001
      -4.84270602e-002</_>
    <_>
      -4.85722573e-017 -4.85722573e-017 -4.85722573e-017
      -4.85722573e-017 1.57617331e-001 8.84285122e-002 -4.85722573e-017
      -4.85722573e-017 -4.85722573e-017 -4.85722573e-017
      -4.85722573e-017 -4.85722573e-017 -6.47507459e-002
      -2.13460177e-002 7.07018152e-002 2.72970870e-002 -4.27703597e-002
      -4.85722573e-017 -4.85722573e-017 4.90718260e-002 -4.85722573e-017
      -4.69869375e-002 -1.00966625e-001 1.72940176e-002 6.02700226e-002
      -4.75588255e-002 -8.57746974e-002 -3.61931883e-003
      -4.85722573e-017 -4.85722573e-017 -4.85722573e-017
      -5.81962615e-002 -1.18466280e-001 4.27703597e-002 3.61931883e-003
      0. -4.75588255e-002 -6.37943074e-002 -4.85722573e-017
      -4.85722573e-017 -4.85722573e-017 -7.07018152e-002
      -7.07018152e-002 8.57746974e-002 4.27703597e-002 0.
      6.02700226e-002 -4.75588255e-002 -2.46432684e-002 -4.85722573e-017
      -4.85722573e-017 -7.07018152e-002 -6.44003451e-002 3.79498415e-002
      4.39684885e-003 0. 0. 1.11981938e-002 -6.85544461e-002
      -2.46432684e-002 -2.19803844e-002 -2.67405193e-002
      -4.06854711e-002 7.14793429e-002 7.77530309e-004 0. 0.
      -9.20478329e-002 -1.00966625e-001 -4.27703597e-002
      -2.19803844e-002 -2.82535218e-002 -4.83705066e-002 0. 0. 0. 0.
      -1.61236644e-001 -1.39256254e-001 -1.40511114e-002
      -4.85722573e-017 -1.51300197e-003 -4.43879031e-002 6.77769184e-002
      6.77769184e-002 6.30167797e-002 -2.90310513e-002 -9.82198641e-002
      -7.90812671e-002 -1.40511114e-002 -4.85722573e-017 6.91888109e-002
      -4.85722573e-017 1.50804847e-001 1.61236644e-001 5.87570183e-002
      -3.24121788e-002 -9.26821977e-002 -7.43211359e-002
      -3.61931883e-003</_>
    <_>
      -4.33680869e-017 -4.33680869e-017 -4.33680869e-017
      -4.33680869e-017 -1.22235036e-002 5.55839622e-003 8.27630237e-002
      -4.33680869e-017 -4.33680869e-017 -4.33680869e-017
      -4.33680869e-017 -4.33680869e-017 -1.11175157e-001
      -4.48323339e-002 3.33878174e-002 4.98080142e-002 1.01549193e-001
      9.60020497e-002 -4.33680869e-017 -4.33680869e-017 -4.33680869e-017
      -5.17411828e-002 -1.27595350e-001 -4.48323339e-002 3.33878174e-002
      3.33878174e-002 3.33878174e-002 1.48759663e-001 1.12059237e-002
      -4.33680869e-017 -4.33680869e-017 -6.81613833e-002
      -1.01549193e-001 3.37514728e-002 1.22235036e-002 0.
      3.33878174e-002 8.51290002e-002 9.60020497e-002 -4.33680869e-017
      -4.33680869e-017 -3.33878174e-002 3.46723245e-005 8.27976987e-002
      5.94339743e-002 0. 3.33878174e-002 3.33878174e-002 1.06656969e-001
      -4.33680869e-017 6.49811253e-002 4.24316861e-002 6.12178594e-002
      6.12178594e-002 2.86437012e-002 0. 0. 3.33878174e-002
      1.56059172e-002 -2.86437012e-002 -3.35917361e-002 3.10218409e-002
      4.98080142e-002 4.98080142e-002 1.64201986e-002 0. 0. 0.
      -1.27595350e-001 -5.94339743e-002 -4.33680869e-017
      -6.69795498e-002 7.58541748e-002 0. 0. 0. 0. -6.49811253e-002
      -1.60983175e-001 -3.79060060e-002 -4.33680869e-017
      -3.33878174e-002 3.29550095e-002 6.63774982e-002 5.94339743e-002
      5.94339743e-002 5.94339743e-002 -3.12296525e-002 -7.12938234e-002
      -1.22235036e-002 8.94260705e-002 -4.33680869e-017 -4.33680869e-017
      6.49811253e-002 1.60983175e-001 1.16185509e-001 4.42608669e-002
      -8.51290002e-002 -4.56113182e-002 -1.22235036e-002</_>
    <_>
      -1.73472348e-017 -1.73472348e-017 -1.73472348e-017
      -1.73472348e-017 3.26721892e-002 6.20264262e-002 8.65222588e-002
      2.93542352e-002 2.93542352e-002 5.71680218e-002 -1.73472348e-017
      -1.73472348e-017 -1.24241643e-001 -6.70736209e-002
      -1.68067999e-002 4.75137345e-002 1.01895638e-001 1.71755373e-001
      7.17110485e-002 -1.73472348e-017 -1.73472348e-017 -6.34250566e-002
      -1.04398347e-001 -2.58499514e-002 3.84705812e-002 8.11200440e-002
      9.01631936e-002 1.89909011e-001 1.57236814e-001 7.39051448e-003
      -1.73472348e-017 -6.34250566e-002 -6.64644912e-002 6.98597357e-002
      2.44958326e-002 0. 9.96215828e-003 6.11947551e-002 1.02168046e-001
      1.14360504e-001 -1.73472348e-017 -5.99471368e-002 4.77286503e-002
      1.12049185e-001 6.98597357e-002 -7.06900954e-002 -1.89242866e-002
      -1.03930555e-001 3.53154056e-002 3.04569993e-002 1.35220699e-002
      5.99211082e-002 5.43819033e-002 5.43819033e-002 3.66882905e-002
      -2.88864449e-002 -1.14360504e-001 -3.32404636e-002
      -3.34595367e-002 -3.66882905e-002 7.11501092e-002 1.63172245e-001
      8.11200440e-002 8.11200440e-002 0. 0. -7.39051448e-003
      -7.39051448e-003 -2.63148006e-002 -2.67748162e-002 7.85406232e-002
      9.10953507e-002 6.98597357e-002 0. 0. -2.93542352e-002
      -7.11578876e-002 -1.00044332e-001 -5.78548834e-002 3.98247018e-002
      -1.73472348e-017 6.21269122e-002 1.99374650e-002 1.99374650e-002
      -8.94897990e-003 -1.79921314e-002 -6.06415905e-002
      -6.06415905e-002 -1.07268512e-001 -2.44958326e-002 1.35220699e-002
      1.35220699e-002 7.39051448e-003 7.39051448e-003 7.39051448e-003
      7.39051448e-003 -3.47989313e-002 -1.23309486e-001 -1.05615877e-001
      -2.44958326e-002</_>
    <_>
      6.24500451e-017 6.24500451e-017 6.24500451e-017 6.24500451e-017
      -5.40418103e-002 6.35211617e-002 2.63339609e-001 1.65563017e-001
      6.24500451e-017 6.24500451e-017 6.24500451e-017 -4.82751150e-003
      -1.43735275e-001 -1.43735275e-001 -2.61722971e-002 1.19604349e-001
      1.66520625e-001 1.65563017e-001 6.24500451e-017 6.24500451e-017
      6.24500451e-017 -8.77033621e-002 -1.01751603e-001 -1.01751603e-001
      6.38114214e-002 6.38114214e-002 1.39390722e-001 1.11521214e-001
      6.24500451e-017 6.24500451e-017 6.24500451e-017 -9.78816971e-002
      -4.41301465e-002 3.88288544e-003 5.40418103e-002 0.
      6.38114214e-002 1.61693126e-001 8.08028802e-002 6.24500451e-017
      6.24500451e-017 9.65642370e-003 6.88228533e-002 1.26652062e-001
      1.16605364e-001 0. 6.38114214e-002 6.38114214e-002 2.96970122e-002
      6.24500451e-017 1.17562972e-001 9.44165736e-002 2.71299034e-002
      4.21357490e-002 5.88693209e-002 0. 0. 6.38114214e-002
      -6.04574531e-002 -6.90476522e-002 9.52605829e-002 1.31098092e-001
      6.38114214e-002 6.38114214e-002 0. 0. 0. 0. -8.06824863e-002
      -1.80486873e-001 1.12343781e-001 1.16162322e-001 1.16605364e-001
      0. 0. 0. -3.14841792e-002 0. 5.21918805e-003 -3.29597108e-002
      6.24500451e-017 -3.68804857e-002 1.09020276e-002 -6.18117629e-003
      -2.11870223e-002 -8.17604810e-002 -8.17604810e-002
      -1.90907810e-002 1.82748791e-002 6.80649653e-002 6.24500451e-017
      6.24500451e-017 6.24500451e-017 6.24500451e-017 6.24500451e-017
      -1.70832034e-002 -2.23023929e-002 -7.90162310e-002
      -5.29264398e-002 3.07183377e-002</_>
    <_>
      5.32851182e-002 5.32851182e-002 5.32851182e-002 5.32851182e-002
      4.14952673e-002 4.14952673e-002 5.32851182e-002 5.32851182e-002
      5.32851182e-002 5.32851182e-002 5.32851182e-002 2.90353857e-002
      9.86125227e-003 9.86125227e-003 9.86125227e-003 1.26405936e-002
      4.14952673e-002 5.32851182e-002 5.32851182e-002 5.32851182e-002
      2.90353857e-002 2.16511060e-002 0. 0. 0. 9.86125227e-003
      1.26405936e-002 4.14952673e-002 5.32851182e-002 5.32851182e-002
      5.32851182e-002 1.17898528e-002 1.17898528e-002 1.17898528e-002
      1.17898528e-002 0. 9.86125227e-003 1.39523828e-002 4.99919690e-002
      5.32851182e-002 5.32851182e-002 3.73513773e-002 3.60395871e-002
      3.60395871e-002 1.17898528e-002 0. 0. 9.86125227e-003
      3.82021181e-002 4.99919690e-002 5.32851182e-002 4.06445265e-002
      2.88546737e-002 3.87159251e-002 1.50830029e-002 0. 0. 0.
      1.26405936e-002 3.82021181e-002 5.19733317e-002 2.49442551e-002
      9.86125227e-003 3.41109857e-002 0. 0. 0. 0. 0. 1.11730415e-002
      2.90353857e-002 1.50830029e-002 1.17898528e-002 0. 0. 0. 0. 0. 0.
      7.38428021e-003 5.32851182e-002 4.34238687e-002 1.91741325e-002
      1.78623442e-002 1.78623442e-002 1.50830029e-002 1.50830029e-002
      1.50830029e-002 4.60493937e-003 7.38428021e-003 5.32851182e-002
      5.32851182e-002 5.32851182e-002 4.34238687e-002 5.32851182e-002
      1.78623442e-002 1.78623442e-002 1.50830029e-002 7.38428021e-003
      4.14952673e-002</_>
    <_>
      -1.21430643e-017 -1.21430643e-017 -2.64660735e-002
      -3.98448221e-002 -7.92398229e-002 -1.24792799e-001
      -5.83810844e-002 -1.21430643e-017 -1.21430643e-017
      -1.21430643e-017 -1.21430643e-017 -1.21430643e-017
      -2.64660735e-002 -3.98448221e-002 -1.06256537e-001
      -1.39086246e-001 -1.12369619e-001 -1.21430643e-017
      -1.21430643e-017 -1.21430643e-017 -1.21430643e-017
      -1.21430643e-017 -2.64660735e-002 -1.32850543e-001
      -1.60117820e-001 -1.78931072e-001 -1.47918895e-001
      -8.90102461e-002 -1.21430643e-017 -1.21430643e-017 3.15218046e-002
      4.70096990e-002 -1.02076335e-002 -9.69650298e-002 -2.79610301e-003
      0. 0. 3.57456692e-002 6.64781556e-002 5.80849759e-002
      7.14920163e-002 8.69799033e-002 -9.19511691e-002 0. 0. 0. 0. 0.
      9.99418199e-002 8.41838047e-002 3.89156602e-002 2.40715668e-002
      -5.54028787e-002 -4.54611192e-003 0. 0. 0. 0. 4.60805371e-002
      1.30091265e-001 -1.58986412e-002 -4.71350849e-002 -8.69799033e-002
      -2.22517643e-002 0. 0. 0. 0. 1.08800761e-001 1.12479225e-001
      -1.88132636e-002 -5.89086488e-002 -8.53747204e-002
      -5.83990254e-002 -8.80646408e-002 -1.53651452e-002
      -1.27320036e-001 -7.19321445e-002 1.58581417e-002 4.54611192e-003
      -1.21430643e-017 -4.43646275e-002 -3.98448221e-002
      -4.07595299e-002 -4.52793352e-002 -4.52793352e-002
      -5.87502792e-002 -2.64660735e-002 -1.21430643e-017
      -1.21430643e-017 -1.21430643e-017 -2.64660735e-002
      -2.64660735e-002 -1.21430643e-017 -1.42934555e-002
      -1.88132636e-002 -4.51980717e-003 -1.21430643e-017
      -1.21430643e-017 -1.21430643e-017</_>
    <_>
      3.46944695e-017 3.46944695e-017 -9.78533253e-002 -2.56227612e-001
      -1.91325799e-001 -5.61086982e-002 -2.57804859e-002 3.46944695e-017
      3.46944695e-017 3.46944695e-017 3.46944695e-017 3.46944695e-017
      7.27817714e-002 -8.82158130e-002 -1.18544027e-001 -1.69733152e-001
      -3.07416767e-001 3.46944695e-017 3.46944695e-017 3.46944695e-017
      3.46944695e-017 1.70635104e-001 7.27817714e-002 -9.07913223e-003
      3.60510238e-002 -3.04356873e-001 -1.69733152e-001 3.95634584e-002
      6.53439462e-002 1.13734327e-001 3.46944695e-017 1.83730766e-001
      9.21597183e-002 -1.40294090e-001 -1.29248366e-001 -1.29248366e-001
      -1.40294090e-001 1.08312041e-001 2.32623816e-001 1.48561940e-001
      3.46944695e-017 1.86947852e-001 -1.40294090e-001 0. 0. 0. 0. 0.
      6.75153658e-002 2.15378478e-001 -2.57804859e-002 1.14070617e-001
      0. 0. 0. 0. 0. 0. 3.86615172e-002 9.23530236e-002 -7.28772357e-002
      9.15710479e-002 1.05291151e-001 0. 0. 0. 0. -1.94776490e-001
      -4.47783470e-002 3.46944695e-017 -9.44832489e-002 5.42460755e-002
      1.26848156e-002 2.57804859e-002 3.03282142e-002 -6.99964389e-002
      -1.83730766e-001 -2.81550195e-002 -5.69664733e-003 3.46944695e-017
      -4.71135788e-003 -6.16560504e-002 1.08247101e-001 4.56363149e-002
      4.56363149e-002 -1.97076313e-002 -5.97509295e-002 -1.03549972e-001
      3.46944695e-017 3.46944695e-017 1.10457251e-002 -6.85470328e-002
      -6.85470328e-002 1.72628939e-001 -1.47618977e-002 1.14486471e-001
      3.69784944e-002 -5.69664733e-003 3.46944695e-017 3.46944695e-017</_>
    <_>
      4.16333634e-017 4.16333634e-017 -3.51654030e-002 -1.65011510e-001
      -1.89236194e-001 -2.01017912e-002 5.46717197e-002 4.16333634e-017
      4.16333634e-017 4.16333634e-017 4.16333634e-017 4.16333634e-017
      -3.51654030e-002 -1.81657039e-002 5.57771102e-002 7.14364424e-002
      1.30826533e-001 3.95606846e-001 4.16333634e-017 4.16333634e-017
      4.16333634e-017 4.16333634e-017 1.10005103e-001 1.24156952e-001
      7.50116184e-002 0. 7.14364424e-002 2.05838144e-001
      -2.72922609e-002 4.16333634e-017 4.16333634e-017 6.62828088e-002
      1.96833432e-001 0. 0. 0. 0. 1.46448061e-001 1.21424064e-001
      -9.35750678e-002 4.16333634e-017 6.62828088e-002 0. 0. 0. 0. 0. 0.
      6.50603995e-002 -2.72922609e-002 -4.70483005e-002 -1.04922444e-001
      0. 0. 0. 0. 0. 0. -1.07585184e-001 6.27318844e-002
      -1.71205252e-001 -1.04922444e-001 9.35750678e-002 0. 0. 0. 0.
      -4.06958684e-002 -1.42226085e-001 4.16333634e-017 -7.50116184e-002
      -1.34401709e-001 -5.52638853e-003 9.61936340e-002 0. 0. 0.
      -5.86515944e-003 -3.62710431e-002 4.16333634e-017 4.16333634e-017
      -1.98773429e-001 8.81794468e-002 1.55583724e-001 1.55583724e-001
      2.05661416e-001 -2.54935324e-002 9.65663865e-002 4.16333634e-017
      4.16333634e-017 4.16333634e-017 -1.65011510e-001 -1.65011510e-001
      1.08899459e-001 3.38878445e-002 5.67201711e-002 6.54489771e-002
      6.54489771e-002 4.16333634e-017 4.16333634e-017</_>
    <_>
      -4.16333634e-017 -4.16333634e-017 -4.16333634e-017 5.37134670e-002
      2.40063459e-001 -1.08891562e-001 3.81892771e-002 -4.16333634e-017
      -4.16333634e-017 -4.16333634e-017 -4.16333634e-017
      -4.16333634e-017 -4.16333634e-017 5.37134670e-002 7.09203333e-002
      5.69891483e-002 9.14607272e-002 2.30290350e-002 -4.16333634e-017
      -4.16333634e-017 -4.16333634e-017 -4.16333634e-017
      -4.16333634e-017 -1.50179759e-001 -2.93058213e-002 0.
      3.10223848e-002 4.39568982e-002 -4.16333634e-017 -4.16333634e-017
      -4.16333634e-017 -4.16333634e-017 -4.59160171e-002
      -1.07764885e-001 0. 0. 0. -5.88757470e-002 -4.16333634e-017
      -4.16333634e-017 -4.16333634e-017 -4.16333634e-017
      -6.65378496e-002 0. 0. 0. 0. -2.27256283e-001 -4.72359061e-002
      -4.16333634e-017 -1.12185227e-002 -3.75099741e-002
      -6.65378496e-002 0. 0. 0. 0. -6.65378496e-002 -2.11573765e-001
      -4.16333634e-017 -2.06842840e-001 -1.80644155e-001
      -1.51273698e-001 -6.65378496e-002 0. 0. 0. -2.01289520e-001
      -2.21938610e-001 -1.14652112e-001 -1.50133714e-001
      -4.12391983e-002 -2.23979592e-001 -6.61988854e-002 1.98676363e-002
      0. 0. 1.72295943e-001 6.69856742e-002 9.52868387e-002
      -9.00042523e-003 -3.06392938e-001 -3.10223848e-002
      -4.88891378e-002 -1.43749733e-002 2.27246240e-001 2.27246240e-001
      2.05600962e-001 2.56005257e-001 2.56005257e-001 -4.16333634e-017
      -1.82740390e-001 -1.82740390e-001 -1.82740390e-001
      -3.98887135e-002 4.67486903e-002 2.67667174e-001 -2.49596890e-002
      -4.16333634e-017 -4.16333634e-017</_>
    <_>
      -6.93889390e-018 -6.93889390e-018 -6.93889390e-018
      -9.07843113e-002 6.28361478e-002 6.49840832e-002 -6.93889390e-018
      -6.93889390e-018 -6.93889390e-018 -6.93889390e-018
      -6.93889390e-018 -6.93889390e-018 -6.93889390e-018
      -9.32377297e-003 5.56603074e-002 9.32377297e-003 -6.28361478e-002
      -6.93889390e-018 -6.93889390e-018 6.48720041e-002 -6.93889390e-018
      -6.93889390e-018 -6.93889390e-018 -2.12636702e-002 5.56603074e-002
      -1.46332547e-001 -1.59332201e-001 -7.17584044e-003
      -6.93889390e-018 -6.93889390e-018 -6.93889390e-018
      -6.93889390e-018 -9.07843113e-002 0. 0. 0. -1.47708550e-001
      -1.03671901e-001 -6.93889390e-018 -6.93889390e-018
      -6.93889390e-018 -6.93889390e-018 -2.50116527e-001 0. 0. 0. 0.
      -1.54412746e-001 -7.81879127e-002 -6.93889390e-018
      -6.93889390e-018 -6.28361478e-002 -1.78540319e-001 0. 0. 0. 0.
      -7.29522035e-002 -9.07843113e-002 -6.93889390e-018
      -6.28361478e-002 -8.11442956e-002 -1.85244516e-001 0. 0. 0. 0.
      -1.68655977e-001 -9.07843113e-002 -6.93889390e-018
      -5.56603074e-002 -7.06958324e-002 -1.76692665e-001 7.17584044e-003
      1.83081441e-002 0. 0. -9.07843113e-002 -5.72070554e-002
      -6.93889390e-018 -3.22012417e-002 -7.94776157e-003
      -2.45362949e-002 1.03671901e-001 1.03671901e-001 1.03671901e-001
      -6.36080727e-002 -9.07843113e-002 -6.93889390e-018
      -6.93889390e-018 -2.54970528e-002 -9.32377297e-003
      -9.07843113e-002 1.59332201e-001 1.37249157e-001 -2.33266279e-002
      -5.72070554e-002 -5.72070554e-002 -6.93889390e-018
      -6.93889390e-018</_>
    <_>
      -6.24500451e-017 -6.24500451e-017 -6.24500451e-017
      -1.23286247e-001 -1.36146367e-001 -6.91026896e-002 9.00515392e-002
      -6.24500451e-017 -6.24500451e-017 -6.24500451e-017
      -6.24500451e-017 -6.24500451e-017 -6.24500451e-017 3.75888795e-002
      2.10250303e-001 4.99502793e-002 6.28103986e-002 2.00102553e-001
      -6.24500451e-017 -6.24500451e-017 -6.24500451e-017
      -6.24500451e-017 -6.24500451e-017 -4.60948311e-002 1.39426708e-001
      0. 4.99502793e-002 2.02237114e-001 3.75529155e-002
      -6.24500451e-017 -6.24500451e-017 -6.24500451e-017
      -1.23286247e-001 0. 0. 0. 0. 1.89376995e-001 1.26766592e-001
      -7.33359680e-002 6.43956810e-002 6.43956810e-002 -1.60875127e-001
      0. 0. 0. 0. 0. 2.60200560e-001 -7.33359680e-002 7.54705220e-002
      1.50205111e-002 0. 0. 0. 0. 0. 0. 1.37705818e-001 -3.39312144e-002
      -1.63757101e-001 1.50205111e-002 7.33359680e-002 0. 0. 0. 0. 0.
      -1.57118008e-001 -6.24500451e-017 -7.50310272e-002
      -4.13979478e-002 7.08235875e-002 7.08235875e-002 0. 0. 0.
      -5.53423502e-002 -4.99502793e-002 -6.24500451e-017
      -6.24500451e-017 -1.23286247e-001 1.01984560e-001 8.36837068e-002
      8.36837068e-002 1.23187914e-001 8.92566964e-002 8.57565925e-002
      -6.24500451e-017 -6.24500451e-017 1.67619064e-001 -1.23286247e-001
      -5.88905625e-002 1.60739511e-001 1.57019675e-001 1.57019675e-001
      8.57565925e-002 -4.99502793e-002 -6.24500451e-017 -6.24500451e-017</_>
    <_>
      -8.32667268e-017 -8.32667268e-017 -8.32667268e-017
      -1.20450236e-001 -1.18921712e-001 1.44008063e-002 1.38921544e-001
      9.59841758e-002 9.59841758e-002 1.26049265e-001 -8.32667268e-017
      -8.32667268e-017 -8.32667268e-017 5.59902843e-003 2.06447989e-002
      -1.02241635e-001 -6.95553422e-003 3.03580672e-001 6.68708310e-002
      -8.32667268e-017 -8.32667268e-017 -8.32667268e-017 4.86426242e-002
      5.51936440e-002 -2.12755729e-003 0. 2.42562462e-002
      1.48626581e-001 2.07835317e-001 2.89059281e-002 -8.32667268e-017
      -8.32667268e-017 1.99467316e-002 0. 0. 0. -1.88067213e-001
      -6.18152730e-002 9.71747339e-002 9.71747339e-002 -8.32667268e-017
      6.33190274e-002 -3.79649028e-002 0. 0. -1.40725672e-001
      -2.36709848e-001 -3.34094375e-001 7.27971941e-002 3.03038992e-002
      -7.52954856e-002 1.71240136e-001 0. 0. 0. -4.86426242e-002
      -1.93368718e-001 -1.93368718e-001 -3.70313115e-002
      -8.32667268e-017 8.87579098e-003 1.20450236e-001 9.61939842e-002
      0. 0. 0. -2.89059281e-002 -2.89059281e-002 1.66595373e-002
      1.55902700e-002 5.22168018e-002 1.86165884e-001 8.99718925e-002
      8.99718925e-002 0. -9.59841758e-002 -1.88067213e-001
      -7.39768893e-002 1.64134085e-001 6.68708310e-002 4.64968197e-003
      9.91864726e-002 1.21561110e-001 1.95654109e-002 -5.14518432e-002
      4.47421409e-002 -8.17557424e-002 3.76361981e-002 2.89059281e-002
      -8.32667268e-017 1.46764070e-002 -8.15175772e-002 -6.72880560e-002
      2.89059281e-002 -7.30897710e-002 -9.54644009e-002 -2.23746318e-002
      -8.32667268e-017 -8.32667268e-017 -8.32667268e-017</_>
    <_>
      -6.93889390e-018 -6.93889390e-018 -2.49106865e-002
      -2.49106865e-002 -2.06307903e-001 -1.34138778e-001 2.59262562e-001
      2.09781080e-001 -6.93889390e-018 -6.93889390e-018 -6.93889390e-018
      -6.93889390e-018 -2.49106865e-002 -4.75983247e-002
      -2.05118712e-002 2.49106865e-002 1.07516520e-001 2.09781080e-001
      -6.93889390e-018 -6.93889390e-018 -6.93889390e-018
      -6.93889390e-018 1.85796037e-001 -3.62478420e-002 1.13615051e-001
      0. 2.49106865e-002 -4.94933426e-002 -6.93889390e-018
      -6.93889390e-018 -6.93889390e-018 -6.93889390e-018 3.94063219e-002
      -1.56726278e-002 0. 0. 0. 5.29546626e-002 1.43733516e-001
      -6.93889390e-018 -6.93889390e-018 2.82355189e-001 -1.56726278e-002
      0. 0. 0. 0. 0. -1.18942522e-002 -6.93889390e-018 1.13504846e-002
      1.21002533e-001 0. 0. 0. 0. 0. 0. -6.48607761e-002
      -1.79650895e-002 -7.66116902e-002 -2.44867317e-002 0. 0. 0. 0. 0.
      0. -7.47776851e-002 -1.39226131e-002 3.71734761e-002
      8.05334002e-002 1.99356243e-001 1.99356243e-001 0. 0.
      -7.16484636e-002 1.08420692e-001 2.96785742e-001 1.43733516e-001
      -6.93889390e-018 -8.27944577e-002 4.11368832e-002 1.30929053e-002
      -7.24781677e-002 -7.24781677e-002 -9.04432610e-002 1.28141537e-001
      3.48839343e-001 8.77576843e-002 -6.93889390e-018 -2.49106865e-002
      -2.49106865e-002 -6.93889390e-018 -2.80439779e-002
      -1.13615051e-001 -8.55710730e-002 5.03749400e-002 6.60475716e-002
      6.60475716e-002</_>
    <_>
      4.95765358e-002 4.95765358e-002 4.95765358e-002 1.60757229e-002
      9.87371523e-003 3.35008129e-002 3.97028178e-002 4.95765358e-002
      4.95765358e-002 4.95765358e-002 4.95765358e-002 4.95765358e-002
      4.95765358e-002 1.60757229e-002 9.87371523e-003 1.74608473e-002
      1.74608473e-002 4.95765358e-002 4.95765358e-002 4.95765358e-002
      4.95765358e-002 4.95765358e-002 4.95765358e-002 8.50458816e-003
      8.50458816e-003 0. 1.74608473e-002 2.59654354e-002 3.35365683e-002
      4.95765358e-002 4.95765358e-002 4.95765358e-002 9.87371523e-003 0.
      0. 0. 0. 1.74608473e-002 3.35365683e-002 3.35365683e-002
      4.95765358e-002 4.95765358e-002 0. 0. 0. 0. 0. 0. 2.73345634e-002
      3.35365683e-002 4.20054011e-002 4.20054011e-002 0. 0. 0. 0. 0. 0.
      8.50458816e-003 4.82074060e-002 4.20054011e-002 3.35008129e-002
      1.60399657e-002 0. 0. 0. 0. 0. 1.36912765e-003 4.10719477e-002
      4.10719477e-002 4.10719477e-002 7.57113472e-003 7.57113472e-003 0.
      0. 0. 0. 2.59136818e-002 4.95765358e-002 4.95765358e-002
      7.57113472e-003 1.60757229e-002 1.60757229e-002 7.57113472e-003
      2.36111004e-002 2.22419724e-002 2.59136818e-002 4.95765358e-002
      4.95765358e-002 4.95765358e-002 1.60757229e-002 1.60757229e-002
      3.21156867e-002 3.21156867e-002 2.36111004e-002 2.36111004e-002
      3.21156867e-002 4.95765358e-002 4.95765358e-002</_>
    <_>
      -4.55364912e-017 -4.55364912e-017 -4.55364912e-017
      -4.55364912e-017 -4.55364912e-017 -4.55364912e-017
      -4.55364912e-017 -4.55364912e-017 -4.55364912e-017
      -4.55364912e-017 -4.55364912e-017 -4.55364912e-017
      -4.55364912e-017 -4.55364912e-017 -4.55364912e-017
      -4.55364912e-017 -4.55364912e-017 -4.55364912e-017
      -4.55364912e-017 -4.55364912e-017 -4.55364912e-017
      -4.55364912e-017 -4.55364912e-017 5.50597608e-002 1.78037360e-001
      5.35608418e-002 -4.55364912e-017 -4.55364912e-017 2.21235910e-003
      -4.55364912e-017 -4.03630398e-002 1.18269317e-001 1.74655735e-001
      1.15066387e-001 -1.96363945e-002 -1.96363945e-002 -3.90818082e-002
      -1.29751012e-001 3.08971610e-002 -3.55840325e-002 -1.09533459e-001
      4.45560291e-002 1.15066387e-001 0. 0. 0. 0. 0. 0. 1.34702772e-001
      -3.90835479e-002 1.00567505e-001 2.61574864e-001 0. 0. 0. 0.
      -2.55980879e-001 -2.37894118e-001 -7.49313459e-002 3.38171003e-003
      1.80733591e-001 3.21164221e-001 6.92378217e-003 0. 0.
      -3.75321656e-002 -3.28987122e-001 -3.50835890e-001
      -1.63179755e-001 1.96363945e-002 3.77231464e-002 1.44966617e-001
      3.43733765e-002 8.07806477e-003 -1.52254244e-002 3.88135277e-002
      7.87664875e-002 -2.15531997e-002 -4.55364912e-017 1.96363945e-002
      1.96363945e-002 1.26879856e-001 1.26879856e-001 1.26879856e-001
      1.26879856e-001 9.01467502e-002 -4.55364912e-017 -4.55364912e-017
      -4.55364912e-017 -4.55364912e-017 1.96363945e-002 1.96363945e-002
      1.05031110e-001 1.07243471e-001 1.24667503e-001 1.96363945e-002
      -4.55364912e-017 -4.55364912e-017 -4.55364912e-017</_>
    <_>
      -3.64291930e-017 -3.64291930e-017 -3.64291930e-017
      -3.64291930e-017 -3.64291930e-017 8.86270497e-003 8.86270497e-003
      -3.64291930e-017 -3.64291930e-017 -3.64291930e-017
      -3.64291930e-017 -3.64291930e-017 -3.64291930e-017 8.86270497e-003
      6.59311935e-002 1.05404750e-001 1.05404750e-001 1.05404750e-001
      -3.64291930e-017 -3.64291930e-017 -3.64291930e-017
      -3.64291930e-017 4.06664088e-002 1.05404750e-001 1.05404750e-001
      1.05404750e-001 9.33838561e-002 9.33838561e-002 3.94735523e-002
      -3.64291930e-017 -4.70078923e-002 -2.34934241e-002 4.24377732e-002
      2.96542272e-002 0. 0. 0. 0. 2.66499706e-002 -5.97914383e-002
      -6.86992183e-002 -3.62769701e-002 2.96542272e-002 0. 0. 0. 0. 0.
      -8.86270497e-003 -3.62769701e-002 -4.24377732e-002
      -1.18719963e-002 6.29669800e-002 1.20208925e-002 0. 0. 0. 0.
      -6.59311935e-002 -3.09441965e-002 -2.96542272e-002 9.81932692e-003
      7.57505223e-002 1.90721992e-002 0. 0. 0. 0. -6.59311935e-002
      -5.76342046e-002 -3.64291930e-017 -3.64291930e-017 9.65420455e-002
      7.04177469e-002 4.87264246e-002 7.05130631e-003 6.46412298e-002
      2.03562826e-002 -2.09286697e-002 -1.20208925e-002 -3.64291930e-017
      -3.64291930e-017 9.53491852e-002 1.05404750e-001 1.05404750e-001
      1.05404750e-001 4.83362600e-002 4.83362600e-002 -3.64291930e-017
      -3.64291930e-017 -3.64291930e-017 -3.64291930e-017
      -3.64291930e-017 4.06664088e-002 4.06664088e-002 4.83362600e-002
      8.86270497e-003 8.86270497e-003 -3.64291930e-017 -3.64291930e-017</_>
    <_>
      -2.77555756e-017 -2.77555756e-017 -2.77555756e-017 1.39042921e-002
      8.26279670e-002 9.88126546e-002 9.70280822e-003 -2.77555756e-017
      -2.77555756e-017 -2.77555756e-017 -2.77555756e-017
      -2.77555756e-017 -2.77555756e-017 1.39042921e-002 8.26279670e-002
      1.13681093e-001 1.08515464e-001 1.20074823e-002 -2.77555756e-017
      -2.77555756e-017 -2.77555756e-017 -2.77555756e-017
      -2.77555756e-017 -2.77555756e-017 4.21728678e-002 1.22419760e-001
      1.01064473e-001 2.76447646e-002 -2.77555756e-017 -2.77555756e-017
      -2.94197593e-002 -5.92558943e-002 -5.05491458e-002 4.32240702e-002
      1.03806155e-002 0. 0. -3.08869667e-002 -3.73520702e-002
      -3.21545266e-002 -5.46011552e-002 -8.44372883e-002
      -2.03750897e-002 0. 0. 0. 0. -7.22618476e-002 -1.22419760e-001
      -7.40566775e-002 -6.28608614e-002 -4.89565656e-002 6.09588204e-003
      7.45099457e-003 0. 0. 0. -5.83575554e-002 -1.22419760e-001
      -9.52534452e-002 -3.79824676e-002 -2.40781754e-002 2.60797329e-002
      -3.46163008e-003 0. 0. 0. -4.85304520e-002 -8.19646567e-002
      -9.22156721e-002 -2.77555756e-017 1.39042921e-002 1.39042921e-002
      1.63833646e-003 6.73874542e-002 5.50055131e-003 6.54517859e-002
      2.83947587e-002 6.69164723e-003 3.30041051e-002 -2.77555756e-017
      -2.77555756e-017 1.39042921e-002 1.39042921e-002 3.46504338e-002
      1.03853993e-001 1.22419760e-001 4.21728678e-002 5.43593913e-002
      5.43593913e-002 -2.77555756e-017 -2.77555756e-017 -2.77555756e-017
      -2.77555756e-017 1.39042921e-002 6.24347441e-002 1.22419760e-001
      9.70280822e-003 -2.77555756e-017 -2.77555756e-017</_>
    <_>
      -2.51534904e-017 -2.51534904e-017 -2.51534904e-017
      -2.51534904e-017 9.89262909e-002 6.50392696e-002 -2.51534904e-017
      -2.51534904e-017 -2.51534904e-017 -2.51534904e-017
      -2.51534904e-017 -2.51534904e-017 -2.51534904e-017 2.26161703e-002
      9.89262909e-002 6.50392696e-002 -2.51534904e-017 -2.51534904e-017
      -2.51534904e-017 2.88269087e-003 -2.51534904e-017 -2.51534904e-017
      -2.51534904e-017 3.67697142e-002 9.89262909e-002 6.21565767e-002
      -2.51534904e-017 -2.51534904e-017 -2.51534904e-017
      -2.51534904e-017 -4.64117266e-002 -5.23136370e-002
      -5.23136370e-002 4.66126539e-002 1.05994483e-002 0.
      -3.67697142e-002 -8.24212655e-002 -3.72579172e-002
      -3.72579172e-002 -6.29167482e-002 -6.88186586e-002
      -6.88186586e-002 0. 0. 0. 0. -3.67697142e-002 -9.89262909e-002
      -5.82192093e-002 -4.66126539e-002 -4.66126539e-002
      -4.37299646e-002 0. 0. 0. 0. -1.41535439e-002 -9.89262909e-002
      -6.16683736e-002 -3.01076323e-002 -3.01076323e-002
      -2.72249412e-002 1.18074818e-002 0. 0. 0. -7.63101205e-002
      -9.89262909e-002 -5.25145642e-002 -2.51534904e-017 2.26161703e-002
      2.88269087e-003 5.25145642e-002 4.66089882e-002 1.28343739e-002
      7.65193626e-002 -2.24069301e-002 -1.28207924e-002 -2.51534904e-017
      -2.51534904e-017 2.26161703e-002 2.88269087e-003 9.89262909e-002
      9.89262909e-002 9.89262909e-002 3.38870250e-002 -2.51534904e-017
      -2.51534904e-017 -2.51534904e-017 -2.51534904e-017 2.26161703e-002
      -2.51534904e-017 9.89262909e-002 9.89262909e-002 3.38870250e-002
      -2.51534904e-017 -2.51534904e-017 -2.51534904e-017
      -2.51534904e-017</_>
    <_>
      6.93889390e-018 6.93889390e-018 6.93889390e-018 6.93889390e-018
      6.93889390e-018 6.93889390e-018 3.16081233e-002 6.93889390e-018
      6.93889390e-018 6.93889390e-018 6.93889390e-018 6.93889390e-018
      6.93889390e-018 3.16081233e-002 9.42013189e-002 9.42013189e-002
      9.42013189e-002 6.25931993e-002 6.93889390e-018 6.93889390e-018
      6.93889390e-018 6.93889390e-018 6.93889390e-018 4.40701209e-002
      9.42013189e-002 9.42013189e-002 8.71381536e-002 8.71381536e-002
      2.55186763e-002 6.93889390e-018 -2.76239645e-002 -2.76239645e-002
      -2.97895856e-002 3.95196863e-002 0. 0. 0. 0. 7.91156478e-003
      -5.25160134e-002 -2.91629564e-002 -2.91629564e-002
      -4.55043465e-003 0. 0. 0. 0. 0. 0. -5.46816327e-002
      -2.25072335e-002 -9.45055578e-003 2.97895856e-002 7.06316438e-003
      0. 0. 0. 0. 0. -7.14749023e-002 -3.95196863e-002 1.76071115e-002
      5.46816327e-002 7.06316438e-003 0. 0. 0. 0. -9.42013189e-002
      -4.65828516e-002 1.30566768e-002 2.55186763e-002 9.42013189e-002
      7.36405179e-002 4.65828516e-002 2.16562068e-003 6.22461066e-002
      3.00113559e-002 -7.06316438e-003 -7.06316438e-003 6.93889390e-018
      6.93889390e-018 5.71267977e-002 9.42013189e-002 9.42013189e-002
      9.42013189e-002 9.42013189e-002 3.70745212e-002 6.93889390e-018
      6.93889390e-018 3.70745212e-002 6.93889390e-018 1.30566768e-002
      5.71267977e-002 9.42013189e-002 9.42013189e-002 3.70745212e-002
      6.93889390e-018 6.93889390e-018 6.93889390e-018</_>
    <_>
      2.08166817e-017 2.08166817e-017 2.08166817e-017 2.08166817e-017
      6.37331093e-003 4.59169671e-002 4.59169671e-002 3.95436548e-002
      3.95436548e-002 6.37331093e-003 2.08166817e-017 2.08166817e-017
      2.08166817e-017 6.37331093e-003 6.16942346e-002 6.29964620e-002
      6.29964620e-002 6.29964620e-002 1.30222680e-003 2.08166817e-017
      2.08166817e-017 2.08166817e-017 2.08166817e-017 6.16942346e-002
      6.29964620e-002 1.23377129e-001 1.10631987e-001 1.10631987e-001
      1.17003821e-001 2.08166817e-017 -4.32722345e-002 -4.32722345e-002
      -2.89775711e-002 5.68628386e-002 0. 0. -6.16942346e-002
      -6.16942346e-002 -4.83139418e-003 3.02452012e-003 -6.65142909e-002
      -5.07370271e-002 5.55606112e-002 0. 0. -2.21505780e-002
      -6.16942346e-002 -8.38334784e-002 -2.34528035e-002
      -6.13362109e-003 -6.43276349e-002 4.19700071e-002 5.11281490e-002
      1.27451420e-002 0. 0. -6.16828986e-002 -6.16828986e-002
      -7.74601623e-002 -8.49941298e-002 2.56684106e-002 6.65142909e-002
      6.65142909e-002 1.27451420e-002 0. 0. 0. 0. -6.16942346e-002
      -6.83057532e-002 8.25312510e-002 1.23377129e-001 1.23377129e-001
      9.28500444e-002 6.96079805e-002 -3.16877402e-002 3.35516110e-002
      4.89377566e-002 4.89377566e-002 -1.14429155e-002 2.08166817e-017
      6.16828986e-002 6.16828986e-002 6.16828986e-002 6.16828986e-002
      6.16828986e-002 1.30222680e-003 1.30222680e-003 2.08166817e-017
      2.08166817e-017 1.57772657e-002 1.57772657e-002 2.08166817e-017
      2.08166817e-017 2.08166817e-017 2.08166817e-017 2.08166817e-017
      2.08166817e-017 2.08166817e-017 2.08166817e-017</_>
    <_>
      -8.89045781e-018 -8.89045781e-018 -8.89045781e-018
      -8.89045781e-018 -8.89045781e-018 3.51620428e-002 1.12008102e-001
      1.04684763e-001 -8.89045781e-018 -8.89045781e-018 -8.89045781e-018
      -8.89045781e-018 -8.89045781e-018 -8.89045781e-018 3.51620428e-002
      1.12008102e-001 1.39846802e-001 1.04684763e-001 -8.89045781e-018
      -8.89045781e-018 -8.89045781e-018 -8.89045781e-018 3.51620428e-002
      3.51620428e-002 1.39846802e-001 1.39846802e-001 1.12702571e-001
      7.75405318e-002 -8.89045781e-018 -8.89045781e-018 -4.34330180e-002
      -6.10713586e-002 -3.96679305e-002 6.35414422e-002 1.13519505e-002
      0. 0. 1.13519505e-002 2.83794031e-002 -4.34330180e-002
      -8.61819237e-002 4.17491272e-002 5.21894954e-002 0. 0. 0. 0. 0.
      -3.51620428e-002 -7.48299733e-002 -4.36134078e-002 3.29926498e-002
      7.48299733e-002 2.71442365e-002 0. 0. 0. 0. -3.51620428e-002
      -1.09799407e-001 -1.85028426e-002 7.57415593e-002 8.61819237e-002
      2.71442365e-002 0. 0. 0. 0. -3.51620428e-002 -4.48691063e-002
      3.51620428e-002 6.44761398e-002 1.39846802e-001 1.23558022e-001
      9.21610668e-002 1.37586156e-002 -9.05672740e-003 8.37122798e-002
      8.37122798e-002 7.60651380e-002 -8.89045781e-018 -8.89045781e-018
      1.47538807e-003 1.47538807e-003 1.47538807e-003 1.47538807e-003
      1.47538807e-003 3.66374291e-002 7.49165043e-002 3.97544615e-002
      -8.89045781e-018 -8.89045781e-018 -8.89045781e-018
      -8.89045781e-018 -8.89045781e-018 -8.89045781e-018
      -8.89045781e-018 -8.89045781e-018 1.47538807e-003 1.47538807e-003</_>
    <_>
      3.45471613e-002 3.45471613e-002 3.45471613e-002 3.45471613e-002
      3.45471613e-002 3.45471613e-002 3.45471613e-002 3.45471613e-002
      3.45471613e-002 3.45471613e-002 3.45471613e-002 3.45471613e-002
      3.45471613e-002 3.45471613e-002 3.45471613e-002 3.45471613e-002
      3.45471613e-002 3.45471613e-002 3.45471613e-002 3.45471613e-002
      3.45471613e-002 3.45471613e-002 3.45471613e-002 3.45471613e-002
      3.45471613e-002 3.45471613e-002 1.71955451e-002 1.71955451e-002
      3.45471613e-002 3.45471613e-002 1.57527551e-002 1.22428946e-002
      1.22428946e-002 1.03700440e-002 0. 0. 0. 0. 7.05440436e-003
      1.05642658e-002 7.05440436e-003 7.05440436e-003 7.05440436e-003 0.
      0. 0. 0. 0. 0. 7.05440436e-003 2.23042648e-002 1.87944043e-002
      2.23042648e-002 1.73516162e-002 0. 0. 0. 0. 0. 1.44278875e-003
      2.74927560e-002 2.74927560e-002 2.74927560e-002 1.73516162e-002 0.
      0. 0. 0. 0. 6.63127890e-003 3.45471613e-002 3.45471613e-002
      3.45471613e-002 3.31043713e-002 2.44060196e-002 0. 8.49719346e-003
      1.03700440e-002 1.36856837e-002 1.71955451e-002 3.45471613e-002
      3.45471613e-002 3.45471613e-002 3.45471613e-002 3.45471613e-002
      3.45471613e-002 3.45471613e-002 3.45471613e-002 3.45471613e-002
      3.45471613e-002 3.45471613e-002 3.45471613e-002 3.45471613e-002
      3.45471613e-002 3.45471613e-002 3.45471613e-002 3.45471613e-002
      3.45471613e-002 3.45471613e-002 3.45471613e-002</_>
    <_>
      1.41379963e-016 1.41379963e-016 1.41379963e-016 1.41379963e-016
      1.41379963e-016 5.71612641e-003 -6.32814597e-003 1.41379963e-016
      -1.20442724e-002 -1.20442724e-002 1.41379963e-016 1.41379963e-016
      -1.61576644e-001 -7.32259601e-002 6.26257733e-002 2.19142511e-001
      3.80719155e-001 3.80719155e-001 1.41379963e-016 1.41379963e-016
      1.41379963e-016 -1.61576644e-001 7.75746480e-002 3.83431986e-002
      1.46154156e-002 1.77651957e-001 2.19142511e-001 2.19142511e-001
      -1.71041861e-002 -1.03518039e-001 1.41379963e-016 -5.05991466e-003
      2.57114298e-003 2.57114298e-003 0. 0. 2.57114298e-003
      7.98337385e-002 -8.57795477e-002 -2.16571361e-001 1.41379963e-016
      -5.85947298e-002 2.57114298e-003 0. 0. 0. 0. 0. 7.32259601e-002
      -6.26257733e-002 1.41379963e-016 -5.85947298e-002 0. 0. 0. 0. 0.
      0. -4.40312102e-002 1.18173532e-001 1.41379963e-016
      -1.96753293e-002 0. 0. 0. 0. 0. 8.15132260e-002 -6.51981635e-003
      1.41379963e-016 1.41379963e-016 -1.64147794e-001 -5.71612641e-003
      0. 0. 5.80586083e-002 1.61576644e-001 -3.57439406e-002
      1.41379963e-016 1.41379963e-016 1.41379963e-016 -6.06297515e-002
      1.51673472e-002 0. 0. 1.61576644e-001 -1.28479619e-002
      1.50188580e-001 1.41379963e-016 1.41379963e-016 -2.57114298e-003
      -2.57114298e-003 -2.57114298e-003 3.86033542e-002 4.11744975e-002
      -4.22942303e-002 5.71612641e-003 5.71612641e-003 1.41379963e-016
      1.41379963e-016</_>
    <_>
      1.38777878e-017 1.38777878e-017 1.38777878e-017 8.80232677e-002
      1.38726637e-001 6.03502356e-002 5.07033691e-002 1.38777878e-017
      1.38777878e-017 1.38777878e-017 1.38777878e-017 1.38777878e-017
      -6.25365824e-002 2.54866891e-002 7.61900619e-002 8.58369246e-002
      1.11053608e-001 3.40892002e-002 1.38777878e-017 1.38777878e-017
      1.38777878e-017 -6.25365824e-002 -6.25365824e-002 -7.82265365e-002
      -3.50536639e-003 1.22541018e-001 4.85170260e-002 2.22559888e-002
      -6.25365824e-002 -6.25365824e-002 1.38777878e-017 -8.80157799e-002
      -6.56886548e-002 1.12757487e-002 4.53649499e-002 4.53649499e-002
      4.53649499e-002 -1.80273019e-002 -1.52826056e-001 -7.88095519e-002
      -1.31134102e-002 -8.80157799e-002 -1.49852885e-002 0. 0. 0. 0.
      -1.48373500e-001 -1.36540294e-001 -1.36540294e-001
      -1.31134102e-002 -4.53574620e-002 -6.03502356e-002 0. 0. 0. 0.
      -3.57569046e-002 -1.11946963e-001 -9.62570012e-002
      -4.53649499e-002 -2.07641292e-002 -6.03502356e-002
      -2.62610372e-002 0. 0. 0. -2.30378229e-002 -6.56961426e-002
      1.38777878e-017 -4.53649499e-002 -1.98782589e-002 -8.55744034e-002
      -3.57569046e-002 2.45933328e-002 1.39992805e-002 8.80157799e-002
      7.30304942e-002 8.80232677e-002 1.38777878e-017 -4.53649499e-002
      -4.53649499e-002 -2.30378229e-002 -8.55744034e-002
      -7.81834649e-004 8.80157799e-002 8.80157799e-002 1.38726637e-001
      8.80232677e-002 8.80232677e-002 1.38777878e-017 -4.53649499e-002
      -4.53649499e-002 -6.56961426e-002 2.23271251e-002 8.80157799e-002
      1.53711930e-001 5.07033691e-002 1.38777878e-017 1.38777878e-017</_>
    <_>
      2.77555756e-017 2.77555756e-017 2.77555756e-017 2.77555756e-017
      1.97489277e-001 1.30271479e-001 2.77555756e-017 2.77555756e-017
      2.77555756e-017 2.77555756e-017 2.77555756e-017 2.77555756e-017
      -4.61660847e-002 2.10517235e-002 1.51323199e-001 8.41053873e-002
      2.77555756e-017 2.77555756e-017 2.77555756e-017 7.82811493e-002
      2.77555756e-017 -4.61660847e-002 -4.61660847e-002 5.29943369e-002
      8.01133439e-002 -5.54033928e-003 -4.61660847e-002 -4.61660847e-002
      -4.61660847e-002 -4.61660847e-002 2.77555756e-017 -4.99111190e-002
      -1.18315987e-001 7.91732967e-002 2.63911281e-002 2.63911281e-002
      -6.37998581e-002 -8.01126584e-002 -1.15790188e-001
      -6.86840564e-002 -2.79187836e-004 -6.09965138e-002
      -1.18315987e-001 0. 0. 0. 0. -1.45498961e-001 -1.51323199e-001
      -1.51323199e-001 -2.80498620e-003 -6.09965138e-002
      -1.19208135e-001 0. 0. 0. 0. -7.70619139e-002 -1.50103956e-001
      -2.71179304e-002 -2.52579851e-003 -1.27865180e-001
      -1.19208135e-001 0. 0. 0. 2.52579851e-003 -1.18705782e-003
      -5.73194735e-002 2.77555756e-017 2.77555756e-017 -5.81215732e-002
      -1.15463100e-001 3.74503317e-003 3.74503317e-003 2.80498620e-003
      4.99111190e-002 -6.84048682e-002 2.77555756e-017 2.77555756e-017
      2.77555756e-017 -1.19554885e-002 -6.92970157e-002 3.74503317e-003
      3.74503317e-003 4.99111190e-002 9.89833660e-003 2.77555756e-017
      2.77555756e-017 2.77555756e-017 -5.27821705e-002 -1.19554885e-002
      -7.91732967e-002 4.99111190e-002 1.29084408e-001 -1.18705782e-003
      2.77555756e-017 2.77555756e-017 2.77555756e-017 2.77555756e-017</_>
    <_>
      -1.04083409e-017 -1.04083409e-017 -1.04083409e-017
      -1.04083409e-017 -1.04083409e-017 -1.04083409e-017 9.01281238e-002
      -1.04083409e-017 -1.16635850e-002 -1.16635850e-002
      -1.04083409e-017 -1.04083409e-017 -8.46951306e-002 3.15336622e-002
      1.65191934e-001 1.65191934e-001 2.49887064e-001 1.73410133e-001
      -1.04083409e-017 -1.04083409e-017 -1.04083409e-017
      -8.46951306e-002 -8.46951306e-002 -7.78483227e-002 5.58099411e-002
      1.34112865e-001 1.65191934e-001 1.65191934e-001 -1.60568971e-002
      -7.01371953e-002 -1.04083409e-017 -8.46951306e-002
      -2.05740705e-001 4.41463552e-002 4.41463552e-002 4.41463552e-002
      4.41463552e-002 8.68890062e-002 -3.23305726e-002 -1.21045567e-001
      6.66436180e-002 -2.10422948e-002 -4.67676558e-002 0. 0. 0. 0. 0.
      8.46951306e-002 -1.65191934e-001 7.64769316e-002 1.12882797e-002
      0. 0. 0. 0. 0. 0. 5.93803525e-002 -5.58099411e-002
      -1.60510726e-002 4.23673429e-002 0. 0. 0. 0. 0. 8.46951306e-002
      -7.83029199e-002 -1.04083409e-017 2.24972647e-002 -4.85396683e-002
      0. 0. 0. 1.45579353e-002 8.46951306e-002 -5.40309250e-002
      -1.04083409e-017 -1.04083409e-017 -4.41463552e-002
      -5.87042905e-002 3.12255300e-003 0. 0. 8.46951306e-002
      1.15774192e-001 5.53510599e-002 -1.04083409e-017 -1.04083409e-017
      8.06728452e-002 -4.41463552e-002 2.24972647e-002 6.18268438e-002
      1.28841490e-001 9.63587165e-002 6.26201555e-002 -1.04083409e-017
      -1.04083409e-017 -1.04083409e-017</_>
    <_>
      -5.55111512e-017 -5.55111512e-017 -5.55111512e-017
      -5.55111512e-017 4.05443050e-002 1.15572274e-001 8.18998888e-002
      7.50279725e-002 4.13555875e-002 6.87192148e-003 -5.55111512e-017
      -5.55111512e-017 -1.26431108e-001 -8.58868062e-002 5.25215380e-002
      5.25215380e-002 1.78952649e-001 1.78952649e-001 4.61454317e-002
      -5.55111512e-017 -5.55111512e-017 -1.26431108e-001
      -8.58868062e-002 2.27202605e-002 2.27202605e-002 1.81904182e-001
      1.94451556e-001 1.94451556e-001 1.20234869e-001 -5.89568401e-003
      -5.55111512e-017 -1.26431108e-001 -9.64477062e-002 1.20510280e-001
      5.46196736e-002 5.46196736e-002 -3.76432426e-002 8.57651234e-003
      -6.77199364e-002 4.09150776e-003 -5.55111512e-017 -1.25339240e-001
      5.46196736e-002 0. 0. -5.77792488e-002 -1.32807225e-001
      -2.45854706e-001 2.25064307e-002 -5.25215380e-002 1.72349457e-002
      1.72539055e-002 0. 0. 0. -4.05443050e-002 -1.88075453e-001
      -1.11717232e-001 -5.35329804e-002 -4.41399962e-002 6.87313750e-002
      2.98012793e-002 0. 0. 0. 0. 3.02127879e-002 1.56643897e-001
      1.24676108e-001 -5.55111512e-017 1.25344425e-001 6.34736642e-002
      0. 0. 0. 9.82964132e-003 1.10526420e-001 6.99821115e-002
      1.88075453e-001 -5.55111512e-017 -5.55111512e-017 3.37194763e-002
      -2.97541842e-002 -8.17953050e-002 -1.22339606e-001 4.09150776e-003
      -5.94005287e-002 1.24730496e-002 4.61454317e-002 -5.55111512e-017
      1.72349457e-002 -3.73847261e-002 -7.43648484e-002 -1.73282288e-002
      -1.73282288e-002 -3.82755175e-002 4.61454317e-002 -5.55111512e-017
      -5.55111512e-017 -5.55111512e-017</_>
    <_>
      -5.81132364e-017 -5.81132364e-017 -5.81132364e-017
      -5.81132364e-017 -5.81132364e-017 7.41827860e-002 1.38208523e-001
      1.26019716e-001 -6.19832613e-003 -6.19832613e-003 -5.81132364e-017
      -5.81132364e-017 -7.54336193e-002 -7.54336193e-002
      -1.25083630e-003 6.89732283e-002 2.00202495e-001 1.26019716e-001
      -5.81132364e-017 -5.81132364e-017 -5.81132364e-017
      -7.54336193e-002 -1.25083630e-003 -1.92122790e-003 6.51572943e-002
      9.95732024e-002 1.24768876e-001 5.05860895e-002 -8.16319510e-002
      -7.54336193e-002 -3.61150876e-003 -1.04240805e-001
      -1.01018064e-001 2.28002425e-002 2.50016451e-002 2.50016451e-002
      2.50016451e-002 5.21429554e-002 -2.79652420e-002 -6.98685646e-002
      -7.86419772e-003 -4.40086704e-003 2.28002425e-002 0. 0. 0. 0. 0.
      -2.66206637e-002 -1.24768876e-001 6.63185865e-002 6.70391601e-004
      0. 0. 0. 0. 0. 3.82100157e-002 -1.87564660e-002 -5.74871302e-002
      1.88353248e-002 3.86685915e-002 0. 0. 0. 0. 3.03458180e-002
      1.34586617e-001 6.37323037e-002 4.01511639e-002 4.91811410e-002
      2.92702504e-002 2.88071837e-002 7.86419772e-003 4.25268849e-003
      5.55414930e-002 3.86398137e-002 1.34586617e-001 2.00202495e-001
      9.59468111e-002 -5.81132364e-017 2.86985631e-003 -3.55429724e-002
      -1.10976592e-001 -1.10976592e-001 -3.55429724e-002
      -1.79745920e-003 9.80573669e-002 1.60051331e-001 5.79970479e-002
      -5.81132364e-017 -2.50016451e-002 -2.50016451e-002
      -4.06142287e-002 -4.06142287e-002 -5.94175495e-002
      -5.81132364e-017 2.78715007e-002 3.00729033e-002 3.00729033e-002</_>
    <_>
      4.78253104e-002 4.78253104e-002 4.78253104e-002 4.78253104e-002
      4.78253104e-002 4.78253104e-002 3.03076692e-002 4.78253104e-002
      3.03076692e-002 3.03076692e-002 4.78253104e-002 4.78253104e-002
      2.80758981e-002 2.80758981e-002 2.80758981e-002 2.80758981e-002
      4.78253104e-002 4.78253104e-002 4.78253104e-002 4.78253104e-002
      4.78253104e-002 2.80758981e-002 2.80758981e-002 2.80758981e-002
      2.80758981e-002 2.80758981e-002 2.80758981e-002 2.80758981e-002
      1.05582578e-002 3.53110395e-002 4.78253104e-002 2.80758981e-002
      1.05582578e-002 1.05582578e-002 1.05582578e-002 1.05582578e-002
      5.71379811e-003 2.32314393e-002 5.71379811e-003 2.54632086e-002
      4.78253104e-002 1.05582578e-002 5.71379811e-003 0. 0. 0. 0. 0.
      1.97494105e-002 1.97494105e-002 4.78253104e-002 0. 0. 0. 0. 0. 0.
      0. 1.97494105e-002 2.45938711e-002 3.72670516e-002 0. 0. 0. 0. 0.
      0. 2.45938711e-002 4.78253104e-002 4.78253104e-002 3.72670516e-002
      1.75176412e-002 0. 0. 0. 7.23514101e-003 1.97494105e-002
      3.03076692e-002 4.78253104e-002 4.78253104e-002 3.72670516e-002
      3.00319102e-002 1.25142699e-002 0. 0. 1.97494105e-002
      1.97494105e-002 3.03076692e-002 4.78253104e-002 4.78253104e-002
      4.78253104e-002 3.72670516e-002 3.72670516e-002 3.03076692e-002
      2.54632086e-002 3.72670516e-002 4.21115123e-002 4.78253104e-002
      4.78253104e-002 4.78253104e-002</_>
    <_>
      0. 0. 0. 8.43015835e-002 3.25262100e-001 -1.34312272e-001
      -3.04356813e-002 0. 0. 0. 0. 0. 0. -2.02293858e-001
      -2.27840785e-002 -8.99848863e-002 -7.01215938e-002
      -1.74286470e-001 0. 0. 0. 0. -4.93943691e-002 -3.55512917e-001
      -4.44307923e-002 0. -7.01215938e-002 -8.43015835e-002
      -2.16467120e-002 0. 0. -2.16467120e-002 -2.99571306e-001
      -2.09586427e-001 -7.84731433e-002 0. 0. -1.56804085e-001
      -7.76159838e-002 0. 0. -2.16467120e-002 -4.44307923e-002 0. 0. 0.
      0. -1.14552379e-001 -8.30974504e-002 -2.16467120e-002 0.
      4.84748781e-002 -4.44307923e-002 0. 0. 0. 0. -4.44307923e-002
      -2.16467120e-002 -2.16467120e-002 0. 4.84748781e-002
      -1.37083933e-001 0. 0. 0. 0. -1.19216427e-001 -2.16467120e-002 0.
      0. 7.01215938e-002 -2.81751044e-002 -5.86107858e-002 0. 0. 0.
      2.51522511e-002 7.01215938e-002 0. 0. 0. -4.27446445e-004
      -2.99571306e-001 -9.26531404e-002 0. 6.95830435e-002
      3.22191939e-002 7.01215938e-002 7.01215938e-002 0. 0. 0.
      -4.93943691e-002 2.07272228e-002 -1.70994475e-002 9.82966945e-002
      -3.04356813e-002 0. 0.</_>
    <_>
      6.93889390e-018 6.93889390e-018 6.93889390e-018 6.93889390e-018
      1.66284695e-001 1.16206959e-001 -3.68828326e-002 6.93889390e-018
      6.93889390e-018 6.93889390e-018 6.93889390e-018 6.93889390e-018
      6.93889390e-018 -8.45379382e-002 0. -1.31949028e-002
      -1.66284695e-001 -1.66284695e-001 6.93889390e-018 3.35495174e-002
      6.93889390e-018 6.93889390e-018 -1.02495082e-001 -8.14134255e-002
      0. -8.48712698e-002 -1.66284695e-001 -1.66284695e-001
      6.93889390e-018 6.93889390e-018 6.93889390e-018 6.93889390e-018
      -1.66284695e-001 0. 0. 0. -8.48712698e-002 -1.66284695e-001
      -2.69067809e-002 6.93889390e-018 6.93889390e-018 6.93889390e-018
      -1.66284695e-001 0. 0. 0. 0. -8.48712698e-002 -3.04250065e-002
      6.93889390e-018 6.93889390e-018 6.93889390e-018 -9.46083292e-002
      0. 0. 0. 0. -7.16763660e-002 -2.26740986e-002 6.93889390e-018
      6.93889390e-018 6.93889390e-018 -9.46083292e-002 0. 0. 0. 0.
      -5.41129373e-002 6.93889390e-018 6.93889390e-018 6.93889390e-018
      1.31949028e-002 -9.58523452e-002 0. 0. 0. 0. -5.95569313e-002
      6.93889390e-018 6.93889390e-018 6.93889390e-018 1.31949028e-002
      6.64273556e-003 0. 0. 0. 1.44389197e-002 -3.68828326e-002
      6.93889390e-018 6.93889390e-018 6.93889390e-018 1.31949028e-002
      6.93889390e-018 4.11155149e-002 4.11155149e-002 1.44389197e-002
      -3.68828326e-002 -3.68828326e-002 6.93889390e-018 6.93889390e-018</_>
    <_>
      1.04083409e-016 1.04083409e-016 1.04083409e-016 1.04083409e-016
      1.04083409e-016 -8.19989443e-002 1.11382820e-001 1.04083409e-016
      1.04083409e-016 1.04083409e-016 1.04083409e-016 1.04083409e-016
      1.04083409e-016 4.38323207e-002 8.87166932e-002 0. 0.
      -4.92959693e-002 -6.75504953e-002 1.04083409e-016 1.04083409e-016
      1.04083409e-016 -3.09134305e-001 -3.00969929e-001 0. 0. 0. 0.
      -7.91907758e-002 1.04083409e-016 1.04083409e-016 -8.87166932e-002
      -6.12975121e-001 0. 0. 0. 0. 0. 7.42500350e-002 1.04083409e-016
      5.13629280e-002 8.10185373e-002 -1.93632931e-001 0. 0. 0. 0. 0.
      1.49259493e-001 -8.87166932e-002 1.26372382e-001 2.23288536e-001
      0. 0. 0. 0. 0. 0. 5.57550378e-002 -8.87166932e-002 1.04083409e-016
      2.23288536e-001 0. 0. 0. 0. 0. 0. -1.56267196e-001 1.04083409e-016
      2.57134866e-002 7.70764127e-002 1.49259493e-001 0. 0. 0. 0.
      -1.81032375e-001 1.04083409e-016 1.04083409e-016 2.57134866e-002
      1.04083409e-016 -5.57438433e-002 0. 0. 0. 1.54581353e-001
      6.27037808e-002 1.04083409e-016 1.04083409e-016 3.00969929e-001
      1.04083409e-016 1.04083409e-016 -8.77081603e-002 2.12971807e-001
      1.54581353e-001 2.69792765e-001 -2.16809988e-001 1.04083409e-016
      1.04083409e-016</_>
    <_>
      -4.85722573e-017 -4.85722573e-017 -4.85722573e-017
      -4.85722573e-017 5.82569577e-002 7.47346431e-002 7.47346431e-002
      7.61724934e-002 7.61724934e-002 5.82569577e-002 -4.85722573e-017
      -4.85722573e-017 -4.85722573e-017 -2.83409879e-002 1.24207337e-003
      -1.77663211e-002 -6.69389078e-003 -6.69389078e-003 1.10842779e-001
      -4.85722573e-017 -4.85722573e-017 -4.85722573e-017
      -4.06914502e-002 -7.08032027e-002 -6.69389078e-003 0. 0. 0.
      1.32905290e-001 5.78058995e-002 -4.85722573e-017 -7.20452741e-002
      -1.46975696e-001 0. 0. 0. -7.63414577e-002 -7.63414577e-002
      -4.80004698e-002 1.28609106e-001 -4.85722573e-017 -1.36193559e-002
      -5.30368797e-002 0. 0. -5.84259182e-002 -1.34598419e-001
      -1.87035024e-001 -8.26707557e-002 -6.28841892e-002 1.68961269e-004
      1.36724398e-001 0. 0. 0. -5.82569577e-002 -1.28609106e-001
      -1.28609106e-001 4.12722211e-003 -7.20452741e-002 6.65207803e-002
      1.91162243e-001 0. 0. 0. 0. -5.78058995e-002 -3.09027676e-002
      -1.24207337e-003 5.30368797e-002 1.33998141e-001 2.63207525e-001
      5.96948117e-002 0. 0. -7.61724934e-002 -7.63414577e-002
      -3.13098589e-003 1.28609106e-001 5.44378497e-002 1.24733988e-002
      1.86866060e-001 1.02564860e-002 -7.63414577e-002 -1.34598419e-001
      -1.34598419e-001 -2.08973065e-002 -2.08973065e-002 5.78058995e-002
      -4.85722573e-017 1.12413904e-002 2.63615442e-003 6.02730922e-002
      -4.11425047e-002 -4.11425047e-002 -7.39341825e-002
      -3.28988163e-003 -5.96948117e-002 -4.85722573e-017
      -4.85722573e-017</_>
    <_>
      4.25007252e-017 4.25007252e-017 4.25007252e-017 4.25007252e-017
      4.25007252e-017 -1.72420740e-002 1.49509385e-001 1.66751459e-001
      4.25007252e-017 4.25007252e-017 4.25007252e-017 4.25007252e-017
      4.25007252e-017 -7.94880316e-002 -1.11808553e-001 0. 0.
      -6.22459538e-002 4.25007252e-017 4.25007252e-017 4.25007252e-017
      4.25007252e-017 1.97881693e-003 -1.66751459e-001 0. 0. 0.
      -6.22459538e-002 -5.49429134e-002 4.25007252e-017 4.25007252e-017
      -5.49429134e-002 -1.66751459e-001 -5.23216836e-003 0. 0. 0. 0.
      -6.23798110e-002 4.25007252e-017 4.25007252e-017 2.50506978e-002
      -5.23216836e-003 0. 0. 0. 0. 0. -6.24718666e-002 -5.49429134e-002
      6.22459538e-002 1.09996811e-001 0. 0. 0. 0. 0. 0. 3.05629075e-002
      -5.49429134e-002 6.22459538e-002 1.09996811e-001 0. 0. 0. 0. 0. 0.
      3.20946127e-002 1.77476574e-002 6.22459538e-002 1.47192061e-001
      7.94880316e-002 0. 0. 0. -1.77476574e-002 9.30347741e-002
      2.28997424e-001 8.18053558e-002 4.25007252e-017 7.97139406e-002
      -5.92390560e-002 -1.44051313e-001 -1.44051313e-001
      -1.44051313e-001 -4.94848303e-002 1.27611225e-002 2.11249754e-001
      6.92898631e-002 4.25007252e-017 4.25007252e-017 4.25007252e-017
      -6.17988408e-002 -6.17988408e-002 -1.34430945e-001
      -7.94880316e-002 2.25912721e-004 8.49461108e-002 8.49461108e-002</_>
    <_>
      5.14120199e-002 5.14120199e-002 5.14120199e-002 5.14120199e-002
      5.14120199e-002 4.48950045e-002 4.48950045e-002 5.14120199e-002
      5.14120199e-002 5.14120199e-002 5.14120199e-002 5.14120199e-002
      5.14120199e-002 3.11368573e-002 3.11368573e-002 0. 0. 0.
      3.76538746e-002 5.14120199e-002 5.14120199e-002 5.14120199e-002
      6.51701679e-003 0. 0. 0. 0. 0. 6.51701679e-003 5.14120199e-002
      5.14120199e-002 2.02751625e-002 0. 0. 0. 0. 0. 0. 6.51701679e-003
      5.14120199e-002 5.14120199e-002 2.02751625e-002 0. 0. 0. 0. 0. 0.
      6.51701679e-003 2.02751625e-002 5.14120199e-002 2.02751625e-002 0.
      0. 0. 0. 0. 0. 6.51701679e-003 2.02751625e-002 5.14120199e-002
      2.02751625e-002 0. 0. 0. 0. 0. 0. 6.51701679e-003 5.14120199e-002
      5.14120199e-002 5.14120199e-002 6.51701679e-003 0. 0. 0. 0. 0.
      5.14120199e-002 5.14120199e-002 5.14120199e-002 5.14120199e-002
      2.02751625e-002 0. 0. 0. 0. 0. 5.14120199e-002 5.14120199e-002
      5.14120199e-002 5.14120199e-002 5.14120199e-002 2.02751625e-002
      6.51701679e-003 0. 3.11368573e-002 3.11368573e-002 5.14120199e-002
      5.14120199e-002</_>
    <_>
      -6.24500451e-017 -6.24500451e-017 -6.24500451e-017
      -8.24893788e-002 4.33708169e-002 6.02780059e-002 -1.68791544e-002
      -6.24500451e-017 -6.24500451e-017 -6.24500451e-017
      -6.24500451e-017 -6.24500451e-017 -6.24500451e-017
      -2.41844933e-002 4.33708169e-002 -3.17004323e-002 -1.92828611e-001
      -5.28598763e-002 -6.24500451e-017 -6.24500451e-017
