<?xml version="1.0"?>
<opencv_storage>
<my_svm type_id="opencv-ml-svm">
  <svm_type>C_SVC</svm_type>
  <kernel><type>LINEAR</type></kernel>
  <C>1.</C>
  <term_criteria><epsilon>2.2204460492503131e-16</epsilon>
    <iterations>100</iterations></term_criteria>
  <var_all>100</var_all>
  <var_count>100</var_count>
  <class_count>9</class_count>
  <class_labels type_id="opencv-matrix">
    <rows>1</rows>
    <cols>9</cols>
    <dt>i</dt>
    <data>
      1 2 3 4 5 6 7 8 9</data></class_labels>
  <sv_total>36</sv_total>
  <support_vectors>
    <_>
      -2.06184238e-02 -1.03386544e-01 8.65217298e-02 2.87294596e-01
      1.57187477e-01 8.07504207e-02 -1.44480199e-01 3.46944695e-18
      3.46944695e-18 3.46944695e-18 -5.04870228e-02 5.87589256e-02
      1.59650706e-02 1.01061247e-01 -1.07846400e-02 5.56468032e-02
      7.28990659e-02 -1.00051843e-01 3.46944695e-18 3.46944695e-18
      -5.04870228e-02 -4.58104740e-04 1.01061247e-01 1.01061247e-01
      -1.59770511e-02 -7.51504973e-02 8.27310681e-02 -9.02198479e-02
      4.34813313e-02 3.36493291e-02 7.02058673e-02 2.57970728e-02
      1.86927523e-02 -6.64640740e-02 -9.63835046e-02 -5.55051044e-02
      -9.46942717e-03 -5.71290292e-02 4.43903245e-02 1.68259501e-01
      4.59005684e-02 1.76542014e-01 1.86927523e-02 -6.64640740e-02
      -1.47389233e-01 3.41184773e-02 6.54788092e-02 3.45583260e-02
      3.45583260e-02 1.06735900e-01 5.45657091e-02 1.43999428e-01
      3.03356424e-02 -5.48211858e-02 -1.45578340e-01 1.62839741e-02
      -7.65853934e-03 4.62012142e-02 1.69698790e-01 1.92362368e-01
      2.14748904e-02 1.97708666e-01 2.81975776e-01 1.35981217e-01
      1.62839741e-02 -5.86642586e-02 -7.65853934e-03 1.69698790e-01
      1.69698790e-01 -7.58954734e-02 2.14748904e-02 4.11202833e-02
      1.41651243e-01 4.93900888e-02 -7.03071505e-02 -1.40439570e-01
      -1.71109363e-01 -2.79031526e-02 -8.58233646e-02 -3.35489213e-02
      9.83200129e-03 9.83200129e-03 -4.59022401e-03 -1.32433563e-01
      -7.03071505e-02 -1.40439570e-01 -2.36790434e-01 -9.35842246e-02
      -1.67403504e-01 -1.57046497e-01 9.83200129e-03 2.15710759e-01
      3.10304374e-01 1.42766371e-01 1.14524931e-01 1.14901528e-01
      -5.39704785e-02 1.08362436e-01 7.96379596e-02 9.45936218e-02</_>
    <_>
      3.28018636e-01 -4.40564118e-02 -1.78303421e-02 2.56113242e-02
      -6.55860752e-02 -6.82164952e-02 -1.33884922e-01 2.08166817e-17
      8.38315953e-03 1.26152158e-01 2.15296634e-02 -4.40564118e-02
      -4.40564118e-02 -1.06673025e-01 -2.41050243e-01 -1.33884922e-01
      -1.33884922e-01 -6.56684339e-02 2.08166817e-17 1.26152158e-01
      -1.48691297e-01 -4.40564118e-02 -4.40564118e-02 -4.40564118e-02
      -7.34292716e-02 -1.33884922e-01 -1.33884922e-01 -6.56684339e-02
      -6.56684339e-02 5.21005653e-02 6.03732914e-02 -4.40564118e-02
      3.16862762e-03 -6.50478676e-02 -2.47716787e-03 -1.33884922e-01
      -1.33884922e-01 -6.56684339e-02 -6.56684339e-02 1.12473860e-01
      1.36620536e-01 -5.14307581e-02 8.94253235e-03 -5.92739619e-02
      -8.29246417e-02 -2.71362692e-01 4.92294435e-04 -6.56684339e-02
      1.04552522e-01 6.87087849e-02 1.45003706e-01 -3.30697224e-02
      1.28595456e-01 1.86841711e-01 -1.10612819e-02 9.88607877e-04
      8.87545384e-03 8.33549537e-03 1.31325394e-01 1.84324339e-01
      8.38315953e-03 1.16518728e-01 3.59487921e-01 1.03455596e-02
      -5.53228743e-02 7.32804388e-02 3.17070484e-01 1.86933592e-01
      1.04546510e-01 8.86017270e-03 1.41570652e-02 1.22292638e-01
      -2.08487781e-03 6.98974505e-02 -3.81602719e-02 -6.05660863e-02
      -1.05160706e-01 1.41627491e-01 3.62478793e-02 1.01916313e-01
      8.38315953e-03 1.31926060e-01 -7.50685930e-02 8.40599015e-02
      3.56732495e-02 -2.15029538e-01 -2.66998500e-01 -2.29712605e-04
      2.65431628e-02 -5.25081232e-02 8.38315953e-03 5.23186363e-02
      1.13229170e-01 3.08762729e-01 5.36976196e-03 1.85315683e-01
      -1.24355301e-01 7.17339478e-03 -1.16217496e-04 6.09105341e-02</_>
    <_>
      2.38916740e-01 -1.93996251e-01 -1.61773771e-01 1.81277454e-01
      -3.33130434e-02 -4.32984121e-02 -1.68830186e-01 -1.31838984e-16
      9.25366879e-02 9.25366879e-02 -1.09466866e-01 -1.70072004e-01
      -1.71125099e-01 -6.93939850e-02 -2.05788195e-01 -1.84455246e-01
      -9.09507498e-02 -1.69389307e-01 9.25366879e-02 9.25366879e-02
      -6.55240566e-02 -6.41739964e-02 -1.27182290e-01 -1.97470207e-02
      -1.59437969e-01 -8.27241316e-02 1.07803624e-02 -6.76581934e-02
      -1.69389307e-01 -1.95484832e-02 1.49840817e-01 -6.41739964e-02
      -1.08031526e-01 1.48340035e-02 -3.17271091e-02 -8.27241316e-02
      -8.27241316e-02 5.90258539e-02 -1.17305160e-01 3.82398218e-02
      1.49840817e-01 -4.41554263e-02 7.15790242e-02 6.70750588e-02
      -5.32101355e-02 -1.55544758e-01 -8.18206817e-02 1.36905298e-01
      -7.44154379e-02 3.82398218e-02 1.06951103e-01 6.20023496e-02
      2.47910038e-01 6.70750588e-02 2.17308830e-02 -4.41749655e-02
      -8.18206817e-02 1.79795012e-01 8.21826309e-02 -1.66795224e-01
      1.90534696e-01 2.34477505e-01 3.69545072e-01 -1.28181636e-01
      2.45117000e-03 -3.77140194e-02 3.28667760e-01 1.80698469e-01
      1.22034147e-01 -7.03026727e-02 1.30120486e-01 3.06451499e-01
      4.18008268e-02 1.70937032e-01 1.45270322e-02 -1.57948121e-01
      -1.25603914e-01 3.43235463e-01 1.68229446e-01 -4.41554263e-02
      5.22410497e-02 3.30303162e-01 -7.67148286e-02 -4.60301973e-02
      -5.49153704e-03 -2.10189179e-01 -1.64326727e-01 3.05818617e-02
      3.05818617e-02 5.45601919e-02 -1.31838984e-16 1.01731114e-01
      1.02634564e-01 4.39239144e-01 -4.44988236e-02 2.05716074e-01
      -6.46570921e-02 2.49915440e-02 7.36214444e-02 1.18734188e-01</_>
    <_>
      -4.79953969e-03 -1.07374586e-01 -9.61887389e-02 7.95671791e-02
      -4.72920425e-02 -5.11519313e-02 -1.10977024e-01 8.84708973e-17
      8.84708973e-17 8.84708973e-17 -6.00825436e-02 -3.65873356e-03
      -3.65873356e-03 -1.07374586e-01 -1.77569181e-01 -1.10977024e-01
      -1.10977024e-01 -5.98250888e-02 8.84708973e-17 8.84708973e-17
      7.58606941e-02 2.85686553e-02 2.85686553e-02 -4.16259356e-02
      5.27187530e-03 -1.10977024e-01 -1.10977024e-01 -5.98250888e-02
      -5.98250888e-02 -5.98250888e-02 2.06137836e-01 -4.16259356e-02
      -4.16259356e-02 -9.27778706e-02 -2.23258231e-02 -1.10977024e-01
      -1.10977024e-01 -5.98250888e-02 -5.98250888e-02 -5.98250888e-02
      1.35943234e-01 -4.16259356e-02 -4.16259356e-02 -6.07039519e-02
      -5.46400771e-02 -1.43291280e-01 -1.02834506e-02 -5.98250888e-02
      -5.98250888e-02 -5.98250888e-02 8.06428939e-02 7.39532113e-02
      3.78470160e-02 -1.33049181e-02 -7.58606941e-02 -2.85686553e-02
      1.04439169e-01 1.43567860e-01 8.05287510e-02 1.99804064e-02
      9.18287337e-02 2.15416193e-01 2.15416193e-01 3.12564336e-02
      -2.85686553e-02 -2.85686553e-02 1.04439169e-01 1.55591100e-01
      1.55591100e-01 -1.10296726e-01 8.84708973e-17 8.84708973e-17
      -1.33007824e-01 -6.02571033e-02 -2.85686553e-02 -1.58845782e-01
      -1.54985890e-01 -2.19780728e-02 -2.19780728e-02 -9.77636799e-02
      8.84708973e-17 8.84708973e-17 -1.68276623e-01 -1.50808901e-01
      -2.85686553e-02 -1.58845782e-01 -1.54985890e-01 -2.19780728e-02
      -1.02620967e-01 -1.77569181e-01 8.84708973e-17 8.84708973e-17
      8.84708973e-17 -5.11519313e-02 -1.84159756e-01 -4.14942876e-02
      -1.71771422e-01 -4.14942876e-02 3.21401982e-03 8.84708973e-17</_>
    <_>
      -1.73030625e-04 -6.08720519e-02 4.81355265e-02 -6.27388060e-02
      -1.99923292e-03 -2.70503350e-02 -3.68550941e-02 4.16333634e-17
      4.16333634e-17 4.16333634e-17 2.77939532e-02 1.06457304e-02
      1.06457304e-02 -7.33242723e-06 -8.06761980e-02 -3.68550941e-02
      -3.68550941e-02 -9.80475824e-03 4.16333634e-17 4.16333634e-17
      2.77939532e-02 2.57947203e-02 2.57947203e-02 1.06457304e-02
      -2.90495679e-02 -3.68550941e-02 -3.68550941e-02 -9.80475824e-03
      -9.80475824e-03 -9.80475824e-03 1.06470920e-01 -6.55272081e-02
      -8.06761980e-02 -1.07726537e-01 -3.88543271e-02 -3.68550941e-02
      -3.68550941e-02 -9.80475824e-03 -9.80475824e-03 -9.80475824e-03
      4.16333634e-17 -7.88094401e-02 -8.06761980e-02 -1.07726537e-01
      -1.56605676e-01 -1.54606447e-01 -3.68550941e-02 -9.80475824e-03
      -9.80475824e-03 -9.80475824e-03 4.16333634e-17 -7.86769688e-02
      -8.06761980e-02 -1.07726537e-01 -1.56605676e-01 -1.54606447e-01
      -3.68550941e-02 -9.80475824e-03 -9.80475824e-03 1.19006969e-01
      6.18369319e-02 6.18369319e-02 6.18369319e-02 -6.50273636e-02
      -7.48321190e-02 -7.48321190e-02 4.29192297e-02 8.13263282e-03
      -9.80475824e-03 3.84632461e-02 1.79373901e-02 1.28811732e-01
      1.10603729e-02 -1.59899611e-02 -2.57947203e-02 -1.04471684e-01
      -7.94205815e-02 3.83307673e-02 -8.86142030e-02 -7.88094401e-02
      6.69747889e-02 1.28811732e-01 9.06114094e-03 -1.79891940e-02
      -2.76614744e-02 -1.04471684e-01 -1.59194902e-01 -4.14435565e-02
      -9.04809535e-02 -8.06761980e-02 8.21237788e-02 6.69747889e-02
      6.69747889e-02 1.01761386e-01 -1.59899611e-02 -6.87139481e-02
      -1.98295072e-01 -1.19618103e-01 -9.80475824e-03 1.51489889e-02</_>
    <_>
      1.03161372e-02 -3.05477548e-02 -7.98506439e-02 -1.85016721e-01
      -2.80290172e-02 -8.46203242e-04 -1.07243426e-01 1.13183878e-01
      1.38777878e-17 1.38777878e-17 -9.48499516e-02 -1.35713845e-01
      -7.18328506e-02 3.59076336e-02 -1.51384845e-02 -5.05490601e-02
      4.97057277e-04 6.34810254e-02 2.20924363e-01 1.13183878e-01
      -9.48499516e-02 3.59076336e-02 3.59076336e-02 3.59076336e-02
      1.67275015e-02 -9.98519436e-02 4.97057277e-04 6.34810254e-02
      6.34810254e-02 -4.42594625e-02 1.38777878e-17 3.59076336e-02
      -1.51384845e-02 -7.81224519e-02 -1.40715837e-01 -9.98519436e-02
      -5.05490601e-02 6.34810254e-02 6.34810254e-02 6.34810254e-02
      1.38777878e-17 8.52105170e-02 9.00276005e-02 2.70436369e-02
      -2.04548463e-01 -1.14381693e-01 -5.05490601e-02 6.34810254e-02
      6.34810254e-02 6.34810254e-02 1.38777878e-17 2.31240496e-01
      9.00276005e-02 2.70436369e-02 -2.04548463e-01 -1.14381693e-01
      5.46170287e-02 6.34810254e-02 1.68647110e-01 -4.42594625e-02
      1.38777878e-17 3.26090455e-01 2.75044322e-01 4.30616476e-02
      -1.14381693e-01 -1.14381693e-01 5.46170287e-02 6.34810254e-02
      1.68647110e-01 -2.52293289e-01 1.38777878e-17 1.05166085e-01
      1.57091737e-01 4.30616476e-02 -1.14381693e-01 -2.09231645e-01
      -1.87111571e-01 -7.22328201e-02 -1.63696203e-02 -1.85016721e-01
      1.38777878e-17 1.05166085e-01 -1.53999403e-01 -4.71051298e-02
      -1.14381693e-01 -2.09231645e-01 -2.36414447e-01 -1.21535704e-01
      -1.21535704e-01 -1.85016721e-01 1.38777878e-17 1.05166085e-01
      1.05166085e-01 4.21821214e-02 -7.01222271e-02 1.06045611e-01
      -1.43273309e-01 2.62275571e-03 6.34810254e-02 1.38777878e-17</_>
    <_>
      -1.24014616e-01 -8.68538171e-02 -1.82366312e-01 -8.49793553e-02
      5.51413819e-02 2.84079704e-02 -2.18802765e-01 1.11022302e-16
      7.20262602e-02 7.20262602e-02 -1.24014616e-01 -1.27249435e-01
      -1.41970694e-01 -4.45837341e-02 3.15302680e-03 3.87428366e-02
      -1.02495857e-01 -1.59078360e-01 7.20262602e-02 7.20262602e-02
      -1.24014616e-01 -1.82366312e-01 -1.41970694e-01 -4.45837341e-02
      -4.88636717e-02 -1.63740423e-02 -5.10889525e-03 -2.37583206e-03
      -8.70520994e-02 -8.70520994e-02 7.20262602e-02 -1.41970694e-01
      -7.27582574e-02 -1.61757637e-02 -5.12395054e-02 -8.84002969e-02
      -3.32834199e-02 5.46155125e-02 -8.70520994e-02 -8.70520994e-02
      1.12421878e-01 1.05331466e-02 4.35486473e-02 -1.61757637e-02
      -1.79758728e-01 -1.61802649e-01 -3.32834199e-02 5.46155125e-02
      1.67037383e-01 -8.70520994e-02 2.09808841e-01 2.02101126e-01
      4.35486473e-02 -1.61757637e-02 -1.79758728e-01 -1.61802649e-01
      -3.32834199e-02 5.46155125e-02 1.26641765e-01 2.92548072e-02
      4.03956175e-02 2.09808841e-01 2.97941208e-01 1.09697588e-01
      -4.93807681e-02 -1.21407025e-01 -3.32834199e-02 5.46155125e-02
      1.67037383e-01 4.18016836e-02 1.27907351e-01 1.68302968e-01
      1.11810006e-01 2.39110701e-02 7.85265863e-02 -1.17514290e-01
      -1.33050963e-01 2.36427877e-02 4.17732596e-02 1.99630514e-01
      1.27907351e-01 1.27907351e-01 -9.05942172e-02 -1.06466889e-01
      -1.35167286e-01 -1.17514290e-01 -1.88167840e-01 -3.14740911e-02
      -5.68347983e-02 -5.44589646e-02 1.11022302e-16 1.11022302e-16
      1.11022302e-16 -1.93287898e-02 -2.16418162e-01 -1.56693742e-01
      -2.38438278e-01 3.00577655e-02 -8.70520994e-02 7.20262602e-02</_>
    <_>
      3.34923081e-02 3.19948383e-02 2.92517915e-02 2.92517915e-02
      3.29885073e-02 3.72290239e-02 2.37436462e-02 4.51122336e-02
      4.51122336e-02 4.51122336e-02 3.34923081e-02 2.92517915e-02
      2.92517915e-02 2.92517915e-02 2.13685855e-02 1.58604402e-02
      2.37436462e-02 2.37436462e-02 4.51122336e-02 4.51122336e-02
      3.34923081e-02 2.92517915e-02 2.92517915e-02 2.92517915e-02
      3.29885073e-02 1.58604402e-02 2.37436462e-02 2.37436462e-02
      2.37436462e-02 2.37436462e-02 4.51122336e-02 2.92517915e-02
      2.13685855e-02 2.13685855e-02 1.16199227e-02 1.58604402e-02
      1.58604402e-02 2.37436462e-02 2.37436462e-02 2.37436462e-02
      4.51122336e-02 3.19948383e-02 2.13685855e-02 2.13685855e-02
      1.16199227e-02 1.58604402e-02 1.58604402e-02 2.37436462e-02
      2.37436462e-02 2.37436462e-02 4.51122336e-02 3.34923081e-02
      2.13685855e-02 2.13685855e-02 1.16199227e-02 1.58604402e-02
      1.58604402e-02 2.37436462e-02 2.37436462e-02 2.37436462e-02
      4.51122336e-02 4.51122336e-02 3.72290239e-02 3.72290239e-02
      1.58604402e-02 1.58604402e-02 1.58604402e-02 2.37436462e-02
      2.37436462e-02 9.38067865e-03 4.51122336e-02 4.51122336e-02
      4.51122336e-02 3.72290239e-02 1.58604402e-02 4.24051750e-03 0.
      7.88320601e-03 1.06262509e-02 2.92517915e-02 4.51122336e-02
      4.51122336e-02 4.08717133e-02 3.29885073e-02 1.58604402e-02
      4.24051750e-03 0. 7.88320601e-03 7.88320601e-03 2.92517915e-02
      4.51122336e-02 4.51122336e-02 4.51122336e-02 4.51122336e-02
      3.72290239e-02 3.72290239e-02 2.28660572e-02 4.23691869e-02
      2.37436462e-02 4.51122336e-02</_>
    <_>
      1.83953196e-01 4.23927717e-02 -1.58638805e-02 -3.47200215e-01
      -3.18875253e-01 -1.65355027e-01 -4.34589162e-02 -2.77555756e-17
      3.98549847e-02 1.54092669e-01 1.13663636e-01 2.53528170e-03
      -6.70309961e-02 -1.24422714e-01 -1.65355027e-01 -1.65355027e-01
      -1.65355027e-01 -2.77555756e-17 -2.77555756e-17 1.54092669e-01
      -8.84973854e-02 4.46777965e-04 -5.16913868e-02 -5.16913868e-02
      -1.44614264e-01 -1.65355027e-01 -1.73766002e-01 -8.41097347e-03
      -5.20615503e-02 4.27625217e-02 -1.83946878e-01 -4.30121385e-02
      3.90372835e-02 3.90372835e-02 -1.32833689e-01 -2.40716755e-01
      -1.20189935e-01 -3.04423571e-02 -8.25805217e-02 -1.90772470e-02
      4.10529897e-02 1.10618651e-01 1.09328017e-01 1.04919143e-01
      -3.36940400e-02 -3.85557339e-02 -6.06447319e-03 -8.25805217e-02
      1.92311823e-01 3.43622714e-02 -3.23186591e-02 -2.03478053e-01
      -4.84490059e-02 -4.84490059e-02 4.14200723e-02 -9.61057767e-02
      -1.24943949e-01 -9.86533612e-02 -1.15483314e-01 -1.68725383e-02
      2.20283289e-02 -8.02618936e-02 -2.06453562e-01 -1.01131827e-01
      -2.57700905e-02 7.16406927e-02 3.74556556e-02 1.70793816e-01
      -4.38465178e-02 2.94297859e-02 -5.07029928e-02 4.66367379e-02
      1.23392582e-01 1.55415222e-01 9.20597315e-02 2.96661347e-01
      2.91228145e-01 2.10315511e-01 2.51026630e-01 2.24781595e-02
      1.08435780e-01 1.00570932e-01 -3.81877646e-02 1.22413620e-01
      2.27640018e-01 -1.49058290e-02 6.30402416e-02 2.31852569e-02
      9.53104720e-02 2.02789269e-02 6.10012114e-02 -9.83963832e-02
      -9.67403129e-02 -1.21108759e-02 5.81679977e-02 5.23520075e-02
      1.25889197e-01 4.38849777e-02 -1.16331898e-01 -4.58632037e-03</_>
    <_>
      -1.87385418e-02 -4.00664285e-02 -2.11707890e-01 -2.16683239e-01
      -2.29315877e-01 -2.41356149e-01 -5.10310978e-02 -2.53269627e-16
      1.38072163e-01 1.80889562e-01 -4.28403094e-02 -1.14024021e-01
      -3.41135859e-01 -2.17254564e-01 -7.35599250e-02 -9.05945972e-02
      -9.05945972e-02 8.51858780e-02 1.30490318e-01 1.79208264e-01
      1.72566190e-01 5.87759365e-04 -1.47815138e-01 -1.15556687e-01
      -1.34549290e-01 3.50548625e-02 -3.66570130e-02 1.46705315e-01
      -2.45169669e-01 2.42141545e-01 6.03036992e-02 -4.99544553e-02
      -1.19894072e-01 -7.10719228e-02 -7.10719228e-02 -1.76771104e-01
      -3.66570130e-02 -2.77504511e-02 -1.36404544e-01 -9.27983224e-03
      6.81759641e-02 -7.63113648e-02 2.26900786e-01 5.52048273e-02
      5.34038581e-02 -4.71859016e-02 -2.68926937e-02 1.78966045e-01
      -2.79650837e-02 1.30108759e-01 -5.16128354e-02 -1.16663843e-01
      1.11582264e-01 -1.37401760e-01 -1.24637350e-01 1.18122818e-02
      -1.21971883e-01 1.94577836e-02 9.16798040e-02 -2.73740768e-01
      -3.10517345e-02 -1.57786347e-02 -9.92543064e-03 -7.82680511e-02
      1.90239206e-01 -8.23037326e-02 -6.21119924e-02 -1.10123781e-02
      -1.11820020e-01 3.83460261e-02 -1.43701464e-01 -1.69921175e-01
      1.93443909e-01 1.68256000e-01 3.25716257e-01 3.25716257e-01
      1.54871181e-01 2.31479451e-01 3.26422341e-02 1.70054287e-01
      -4.97062467e-02 2.54653931e-01 4.47200276e-02 9.46701914e-02
      3.25716257e-01 1.48590490e-01 2.85050794e-02 -1.85479045e-01
      1.19687922e-01 1.99861348e-01 -4.15606238e-02 -1.17489092e-01
      -1.88236862e-01 6.30668849e-02 3.89459319e-02 -2.75089778e-02
      -9.66072455e-02 -2.05663115e-01 -1.79544702e-01 -1.51794165e-01</_>
    <_>
      1.41594052e-01 -5.29918028e-03 -7.44422823e-02 1.34038152e-02
      -3.20260257e-01 -1.11736149e-01 -9.74053890e-02 -5.55111512e-17
      -5.55111512e-17 -5.55111512e-17 6.65362254e-02 -3.82259116e-02
      -1.09561030e-02 -9.58860368e-02 -1.11736149e-01 -1.11736149e-01
      -1.11736149e-01 -5.55111512e-17 -5.55111512e-17 -5.55111512e-17
      2.28744149e-01 1.74512655e-01 1.17008001e-01 -1.53254820e-02
      -2.68062185e-02 -1.11736149e-01 -1.11736149e-01 -5.55111512e-17
      -8.15013051e-02 -8.15013051e-02 1.31338760e-01 -1.53254820e-02
      -1.53254820e-02 -1.53254820e-02 -1.53254820e-02 -2.19130799e-01
      -1.11736149e-01 -1.43307578e-02 -7.18354061e-02 -1.53336719e-01
      8.95921290e-02 -9.94723756e-04 -1.53254820e-02 -1.53254820e-02
      9.61919129e-02 -6.60326853e-02 4.13619615e-02 -7.18354061e-02
      -7.18354061e-02 -2.13188976e-01 -5.71454950e-02 -3.59892510e-02
      -3.59892510e-02 -1.22372642e-01 -1.13283917e-01 -5.88927325e-03
      -5.88927325e-03 3.40114683e-02 -3.80426496e-02 -1.24795631e-01
      -3.37260216e-02 -6.48679882e-02 -1.22372642e-01 -1.13283917e-01
      -5.88927325e-03 -5.88927325e-03 -5.88927325e-03 -5.88927325e-03
      -5.88927325e-03 -8.27154815e-02 -1.86824128e-01 -1.95912853e-01
      -1.77533403e-01 7.48381242e-02 1.80934861e-01 1.80934861e-01
      1.80934861e-01 1.80934861e-01 1.95265621e-01 -3.28599545e-03
      -5.55111512e-17 -9.08871740e-03 -1.56384110e-01 -9.32414923e-03
      1.80934861e-01 1.71846136e-01 9.07501578e-02 9.07501578e-02
      4.93881963e-02 -6.57972544e-02 -5.55111512e-17 -2.88652122e-01
      -3.39338243e-01 -9.96755734e-02 -1.71510980e-01 -7.14366734e-02
      -6.23479560e-02 -6.23479560e-02 -3.36438790e-02 -1.16483368e-01</_>
    <_>
      6.02203012e-02 6.43828511e-02 -1.02309719e-01 -2.15329498e-01
      -2.56464392e-01 -7.40364417e-02 -1.61004029e-02 2.08166817e-17
      2.08166817e-17 2.08166817e-17 1.11452021e-01 -7.17603564e-02
      -1.97117962e-02 4.79830280e-02 -1.61004029e-02 -1.61004029e-02
      -1.61004029e-02 2.08166817e-17 2.08166817e-17 2.08166817e-17
      1.69388056e-01 1.53287649e-01 1.53287649e-01 8.44250098e-02
      -1.61004029e-02 -1.61004029e-02 -1.61004029e-02 2.08166817e-17
      -6.81489632e-02 -6.81489632e-02 1.53287649e-01 -2.64367517e-02
      -9.52993929e-02 -9.52993929e-02 -9.52993929e-02 -8.21638480e-02
      -1.61004029e-02 2.08166817e-17 2.08166817e-17 -6.81489632e-02
      -7.91989937e-02 -9.52993929e-02 -9.52993929e-02 -9.52993929e-02
      -9.52993929e-02 -6.84979483e-02 -1.61004029e-02 2.08166817e-17
      2.08166817e-17 -1.72215030e-01 -7.72490129e-02 -1.59412861e-01
      -1.59412861e-01 -1.59412861e-01 -1.46277323e-01 -8.02138746e-02
      -8.02138746e-02 -6.41134754e-02 -8.02138746e-02 -1.01239093e-01
      -2.73351707e-02 -1.22634567e-01 -8.57207105e-02 -1.83147248e-02
      4.77487221e-02 4.77487221e-02 4.77487221e-02 1.08348662e-02
      -8.02138746e-02 4.41744886e-02 2.70708241e-02 7.87734892e-03
      5.58904186e-02 6.90259635e-02 1.35089412e-01 1.35089412e-01
      1.35089412e-01 9.81755555e-02 -1.61004029e-02 -9.52993929e-02
      1.14411511e-01 1.38054267e-01 5.58904186e-02 8.26918632e-02
      1.35089412e-01 4.82617095e-02 7.12681096e-03 7.12681096e-03
      2.08166817e-17 -7.91989937e-02 7.91373402e-02 -1.52753934e-01
      -2.05151469e-01 -2.51580160e-02 3.45958062e-02 -6.00873120e-03
      -1.61004029e-02 -1.61004029e-02 -7.91989937e-02 -1.03363488e-02</_>
    <_>
      4.75068092e-02 4.75068092e-02 -3.13182741e-01 -5.62802017e-01
      -2.71168441e-01 -2.17069760e-02 1.15683548e-01 2.56485522e-01
      -1.52655666e-16 -1.52655666e-16 -6.45324215e-02 -2.99641222e-01
      -4.18851152e-02 -4.98776361e-02 1.46547817e-02 1.46547817e-02
      4.35988642e-02 2.63903201e-01 2.63903201e-01 2.27541432e-01
      -6.45324215e-02 7.16032684e-02 -4.98776361e-02 -4.98776361e-02
      -5.55448979e-02 -5.55448979e-02 -8.72501433e-02 1.33054182e-01
      -2.49279924e-02 6.95592612e-02 -1.27963543e-01 -4.67789546e-02
      -5.64640984e-02 -5.64640984e-02 -1.80726647e-01 -1.80726647e-01
      -8.72501433e-02 6.89620227e-02 -5.25188781e-02 -1.40301377e-01
      -6.74974173e-04 3.65721472e-02 7.99894705e-03 7.99894705e-03
      7.99894705e-03 -1.16263598e-01 -1.16194226e-01 1.76808015e-02
      1.76808015e-02 -7.72413090e-02 -8.14213827e-02 -1.05960064e-01
      -1.50314346e-01 -1.50314346e-01 -8.01146626e-02 -7.91954696e-02
      -7.91954696e-02 -7.99831599e-02 4.50670831e-02 -3.12999368e-01
      -1.73292216e-02 -2.88334396e-02 -1.50314346e-01 -8.01146626e-02
      4.50670831e-02 -7.91954696e-02 -7.91954696e-02 -1.43658504e-01
      4.50670831e-02 -2.21988633e-01 -1.64899752e-01 -4.63426821e-02
      1.83202237e-01 1.38847962e-01 2.03380376e-01 7.91178271e-02
      7.91178271e-02 1.46547817e-02 2.67472535e-01 -1.28207773e-01
      -6.58645947e-03 1.76503032e-01 4.82952632e-02 5.23532294e-02
      2.03380376e-01 7.91178271e-02 7.91178271e-02 1.46547817e-02
      1.00922465e-01 -6.45324215e-02 -6.58645947e-03 -2.55677044e-01
      -2.01582998e-01 4.82952632e-02 2.42657028e-02 7.91178271e-02
      1.46547817e-02 1.46547817e-02 3.63900475e-02 -6.45324215e-02</_>
    <_>
      -2.05849670e-03 5.75224161e-02 -3.13080341e-01 -2.99352497e-01
      -2.60364473e-01 -1.25268921e-01 -1.68385170e-02 -1.11022302e-16
      1.22840300e-01 2.88918227e-01 -1.50818080e-01 -2.36107618e-01
      -1.93664193e-01 -8.09274390e-02 1.85378581e-01 6.81997687e-02
      -8.24874789e-02 -4.27814499e-02 8.00588429e-02 2.46136770e-01
      -1.56479552e-01 1.59637406e-02 -9.77271199e-02 8.51504803e-02
      -4.72881831e-02 1.01158686e-01 -2.18857564e-02 -7.55649526e-03
      -1.27700686e-01 1.18640222e-01 -5.04777767e-02 1.59637406e-02
      5.65605517e-03 1.21144004e-01 -4.57024872e-02 -1.34273514e-01
      -2.18857564e-02 1.69680044e-01 -1.20304629e-01 -8.17232579e-02
      5.29442355e-02 1.20656807e-02 1.21144004e-01 1.21144004e-01
      -4.57024872e-02 -1.93086028e-01 -5.48446774e-02 5.59891872e-02
      1.78829476e-01 -7.16185123e-02 1.54869884e-01 3.73136811e-02
      -1.09336101e-01 -1.09336101e-01 -2.74103671e-01 -2.05061778e-01
      -1.72102869e-01 -9.42279249e-02 -4.92625646e-02 -2.58075982e-01
      -2.10563056e-02 -7.81742632e-02 -1.09336101e-01 -1.08025745e-01
      -3.86714712e-02 -1.29321411e-01 -1.29321411e-01 -1.72102869e-01
      -4.84940000e-02 2.19446197e-01 -1.43896610e-01 -1.36097237e-01
      4.89226617e-02 -6.34578466e-02 2.24767551e-01 1.01927258e-01
      1.01927258e-01 1.01927258e-01 1.88395724e-01 2.78726012e-01
      -8.02629888e-02 8.52731466e-02 -6.35511056e-02 -4.62242821e-03
      -7.43665621e-02 9.98483375e-02 1.01927258e-01 1.01158686e-01
      2.29678884e-01 5.66982888e-02 -1.23044446e-01 -3.41794699e-01
      -4.28774893e-01 -1.22363448e-01 -2.49172539e-01 -1.99285775e-01
      -1.43292602e-02 1.01158686e-01 -1.42111173e-02 5.66982888e-02</_>
    <_>
      3.65758911e-02 3.65758911e-02 3.59265581e-02 3.79388756e-03
      2.31707226e-02 1.47226378e-02 5.50838299e-02 7.82217458e-02
      7.82217458e-02 7.82217458e-02 6.72929958e-02 2.80202702e-02
      3.79388756e-03 1.18028410e-02 2.27315910e-02 2.27315910e-02
      3.17263454e-02 7.02127963e-02 7.02127963e-02 7.02127963e-02
      6.72929958e-02 3.40718627e-02 1.18028410e-02 1.18028410e-02
      2.27315910e-02 2.27315910e-02 1.09287500e-02 6.64189085e-02
      6.64189085e-02 7.02127963e-02 3.51603255e-02 1.18028410e-02
      8.00895318e-03 8.00895318e-03 8.00895318e-03 1.89377032e-02
      1.09287500e-02 5.79708219e-02 2.67070476e-02 2.67070476e-02
      3.22353356e-02 1.64570380e-02 8.00895318e-03 8.00895318e-03
      8.00895318e-03 1.09287500e-02 1.09287500e-02 2.67070476e-02
      2.67070476e-02 3.05009354e-02 5.50510250e-02 8.00895318e-03
      8.00895318e-03 8.00895318e-03 1.89377032e-02 1.47226378e-02
      1.47226378e-02 3.05009354e-02 1.47226378e-02 4.54397425e-02
      7.44278580e-02 3.92727293e-02 8.00895318e-03 1.89377032e-02
      2.27315910e-02 2.27315910e-02 2.27315910e-02 1.47226378e-02
      1.47226378e-02 4.35057469e-02 7.44278580e-02 6.34991080e-02
      1.18028410e-02 2.27315910e-02 2.27315910e-02 2.27315910e-02
      2.27315910e-02 2.27315910e-02 3.21654752e-02 4.35057469e-02
      7.44278580e-02 6.34991080e-02 4.77208123e-02 1.89377032e-02
      2.27315910e-02 1.18028410e-02 2.27315910e-02 2.27315910e-02
      5.43175936e-02 5.92840463e-02 6.64189085e-02 5.54901585e-02
      6.34991080e-02 4.77208123e-02 1.18028410e-02 1.18028410e-02
      2.27315910e-02 2.27315910e-02 5.82982451e-02 5.92840463e-02</_>
    <_>
      -4.29051191e-01 2.33907834e-01 -4.79426757e-02 1.24767870e-01
      4.19887453e-02 1.05735935e-01 1.05735935e-01 -9.92261828e-16
      3.41951400e-01 -1.67721942e-01 -2.80757725e-01 -3.35073441e-01
      -2.95120895e-01 -1.29997090e-01 4.19887453e-02 1.79726645e-01
      1.79726645e-01 5.39325848e-02 3.70289266e-01 -1.67721942e-01
      2.37670586e-01 -6.13152329e-03 -1.34522259e-01 -8.33940506e-02
      -8.57201219e-02 2.21715391e-01 2.21715391e-01 1.81897551e-01
      1.39908805e-01 2.73487978e-02 3.61831695e-01 -6.13152329e-03
      -2.85334378e-01 -2.36802846e-01 1.47651374e-01 2.21715391e-01
      4.85609211e-02 1.47724673e-01 4.19887453e-02 -7.56046847e-02
      1.21577337e-01 -3.07134420e-01 -1.49125755e-01 9.34533849e-02
      2.45212868e-01 3.88610989e-01 5.38531169e-02 2.75647968e-01
      -5.13504185e-02 2.29481027e-01 -5.33791371e-02 6.91786185e-02
      -1.57478228e-01 -2.86962777e-01 -5.59862815e-02 3.23253907e-02
      2.86526792e-02 3.19281161e-01 1.19071692e-01 -9.92614552e-02
      -7.31392652e-02 1.52316079e-01 -1.16316594e-01 -4.75985289e-01
      4.69193310e-01 -4.33342904e-01 6.53968975e-02 -3.10555637e-01
      -5.09924591e-01 2.18627080e-01 -7.62167051e-02 9.43759531e-02
      -6.25125945e-01 2.07363833e-02 2.98165441e-01 4.16834563e-01
      -4.60047752e-01 -1.16564892e-01 2.11824682e-02 -3.48714113e-01
      -1.04874410e-01 4.38485444e-02 -2.85643399e-01 -4.12493825e-01
      -8.50253627e-02 1.16282813e-01 -4.36065644e-02 6.00949675e-02
      3.13535333e-01 6.25361323e-01 2.84321100e-01 -4.53403182e-02
      3.17227021e-02 1.28690943e-01 -2.19766833e-02 -5.63665926e-01
      -3.11541051e-01 -1.49802729e-01 -4.74842116e-02 1.70394346e-01</_>
    <_>
      -1.05696976e-01 -6.93745464e-02 -8.35655481e-02 1.65609509e-01
      2.77555756e-17 2.77555756e-17 2.77555756e-17 2.77555756e-17
      2.77555756e-17 -1.45586669e-01 -2.04867199e-01 -6.58432618e-02
      -6.58432618e-02 -6.93745464e-02 2.77555756e-17 2.77555756e-17
      2.77555756e-17 2.77555756e-17 2.77555756e-17 -1.45586669e-01
      1.62091717e-01 4.94289063e-02 4.94289063e-02 6.14065304e-03
      1.34468898e-01 2.77555756e-17 2.77555756e-17 2.77555756e-17
      2.77555756e-17 -5.27541116e-02 2.93029308e-01 6.14065304e-03
      -7.45567977e-02 -7.45567977e-02 1.41633302e-01 2.77555756e-17
      -3.17494757e-02 2.77555756e-17 2.77555756e-17 -5.73091581e-02
      1.06957005e-02 -1.56027853e-01 -1.60582900e-01 -1.51736006e-01
      -6.79096282e-02 -1.08542116e-02 -1.08542116e-02 2.77555756e-17
      -2.48155460e-01 -2.48155460e-01 -7.61245638e-02 8.62371176e-02
      -6.47005364e-02 -1.24540061e-01 -1.15693167e-01 3.76284346e-02
      3.87046933e-01 2.94185251e-01 1.60801440e-01 -1.60537854e-01
      6.67401701e-02 1.65744066e-01 -1.00417972e-01 -1.64323077e-02
      -1.64323077e-02 -4.30690125e-02 -1.32383332e-01 5.30812703e-02
      2.54021585e-01 -1.60537854e-01 -1.92914352e-01 -2.82458693e-01
      -3.35212797e-01 -1.38970241e-01 1.19060345e-01 -4.30690125e-02
      -1.32383332e-01 -8.69536027e-02 -4.04279912e-03 -2.33315289e-01
      -1.15735143e-01 -1.68489248e-01 -8.60937834e-02 -2.12687850e-01
      4.34036516e-02 6.17505275e-02 5.74586801e-02 5.74586801e-02
      -1.01170272e-01 -1.71797171e-01 -3.17494757e-02 -3.17494757e-02
      -3.17494757e-02 -1.56316072e-01 -2.09555894e-01 -2.82407582e-01
      -2.25098416e-01 -2.33945310e-01 -6.66386914e-03 -3.17494757e-02</_>
    <_>
      -2.17435881e-02 -6.51710629e-02 1.46296754e-01 -8.15539360e-02
      -8.32667268e-17 -8.32667268e-17 -8.32667268e-17 -8.32667268e-17
      -4.41522431e-03 -2.01063976e-01 1.00614734e-01 3.89984772e-02
      3.89984772e-02 -4.94205812e-03 -8.32667268e-17 -8.32667268e-17
      -8.32667268e-17 -8.32667268e-17 -8.32667268e-17 -2.01063976e-01
      1.66707307e-01 1.00614734e-01 1.00614734e-01 3.89984772e-02
      -6.60925731e-02 -8.32667268e-17 -8.32667268e-17 -8.32667268e-17
      -8.32667268e-17 -1.75650060e-01 1.00614734e-01 -4.47632046e-03
      -6.60925731e-02 -6.60925731e-02 -6.60925731e-02 -8.32667268e-17
      -8.32667268e-17 -8.32667268e-17 -8.32667268e-17 -2.41742641e-01
      -8.32667268e-17 -1.49961859e-01 -2.16054425e-01 -2.16054425e-01
      -7.78616816e-02 -6.60925731e-02 -6.60925731e-02 -8.32667268e-17
      -6.60925731e-02 -6.60925731e-02 -2.54139211e-02 -1.70960546e-01
      -2.01611966e-01 -2.61901945e-01 -2.61901945e-01 -1.27364069e-01
      -9.15064961e-02 -8.32667268e-17 -6.60925731e-02 1.46296754e-01
      -1.37939721e-01 -1.88608319e-01 -1.64782301e-01 -1.43783599e-01
      1.53864726e-01 8.77721533e-02 1.13026820e-01 -3.84227969e-02
      -2.16054425e-01 1.46296754e-01 -1.72178879e-01 1.36306822e-01
      -4.89646234e-02 -4.89646234e-02 1.00449249e-01 3.32004994e-01
      1.33579783e-02 5.64057119e-02 -3.63740891e-01 -3.63740891e-01
      1.85289106e-03 1.61287203e-01 6.79641664e-02 -1.45708606e-01
      -7.52008110e-02 2.45886520e-01 -2.60970563e-01 4.10929918e-02
      -1.11940086e-01 -7.57139549e-02 8.44678432e-02 2.28515882e-02
      -2.78170034e-02 -1.21315651e-01 -1.40320584e-01 -1.34863794e-01
      -1.37354001e-01 -1.37354001e-01 -2.82384269e-02 1.09476633e-02</_>
    <_>
      -4.63510528e-02 1.90721914e-01 -1.72620863e-01 -7.22566694e-02
      1.19928122e-01 1.19928122e-01 1.19928122e-01 1.19928122e-01
      -4.29379046e-02 -3.21856767e-01 -1.65406346e-01 -1.65406346e-01
      -4.54782248e-02 -2.35061571e-02 1.29743472e-01 1.29743472e-01
      1.29743472e-01 1.29743472e-01 1.29743472e-01 -2.01928645e-01
      -1.21567184e-02 -3.56628746e-02 -3.56628746e-02 -3.56628746e-02
      1.24518618e-01 1.29743472e-01 1.29743472e-01 1.29743472e-01
      1.29743472e-01 -1.25324160e-01 1.36394566e-02 -3.56628746e-02
      -4.17158008e-03 -4.17158008e-03 -2.90569160e-02 1.29743472e-01
      4.30113636e-02 1.29743472e-01 1.29743472e-01 -1.20733663e-01
      8.22336692e-03 -1.33917034e-01 6.08398616e-02 9.45064500e-02
      8.92931670e-02 1.76475599e-01 -3.12174670e-03 1.29743472e-01
      -3.01121157e-02 -9.72770527e-03 -3.47145386e-02 1.84113979e-01
      -8.42761397e-02 -8.42761397e-02 -5.06095551e-02 4.18125913e-02
      1.33537695e-01 -8.46290067e-02 3.13859433e-01 -2.83695519e-01
      -6.91748336e-02 6.21356666e-02 6.92993999e-02 4.33642268e-02
      4.33642268e-02 -1.04071237e-01 -1.36095628e-01 -4.18352455e-01
      1.35414705e-01 -3.84759337e-01 -8.14331919e-02 -4.21375372e-02
      -1.76510647e-01 -1.34200647e-01 -1.32324696e-02 -1.04071237e-01
      -1.20992288e-01 -2.78567851e-01 8.14014897e-02 -2.09828451e-01
      1.98705364e-02 -6.53568096e-03 -7.52365440e-02 -1.58076718e-01
      -2.22412452e-01 1.19064890e-01 9.06231627e-02 -6.08699284e-02
      -7.20028207e-02 -1.24498092e-01 1.98705364e-02 1.30714461e-01
      1.21744208e-01 -8.02921429e-02 -1.67622820e-01 -2.00762779e-01
      -2.39405230e-01 -1.83933988e-01 1.47637278e-02 -1.34951085e-01</_>
    <_>
      -2.00780913e-01 1.49398744e-01 -2.11425900e-01 1.18108420e-02
      1.54824317e-01 9.81593281e-02 -1.38777878e-16 -1.38777878e-16
      8.88525918e-02 -1.02161705e-01 -2.39138141e-01 -8.17984249e-03
      -1.57564119e-01 4.43511317e-03 1.54824317e-01 1.54824317e-01
      9.81593281e-02 -1.38777878e-16 8.88525918e-02 -1.02161705e-01
      -1.73986152e-01 6.60985485e-02 1.35266080e-01 -2.66207438e-02
      5.66649809e-02 1.54824317e-01 1.54824317e-01 1.11081451e-01
      8.88525918e-02 -2.26582158e-02 1.01259083e-01 1.35266080e-01
      1.24084719e-01 2.22244054e-01 8.56712386e-02 1.54824317e-01
      8.09727386e-02 1.54824317e-01 8.88525918e-02 -2.26582158e-02
      1.35266080e-01 -9.26570520e-02 5.50228078e-03 1.73040722e-02
      -2.70292461e-02 8.19731387e-04 7.06596896e-02 1.54824317e-01
      -5.44685088e-02 -9.44468938e-03 1.24229372e-01 5.64693334e-03
      -3.93518582e-02 -3.93518582e-02 -1.70480371e-01 -2.18020558e-01
      -6.68819621e-02 -3.19188950e-03 -8.43138322e-02 -3.62874240e-01
      -5.30898310e-02 -7.42107816e-03 -2.81651672e-02 -4.72266302e-02
      -8.57110396e-02 -2.72944778e-01 -3.54563177e-01 -4.51406956e-01
      3.25876772e-02 -7.47353286e-02 7.04042464e-02 1.48776248e-01
      -9.32583734e-02 -6.42609373e-02 2.72536337e-01 1.38128633e-02
      -1.46922797e-01 -1.63735256e-01 -4.00118046e-02 2.21402705e-01
      -1.74859725e-02 -1.26997739e-01 -4.54237014e-02 -7.68588297e-03
      -1.89132839e-01 9.73111391e-02 6.41209036e-02 -6.35244995e-02
      1.04333736e-01 -3.57451551e-02 -1.65890977e-01 -1.01258613e-01
      -4.50131968e-02 -2.10751906e-01 -5.74029505e-01 -4.40848529e-01
      -1.39388457e-01 -4.33848910e-02 1.57931313e-01 8.80913585e-02</_>
    <_>
      1.02488808e-02 2.29746234e-02 2.29746234e-02 4.22462448e-02
      4.58781347e-02 4.58781347e-02 4.58781347e-02 4.58781347e-02
      2.59286892e-02 2.59286892e-02 1.27257416e-02 1.27257416e-02
      1.27257416e-02 2.29746234e-02 4.58781347e-02 4.58781347e-02
      4.58781347e-02 4.58781347e-02 4.58781347e-02 3.96626256e-02
      3.56292538e-02 2.64596771e-02 1.27257416e-02 1.27257416e-02
      3.21441963e-02 4.58781347e-02 4.58781347e-02 4.58781347e-02
      4.58781347e-02 4.58781347e-02 3.21441963e-02 1.27257416e-02
      1.27257416e-02 1.27257416e-02 2.29746234e-02 4.58781347e-02
      4.29997891e-02 4.58781347e-02 3.21441963e-02 3.21441963e-02
      2.64596771e-02 1.27257416e-02 1.27257416e-02 1.27257416e-02
      2.29746234e-02 3.67085598e-02 4.58781347e-02 4.58781347e-02
      1.27257416e-02 2.18953174e-02 2.02441700e-02 2.64596771e-02
      2.30775084e-02 2.28277911e-02 2.28277911e-02 2.30775084e-02
      1.67591143e-02 4.29997891e-02 1.27257416e-02 1.27257416e-02
      2.65353993e-02 2.29035113e-02 3.19973640e-02 2.28277911e-02
      2.28277911e-02 9.09385458e-03 3.12806340e-03 3.63188749e-03
      9.84739605e-03 1.27257416e-02 3.67842801e-02 3.65345627e-02
      3.31523903e-02 2.56789718e-02 4.22462448e-02 9.09385458e-03
      9.09385458e-03 6.46522641e-03 6.46522641e-03 1.27257416e-02
      3.67842801e-02 3.67842801e-02 3.31523903e-02 1.94184557e-02
      3.31523903e-02 1.20479213e-02 2.57818568e-02 3.19973640e-02
      2.28277911e-02 9.84739605e-03 3.67842801e-02 3.67842801e-02
      3.31523903e-02 2.56339647e-02 2.22968012e-02 1.94184557e-02
      3.31523903e-02 3.31523903e-02 4.29997891e-02 3.01983245e-02</_>
    <_>
      -8.85315239e-02 7.66458511e-02 2.92654019e-02 1.26218900e-01
      -1.99940912e-02 -7.70543963e-02 -7.70543963e-02 8.32667268e-17
      -1.48854092e-01 -1.79968879e-01 2.36647557e-02 -1.16369441e-01
      1.20622218e-01 4.42480370e-02 -1.99940912e-02 -1.20715469e-01
      -1.20715469e-01 -4.71630096e-02 -1.48854092e-01 -1.79968879e-01
      1.30306050e-01 1.13618098e-01 1.44575194e-01 2.09869161e-01
      -5.29198791e-04 -1.40709564e-01 -1.40709564e-01 -6.23505451e-02
      -4.23564538e-02 -4.38297361e-01 7.37199858e-02 -1.20166568e-02
      -1.44750029e-02 8.91536921e-02 8.91536921e-02 -1.40709564e-01
      -1.40709564e-01 -9.70484838e-02 -1.99940912e-02 -1.99805290e-01
      -1.20166568e-02 -1.20166568e-02 -1.28041744e-01 1.06584569e-02
      -5.09973336e-03 -1.59250706e-01 -1.02690235e-02 -1.40709564e-01
      -1.21685177e-01 -1.99805290e-01 -1.42131418e-01 5.42165674e-02
      -3.83256786e-02 1.41186416e-01 -1.88515410e-02 -1.72487441e-02
      2.15730980e-01 1.12904437e-01 -5.88709489e-02 1.19746946e-01
      3.03372182e-02 -2.22315155e-02 -1.06768250e-01 1.62680924e-01
      -6.92291409e-02 7.02127293e-02 3.03146206e-02 1.54338360e-01
      2.34314486e-01 -3.54275592e-02 -9.10415202e-02 -1.77186713e-01
      -1.97180808e-01 -1.13847502e-01 1.37414848e-02 1.37414848e-02
      7.02127293e-02 -1.34992093e-01 5.16133346e-02 -1.88607946e-01
      -4.73804474e-02 -1.53519735e-01 -1.43200591e-01 -8.25707614e-02
      1.37414848e-02 7.02127293e-02 2.20989715e-02 1.63541839e-01
      -9.98879224e-02 -4.06311303e-01 -9.09079518e-03 -2.90848874e-02
      -7.48625398e-02 -3.12866241e-01 -3.36533248e-01 -1.79258898e-01
      -1.35597825e-01 -5.85434325e-02 -1.63211733e-01 -5.02684973e-02</_>
    <_>
      3.04924860e-03 -1.66780263e-01 1.07444450e-01 -3.89375761e-02
      5.55111512e-17 -7.89032038e-03 -7.89032038e-03 5.55111512e-17
      -4.22471091e-02 -5.85004464e-02 1.79371834e-01 -2.42816377e-03
      5.25190383e-02 1.30807771e-03 5.55111512e-17 -7.89032038e-03
      -7.89032038e-03 5.55111512e-17 -4.22471091e-02 -5.85004464e-02
      1.24424636e-01 1.24424636e-01 1.40677974e-01 5.25190383e-02
      5.55111512e-17 -7.89032038e-03 -7.89032038e-03 -1.62533373e-02
      -1.62533373e-02 -1.13447644e-01 8.21775272e-02 2.96584889e-02
      -7.12005422e-02 -7.89032038e-03 -7.89032038e-03 -7.89032038e-03
      -7.89032038e-03 -7.89032038e-03 5.55111512e-17 -7.35658556e-02
      -1.13447644e-01 -1.13447644e-01 -7.12005422e-02 -1.06409557e-01
      -1.06409557e-01 -1.55091509e-02 -1.55091509e-02 -7.89032038e-03
      -5.85004464e-02 -5.85004464e-02 -1.13447644e-01 -1.13447644e-01
      -3.79441082e-01 -4.06759769e-01 -2.80522376e-01 -7.44717345e-02
      -1.55091509e-02 -5.01374267e-02 -1.13447644e-01 1.07444450e-01
      1.77735507e-01 -1.77561894e-01 -1.08154401e-01 -3.69538590e-02
      -1.59722939e-01 1.80183932e-01 1.21683478e-01 -7.40095973e-02
      -5.01374267e-02 9.95541289e-02 3.50507125e-02 9.95541289e-02
      9.95541289e-02 -1.55961141e-02 -8.21775272e-02 -8.21775272e-02
      3.16691905e-01 1.11921430e-01 -1.16718836e-01 -1.13447644e-01
      1.71558708e-01 9.95541289e-02 9.19352993e-02 -1.53246252e-02
      -8.21775272e-02 1.83121964e-01 -5.31139895e-02 -1.12424158e-01
      -2.80250907e-01 -2.52932191e-01 1.12833865e-01 -3.02722715e-02
      -3.78911011e-02 -7.42872059e-02 -2.07857162e-01 -5.31139895e-02
      -1.89621985e-01 -1.81731656e-01 5.55111512e-17 -3.86255234e-02</_>
    <_>
      1.03878736e-01 2.39541769e-01 4.74921539e-02 -4.13542539e-01
      1.60275903e-02 1.10381402e-01 1.69942722e-01 2.57898897e-01
      -3.88548315e-01 -2.96969712e-01 -5.25932014e-02 -1.89108118e-01
      2.36951560e-01 1.84727490e-01 2.05674827e-01 1.44236773e-01
      2.03798100e-01 2.01139688e-01 5.57171181e-02 -2.01642990e-01
      -2.94665933e-01 7.23715425e-02 2.16543332e-01 6.22792356e-02
      1.84727490e-01 -7.66871870e-02 -1.71258710e-02 -5.83982505e-02
      1.62525713e-01 -2.01627016e-01 -2.10308596e-01 -1.34897167e-02
      1.07791044e-01 -4.12676893e-02 -1.99135438e-01 -7.66871870e-02
      -1.71258710e-02 5.81573360e-02 1.84727490e-01 -6.47429749e-02
      -7.33881891e-02 1.23430699e-01 7.15634003e-02 1.73097730e-01
      3.05253901e-02 5.02350926e-02 -7.66871870e-02 -5.57398498e-02
      6.02522530e-02 -6.47429749e-02 -9.43355262e-02 1.47064790e-01
      -2.71926254e-01 -1.47228688e-02 -1.00339673e-01 -1.82130888e-01
      2.63801008e-01 -2.51208663e-01 1.11031577e-01 -2.43929699e-01
      -2.01134160e-01 -9.08020362e-02 -1.27078816e-01 -1.47228688e-02
      -2.07341433e-01 -5.96826337e-02 -2.05105215e-01 -2.22109765e-01
      3.66649061e-01 -5.23614049e-01 -5.30533120e-02 -9.79436189e-03
      -3.38994414e-02 -8.48931819e-02 -1.94810912e-01 -3.31731319e-01
      -5.96826337e-02 -3.83440852e-01 1.65135443e-01 -4.28656250e-01
      8.17912146e-02 4.57510203e-02 4.57510203e-02 4.16769683e-02
      -1.94810912e-01 -5.96826337e-02 1.58694357e-01 -9.36388671e-02
      -2.10892841e-01 -4.43197638e-01 -7.99990743e-02 1.86178051e-02
      3.48318070e-02 -1.30215123e-01 1.24564216e-01 1.61241323e-01
      -2.34549940e-02 1.03115156e-01 4.20031883e-03 -8.89703929e-02</_>
    <_>
      -6.45069033e-02 1.87880814e-01 -3.46532091e-02 4.83211987e-02
      2.16602921e-01 3.28824520e-02 -1.08407341e-01 -6.93889390e-18
      -1.72793850e-01 -3.79594602e-02 -1.39877740e-02 5.15565164e-02
      1.72382683e-01 1.36580557e-01 2.16602921e-01 1.56784162e-01
      1.42544527e-02 -1.44666523e-01 -1.72793850e-01 -3.79594602e-02
      -4.21918541e-01 -2.09516939e-02 1.33441016e-01 1.94456980e-01
      7.53131360e-02 4.37999628e-02 4.37999628e-02 -1.16360940e-01
      6.34469762e-02 -3.92169446e-01 -3.84698242e-01 -1.10346444e-01
      2.26791147e-02 3.45867902e-01 6.16848422e-03 4.37999628e-02
      4.37999628e-02 6.24279603e-02 9.51293036e-02 -1.91860199e-01
      -1.10346444e-01 3.21832709e-02 3.23567055e-02 9.85769834e-03
      -2.89125085e-01 -4.29282524e-02 4.37999628e-02 -1.59363169e-02
      1.42707974e-01 -1.91860199e-01 7.35254437e-02 1.11256987e-01
      -1.87672168e-01 -3.40552740e-02 -1.83042452e-01 -2.53158331e-01
      4.37999628e-02 -2.60149419e-01 -3.56168538e-01 1.72023073e-01
      2.96156816e-02 -1.41654342e-01 -2.41911158e-01 6.70231804e-02
      -1.04016542e-01 -1.15344256e-01 -2.50506639e-01 -2.52177149e-01
      1.04174189e-01 9.00102928e-02 1.05150543e-01 4.74675447e-02
      4.55985926e-02 1.17541971e-02 3.30785513e-02 -2.40382582e-01
      1.39540598e-01 -1.88494742e-01 2.71637499e-01 2.99173743e-01
      -1.50573254e-01 -2.09234536e-01 -1.43886909e-01 1.20161541e-01
      -2.50740945e-01 2.38413340e-03 1.43899709e-01 -5.45408651e-02
      1.45877317e-01 -1.55407324e-01 -1.11621536e-01 -8.74104127e-02
      -8.74104127e-02 -3.12352180e-01 -5.57695389e-01 -2.86179543e-01
      -1.84758127e-01 1.24675289e-01 3.37896883e-01 2.78504163e-01</_>
    <_>
      4.72564735e-02 4.93561700e-02 4.93561700e-02 2.64734142e-02
      2.64734142e-02 3.85471508e-02 3.85471508e-02 4.93561700e-02
      3.80473956e-02 3.93036269e-02 4.50005494e-02 4.72564735e-02
      4.93561700e-02 2.64734142e-02 2.64734142e-02 3.85471508e-02
      3.85471508e-02 3.80473956e-02 3.80473956e-02 3.36917751e-02
      3.93886939e-02 3.93886939e-02 4.72564735e-02 2.07764935e-02
      2.64734142e-02 1.56643949e-02 1.56643949e-02 1.29087139e-02
      3.57914679e-02 3.93036269e-02 3.93886939e-02 3.93886939e-02
      3.36917751e-02 9.96747334e-03 9.96747334e-03 1.56643949e-02
      1.56643949e-02 1.56643949e-02 2.64734142e-02 2.07764935e-02
      3.93886939e-02 3.93886939e-02 1.08090192e-02 7.86777865e-03
      9.96747334e-03 9.96747334e-03 1.56643949e-02 9.96747334e-03
      2.42174882e-02 1.85205657e-02 3.36917751e-02 3.36917751e-02 0.
      9.96747334e-03 9.96747334e-03 9.96747334e-03 1.56643949e-02
      1.35647003e-02 1.29087139e-02 4.93561700e-02 3.57914679e-02
      3.36917751e-02 2.28827540e-02 9.96747334e-03 9.96747334e-03
      1.56643949e-02 1.34084690e-02 7.71154743e-03 9.96747334e-03
      3.28502283e-02 4.93561700e-02 3.29352990e-02 1.00525431e-02
      1.56643949e-02 1.56643949e-02 1.56643949e-02 1.56643949e-02
      1.34084690e-02 3.28502283e-02 3.57914679e-02 4.93561700e-02
      1.56643949e-02 1.56643949e-02 2.64734142e-02 1.56643949e-02
      1.56643949e-02 3.85471508e-02 4.37443182e-02 4.72564735e-02
      3.93886939e-02 4.93561700e-02 2.64734142e-02 2.64734142e-02
      2.64734142e-02 4.93561700e-02 3.85471508e-02 3.28502283e-02
      4.93561700e-02 4.93561700e-02 4.93561700e-02</_>
    <_>
      -1.50457108e-02 -5.21388233e-01 -4.86462891e-01 -5.74072480e-01
      3.46944695e-16 3.46944695e-16 3.46944695e-16 3.46944695e-16
      3.46944695e-16 3.46944695e-16 2.18325824e-01 1.62381381e-02
      1.62381381e-02 -2.28736107e-03 3.46944695e-16 3.46944695e-16
      3.46944695e-16 3.46944695e-16 3.46944695e-16 3.46944695e-16
      -2.55005602e-02 -2.55005602e-02 -2.55005602e-02 4.12792355e-01
      -1.35890516e-02 3.46944695e-16 3.46944695e-16 3.46944695e-16
      3.46944695e-16 3.46944695e-16 -2.55005602e-02 -5.53277507e-02
      -2.43826389e-01 -2.43826389e-01 -2.43826389e-01 3.46944695e-16
      3.46944695e-16 3.46944695e-16 3.46944695e-16 3.46944695e-16
      -2.43826389e-01 -2.43826389e-01 -2.43826389e-01 -2.43826389e-01
      -2.14004144e-02 -7.81136286e-03 -7.81136286e-03 3.46944695e-16
      3.46944695e-16 3.46944695e-16 -5.26842624e-02 -1.14828080e-01
      -1.14828080e-01 -1.14828080e-01 -1.14828080e-01 -1.14828080e-01
      -1.14828080e-01 -6.99551776e-02 -6.99551776e-02 1.32517278e-01
      -1.77589469e-02 -7.99027607e-02 -7.99027607e-02 2.55005602e-02
      2.55005602e-02 2.55005602e-02 2.55005602e-02 2.55005602e-02
      -1.14828080e-01 1.32517278e-01 1.05403319e-01 1.40328631e-01
      1.40328631e-01 8.76443759e-02 2.55005602e-02 2.55005602e-02
      2.55005602e-02 2.55005602e-02 -1.14828080e-01 -7.81136286e-03
      1.05403319e-01 1.40328631e-01 9.54557359e-02 8.76443759e-02
      2.55005602e-02 -9.42475535e-03 -1.14828080e-01 -1.14828080e-01
      -6.21438138e-02 3.46944695e-16 2.93901950e-01 1.05403319e-01
      1.05403319e-01 1.05403319e-01 1.05403319e-01 -6.21438138e-02
      -6.21438138e-02 -6.21438138e-02 3.46944695e-16 1.88498631e-01</_>
    <_>
      -1.10228218e-01 -2.14471519e-02 -4.32109684e-02 -2.83852220e-01
      2.19998397e-02 2.19998397e-02 1.39299661e-01 1.39299661e-01
      -1.52655666e-16 -1.52655666e-16 -1.43605083e-01 -1.43605083e-01
      -1.21605247e-01 -2.80551184e-02 1.15549967e-01 1.15549967e-01
      2.32849792e-01 1.15549967e-01 1.15549967e-01 2.19998397e-02
      -3.04540575e-01 -1.88990608e-01 -3.06290418e-01 -1.62685350e-01
      -6.18512684e-04 1.15549967e-01 2.32849792e-01 1.15549967e-01
      1.15549967e-01 2.19998397e-02 -3.04540575e-01 -4.53855246e-02
      -1.40921533e-01 -1.40921533e-01 -1.62685350e-01 1.15549967e-01
      2.32849792e-01 1.15549967e-01 1.15549967e-01 1.15549967e-01
      -1.39171675e-01 -2.36217063e-02 -4.05274071e-02 -4.05274071e-02
      1.49766030e-03 1.35043517e-01 6.40839189e-02 1.15549967e-01
      1.15549967e-01 1.15549967e-01 2.82510445e-02 -5.61676398e-02
      -5.61676398e-02 -5.61676398e-02 -5.61676398e-02 -7.79314563e-02
      -7.79314563e-02 -1.18979029e-01 3.17890337e-03 -2.94662118e-02
      -8.90487731e-02 -5.61676398e-02 -5.61676398e-02 -5.61676398e-02
      -5.61676398e-02 -7.79314563e-02 -7.79314563e-02 -1.78325579e-01
      -5.61676398e-02 -5.14660515e-02 2.17638183e-02 1.22157939e-01
      2.37707913e-01 9.74607840e-02 -5.61676398e-02 -7.79314563e-02
      -7.79314563e-02 -1.78325579e-01 -5.61676398e-02 -5.14660515e-02
      2.17638183e-02 1.22157939e-01 6.28113896e-02 9.74607840e-02
      -5.61676398e-02 -7.79314563e-02 -4.84969318e-02 -1.78325579e-01
      -6.75129816e-02 -1.52655666e-16 2.17638183e-02 1.22157939e-01
      1.22157939e-01 1.22157939e-01 2.15708062e-01 6.23156615e-02
      -3.80784571e-02 -3.80784571e-02 1.15549967e-01 -1.52655666e-16</_>
    <_>
      -1.63776070e-01 4.28022332e-02 -1.90567877e-02 -2.53167599e-01
      1.47455275e-01 9.65767424e-04 -3.33066907e-16 -3.33066907e-16
      5.62864356e-02 7.81559721e-02 -9.98145342e-02 2.81274761e-03
      -1.60859786e-02 1.08533993e-01 1.47455275e-01 1.47455275e-01
      9.65767424e-04 -3.33066907e-16 5.62864356e-02 7.81559721e-02
      -5.15005708e-01 -3.56091976e-01 -2.94232965e-01 -7.24002272e-02
      3.00977230e-02 1.47455275e-01 1.47455275e-01 6.28247857e-02
      5.62864356e-02 7.81559721e-02 -4.36849713e-01 -1.38131991e-01
      8.35751835e-03 9.32328589e-03 -9.33039933e-02 1.47455275e-01
      1.47455275e-01 1.47455275e-01 5.62864356e-02 7.81559721e-02
      -1.38131991e-01 8.35751835e-03 9.32328589e-03 9.32328589e-03
      -3.03856377e-02 -3.21393125e-02 -3.21393125e-02 1.47455275e-01
      2.65600741e-01 7.81559721e-02 1.23706117e-01 6.40010647e-03
      6.40010647e-03 6.40010647e-03 -1.54694291e-02 -2.14372635e-01
      -2.14372635e-01 -1.50411099e-01 -9.41246599e-02 -1.00472845e-01
      -4.46529202e-02 5.43433893e-03 6.40010647e-03 6.40010647e-03
      6.40010647e-03 -1.52513608e-01 -2.14372635e-01 -2.14372635e-01
      -1.54694291e-02 1.88633427e-01 8.07577446e-02 1.98903203e-01
      2.20772743e-01 -2.27833856e-02 6.40010647e-03 -7.17558637e-02
      -7.17558637e-02 -7.17558637e-02 6.40010647e-03 1.88633427e-01
      -3.33066907e-16 8.07577446e-02 1.00524761e-01 -2.27833856e-02
      -1.41055167e-01 -1.52513608e-01 -7.17558637e-02 -1.52513608e-01
      2.27089785e-02 7.81559721e-02 -3.33066907e-16 -3.33066907e-16
      -3.33066907e-16 1.64486304e-01 -3.33066907e-16 -1.18271783e-01
      2.82177236e-02 2.91834921e-02 7.81559721e-02 7.81559721e-02</_>
    <_>
      3.02159805e-02 3.41029204e-02 3.02159805e-02 9.70316026e-03
      3.41029204e-02 3.41029204e-02 3.41029204e-02 3.41029204e-02
      3.41029204e-02 3.41029204e-02 3.41029204e-02 2.43997592e-02
      2.43997592e-02 3.41029204e-02 3.41029204e-02 3.41029204e-02
      3.41029204e-02 3.41029204e-02 3.41029204e-02 3.41029204e-02
      2.43997592e-02 2.43997592e-02 2.43997592e-02 2.43997592e-02
      2.43997592e-02 3.41029204e-02 3.41029204e-02 3.41029204e-02
      3.41029204e-02 3.41029204e-02 2.43997592e-02 2.43997592e-02
      2.43997592e-02 2.43997592e-02 2.43997592e-02 3.41029204e-02
      3.41029204e-02 3.41029204e-02 3.41029204e-02 3.41029204e-02
      2.43997592e-02 2.43997592e-02 2.43997592e-02 2.43997592e-02
      7.02202367e-03 1.67251844e-02 1.67251844e-02 3.41029204e-02
      3.41029204e-02 3.41029204e-02 1.67251844e-02 1.35900984e-02
      9.70316026e-03 9.70316026e-03 9.70316026e-03 9.70316026e-03
      9.70316026e-03 9.70316026e-03 1.28382454e-02 1.28382454e-02
      1.28382454e-02 9.70316026e-03 9.70316026e-03 9.70316026e-03
      9.70316026e-03 9.70316026e-03 9.70316026e-03 9.70316026e-03
      9.70316026e-03 1.28382454e-02 3.41029204e-02 3.41029204e-02
      3.41029204e-02 1.28382454e-02 9.70316026e-03 9.70316026e-03
      9.70316026e-03 9.70316026e-03 9.70316026e-03 1.28382454e-02
      3.41029204e-02 3.41029204e-02 3.41029204e-02 1.67251844e-02
      9.70316026e-03 9.70316026e-03 9.70316026e-03 9.70316026e-03
      2.70808954e-02 3.41029204e-02 3.41029204e-02 3.41029204e-02
      3.41029204e-02 3.41029204e-02 3.41029204e-02 3.09678335e-02
      3.09678335e-02 3.09678335e-02 3.09678335e-02 3.41029204e-02</_>
    <_>
      -4.08716649e-02 4.59705405e-02 -1.25891760e-01 0. 2.37206258e-02
      2.37206258e-02 1.06643230e-01 1.06643230e-01 0. 0. -3.60085040e-01
      -1.75309002e-01 -1.51588380e-01 -4.01551984e-02 2.37206258e-02
      2.37206258e-02 1.06643230e-01 2.37206258e-02 2.37206258e-02
      2.37206258e-02 -2.77162433e-01 -2.53441811e-01 -3.36364418e-01
      -1.51588380e-01 2.37206258e-02 2.37206258e-02 1.06643230e-01
      2.37206258e-02 2.37206258e-02 2.37206258e-02 -2.53441811e-01
      -7.81328008e-02 2.69509181e-02 2.69509181e-02 2.37206258e-02
      2.37206258e-02 1.06643230e-01 2.37206258e-02 2.37206258e-02
      2.37206258e-02 1.09873526e-01 1.09873526e-01 9.68653783e-02
      9.68653783e-02 9.68653783e-02 9.36350822e-02 2.37206258e-02
      2.37206258e-02 2.37206258e-02 2.37206258e-02 1.09873526e-01
      9.68653783e-02 9.68653783e-02 9.68653783e-02 9.68653783e-02
      9.36350822e-02 9.36350822e-02 2.37206258e-02 9.68653783e-02
      -1.95806220e-01 -9.44831669e-02 -2.45687049e-02 -2.71519367e-02
      -2.71519367e-02 -2.71519367e-02 -3.03822290e-02 -3.03822290e-02
      -5.61667792e-02 9.68653783e-02 -1.95806220e-01 -2.39439197e-02
      -9.89408419e-02 -9.89408419e-02 -9.89408419e-02 -9.89408419e-02
      -1.02171138e-01 -1.02171138e-01 -1.69502363e-01 9.68653783e-02 0.
      -7.11418465e-02 -9.89408419e-02 -9.89408419e-02 -9.89408419e-02
      -9.89408419e-02 -1.97005011e-02 4.64371592e-02 -2.34772991e-02 0.
      0. -2.55917877e-01 -1.22738490e-03 2.24932395e-02 -1.90534387e-02
      -1.64702069e-02 2.18461789e-02 2.37206258e-02 2.37206258e-02 0.
      -1.84776023e-01</_>
    <_>
      -5.59562109e-02 9.85582266e-03 -1.85353786e-01 1.38777878e-16
      1.38777878e-16 1.38777878e-16 1.38777878e-16 1.38777878e-16
      5.13317697e-02 7.30551928e-02 -3.31977010e-01 -9.93172154e-02
      -1.41553998e-01 -5.59894368e-02 1.38777878e-16 1.38777878e-16
      1.38777878e-16 1.38777878e-16 5.13317697e-02 7.30551928e-02
      -3.83308768e-01 -2.68016815e-01 -2.68016815e-01 -1.41553998e-01
      1.38777878e-16 1.38777878e-16 1.38777878e-16 1.38777878e-16
      5.13317697e-02 7.30551928e-02 -3.10253590e-01 -5.34076281e-02
      1.15291968e-01 1.15291968e-01 5.13317697e-02 1.38777878e-16
      1.38777878e-16 1.38777878e-16 5.13317697e-02 7.30551928e-02
      1.15291968e-01 1.15291968e-01 1.15291968e-01 1.15291968e-01
      5.13317697e-02 1.38777878e-16 1.38777878e-16 1.38777878e-16
      5.13317697e-02 7.30551928e-02 1.15291968e-01 1.15291968e-01
      1.15291968e-01 1.15291968e-01 9.35685486e-02 1.38777878e-16
      1.38777878e-16 1.38777878e-16 5.13317697e-02 -2.05867127e-01
      -6.46866858e-02 -4.29632626e-02 -4.29632626e-02 -4.29632626e-02
      -4.29632626e-02 -1.58255234e-01 -1.58255234e-01 -1.58255234e-01
      9.35685486e-02 -1.63630351e-01 8.86517167e-02 -5.52261136e-02
      -3.35026905e-02 -3.35026905e-02 -3.35026905e-02 -1.06557883e-01
      -1.06557883e-01 -1.06557883e-01 2.45419636e-01 2.45419636e-01
      9.46057215e-03 -1.06557883e-01 -8.48344564e-02 -3.35026905e-02
      -3.35026905e-02 9.46057215e-03 1.35410070e-01 -3.69543694e-02
      7.30551928e-02 7.30551928e-02 -2.89366692e-01 -1.20667093e-01
      -1.20667093e-01 -5.67068942e-02 -1.20667093e-01 -1.20667093e-01
      1.38777878e-16 1.38777878e-16 7.30551928e-02 -9.56444070e-02</_>
    <_>
      2.31026132e-02 1.05426004e-02 7.21180160e-03 1.70503799e-02
      2.96103917e-02 2.96103917e-02 2.96103917e-02 2.96103917e-02
      2.96103917e-02 2.96103917e-02 2.23985892e-02 2.23985892e-02
      2.23985892e-02 2.23985892e-02 2.96103917e-02 2.96103917e-02
      2.96103917e-02 2.96103917e-02 2.96103917e-02 2.96103917e-02
      2.23985892e-02 2.23985892e-02 2.23985892e-02 2.23985892e-02
      2.96103917e-02 2.96103917e-02 2.96103917e-02 2.96103917e-02
      2.96103917e-02 2.96103917e-02 2.23985892e-02 2.23985892e-02
      2.96103917e-02 2.96103917e-02 2.96103917e-02 2.96103917e-02
      2.96103917e-02 2.96103917e-02 2.96103917e-02 2.96103917e-02
      2.96103917e-02 2.96103917e-02 2.96103917e-02 2.96103917e-02
      2.96103917e-02 2.96103917e-02 2.96103917e-02 2.96103917e-02
      2.96103917e-02 2.96103917e-02 2.96103917e-02 2.96103917e-02
      2.96103917e-02 2.96103917e-02 2.96103917e-02 2.96103917e-02
      2.96103917e-02 2.96103917e-02 2.96103917e-02 7.21180160e-03
      2.78947037e-02 2.78947037e-02 2.13869251e-02 8.82691424e-03
      8.82691424e-03 8.82691424e-03 8.82691424e-03 1.05426004e-02
      2.96103917e-02 7.21180160e-03 1.05426004e-02 7.21180160e-03
      7.21180160e-03 7.21180160e-03 7.21180160e-03 7.21180160e-03
      7.21180160e-03 7.21180160e-03 2.96103917e-02 2.96103917e-02
      8.92748870e-03 7.21180160e-03 7.21180160e-03 7.21180160e-03
      7.21180160e-03 1.37195801e-02 2.79952791e-02 2.79952791e-02
      2.96103917e-02 2.96103917e-02 1.71568699e-03 8.92748870e-03
      8.92748870e-03 7.21180160e-03 1.37195801e-02 2.79952791e-02
      2.96103917e-02 2.96103917e-02 2.96103917e-02 2.23985892e-02</_>
    <_>
      -1.00960992e-01 -5.94914481e-02 3.37057784e-02 7.94187561e-02
      5.92158400e-02 -1.27084171e-02 -1.96042284e-01 -1.95718080e-01
      6.63070530e-02 1.16405345e-01 6.40008599e-02 9.76345316e-02
      -1.71338487e-02 2.28311382e-02 1.45737566e-02 1.97620671e-02
      -1.66728392e-01 -1.33936867e-01 -6.24415092e-02 2.74347663e-02
      -2.33204849e-02 -3.68780619e-03 2.71443445e-02 7.29294345e-02
      -4.90055904e-02 1.97620671e-02 -9.48041305e-02 -5.70091307e-02
      -6.21173009e-02 2.74347663e-02 -3.55763398e-02 -7.24328533e-02
      3.41696083e-04 6.91093579e-02 9.15988013e-02 1.22675663e-02
      -9.48041305e-02 1.22675663e-02 -5.69289923e-02 -1.20190065e-02
      -4.50415984e-02 -1.01541691e-01 5.18060476e-03 5.18060476e-03
      -7.85513595e-02 -5.16611859e-02 1.22675663e-02 7.07925577e-03
      8.64104852e-02 -1.20190065e-02 2.45764684e-02 5.18060476e-03
      5.18060476e-03 1.03689162e-02 -3.97293791e-02 -5.16611859e-02
      -5.68494946e-02 7.07925577e-03 -8.63872319e-02 1.01390734e-01
      -2.40273066e-02 -5.83987460e-02 1.03689162e-02 1.03689162e-02
      -3.97293791e-02 -4.38253134e-02 -5.16611859e-02 1.22675663e-02
      -3.97293791e-02 3.03755105e-01 7.94016570e-02 8.73096362e-02
      -3.36202197e-02 -3.36202197e-02 5.69734052e-02 8.65111426e-02
      8.65111426e-02 1.50439888e-01 5.69734052e-02 4.00457889e-01
      -4.33031237e-03 1.54729029e-02 2.33087726e-02 -3.36202197e-02
      -8.37185159e-02 5.28774709e-02 8.65111426e-02 2.01034378e-02
      6.97728321e-02 1.21593654e-01 -1.01033099e-01 -1.14863552e-01
      -1.14863552e-01 -7.33940080e-02 -2.04415619e-01 -1.92353100e-01
      -5.65000921e-02 1.22675663e-02 -6.83069602e-03 1.16405345e-01</_>
    <_>
      9.57088321e-02 9.57088321e-02 1.06942259e-01 1.06942259e-01
      1.12334304e-02 1.12334304e-02 1.12334304e-02 1.12334304e-02
      1.06942259e-01 1.06942259e-01 1.06942259e-01 1.06942259e-01
      1.12334304e-02 1.12334304e-02 1.12334304e-02 1.12334304e-02
      1.12334304e-02 1.12334304e-02 1.12334304e-02 1.12334304e-02
      1.06942259e-01 1.12334304e-02 1.12334304e-02 1.12334304e-02
      1.12334304e-02 1.12334304e-02 1.12334304e-02 1.12334304e-02
      1.12334304e-02 1.12334304e-02 3.50483023e-02 1.12334304e-02 0. 0.
      1.12334304e-02 1.12334304e-02 1.12334304e-02 1.12334304e-02
      1.12334304e-02 1.12334304e-02 2.38148738e-02 0. 0. 0. 0.
      1.12334304e-02 1.12334304e-02 1.12334304e-02 1.12334304e-02
      1.12334304e-02 2.38148738e-02 0. 0. 0. 0. 1.12334304e-02
      1.12334304e-02 1.12334304e-02 0. 8.31273869e-02 2.38148738e-02 0.
      0. 0. 0. 1.12334304e-02 1.12334304e-02 1.12334304e-02 0.
      1.06942259e-01 9.57088321e-02 2.38148738e-02 0. 0. 0.
      1.12334304e-02 1.12334304e-02 1.12334304e-02 0. 1.06942259e-01
      9.57088321e-02 2.38148738e-02 2.38148738e-02 0. 0. 1.12334304e-02
      1.12334304e-02 1.12334304e-02 8.31273869e-02 1.06942259e-01
      9.57088321e-02 9.57088321e-02 2.38148738e-02 2.38148738e-02
      2.38148738e-02 1.12334304e-02 1.12334304e-02 1.12334304e-02
      8.31273869e-02 1.06942259e-01</_>
    <_>
      4.90243509e-02 2.93501057e-02 2.93501057e-02 2.87050474e-02
      2.85437834e-02 5.28946929e-02 6.53120428e-02 6.53120428e-02
      2.93501057e-02 2.93501057e-02 4.90243509e-02 2.93501057e-02
      2.93501057e-02 1.24173518e-02 1.62876956e-02 2.85437834e-02
      5.28946929e-02 6.53120428e-02 2.93501057e-02 2.93501057e-02
      6.53120428e-02 2.93501057e-02 2.93501057e-02 1.24173518e-02
      4.09611352e-02 2.85437834e-02 3.59619409e-02 5.28946929e-02
      2.93501057e-02 2.93501057e-02 2.93501057e-02 2.93501057e-02
      1.24173518e-02 0. 0. 3.59619409e-02 3.59619409e-02 3.59619409e-02
      2.93501057e-02 2.93501057e-02 2.93501057e-02 1.24173518e-02 0. 0.
      0. 3.59619409e-02 3.59619409e-02 3.59619409e-02 0. 2.93501057e-02
      1.24173518e-02 0. 0. 0. 0. 3.59619409e-02 3.59619409e-02
      3.59619409e-02 0. 1.69327520e-02 3.67682613e-02 1.24173518e-02 0.
      0. 0. 3.59619409e-02 3.59619409e-02 3.59619409e-02 0. 0.
      6.53120428e-02 3.67682613e-02 2.93501057e-02 2.93501057e-02 0.
      3.59619409e-02 3.59619409e-02 3.59619409e-02 0. 0. 6.53120428e-02
      6.53120428e-02 5.30559570e-02 2.93501057e-02 2.93501057e-02
      3.59619409e-02 3.59619409e-02 3.59619409e-02 1.69327520e-02
      2.93501057e-02 6.53120428e-02 6.53120428e-02 6.53120428e-02
      6.53120428e-02 6.53120428e-02 6.53120428e-02 4.83792946e-02
      3.59619409e-02 2.93501057e-02 2.93501057e-02</_></support_vectors>
  <decision_functions>
    <_>
      <sv_count>1</sv_count>
      <rho>1.7773577989388880e+00</rho>
      <alpha>
        1.</alpha>
      <index>
        0</index></_>
    <_>
      <sv_count>1</sv_count>
      <rho>5.8246449572792769e-01</rho>
      <alpha>
        1.</alpha>
      <index>
        1</index></_>
    <_>
      <sv_count>1</sv_count>
      <rho>1.3861610386196783e+00</rho>
      <alpha>
        1.</alpha>
      <index>
        2</index></_>
    <_>
      <sv_count>1</sv_count>
      <rho>-2.0052017408247971e+00</rho>
      <alpha>
        1.</alpha>
      <index>
        3</index></_>
    <_>
      <sv_count>1</sv_count>
      <rho>-1.5370531958777425e+00</rho>
      <alpha>
        1.</alpha>
      <index>
        4</index></_>
    <_>
      <sv_count>1</sv_count>
      <rho>5.9099352868797620e-03</rho>
      <alpha>
        1.</alpha>
      <index>
        5</index></_>
    <_>
      <sv_count>1</sv_count>
      <rho>-8.8744829735713904e-01</rho>
      <alpha>
        1.</alpha>
      <index>
        6</index></_>
    <_>
      <sv_count>1</sv_count>
      <rho>1.</rho>
      <alpha>
        1.</alpha>
      <index>
        7</index></_>
    <_>
      <sv_count>1</sv_count>
      <rho>-7.3826119395172096e-01</rho>
      <alpha>
        1.</alpha>
      <index>
        8</index></_>
    <_>
      <sv_count>1</sv_count>
      <rho>-7.5264696418269039e-01</rho>
      <alpha>
        1.</alpha>
      <index>
        9</index></_>
    <_>
      <sv_count>1</sv_count>
      <rho>-2.5808641305945104e+00</rho>
      <alpha>
        1.</alpha>
      <index>
        10</index></_>
    <_>
      <sv_count>1</sv_count>
      <rho>-1.5548819798182336e+00</rho>
      <alpha>
        1.</alpha>
      <index>
        11</index></_>
    <_>
      <sv_count>1</sv_count>
      <rho>-1.3033464391239935e+00</rho>
      <alpha>
        1.</alpha>
      <index>
        12</index></_>
    <_>
      <sv_count>1</sv_count>
      <rho>-1.7441449405466509e+00</rho>
      <alpha>
        1.</alpha>
      <index>
        13</index></_>
    <_>
      <sv_count>1</sv_count>
      <rho>9.9999999816138940e-01</rho>
      <alpha>
        1.</alpha>
      <index>
        14</index></_>
    <_>
      <sv_count>1</sv_count>
      <rho>1.0286567869871310e+00</rho>
      <alpha>
        1.</alpha>
      <index>
        15</index></_>
    <_>
      <sv_count>1</sv_count>
      <rho>-3.0461239191925698e+00</rho>
      <alpha>
        1.</alpha>
      <index>
        16</index></_>
    <_>
      <sv_count>1</sv_count>
      <rho>-3.6066272520047953e+00</rho>
      <alpha>
        1.</alpha>
      <index>
        17</index></_>
    <_>
      <sv_count>1</sv_count>
      <rho>-9.1021607717224062e-01</rho>
      <alpha>
        1.</alpha>
      <index>
        18</index></_>
    <_>
      <sv_count>1</sv_count>
      <rho>-8.1961177228806248e-01</rho>
      <alpha>
        1.</alpha>
      <index>
        19</index></_>
    <_>
      <sv_count>1</sv_count>
      <rho>1.0000000000002403e+00</rho>
      <alpha>
        1.</alpha>
      <index>
        20</index></_>
    <_>
      <sv_count>1</sv_count>
      <rho>-3.9261880855465701e+00</rho>
      <alpha>
        1.</alpha>
      <index>
        21</index></_>
    <_>
      <sv_count>1</sv_count>
      <rho>-2.4765921306745771e+00</rho>
      <alpha>
        1.</alpha>
      <index>
        22</index></_>
    <_>
      <sv_count>1</sv_count>
      <rho>-2.2165057344841332e+00</rho>
      <alpha>
        1.</alpha>
      <index>
        23</index></_>
    <_>
      <sv_count>1</sv_count>
      <rho>-2.0191251828221342e+00</rho>
      <alpha>
        1.</alpha>
      <index>
        24</index></_>
    <_>
      <sv_count>1</sv_count>
      <rho>9.9999999999997613e-01</rho>
      <alpha>
        1.</alpha>
      <index>
        25</index></_>
    <_>
      <sv_count>1</sv_count>
      <rho>-1.8552600480405226e+00</rho>
      <alpha>
        1.</alpha>
      <index>
        26</index></_>
    <_>
      <sv_count>1</sv_count>
      <rho>2.9611919807716125e-01</rho>
      <alpha>
        1.</alpha>
      <index>
        27</index></_>
    <_>
      <sv_count>1</sv_count>
      <rho>2.0247856073702422e-01</rho>
      <alpha>
        1.</alpha>
      <index>
        28</index></_>
    <_>
      <sv_count>1</sv_count>
      <rho>1.</rho>
      <alpha>
        1.</alpha>
      <index>
        29</index></_>
    <_>
      <sv_count>1</sv_count>
      <rho>-8.6219518886427393e-01</rho>
      <alpha>
        1.</alpha>
      <index>
        30</index></_>
    <_>
      <sv_count>1</sv_count>
      <rho>-9.9184286129096111e-01</rho>
      <alpha>
        1.</alpha>
      <index>
        31</index></_>
    <_>
      <sv_count>1</sv_count>
      <rho>1.</rho>
      <alpha>
        1.</alpha>
      <index>
        32</index></_>
    <_>
      <sv_count>1</sv_count>
      <rho>-2.7249973438884834e-01</rho>
      <alpha>
        1.</alpha>
      <index>
        33</index></_>
    <_>
      <sv_count>1</sv_count>
      <rho>1.</rho>
      <alpha>
        1.</alpha>
      <index>
        34</index></_>
    <_>
      <sv_count>1</sv_count>
      <rho>9.9999999999999989e-01</rho>
      <alpha>
        1.</alpha>
      <index>
        35</index></_></decision_functions></my_svm>
</opencv_storage>
